5 300
*dt_0 -1.9006745 -0.99995786 -4.658457 2.679643 -0.25174835 0.2929025 -0.8687468 -0.43173516 -2.1935415 0.020226147 0.41202244 -1.5093895 -0.8764944 0.69454867 -1.0510806 -1.9864691 2.759681 2.3945968 -0.8376383 -1.0825367 -1.2020929 0.08655675 0.9388656 1.1574442 3.205912 -2.2156487 -2.6132677 -2.1308348 -0.7552344 -3.841095 1.6723082 2.2902334 -0.80408823 1.1863115 -1.2438459 0.60145855 0.18151014 -4.1254606 0.93604594 1.008617 -0.27571544 -0.9633321 -1.0640254 -0.7340328 -0.37697828 -1.3075663 -1.6537455 -0.452984 3.7991247 1.0314034 -3.0591397 -0.18610163 -1.2570416 -0.3502993 -1.0986462 1.8700372 -0.8980482 0.9427676 -2.5829954 2.5668547 1.2366191 4.6265125 0.16366574 -0.28916255 0.49565223 1.6069031 2.039598 1.0156014 -1.9151715 -0.43083873 -1.8660829 -0.7999303 -2.7142558 -3.7413878 -1.0929286 1.9700989 0.6906785 -2.7822056 -0.29852185 2.09364 0.50390637 1.1953295 -2.8764105 1.8183168 0.595566 3.4590485 -0.7752467 -0.5916705 -0.60765624 -0.75652415 -2.4814732 0.98341036 -2.4134293 -1.1481608 -0.07209777 3.020649 1.4089649 -1.218742 0.5577684 1.5427157 -1.3348403 -2.733383 -2.1918724 -1.4687568 -4.3089476 -0.12014733 1.5696018 1.9974898 0.56488824 0.3575842 -0.7189177 -2.826823 -0.7639704 0.8529981 1.2581737 -1.5522105 -3.9267998 1.5756261 1.0305796 3.6314447 0.76628554 0.7607074 -0.68414617 0.13466774 -3.1705048 0.64092547 -1.5154295 -0.33856916 0.2744544 -2.0103412 3.0764425 2.900764 -1.5331178 2.503565 -0.5424547 2.0010612 -1.5194 -1.790262 -1.9677492 -1.3255866 2.2541676 -1.3862691 -0.73536354 -4.445837 -0.8153731 -0.553917 1.8960682 0.5820827 1.2450662 -0.37089798 0.114699855 0.4838388 2.6013896 -1.0746244 -1.9093335 0.984437 -0.35456407 0.9010374 -1.5176162 -0.49094984 3.3617835 1.8543195 2.1874368 1.7266515 1.5061822 -2.5908492 -0.99046123 -0.14996056 -1.4270645 2.3155615 0.88317883 0.22538716 0.9242359 0.86741394 1.0346382 3.0636885 3.156822 -1.1662617 -2.801978 -1.4014941 2.176508 3.1064694 -3.1364617 -3.9772217 -1.0551523 2.8535967 -0.463555 -0.20922635 3.5868804 1.2611134 -1.8803138 4.572639 1.1901823 0.9438793 -0.07379036 0.5533439 1.8471786 -1.1487578 0.5667976 2.5904725 -4.0827627 -3.3665843 2.9130652 0.031031555 3.3638325 0.6463816 1.361965 -1.6923625 -0.6248083 -0.6550437 -2.6814601 1.2243755 -0.57653534 -3.3886654 0.22340757 1.180198 -1.7165552 -2.8239489 -0.81008744 0.9441671 -1.7212553 -4.03928 -1.2080979 1.7108862 -1.15059 -0.6909651 -2.5099957 0.53522205 -5.4964824 1.9679044 0.5434806 -1.2511986 0.6696075 -0.32415217 -0.1551284 1.1254884 -2.1495843 -3.8071957 -1.1903769 -2.885011 2.3213632 2.3951309 0.8047716 0.025519906 -0.4227189 1.5146836 -0.0391739 0.9568702 -3.3412876 -1.0504553 -2.3722494 -2.3710358 -1.6775501 -2.7895255 -2.4274447 1.3270181 -0.26246825 1.3889416 1.8692814 -1.6165992 2.5981433 3.394341 -1.2444241 0.39548156 -1.714471 1.7084436 2.5842612 1.3400525 1.311408 0.09363447 -3.4820337 0.9702855 -2.2132957 0.22570701 4.68961 0.08147742 -0.10870661 -0.64990664 -2.0147219 -2.1727939 -1.5323294 1.5558857 3.5751507 2.89585 -3.0025156 4.8220315 -0.8361682 -3.2478116 -2.7725384 2.514414 -2.667152 3.0161207 -1.5149285 -0.15533426 3.4235733 2.106233 -0.962563 -0.24506861 2.1020293 -2.1487918
*dt_1 -2.5255432 0.42264068 -2.6415124 2.4733129 -1.4745347 -1.1077448 -0.14540686 1.0584892 -0.2869956 -0.9409776 0.23991823 -2.7567446 0.77186775 2.3695786 0.6868915 -1.685799 2.7067482 0.6409073 0.4646369 0.1273139 -0.34723735 0.46625182 0.882411 1.8960528 2.6335306 -0.46726808 -1.6164322 -0.36052993 -1.411284 -2.495501 0.97987163 1.0677332 0.987295 2.1265576 -0.8450327 0.61537194 0.112840734 -3.3416204 1.1874722 -0.4462462 -0.5009876 0.32524925 -2.4473176 1.0633727 -1.7665327 -1.945529 -2.4340138 1.1725048 2.1599777 2.9471982 -2.5134628 0.98619545 -0.54076236 1.3095125 -0.54665923 0.65061146 -2.5101867 0.5712602 -2.6308935 1.0985314 0.24522166 4.287347 -0.94719404 -0.078899965 1.7721863 1.5410911 1.5651256 0.28249714 -1.2015457 1.4000175 -1.2715168 -0.9235549 -1.0857252 -3.2396173 0.9827324 1.4849296 2.632464 -2.4886703 0.03286544 2.8777094 -1.0199274 0.9144603 -2.0904086 2.6531549 -0.8496682 3.7346044 -1.248963 0.15825465 -1.3530214 -1.8441962 -1.7781914 0.5624644 -1.4302542 -1.1585647 0.2560249 2.0051136 0.41290492 1.1698625 -0.18400554 1.0689546 -1.8461094 -2.722671 -1.9219184 -1.527573 -4.4953184 -0.2632207 0.7138297 3.1214936 -0.41208345 0.060171522 -1.4586624 -1.9717537 0.43523815 2.257326 1.3827606 -0.09802388 -4.572436 2.6218932 -0.07232169 3.5955904 -0.4489749 0.25252113 0.24950562 -1.9526366 -2.1185374 0.8320789 -1.4098773 -0.36811197 -0.13740736 -0.35165983 3.7972798 3.6161656 -1.612368 3.821916 0.16696247 3.4993956 -1.8521726 -2.100268 -0.103107385 -1.4317822 0.21065874 -0.18129987 -1.2403442 -4.227251 -1.6656657 -0.3750926 2.4735055 -0.88282704 0.7218477 0.6223821 0.14054751 -2.2437592 1.3161349 0.69243306 -0.70416003 -1.0223656 1.3734816 -0.86832577 -0.079877965 0.18970263 3.1284792 0.3406259 1.72471 2.9627438 1.3591906 -0.4961766 1.2738022 1.0021062 0.26014143 2.3285134 1.1207716 -0.81028354 -0.15809174 -0.8922218 0.0039938358 3.1179368 1.8183779 -1.9049059 -2.2697182 -2.4171388 0.5509084 2.886165 -1.962554 -3.4438806 0.09417049 0.13933073 -0.56405723 -0.5742196 1.178573 2.121078 -0.5240209 2.2198436 1.0157256 -1.1646549 0.96683615 -0.40318286 -0.110183276 -0.46975222 0.004181855 1.3159307 -2.685898 -2.2910414 2.196591 0.90684366 2.8972332 1.5783186 -0.34274518 -0.3678619 -1.8857934 -0.37471178 -1.7936184 1.7739762 1.1453682 -4.085507 -0.7867372 -0.42138138 -1.1048636 -0.46666798 0.60889894 1.062788 0.578014 -3.4223566 -2.7382426 0.9433879 -1.600782 -1.4637135 -2.8037157 -0.41002184 -5.434394 1.4008698 1.8629107 -0.5362366 0.24539757 0.39199048 0.6193318 1.9025723 -1.5872658 -2.347568 -1.4034805 -2.3179703 -0.05743319 0.1887647 0.7797405 -1.7538053 0.90834534 1.8906691 0.61129147 -0.27469096 -2.302973 0.14140786 -0.5297263 -0.7913235 -0.19532667 -3.4631348 -1.944436 -0.40025163 -2.029006 2.112164 2.8049214 -2.6199486 3.28877 2.55332 -2.5384648 0.7901951 -0.5272391 0.80296504 2.1617942 -0.34242755 1.062041 0.15113708 -2.702366 -0.1386961 -2.012209 -0.64804065 4.5042715 0.66341305 0.95064723 -2.0249336 -1.6412134 -0.53786826 -0.22587624 2.0101395 2.4527035 3.827354 -2.7504303 3.6393251 -1.5677116 -3.4134054 -1.072342 2.839211 -2.6585326 2.123023 0.18248703 -1.4787927 1.3899696 -0.1603428 -1.1726097 -0.4569457 0.6262349 -1.376852
*dt_2 -2.8890374 -0.50052714 -3.240485 0.19537608 -1.4089862 1.2166159 -1.8730534 -0.7227248 -1.6519786 0.958619 0.87836045 -3.5909545 0.89562726 1.5930902 -1.5667924 0.10524012 3.6517804 0.51279193 0.24625646 -1.7149738 0.57835615 -1.0129623 2.206549 1.0380995 2.7828643 -2.3223212 -0.870348 0.4696799 -1.988694 -3.2711666 1.5283132 1.6330799 -1.3446256 1.5853016 -0.49342766 -0.56932193 0.9838668 -1.7580796 2.1675649 0.82147956 0.6803336 0.041857265 -1.9613674 0.68525976 -1.4826074 -1.7187145 -2.2540069 -0.79979813 2.518567 1.2988701 -3.3411071 -0.5319802 -0.17946003 -0.3565906 -0.021128092 1.9226595 -1.0888977 -0.17681137 -2.7957795 1.8059025 0.22990839 4.7132163 -0.19548848 1.5248675 0.796325 1.5989436 2.9833114 1.9551681 -1.739274 -0.8086951 -0.86854506 -1.3732762 -0.37911806 -0.26287663 0.6223688 2.7319665 1.0577202 -1.6601388 0.47023317 3.3315594 -0.023959886 -0.19108127 -0.27863353 2.484141 -1.7371042 4.179287 -1.5239528 0.35511723 -2.0577319 -0.861718 -2.2427294 1.6974534 -1.9528164 -2.664661 1.257731 0.7665634 2.0775008 -0.8660273 -1.230042 1.5906979 0.26729223 -0.77776176 -1.6708016 -1.6921722 -2.677094 1.216249 2.0419729 1.6051434 -0.303232 -0.87633556 -0.19425958 -2.643317 -0.13412039 0.087756775 0.1871209 -0.67496186 -4.362955 2.0289743 -0.87510663 2.229417 -1.3008816 0.41155002 0.90925837 -0.7627114 -0.42011523 0.27790332 -2.0628357 0.97991896 1.9182485 -2.0271273 3.2282815 3.597243 -1.9253646 3.080496 1.296824 1.9008815 -1.5281312 -2.7527974 -0.49160308 -2.5507896 2.1275766 -1.3310188 1.0940242 -3.525727 0.49025336 -0.21392575 0.7578648 0.39409384 0.20905523 0.58915037 1.7629942 -2.0250194 0.6776055 1.4612174 -1.5489043 -0.5349791 -1.4621352 -1.1542555 -0.96683663 0.20870662 4.2068615 -0.19896817 2.1998997 2.5150928 0.9125568 -1.7666595 1.5252713 2.0853872 0.12404102 3.8312027 -0.6582527 1.058811 -0.7153989 -1.2442201 -0.5922076 2.8153257 3.8790796 -0.8858261 -2.5765738 -1.7146962 1.9655906 3.5866337 -0.61673826 -3.19038 -0.06841094 1.6252074 -0.09649873 0.67574465 3.916993 0.5724533 -3.0051117 4.927125 -1.2599648 -0.22573039 1.3957512 -0.26542386 2.5577197 -0.58277434 2.1857183 2.0475886 -3.0866852 -1.6686463 3.0079467 -0.8607029 1.5593951 1.9282867 -0.35120186 -0.6606454 -0.8712756 -0.1783809 0.16729444 0.29907918 1.4841446 -3.6271129 -1.4837236 -0.55538034 -0.948431 -3.649183 0.8464121 0.7681902 1.0223068 -1.7017362 -3.521787 1.1735607 0.19467062 0.34637147 -2.8125095 1.180328 -5.6326 -1.1364694 1.3145396 0.4105052 -0.5997706 1.6214393 0.069657445 1.6090794 -1.4578612 -3.0260842 -1.0284255 -2.6638796 -0.007173467 0.7941494 -1.2839054 -0.61824137 0.9105813 2.414051 1.383259 1.184846 -2.841437 1.8287348 -2.3611844 -2.3427966 -1.2192873 -2.9991796 -1.1131848 1.2953917 -1.8366165 0.48212865 2.212536 -1.3455077 3.5561538 2.1539605 -2.9553165 1.5257765 0.1580773 0.82824403 1.9003634 -0.76505 0.29705405 -1.4382477 -3.6144333 -0.43289378 -3.4476612 0.5664141 4.9422703 1.1670328 0.39274183 0.78829765 -1.8943223 -2.855919 -2.095998 1.256537 2.5359542 4.1146746 -0.5213036 4.1551356 -0.120845966 -3.5889146 0.07904107 4.580601 -2.9184585 2.7830787 -0.3015592 0.65871096 3.4023867 0.6865333 -1.1284562 1.2885121 1.8284001 -2.87472
*dt_3 -0.6832899 -0.13111103 -4.005733 0.3800911 -0.9052045 0.46194878 1.5524881 0.31491753 -1.3601873 -0.75128335 -0.47860938 -1.4534887 -1.0354087 2.5605028 0.5196284 -3.3250668 3.062174 -1.4680039 1.3443159 -2.26347 1.4509556 -0.7769351 2.5516856 2.8763824 3.6731513 -1.4483509 -0.8841289 0.08199406 -1.3368888 -2.9839542 0.42062458 1.2863677 1.125988 3.7685058 -1.3581054 1.6684045 1.6153905 -3.8586116 1.2912091 -1.3632718 0.86480105 -0.27200907 -2.887804 1.2468321 -3.4151077 0.58133835 -2.899609 1.1019624 3.4117208 4.403395 -2.6277 -0.19523142 -1.5544862 0.66145813 0.0730009 -0.115844056 -2.510535 1.4933548 -2.8635237 0.06710067 0.56282085 3.04641 -1.3197922 -1.3149849 0.6212042 1.0260364 1.8122443 1.4852037 -2.7182877 0.99495566 1.1777636 -0.4431401 -2.8112876 -2.0574362 -0.9782288 2.9947681 2.787285 -1.8991705 0.9207721 2.194787 -1.2835256 1.386724 -0.4415252 2.7143211 -1.497747 4.3977876 0.67434967 -0.06826175 -2.4899654 -0.7105724 -1.7593186 0.35528806 0.48572606 -0.56847763 2.3158474 0.7285107 0.23110393 -0.8360446 -2.0800424 1.2673391 -1.4761468 -3.5227098 -0.7457565 -1.8896089 -4.0010486 1.9305134 2.5799499 2.1120536 0.6652907 0.22016408 -1.0641556 -2.7834206 -0.45557508 1.2861562 0.12600051 -0.87565994 -3.118477 4.23749 -0.8143185 3.6176944 0.18665569 -0.5535999 -0.60693026 -2.3637643 -1.4841187 -0.61150086 -2.8741124 0.6599474 0.2512542 -1.5061779 2.4581244 4.0786366 -2.8986933 1.6540072 -1.3278257 4.0792294 -1.1055533 -4.4017344 -0.6040477 -1.1769401 1.4195027 -1.6755517 -0.79609096 -3.6272504 1.4013782 -1.099586 2.502793 -0.5511293 0.56374997 0.55617934 2.325614 -2.7794876 1.580794 0.3655587 0.8828594 0.4778149 -0.04151262 -1.910439 -0.019900896 -1.956068 2.9510124 1.9120382 1.4567964 0.4815357 1.0587573 -0.7776472 0.20375337 -0.48159832 0.9362853 3.9961498 -0.45737824 0.7264815 -0.079394154 1.1575501 0.20443097 2.7455494 0.81543016 -0.65701485 -2.479627 -2.1816373 0.6495863 4.203105 -2.4499972 -4.320313 -1.1768894 1.728849 -0.9984755 -1.0488721 2.2502928 1.1401819 0.38017005 3.7792978 1.5465662 -0.1687472 1.5758042 -1.7461613 2.1464074 -1.8954508 -0.99555224 1.8601065 -3.1273017 -4.010517 3.0077662 0.86970305 2.1355855 1.4573778 -1.9193858 0.33587494 -3.5290174 -1.8760331 -0.9193198 0.84124786 0.297929 -4.358611 0.119796574 -1.5121704 -0.07702702 -3.829351 -1.6448078 1.9534299 -0.29853112 -2.4426997 -2.8249805 0.20996584 -1.0552577 -1.4039801 -1.4896616 1.5624646 -5.23732 2.0571632 1.0718802 1.7079562 -1.7689998 0.44326952 -0.3187434 -0.11174428 -2.9012995 -3.4571555 -1.4870667 -3.7767162 0.20827253 1.6659144 0.4502838 0.2774786 1.359645 3.4637408 -0.8586502 0.92083454 -2.1926916 0.35866183 -1.4814951 -2.2360358 -1.0216411 -3.253786 -2.3167672 0.3234479 -2.2070622 -0.20735203 3.8929765 -2.5098398 1.4857984 4.6814876 -2.0870085 -0.06458305 -1.1541587 1.8976951 1.0577712 0.047579158 1.4341338 -0.45953 -2.6612387 -1.2201141 -0.7403013 0.8788643 3.131929 1.0158713 0.9035588 0.31547973 -0.7315188 -1.1786015 -2.400347 1.456842 3.5132403 4.0042224 -2.7789052 2.616239 0.16872033 -1.5196254 -0.9987116 1.874138 -2.1035814 3.4160972 -0.616363 0.4028568 1.0202932 0.048149798 -1.1717455 -1.3607421 -0.6028076 -0.75838226
*dt_4 -2.2977307 0.6678568 -3.7677314 1.405526 -2.695921 -0.45344618 0.4414229 -0.4337088 -0.24202885 -1.140928 0.7197197 -2.7533104 -1.0144883 0.26268837 0.41021413 -0.15141746 3.2534707 0.38360828 -1.0943605 -2.214037 -0.014062657 -0.36089018 1.9410899 1.3015093 2.769328 -0.22596267 -1.6886326 0.7178769 -2.1090295 -2.1462817 0.40582383 2.7433357 -0.40696943 1.7367293 -1.1503756 0.52039254 1.5202909 -3.5848727 2.2284138 1.5085889 -1.8722391 -1.2842698 -2.6149457 1.0554197 -1.2630836 -1.7594492 -0.4864193 1.2776521 2.6707752 3.4056985 -3.6575482 1.2063991 -0.3961322 1.5625252 -1.6440848 1.4239509 -0.116874084 -0.40490568 -2.0665462 1.1493773 -1.0985287 3.4565651 0.6145765 0.24085529 1.4386162 0.44332242 0.42916036 2.0600796 0.1555833 0.95583636 -1.1178569 1.8759266 0.29272163 -3.3536773 -0.033952 1.3547156 1.5708904 -0.36218575 -1.0340511 3.5680435 0.9314255 1.0397106 -1.097291 0.9089777 -1.955645 3.7562842 -0.42909214 -0.018775329 -2.0780802 -1.6030489 -2.4947193 0.08892185 0.6739645 -1.7297537 1.5976932 2.2763581 1.2633464 0.55651593 0.45143807 -0.87278247 -1.3456398 -2.549244 -1.7917153 -2.2674668 -3.9731796 -0.7842127 0.9158669 1.7600104 -1.5812491 -1.0003746 -2.8427112 -2.8098724 0.7064936 3.2231097 0.82631135 -0.17769109 -3.9372609 0.20504226 1.0435692 3.7660656 -0.6617382 -0.2673986 -0.6422833 -0.24125898 -1.8313205 0.54267913 -0.9773566 0.4883287 -0.23141663 -2.1234624 3.6888254 3.3402574 -0.9251178 1.6405673 -0.8031156 2.6930537 -2.368282 -1.4174246 -0.17495994 -2.2419658 1.6245513 -0.72637254 -0.090458386 -4.4411316 0.6719606 -2.1015 1.778108 -1.7664092 1.7055491 0.57811534 -1.7237852 -1.265103 2.1917257 -0.14197251 -2.2437758 -0.38679382 -0.5689226 0.26220354 -0.808081 -0.20148024 1.7879095 2.2967033 1.9793794 2.725424 1.502851 -1.9277533 1.7546877 -0.4845346 -1.340476 3.0596676 0.27142254 0.5803137 1.8312483 -1.9230236 -1.3281901 3.0483747 2.5248315 -1.3360023 -2.4700127 -0.8943268 2.023096 3.7877746 -1.0850356 -2.2689836 -0.7698571 1.2061132 0.2821711 0.19516614 3.453833 1.3189918 -1.4113493 3.8857799 -0.7328508 -0.19533989 1.4351814 -0.004551164 3.4919243 -1.2320001 -0.40373597 1.6743912 -1.4347942 -0.62867075 1.5196911 0.01840139 2.1673477 0.29573032 1.1679816 0.58241695 0.4371542 -0.35971645 -0.015365061 0.27531388 0.23452395 -3.6794124 -1.0740285 -1.8264964 -0.08962856 -2.1463246 -0.6070096 -0.4454017 -0.32888207 -3.7663827 -1.1623855 0.6213654 -1.1146884 0.632664 -2.1292543 0.51265043 -5.7491727 1.6725935 1.9871898 0.45650664 0.49934137 -0.58450514 1.8203661 0.033856165 -2.6181662 -3.0816638 -1.8496244 -1.8244135 1.6463963 0.3848981 1.1953713 -1.2210578 1.09984 2.348622 -0.6552338 -0.62782705 -3.3178296 1.124695 -1.3048241 -0.7277497 -0.24204999 -2.337896 -3.1614282 0.30075455 -2.0333648 0.56835663 1.3220425 -2.672526 1.6362112 2.4687114 -2.6396096 -0.56264144 -0.7847377 0.95156044 2.0288017 0.2719209 -0.6219401 0.1872939 -2.3293033 1.0356154 -1.4525167 -0.56485873 3.9687884 1.3014356 2.1327634 -1.6144214 -0.3704685 -2.3242493 -1.5635668 0.11050276 2.7866917 3.7173223 -2.5814233 3.364251 -1.6513442 -2.8366184 -1.7713279 3.331442 -0.8279942 3.4310892 0.22155678 -2.9192202 1.1667902 2.5400636 -1.2743162 1.3180405 2.1208587 -2.3963375
*dt_0 -1.9006745 -0.99995786 -4.658457 2.679643 -0.25174835 0.2929025 -0.8687468 -0.43173516 -2.1935415 0.020226147 0.41202244 -1.5093895 -0.8764944 0.69454867 -1.0510806 -1.9864691 2.759681 2.3945968 -0.8376383 -1.0825367 -1.2020929 0.08655675 0.9388656 1.1574442 3.205912 -2.2156487 -2.6132677 -2.1308348 -0.7552344 -3.841095 1.6723082 2.2902334 -0.80408823 1.1863115 -1.2438459 0.60145855 0.18151014 -4.1254606 0.93604594 1.008617 -0.27571544 -0.9633321 -1.0640254 -0.7340328 -0.37697828 -1.3075663 -1.6537455 -0.452984 3.7991247 1.0314034 -3.0591397 -0.18610163 -1.2570416 -0.3502993 -1.0986462 1.8700372 -0.8980482 0.9427676 -2.5829954 2.5668547 1.2366191 4.6265125 0.16366574 -0.28916255 0.49565223 1.6069031 2.039598 1.0156014 -1.9151715 -0.43083873 -1.8660829 -0.7999303 -2.7142558 -3.7413878 -1.0929286 1.9700989 0.6906785 -2.7822056 -0.29852185 2.09364 0.50390637 1.1953295 -2.8764105 1.8183168 0.595566 3.4590485 -0.7752467 -0.5916705 -0.60765624 -0.75652415 -2.4814732 0.98341036 -2.4134293 -1.1481608 -0.07209777 3.020649 1.4089649 -1.218742 0.5577684 1.5427157 -1.3348403 -2.733383 -2.1918724 -1.4687568 -4.3089476 -0.12014733 1.5696018 1.9974898 0.56488824 0.3575842 -0.7189177 -2.826823 -0.7639704 0.8529981 1.2581737 -1.5522105 -3.9267998 1.5756261 1.0305796 3.6314447 0.76628554 0.7607074 -0.68414617 0.13466774 -3.1705048 0.64092547 -1.5154295 -0.33856916 0.2744544 -2.0103412 3.0764425 2.900764 -1.5331178 2.503565 -0.5424547 2.0010612 -1.5194 -1.790262 -1.9677492 -1.3255866 2.2541676 -1.3862691 -0.73536354 -4.445837 -0.8153731 -0.553917 1.8960682 0.5820827 1.2450662 -0.37089798 0.114699855 0.4838388 2.6013896 -1.0746244 -1.9093335 0.984437 -0.35456407 0.9010374 -1.5176162 -0.49094984 3.3617835 1.8543195 2.1874368 1.7266515 1.5061822 -2.5908492 -0.99046123 -0.14996056 -1.4270645 2.3155615 0.88317883 0.22538716 0.9242359 0.86741394 1.0346382 3.0636885 3.156822 -1.1662617 -2.801978 -1.4014941 2.176508 3.1064694 -3.1364617 -3.9772217 -1.0551523 2.8535967 -0.463555 -0.20922635 3.5868804 1.2611134 -1.8803138 4.572639 1.1901823 0.9438793 -0.07379036 0.5533439 1.8471786 -1.1487578 0.5667976 2.5904725 -4.0827627 -3.3665843 2.9130652 0.031031555 3.3638325 0.6463816 1.361965 -1.6923625 -0.6248083 -0.6550437 -2.6814601 1.2243755 -0.57653534 -3.3886654 0.22340757 1.180198 -1.7165552 -2.8239489 -0.81008744 0.9441671 -1.7212553 -4.03928 -1.2080979 1.7108862 -1.15059 -0.6909651 -2.5099957 0.53522205 -5.4964824 1.9679044 0.5434806 -1.2511986 0.6696075 -0.32415217 -0.1551284 1.1254884 -2.1495843 -3.8071957 -1.1903769 -2.885011 2.3213632 2.3951309 0.8047716 0.025519906 -0.4227189 1.5146836 -0.0391739 0.9568702 -3.3412876 -1.0504553 -2.3722494 -2.3710358 -1.6775501 -2.7895255 -2.4274447 1.3270181 -0.26246825 1.3889416 1.8692814 -1.6165992 2.5981433 3.394341 -1.2444241 0.39548156 -1.714471 1.7084436 2.5842612 1.3400525 1.311408 0.09363447 -3.4820337 0.9702855 -2.2132957 0.22570701 4.68961 0.08147742 -0.10870661 -0.64990664 -2.0147219 -2.1727939 -1.5323294 1.5558857 3.5751507 2.89585 -3.0025156 4.8220315 -0.8361682 -3.2478116 -2.7725384 2.514414 -2.667152 3.0161207 -1.5149285 -0.15533426 3.4235733 2.106233 -0.962563 -0.24506861 2.1020293 -2.1487918
*dt_1 -2.5255432 0.42264068 -2.6415124 2.4733129 -1.4745347 -1.1077448 -0.14540686 1.0584892 -0.2869956 -0.9409776 0.23991823 -2.7567446 0.77186775 2.3695786 0.6868915 -1.685799 2.7067482 0.6409073 0.4646369 0.1273139 -0.34723735 0.46625182 0.882411 1.8960528 2.6335306 -0.46726808 -1.6164322 -0.36052993 -1.411284 -2.495501 0.97987163 1.0677332 0.987295 2.1265576 -0.8450327 0.61537194 0.112840734 -3.3416204 1.1874722 -0.4462462 -0.5009876 0.32524925 -2.4473176 1.0633727 -1.7665327 -1.945529 -2.4340138 1.1725048 2.1599777 2.9471982 -2.5134628 0.98619545 -0.54076236 1.3095125 -0.54665923 0.65061146 -2.5101867 0.5712602 -2.6308935 1.0985314 0.24522166 4.287347 -0.94719404 -0.078899965 1.7721863 1.5410911 1.5651256 0.28249714 -1.2015457 1.4000175 -1.2715168 -0.9235549 -1.0857252 -3.2396173 0.9827324 1.4849296 2.632464 -2.4886703 0.03286544 2.8777094 -1.0199274 0.9144603 -2.0904086 2.6531549 -0.8496682 3.7346044 -1.248963 0.15825465 -1.3530214 -1.8441962 -1.7781914 0.5624644 -1.4302542 -1.1585647 0.2560249 2.0051136 0.41290492 1.1698625 -0.18400554 1.0689546 -1.8461094 -2.722671 -1.9219184 -1.527573 -4.4953184 -0.2632207 0.7138297 3.1214936 -0.41208345 0.060171522 -1.4586624 -1.9717537 0.43523815 2.257326 1.3827606 -0.09802388 -4.572436 2.6218932 -0.07232169 3.5955904 -0.4489749 0.25252113 0.24950562 -1.9526366 -2.1185374 0.8320789 -1.4098773 -0.36811197 -0.13740736 -0.35165983 3.7972798 3.6161656 -1.612368 3.821916 0.16696247 3.4993956 -1.8521726 -2.100268 -0.103107385 -1.4317822 0.21065874 -0.18129987 -1.2403442 -4.227251 -1.6656657 -0.3750926 2.4735055 -0.88282704 0.7218477 0.6223821 0.14054751 -2.2437592 1.3161349 0.69243306 -0.70416003 -1.0223656 1.3734816 -0.86832577 -0.079877965 0.18970263 3.1284792 0.3406259 1.72471 2.9627438 1.3591906 -0.4961766 1.2738022 1.0021062 0.26014143 2.3285134 1.1207716 -0.81028354 -0.15809174 -0.8922218 0.0039938358 3.1179368 1.8183779 -1.9049059 -2.2697182 -2.4171388 0.5509084 2.886165 -1.962554 -3.4438806 0.09417049 0.13933073 -0.56405723 -0.5742196 1.178573 2.121078 -0.5240209 2.2198436 1.0157256 -1.1646549 0.96683615 -0.40318286 -0.110183276 -0.46975222 0.004181855 1.3159307 -2.685898 -2.2910414 2.196591 0.90684366 2.8972332 1.5783186 -0.34274518 -0.3678619 -1.8857934 -0.37471178 -1.7936184 1.7739762 1.1453682 -4.085507 -0.7867372 -0.42138138 -1.1048636 -0.46666798 0.60889894 1.062788 0.578014 -3.4223566 -2.7382426 0.9433879 -1.600782 -1.4637135 -2.8037157 -0.41002184 -5.434394 1.4008698 1.8629107 -0.5362366 0.24539757 0.39199048 0.6193318 1.9025723 -1.5872658 -2.347568 -1.4034805 -2.3179703 -0.05743319 0.1887647 0.7797405 -1.7538053 0.90834534 1.8906691 0.61129147 -0.27469096 -2.302973 0.14140786 -0.5297263 -0.7913235 -0.19532667 -3.4631348 -1.944436 -0.40025163 -2.029006 2.112164 2.8049214 -2.6199486 3.28877 2.55332 -2.5384648 0.7901951 -0.5272391 0.80296504 2.1617942 -0.34242755 1.062041 0.15113708 -2.702366 -0.1386961 -2.012209 -0.64804065 4.5042715 0.66341305 0.95064723 -2.0249336 -1.6412134 -0.53786826 -0.22587624 2.0101395 2.4527035 3.827354 -2.7504303 3.6393251 -1.5677116 -3.4134054 -1.072342 2.839211 -2.6585326 2.123023 0.18248703 -1.4787927 1.3899696 -0.1603428 -1.1726097 -0.4569457 0.6262349 -1.376852
*dt_2 -2.8890374 -0.50052714 -3.240485 0.19537608 -1.4089862 1.2166159 -1.8730534 -0.7227248 -1.6519786 0.958619 0.87836045 -3.5909545 0.89562726 1.5930902 -1.5667924 0.10524012 3.6517804 0.51279193 0.24625646 -1.7149738 0.57835615 -1.0129623 2.206549 1.0380995 2.7828643 -2.3223212 -0.870348 0.4696799 -1.988694 -3.2711666 1.5283132 1.6330799 -1.3446256 1.5853016 -0.49342766 -0.56932193 0.9838668 -1.7580796 2.1675649 0.82147956 0.6803336 0.041857265 -1.9613674 0.68525976 -1.4826074 -1.7187145 -2.2540069 -0.79979813 2.518567 1.2988701 -3.3411071 -0.5319802 -0.17946003 -0.3565906 -0.021128092 1.9226595 -1.0888977 -0.17681137 -2.7957795 1.8059025 0.22990839 4.7132163 -0.19548848 1.5248675 0.796325 1.5989436 2.9833114 1.9551681 -1.739274 -0.8086951 -0.86854506 -1.3732762 -0.37911806 -0.26287663 0.6223688 2.7319665 1.0577202 -1.6601388 0.47023317 3.3315594 -0.023959886 -0.19108127 -0.27863353 2.484141 -1.7371042 4.179287 -1.5239528 0.35511723 -2.0577319 -0.861718 -2.2427294 1.6974534 -1.9528164 -2.664661 1.257731 0.7665634 2.0775008 -0.8660273 -1.230042 1.5906979 0.26729223 -0.77776176 -1.6708016 -1.6921722 -2.677094 1.216249 2.0419729 1.6051434 -0.303232 -0.87633556 -0.19425958 -2.643317 -0.13412039 0.087756775 0.1871209 -0.67496186 -4.362955 2.0289743 -0.87510663 2.229417 -1.3008816 0.41155002 0.90925837 -0.7627114 -0.42011523 0.27790332 -2.0628357 0.97991896 1.9182485 -2.0271273 3.2282815 3.597243 -1.9253646 3.080496 1.296824 1.9008815 -1.5281312 -2.7527974 -0.49160308 -2.5507896 2.1275766 -1.3310188 1.0940242 -3.525727 0.49025336 -0.21392575 0.7578648 0.39409384 0.20905523 0.58915037 1.7629942 -2.0250194 0.6776055 1.4612174 -1.5489043 -0.5349791 -1.4621352 -1.1542555 -0.96683663 0.20870662 4.2068615 -0.19896817 2.1998997 2.5150928 0.9125568 -1.7666595 1.5252713 2.0853872 0.12404102 3.8312027 -0.6582527 1.058811 -0.7153989 -1.2442201 -0.5922076 2.8153257 3.8790796 -0.8858261 -2.5765738 -1.7146962 1.9655906 3.5866337 -0.61673826 -3.19038 -0.06841094 1.6252074 -0.09649873 0.67574465 3.916993 0.5724533 -3.0051117 4.927125 -1.2599648 -0.22573039 1.3957512 -0.26542386 2.5577197 -0.58277434 2.1857183 2.0475886 -3.0866852 -1.6686463 3.0079467 -0.8607029 1.5593951 1.9282867 -0.35120186 -0.6606454 -0.8712756 -0.1783809 0.16729444 0.29907918 1.4841446 -3.6271129 -1.4837236 -0.55538034 -0.948431 -3.649183 0.8464121 0.7681902 1.0223068 -1.7017362 -3.521787 1.1735607 0.19467062 0.34637147 -2.8125095 1.180328 -5.6326 -1.1364694 1.3145396 0.4105052 -0.5997706 1.6214393 0.069657445 1.6090794 -1.4578612 -3.0260842 -1.0284255 -2.6638796 -0.007173467 0.7941494 -1.2839054 -0.61824137 0.9105813 2.414051 1.383259 1.184846 -2.841437 1.8287348 -2.3611844 -2.3427966 -1.2192873 -2.9991796 -1.1131848 1.2953917 -1.8366165 0.48212865 2.212536 -1.3455077 3.5561538 2.1539605 -2.9553165 1.5257765 0.1580773 0.82824403 1.9003634 -0.76505 0.29705405 -1.4382477 -3.6144333 -0.43289378 -3.4476612 0.5664141 4.9422703 1.1670328 0.39274183 0.78829765 -1.8943223 -2.855919 -2.095998 1.256537 2.5359542 4.1146746 -0.5213036 4.1551356 -0.120845966 -3.5889146 0.07904107 4.580601 -2.9184585 2.7830787 -0.3015592 0.65871096 3.4023867 0.6865333 -1.1284562 1.2885121 1.8284001 -2.87472
*dt_3 -0.6832899 -0.13111103 -4.005733 0.3800911 -0.9052045 0.46194878 1.5524881 0.31491753 -1.3601873 -0.75128335 -0.47860938 -1.4534887 -1.0354087 2.5605028 0.5196284 -3.3250668 3.062174 -1.4680039 1.3443159 -2.26347 1.4509556 -0.7769351 2.5516856 2.8763824 3.6731513 -1.4483509 -0.8841289 0.08199406 -1.3368888 -2.9839542 0.42062458 1.2863677 1.125988 3.7685058 -1.3581054 1.6684045 1.6153905 -3.8586116 1.2912091 -1.3632718 0.86480105 -0.27200907 -2.887804 1.2468321 -3.4151077 0.58133835 -2.899609 1.1019624 3.4117208 4.403395 -2.6277 -0.19523142 -1.5544862 0.66145813 0.0730009 -0.115844056 -2.510535 1.4933548 -2.8635237 0.06710067 0.56282085 3.04641 -1.3197922 -1.3149849 0.6212042 1.0260364 1.8122443 1.4852037 -2.7182877 0.99495566 1.1777636 -0.4431401 -2.8112876 -2.0574362 -0.9782288 2.9947681 2.787285 -1.8991705 0.9207721 2.194787 -1.2835256 1.386724 -0.4415252 2.7143211 -1.497747 4.3977876 0.67434967 -0.06826175 -2.4899654 -0.7105724 -1.7593186 0.35528806 0.48572606 -0.56847763 2.3158474 0.7285107 0.23110393 -0.8360446 -2.0800424 1.2673391 -1.4761468 -3.5227098 -0.7457565 -1.8896089 -4.0010486 1.9305134 2.5799499 2.1120536 0.6652907 0.22016408 -1.0641556 -2.7834206 -0.45557508 1.2861562 0.12600051 -0.87565994 -3.118477 4.23749 -0.8143185 3.6176944 0.18665569 -0.5535999 -0.60693026 -2.3637643 -1.4841187 -0.61150086 -2.8741124 0.6599474 0.2512542 -1.5061779 2.4581244 4.0786366 -2.8986933 1.6540072 -1.3278257 4.0792294 -1.1055533 -4.4017344 -0.6040477 -1.1769401 1.4195027 -1.6755517 -0.79609096 -3.6272504 1.4013782 -1.099586 2.502793 -0.5511293 0.56374997 0.55617934 2.325614 -2.7794876 1.580794 0.3655587 0.8828594 0.4778149 -0.04151262 -1.910439 -0.019900896 -1.956068 2.9510124 1.9120382 1.4567964 0.4815357 1.0587573 -0.7776472 0.20375337 -0.48159832 0.9362853 3.9961498 -0.45737824 0.7264815 -0.079394154 1.1575501 0.20443097 2.7455494 0.81543016 -0.65701485 -2.479627 -2.1816373 0.6495863 4.203105 -2.4499972 -4.320313 -1.1768894 1.728849 -0.9984755 -1.0488721 2.2502928 1.1401819 0.38017005 3.7792978 1.5465662 -0.1687472 1.5758042 -1.7461613 2.1464074 -1.8954508 -0.99555224 1.8601065 -3.1273017 -4.010517 3.0077662 0.86970305 2.1355855 1.4573778 -1.9193858 0.33587494 -3.5290174 -1.8760331 -0.9193198 0.84124786 0.297929 -4.358611 0.119796574 -1.5121704 -0.07702702 -3.829351 -1.6448078 1.9534299 -0.29853112 -2.4426997 -2.8249805 0.20996584 -1.0552577 -1.4039801 -1.4896616 1.5624646 -5.23732 2.0571632 1.0718802 1.7079562 -1.7689998 0.44326952 -0.3187434 -0.11174428 -2.9012995 -3.4571555 -1.4870667 -3.7767162 0.20827253 1.6659144 0.4502838 0.2774786 1.359645 3.4637408 -0.8586502 0.92083454 -2.1926916 0.35866183 -1.4814951 -2.2360358 -1.0216411 -3.253786 -2.3167672 0.3234479 -2.2070622 -0.20735203 3.8929765 -2.5098398 1.4857984 4.6814876 -2.0870085 -0.06458305 -1.1541587 1.8976951 1.0577712 0.047579158 1.4341338 -0.45953 -2.6612387 -1.2201141 -0.7403013 0.8788643 3.131929 1.0158713 0.9035588 0.31547973 -0.7315188 -1.1786015 -2.400347 1.456842 3.5132403 4.0042224 -2.7789052 2.616239 0.16872033 -1.5196254 -0.9987116 1.874138 -2.1035814 3.4160972 -0.616363 0.4028568 1.0202932 0.048149798 -1.1717455 -1.3607421 -0.6028076 -0.75838226
*dt_4 -2.2977307 0.6678568 -3.7677314 1.405526 -2.695921 -0.45344618 0.4414229 -0.4337088 -0.24202885 -1.140928 0.7197197 -2.7533104 -1.0144883 0.26268837 0.41021413 -0.15141746 3.2534707 0.38360828 -1.0943605 -2.214037 -0.014062657 -0.36089018 1.9410899 1.3015093 2.769328 -0.22596267 -1.6886326 0.7178769 -2.1090295 -2.1462817 0.40582383 2.7433357 -0.40696943 1.7367293 -1.1503756 0.52039254 1.5202909 -3.5848727 2.2284138 1.5085889 -1.8722391 -1.2842698 -2.6149457 1.0554197 -1.2630836 -1.7594492 -0.4864193 1.2776521 2.6707752 3.4056985 -3.6575482 1.2063991 -0.3961322 1.5625252 -1.6440848 1.4239509 -0.116874084 -0.40490568 -2.0665462 1.1493773 -1.0985287 3.4565651 0.6145765 0.24085529 1.4386162 0.44332242 0.42916036 2.0600796 0.1555833 0.95583636 -1.1178569 1.8759266 0.29272163 -3.3536773 -0.033952 1.3547156 1.5708904 -0.36218575 -1.0340511 3.5680435 0.9314255 1.0397106 -1.097291 0.9089777 -1.955645 3.7562842 -0.42909214 -0.018775329 -2.0780802 -1.6030489 -2.4947193 0.08892185 0.6739645 -1.7297537 1.5976932 2.2763581 1.2633464 0.55651593 0.45143807 -0.87278247 -1.3456398 -2.549244 -1.7917153 -2.2674668 -3.9731796 -0.7842127 0.9158669 1.7600104 -1.5812491 -1.0003746 -2.8427112 -2.8098724 0.7064936 3.2231097 0.82631135 -0.17769109 -3.9372609 0.20504226 1.0435692 3.7660656 -0.6617382 -0.2673986 -0.6422833 -0.24125898 -1.8313205 0.54267913 -0.9773566 0.4883287 -0.23141663 -2.1234624 3.6888254 3.3402574 -0.9251178 1.6405673 -0.8031156 2.6930537 -2.368282 -1.4174246 -0.17495994 -2.2419658 1.6245513 -0.72637254 -0.090458386 -4.4411316 0.6719606 -2.1015 1.778108 -1.7664092 1.7055491 0.57811534 -1.7237852 -1.265103 2.1917257 -0.14197251 -2.2437758 -0.38679382 -0.5689226 0.26220354 -0.808081 -0.20148024 1.7879095 2.2967033 1.9793794 2.725424 1.502851 -1.9277533 1.7546877 -0.4845346 -1.340476 3.0596676 0.27142254 0.5803137 1.8312483 -1.9230236 -1.3281901 3.0483747 2.5248315 -1.3360023 -2.4700127 -0.8943268 2.023096 3.7877746 -1.0850356 -2.2689836 -0.7698571 1.2061132 0.2821711 0.19516614 3.453833 1.3189918 -1.4113493 3.8857799 -0.7328508 -0.19533989 1.4351814 -0.004551164 3.4919243 -1.2320001 -0.40373597 1.6743912 -1.4347942 -0.62867075 1.5196911 0.01840139 2.1673477 0.29573032 1.1679816 0.58241695 0.4371542 -0.35971645 -0.015365061 0.27531388 0.23452395 -3.6794124 -1.0740285 -1.8264964 -0.08962856 -2.1463246 -0.6070096 -0.4454017 -0.32888207 -3.7663827 -1.1623855 0.6213654 -1.1146884 0.632664 -2.1292543 0.51265043 -5.7491727 1.6725935 1.9871898 0.45650664 0.49934137 -0.58450514 1.8203661 0.033856165 -2.6181662 -3.0816638 -1.8496244 -1.8244135 1.6463963 0.3848981 1.1953713 -1.2210578 1.09984 2.348622 -0.6552338 -0.62782705 -3.3178296 1.124695 -1.3048241 -0.7277497 -0.24204999 -2.337896 -3.1614282 0.30075455 -2.0333648 0.56835663 1.3220425 -2.672526 1.6362112 2.4687114 -2.6396096 -0.56264144 -0.7847377 0.95156044 2.0288017 0.2719209 -0.6219401 0.1872939 -2.3293033 1.0356154 -1.4525167 -0.56485873 3.9687884 1.3014356 2.1327634 -1.6144214 -0.3704685 -2.3242493 -1.5635668 0.11050276 2.7866917 3.7173223 -2.5814233 3.364251 -1.6513442 -2.8366184 -1.7713279 3.331442 -0.8279942 3.4310892 0.22155678 -2.9192202 1.1667902 2.5400636 -1.2743162 1.3180405 2.1208587 -2.3963375
