5 200
*dt_0 -2.1502779 -2.762 -1.9506953 1.2716789 0.92089987 -0.5400252 -1.9189291 -0.008120348 -2.0651257 1.8271745 -0.315482 0.73761076 -0.56226176 -0.16483246 -0.33846065 -0.8584839 -0.5247104 2.1267786 -1.8893144 -0.73700887 -1.3730359 -0.13292716 -0.35562873 0.5924614 0.76548326 -1.2657541 -1.7762004 -1.9437122 -0.17353372 -0.9286698 1.9123186 1.633035 -0.7481156 -0.64770406 0.016774274 1.1480485 -1.0297929 -2.3515036 -0.15318935 -0.31464893 -0.9702497 -0.263958 0.63786036 -2.495584 -0.16509876 -0.8463152 0.6143259 -0.6161204 0.85906804 -2.1718092 -0.98638016 -1.5613323 -1.6956474 -1.3886967 -0.5473023 1.6600823 1.1284095 0.5833871 -1.0784329 2.355705 1.41056 2.034925 1.0143304 -0.12575717 0.14801678 -0.21989298 2.2871664 2.0980139 0.09908657 -0.8679201 -1.5665293 -0.3885192 -1.9556272 -1.7866223 -1.0876315 1.3161037 -1.6765889 -2.847607 -0.33941895 -0.6038978 0.75882 1.3088115 -2.485191 -0.28532138 1.4293354 0.48921153 0.22133984 -1.3374658 -0.09742222 1.1880147 -1.9753826 0.8161037 -2.0537808 -1.9285973 -0.107253514 2.6200123 -0.08678439 -0.1366367 2.47806 0.20291005 -1.8503681 -0.26139325 -1.2213119 1.613193 -1.1810195 -0.82541275 0.0072719003 2.378575 0.6667658 -0.054536715 -0.74359834 -1.2463424 0.39517176 -1.1243857 2.1665645 -1.8948841 -2.0233898 0.1456219 1.4480163 2.29614 1.8029943 1.2178115 -1.463887 2.3872306 -2.392626 0.2707718 -2.401313 -0.9498231 0.10614696 -2.4571595 1.3728777 -0.16854678 0.2719944 2.3605294 -0.23559794 0.16883297 -0.24800922 -0.84494066 -2.031641 -1.7475791 1.4705611 -0.52371085 0.30557367 -2.2938654 -0.5126041 -0.077779755 0.10167905 1.7457777 -0.19394775 -0.23607753 -0.6291424 2.6250114 1.7084395 -2.0338438 -1.0441418 0.121970646 -0.912106 3.088366 -1.2832764 -1.3117945 3.037657 1.5841721 0.70104647 -0.4845377 0.9995333 -0.908889 -0.6235357 -1.9140455 -1.8603532 0.7339848 -0.46867278 -0.5556875 -0.49033287 0.038929347 2.8650577 0.4698837 2.1369998 -1.9662338 -1.0407056 1.3121129 1.1700193 1.0019463 -1.9311388 0.51530117 -2.6133666 2.9973388 -1.5210972 -0.25769985 1.6177796 0.027469408 -2.043963 1.2302855 0.42599317 1.0714408 -0.83036107 1.0122313 0.38054276 -1.0329101 0.09835478 1.274161
*dt_1 -1.6633633 -2.1403391 -1.4276582 0.9481801 0.7187339 -0.43709096 -1.386207 0.007546999 -1.5323185 1.4068928 -0.2943841 0.5748536 -0.43014345 -0.11801126 -0.21963514 -0.59040326 -0.4484737 1.5936676 -1.420019 -0.54822564 -1.090792 -0.13234507 -0.22055845 0.45344117 0.53069186 -0.9186089 -1.3393852 -1.4495143 -0.17965092 -0.65660065 1.43367 1.2285109 -0.52375525 -0.49550718 0.0055127935 0.90819633 -0.82358694 -1.800616 -0.100102685 -0.2680485 -0.72427386 -0.13114484 0.49850103 -1.8772652 -0.17609681 -0.61612976 0.4803539 -0.44946024 0.60289764 -1.6661414 -0.77237326 -1.2410536 -1.3102384 -1.0343695 -0.43971607 1.2419465 0.9027902 0.44752502 -0.79502225 1.7798066 1.0969514 1.5395622 0.77219915 -0.066793025 0.09784028 -0.12715301 1.7545028 1.6482214 0.120935835 -0.620025 -1.2029983 -0.28729996 -1.4705648 -1.3309661 -0.78949773 0.9930441 -1.2989173 -2.1838763 -0.28601262 -0.5033836 0.52651256 1.0102608 -1.8815128 -0.23985736 1.0529926 0.3757765 0.16971803 -1.0312946 -0.14757746 0.9355767 -1.5028569 0.56300205 -1.5631795 -1.4469001 -0.039423257 2.0006635 -0.11276146 -0.084822536 1.90044 0.107352056 -1.4287193 -0.18192314 -0.8988633 1.277502 -0.8608573 -0.6459721 0.0127101615 1.8290998 0.49298483 -0.060146566 -0.5956017 -0.96638983 0.3660723 -0.81846446 1.6409845 -1.4375244 -1.4920942 0.13396665 1.1252284 1.7755542 1.3480372 0.9176693 -1.1214303 1.8318404 -1.8027445 0.21516253 -1.839166 -0.753418 0.059919897 -1.8758621 1.0403181 -0.14875539 0.22830448 1.8101957 -0.1566413 0.14487852 -0.22185251 -0.6701877 -1.5342455 -1.3269404 1.0726502 -0.39325812 0.194073 -1.7054868 -0.38770023 -0.08176543 0.041136343 1.3065237 -0.15630732 -0.13475204 -0.48016495 2.0228782 1.2871449 -1.5215806 -0.80271167 0.06006224 -0.74783766 2.3708684 -0.98075116 -1.0071563 2.3190923 1.2349659 0.46690986 -0.362067 0.78669393 -0.65451926 -0.4702776 -1.4675494 -1.4072828 0.5987431 -0.39942908 -0.44851112 -0.40643722 0.004454186 2.2227416 0.3303386 1.6383488 -1.5375801 -0.7754489 1.0722361 0.8419383 0.7407141 -1.4698054 0.44152614 -1.9989897 2.3019438 -1.1974766 -0.20651117 1.1920396 -0.017260239 -1.5491375 0.9065257 0.2629588 0.7849369 -0.6554205 0.7640305 0.24276015 -0.7332635 0.06195533 0.94631195
*dt_2 -3.0072703 -3.894315 -2.569563 1.7197586 1.2513036 -0.8624601 -2.4520135 0.13123037 -2.7106347 2.5413566 -0.583853 1.0236762 -0.7400588 -0.1605175 -0.3483712 -1.0286268 -0.9066581 2.9007552 -2.5626328 -0.9469227 -2.0210445 -0.22649351 -0.3666245 0.7528402 0.88491446 -1.5887295 -2.4011075 -2.6243079 -0.3446794 -1.1076164 2.6330395 2.278046 -0.9367007 -0.83998066 0.03146095 1.7014176 -1.4999566 -3.2782917 -0.15852462 -0.48616114 -1.3909682 -0.17386338 0.86528695 -3.41369 -0.38227814 -1.0453889 0.9399157 -0.8551502 1.058108 -2.9905355 -1.3605168 -2.2980719 -2.3625398 -1.791788 -0.8389292 2.1561117 1.7194793 0.77506113 -1.4215505 3.2113743 2.0215373 2.7025561 1.3802826 -0.070150934 0.18434575 -0.19767106 3.1623485 3.041636 0.2806394 -1.1063212 -2.117578 -0.5299251 -2.6330364 -2.416891 -1.4207363 1.823704 -2.3319585 -4.0033703 -0.5413092 -1.0052 0.9078202 1.8287116 -3.4310768 -0.5149203 1.8979723 0.5765909 0.3122805 -1.901671 -0.33815905 1.7392725 -2.6646926 0.9304141 -2.7463722 -2.616602 -0.07739571 3.6164927 -0.3024555 -0.08534963 3.3793728 0.15337954 -2.6139505 -0.40120655 -1.5745078 2.376757 -1.4793855 -1.168577 -0.00021911503 3.295922 0.82962286 -0.09485993 -1.157177 -1.6983275 0.75071585 -1.4969089 2.9379413 -2.5482306 -2.6918714 0.31040666 2.080032 3.2456808 2.4630594 1.5849777 -2.0781472 3.281633 -3.278255 0.3169247 -3.376898 -1.4253502 0.03493112 -3.3426445 1.910346 -0.3290544 0.45623836 3.274403 -0.22406855 0.3057699 -0.4137816 -1.223836 -2.7678409 -2.376829 1.873802 -0.76629055 0.33129716 -3.1028426 -0.66863734 -0.1391675 0.10247416 2.2632527 -0.27491254 -0.24416432 -0.8278819 3.6946857 2.35146 -2.8067684 -1.4748075 0.07181465 -1.3922569 4.3331285 -1.6999444 -1.8401636 4.2234926 2.23105 0.7280692 -0.63003117 1.4375325 -1.1574636 -0.8189034 -2.666901 -2.5013225 1.0968032 -0.7814302 -0.83474016 -0.7596047 -0.011869767 4.0778494 0.55080974 2.925316 -2.8490922 -1.3944914 2.0263586 1.5277162 1.3057253 -2.5940285 0.86246026 -3.6685832 4.187414 -2.2426982 -0.4414022 2.1117105 -0.030892838 -2.7836235 1.5917009 0.4516486 1.3642852 -1.2200261 1.3198223 0.37123287 -1.3120831 0.06613813 1.7060407
*dt_3 -1.3298109 -1.7078481 -1.1581701 0.7510328 0.5542477 -0.34100845 -1.1273731 0.013135038 -1.230575 1.1217166 -0.21822098 0.44915995 -0.32799143 -0.08238174 -0.18974642 -0.4734891 -0.3467456 1.2797687 -1.1315691 -0.4417664 -0.8514948 -0.10705815 -0.17410378 0.3455723 0.43274882 -0.74236774 -1.0576198 -1.1545045 -0.14187603 -0.52951217 1.158058 0.9893086 -0.43167302 -0.38073283 0.01479666 0.7169649 -0.6422453 -1.4257243 -0.06987088 -0.20150013 -0.5880537 -0.11390694 0.3793421 -1.5039518 -0.13946289 -0.49703136 0.38944763 -0.37165922 0.50217074 -1.318557 -0.61057836 -0.9906354 -1.030729 -0.8213424 -0.33903426 0.99087876 0.7184405 0.34845886 -0.64703494 1.4274749 0.87533724 1.2292424 0.61109126 -0.0468346 0.08082637 -0.09824498 1.4022713 1.314578 0.08859791 -0.50896287 -0.94091 -0.2410425 -1.1697139 -1.0586911 -0.6343058 0.8100629 -1.0232201 -1.7443931 -0.2227803 -0.39438912 0.42490992 0.80125695 -1.5024066 -0.19287594 0.83951837 0.29452908 0.12899446 -0.81776536 -0.1160554 0.7485897 -1.1954879 0.46353266 -1.2412583 -1.1690259 -0.032219935 1.5799403 -0.08086779 -0.071691446 1.4962147 0.10661485 -1.1297252 -0.1495066 -0.7278814 1.0097758 -0.68938684 -0.50388664 0.017165594 1.4466633 0.38510895 -0.051693596 -0.4668811 -0.75929654 0.27664468 -0.6748619 1.303331 -1.1394105 -1.2085738 0.11292526 0.88695437 1.4082537 1.0770772 0.7225549 -0.8878916 1.4432513 -1.4390454 0.15973176 -1.4735545 -0.5919878 0.053281866 -1.5008613 0.84436435 -0.11669819 0.17848516 1.4517518 -0.11174868 0.1216451 -0.1675557 -0.5366663 -1.2224653 -1.0655286 0.8656567 -0.32741472 0.16811731 -1.3811029 -0.30856162 -0.05381813 0.045855664 1.04015 -0.12773137 -0.11003167 -0.37010038 1.599314 1.0257013 -1.2172787 -0.6401206 0.043937642 -0.59320134 1.8828925 -0.7713867 -0.8034278 1.8598529 0.96587193 0.3860631 -0.2772712 0.62042606 -0.53015137 -0.3598851 -1.1610713 -1.1128063 0.47657564 -0.3274317 -0.34718627 -0.32286194 -0.0042369743 1.7636863 0.27617124 1.3071157 -1.2165579 -0.6239017 0.84156615 0.68897605 0.6030576 -1.1536735 0.34264886 -1.5963801 1.8367313 -0.9511248 -0.16353683 0.9653004 -0.0037032603 -1.2437354 0.73644197 0.220424 0.62340146 -0.5077452 0.603392 0.20848148 -0.604226 0.0565544 0.7698237
*dt_4 -1.0186608 -1.3126497 -0.883052 0.5806034 0.4255199 -0.26522458 -0.8668321 0.015439656 -0.94499725 0.8596812 -0.16668369 0.345417 -0.25122935 -0.07068204 -0.14402124 -0.3665303 -0.27625135 0.97986186 -0.8679285 -0.33132684 -0.6551606 -0.07223757 -0.1468847 0.270186 0.33174124 -0.5629929 -0.8268558 -0.88902795 -0.11237013 -0.40983862 0.8913534 0.76797235 -0.33763573 -0.28938913 0.006882874 0.55840164 -0.49930248 -1.1081842 -0.058109693 -0.16057616 -0.45932674 -0.08553206 0.29026777 -1.1557492 -0.10480449 -0.3687319 0.3050579 -0.28067175 0.3700913 -1.0075768 -0.46784812 -0.7669293 -0.8018441 -0.6340506 -0.26727208 0.7608716 0.55179054 0.2648417 -0.48524392 1.0945477 0.67835593 0.93833584 0.46152255 -0.03183867 0.06502694 -0.079683445 1.0739218 1.0022643 0.068668075 -0.39570215 -0.73485863 -0.18443313 -0.9080092 -0.81794745 -0.48419058 0.62263113 -0.78958523 -1.3353109 -0.17565455 -0.31424412 0.32176217 0.6206519 -1.1506038 -0.14684014 0.6555104 0.22156233 0.105606735 -0.64123714 -0.08127661 0.57899016 -0.91907525 0.3539022 -0.9496298 -0.8872512 -0.022572558 1.2195555 -0.0724296 -0.043671165 1.1577523 0.0635498 -0.87060404 -0.12333722 -0.5602039 0.77775854 -0.5301058 -0.3840689 0.007329176 1.1136122 0.29448333 -0.03976069 -0.37292516 -0.5769946 0.21288806 -0.50498617 1.0076748 -0.8847891 -0.9226277 0.07677299 0.6925347 1.079498 0.84051055 0.5536571 -0.6843251 1.1201952 -1.1014434 0.117960714 -1.133627 -0.46334076 0.027993219 -1.1459634 0.6421484 -0.09341659 0.14650698 1.1182932 -0.09498005 0.10046428 -0.12408366 -0.4154483 -0.9418079 -0.8216121 0.6655098 -0.24779579 0.12140447 -1.0504836 -0.241893 -0.037331652 0.029563919 0.7973045 -0.086509444 -0.082533225 -0.29051575 1.2371156 0.78417677 -0.94065386 -0.49492607 0.028223358 -0.45842513 1.4587684 -0.59476614 -0.62526476 1.4225675 0.7482362 0.28016904 -0.2257876 0.4782834 -0.40500528 -0.28304002 -0.8927136 -0.8639541 0.36829653 -0.24000628 -0.2711708 -0.25616306 -0.0004440847 1.3548659 0.21174239 1.0048306 -0.94325805 -0.47263056 0.64845294 0.5249314 0.46031317 -0.8895219 0.26996678 -1.2284845 1.4186679 -0.72843283 -0.13404167 0.73134285 -0.00013908233 -0.94812477 0.5542984 0.17905502 0.48878962 -0.39368835 0.45976675 0.14391619 -0.45941773 0.027823983 0.58275926
*dt_0 -2.1502779 -2.762 -1.9506953 1.2716789 0.92089987 -0.5400252 -1.9189291 -0.008120348 -2.0651257 1.8271745 -0.315482 0.73761076 -0.56226176 -0.16483246 -0.33846065 -0.8584839 -0.5247104 2.1267786 -1.8893144 -0.73700887 -1.3730359 -0.13292716 -0.35562873 0.5924614 0.76548326 -1.2657541 -1.7762004 -1.9437122 -0.17353372 -0.9286698 1.9123186 1.633035 -0.7481156 -0.64770406 0.016774274 1.1480485 -1.0297929 -2.3515036 -0.15318935 -0.31464893 -0.9702497 -0.263958 0.63786036 -2.495584 -0.16509876 -0.8463152 0.6143259 -0.6161204 0.85906804 -2.1718092 -0.98638016 -1.5613323 -1.6956474 -1.3886967 -0.5473023 1.6600823 1.1284095 0.5833871 -1.0784329 2.355705 1.41056 2.034925 1.0143304 -0.12575717 0.14801678 -0.21989298 2.2871664 2.0980139 0.09908657 -0.8679201 -1.5665293 -0.3885192 -1.9556272 -1.7866223 -1.0876315 1.3161037 -1.6765889 -2.847607 -0.33941895 -0.6038978 0.75882 1.3088115 -2.485191 -0.28532138 1.4293354 0.48921153 0.22133984 -1.3374658 -0.09742222 1.1880147 -1.9753826 0.8161037 -2.0537808 -1.9285973 -0.107253514 2.6200123 -0.08678439 -0.1366367 2.47806 0.20291005 -1.8503681 -0.26139325 -1.2213119 1.613193 -1.1810195 -0.82541275 0.0072719003 2.378575 0.6667658 -0.054536715 -0.74359834 -1.2463424 0.39517176 -1.1243857 2.1665645 -1.8948841 -2.0233898 0.1456219 1.4480163 2.29614 1.8029943 1.2178115 -1.463887 2.3872306 -2.392626 0.2707718 -2.401313 -0.9498231 0.10614696 -2.4571595 1.3728777 -0.16854678 0.2719944 2.3605294 -0.23559794 0.16883297 -0.24800922 -0.84494066 -2.031641 -1.7475791 1.4705611 -0.52371085 0.30557367 -2.2938654 -0.5126041 -0.077779755 0.10167905 1.7457777 -0.19394775 -0.23607753 -0.6291424 2.6250114 1.7084395 -2.0338438 -1.0441418 0.121970646 -0.912106 3.088366 -1.2832764 -1.3117945 3.037657 1.5841721 0.70104647 -0.4845377 0.9995333 -0.908889 -0.6235357 -1.9140455 -1.8603532 0.7339848 -0.46867278 -0.5556875 -0.49033287 0.038929347 2.8650577 0.4698837 2.1369998 -1.9662338 -1.0407056 1.3121129 1.1700193 1.0019463 -1.9311388 0.51530117 -2.6133666 2.9973388 -1.5210972 -0.25769985 1.6177796 0.027469408 -2.043963 1.2302855 0.42599317 1.0714408 -0.83036107 1.0122313 0.38054276 -1.0329101 0.09835478 1.274161
*dt_1 -1.6633633 -2.1403391 -1.4276582 0.9481801 0.7187339 -0.43709096 -1.386207 0.007546999 -1.5323185 1.4068928 -0.2943841 0.5748536 -0.43014345 -0.11801126 -0.21963514 -0.59040326 -0.4484737 1.5936676 -1.420019 -0.54822564 -1.090792 -0.13234507 -0.22055845 0.45344117 0.53069186 -0.9186089 -1.3393852 -1.4495143 -0.17965092 -0.65660065 1.43367 1.2285109 -0.52375525 -0.49550718 0.0055127935 0.90819633 -0.82358694 -1.800616 -0.100102685 -0.2680485 -0.72427386 -0.13114484 0.49850103 -1.8772652 -0.17609681 -0.61612976 0.4803539 -0.44946024 0.60289764 -1.6661414 -0.77237326 -1.2410536 -1.3102384 -1.0343695 -0.43971607 1.2419465 0.9027902 0.44752502 -0.79502225 1.7798066 1.0969514 1.5395622 0.77219915 -0.066793025 0.09784028 -0.12715301 1.7545028 1.6482214 0.120935835 -0.620025 -1.2029983 -0.28729996 -1.4705648 -1.3309661 -0.78949773 0.9930441 -1.2989173 -2.1838763 -0.28601262 -0.5033836 0.52651256 1.0102608 -1.8815128 -0.23985736 1.0529926 0.3757765 0.16971803 -1.0312946 -0.14757746 0.9355767 -1.5028569 0.56300205 -1.5631795 -1.4469001 -0.039423257 2.0006635 -0.11276146 -0.084822536 1.90044 0.107352056 -1.4287193 -0.18192314 -0.8988633 1.277502 -0.8608573 -0.6459721 0.0127101615 1.8290998 0.49298483 -0.060146566 -0.5956017 -0.96638983 0.3660723 -0.81846446 1.6409845 -1.4375244 -1.4920942 0.13396665 1.1252284 1.7755542 1.3480372 0.9176693 -1.1214303 1.8318404 -1.8027445 0.21516253 -1.839166 -0.753418 0.059919897 -1.8758621 1.0403181 -0.14875539 0.22830448 1.8101957 -0.1566413 0.14487852 -0.22185251 -0.6701877 -1.5342455 -1.3269404 1.0726502 -0.39325812 0.194073 -1.7054868 -0.38770023 -0.08176543 0.041136343 1.3065237 -0.15630732 -0.13475204 -0.48016495 2.0228782 1.2871449 -1.5215806 -0.80271167 0.06006224 -0.74783766 2.3708684 -0.98075116 -1.0071563 2.3190923 1.2349659 0.46690986 -0.362067 0.78669393 -0.65451926 -0.4702776 -1.4675494 -1.4072828 0.5987431 -0.39942908 -0.44851112 -0.40643722 0.004454186 2.2227416 0.3303386 1.6383488 -1.5375801 -0.7754489 1.0722361 0.8419383 0.7407141 -1.4698054 0.44152614 -1.9989897 2.3019438 -1.1974766 -0.20651117 1.1920396 -0.017260239 -1.5491375 0.9065257 0.2629588 0.7849369 -0.6554205 0.7640305 0.24276015 -0.7332635 0.06195533 0.94631195
*dt_2 -3.0072703 -3.894315 -2.569563 1.7197586 1.2513036 -0.8624601 -2.4520135 0.13123037 -2.7106347 2.5413566 -0.583853 1.0236762 -0.7400588 -0.1605175 -0.3483712 -1.0286268 -0.9066581 2.9007552 -2.5626328 -0.9469227 -2.0210445 -0.22649351 -0.3666245 0.7528402 0.88491446 -1.5887295 -2.4011075 -2.6243079 -0.3446794 -1.1076164 2.6330395 2.278046 -0.9367007 -0.83998066 0.03146095 1.7014176 -1.4999566 -3.2782917 -0.15852462 -0.48616114 -1.3909682 -0.17386338 0.86528695 -3.41369 -0.38227814 -1.0453889 0.9399157 -0.8551502 1.058108 -2.9905355 -1.3605168 -2.2980719 -2.3625398 -1.791788 -0.8389292 2.1561117 1.7194793 0.77506113 -1.4215505 3.2113743 2.0215373 2.7025561 1.3802826 -0.070150934 0.18434575 -0.19767106 3.1623485 3.041636 0.2806394 -1.1063212 -2.117578 -0.5299251 -2.6330364 -2.416891 -1.4207363 1.823704 -2.3319585 -4.0033703 -0.5413092 -1.0052 0.9078202 1.8287116 -3.4310768 -0.5149203 1.8979723 0.5765909 0.3122805 -1.901671 -0.33815905 1.7392725 -2.6646926 0.9304141 -2.7463722 -2.616602 -0.07739571 3.6164927 -0.3024555 -0.08534963 3.3793728 0.15337954 -2.6139505 -0.40120655 -1.5745078 2.376757 -1.4793855 -1.168577 -0.00021911503 3.295922 0.82962286 -0.09485993 -1.157177 -1.6983275 0.75071585 -1.4969089 2.9379413 -2.5482306 -2.6918714 0.31040666 2.080032 3.2456808 2.4630594 1.5849777 -2.0781472 3.281633 -3.278255 0.3169247 -3.376898 -1.4253502 0.03493112 -3.3426445 1.910346 -0.3290544 0.45623836 3.274403 -0.22406855 0.3057699 -0.4137816 -1.223836 -2.7678409 -2.376829 1.873802 -0.76629055 0.33129716 -3.1028426 -0.66863734 -0.1391675 0.10247416 2.2632527 -0.27491254 -0.24416432 -0.8278819 3.6946857 2.35146 -2.8067684 -1.4748075 0.07181465 -1.3922569 4.3331285 -1.6999444 -1.8401636 4.2234926 2.23105 0.7280692 -0.63003117 1.4375325 -1.1574636 -0.8189034 -2.666901 -2.5013225 1.0968032 -0.7814302 -0.83474016 -0.7596047 -0.011869767 4.0778494 0.55080974 2.925316 -2.8490922 -1.3944914 2.0263586 1.5277162 1.3057253 -2.5940285 0.86246026 -3.6685832 4.187414 -2.2426982 -0.4414022 2.1117105 -0.030892838 -2.7836235 1.5917009 0.4516486 1.3642852 -1.2200261 1.3198223 0.37123287 -1.3120831 0.06613813 1.7060407
*dt_3 -1.3298109 -1.7078481 -1.1581701 0.7510328 0.5542477 -0.34100845 -1.1273731 0.013135038 -1.230575 1.1217166 -0.21822098 0.44915995 -0.32799143 -0.08238174 -0.18974642 -0.4734891 -0.3467456 1.2797687 -1.1315691 -0.4417664 -0.8514948 -0.10705815 -0.17410378 0.3455723 0.43274882 -0.74236774 -1.0576198 -1.1545045 -0.14187603 -0.52951217 1.158058 0.9893086 -0.43167302 -0.38073283 0.01479666 0.7169649 -0.6422453 -1.4257243 -0.06987088 -0.20150013 -0.5880537 -0.11390694 0.3793421 -1.5039518 -0.13946289 -0.49703136 0.38944763 -0.37165922 0.50217074 -1.318557 -0.61057836 -0.9906354 -1.030729 -0.8213424 -0.33903426 0.99087876 0.7184405 0.34845886 -0.64703494 1.4274749 0.87533724 1.2292424 0.61109126 -0.0468346 0.08082637 -0.09824498 1.4022713 1.314578 0.08859791 -0.50896287 -0.94091 -0.2410425 -1.1697139 -1.0586911 -0.6343058 0.8100629 -1.0232201 -1.7443931 -0.2227803 -0.39438912 0.42490992 0.80125695 -1.5024066 -0.19287594 0.83951837 0.29452908 0.12899446 -0.81776536 -0.1160554 0.7485897 -1.1954879 0.46353266 -1.2412583 -1.1690259 -0.032219935 1.5799403 -0.08086779 -0.071691446 1.4962147 0.10661485 -1.1297252 -0.1495066 -0.7278814 1.0097758 -0.68938684 -0.50388664 0.017165594 1.4466633 0.38510895 -0.051693596 -0.4668811 -0.75929654 0.27664468 -0.6748619 1.303331 -1.1394105 -1.2085738 0.11292526 0.88695437 1.4082537 1.0770772 0.7225549 -0.8878916 1.4432513 -1.4390454 0.15973176 -1.4735545 -0.5919878 0.053281866 -1.5008613 0.84436435 -0.11669819 0.17848516 1.4517518 -0.11174868 0.1216451 -0.1675557 -0.5366663 -1.2224653 -1.0655286 0.8656567 -0.32741472 0.16811731 -1.3811029 -0.30856162 -0.05381813 0.045855664 1.04015 -0.12773137 -0.11003167 -0.37010038 1.599314 1.0257013 -1.2172787 -0.6401206 0.043937642 -0.59320134 1.8828925 -0.7713867 -0.8034278 1.8598529 0.96587193 0.3860631 -0.2772712 0.62042606 -0.53015137 -0.3598851 -1.1610713 -1.1128063 0.47657564 -0.3274317 -0.34718627 -0.32286194 -0.0042369743 1.7636863 0.27617124 1.3071157 -1.2165579 -0.6239017 0.84156615 0.68897605 0.6030576 -1.1536735 0.34264886 -1.5963801 1.8367313 -0.9511248 -0.16353683 0.9653004 -0.0037032603 -1.2437354 0.73644197 0.220424 0.62340146 -0.5077452 0.603392 0.20848148 -0.604226 0.0565544 0.7698237
*dt_4 -1.0186608 -1.3126497 -0.883052 0.5806034 0.4255199 -0.26522458 -0.8668321 0.015439656 -0.94499725 0.8596812 -0.16668369 0.345417 -0.25122935 -0.07068204 -0.14402124 -0.3665303 -0.27625135 0.97986186 -0.8679285 -0.33132684 -0.6551606 -0.07223757 -0.1468847 0.270186 0.33174124 -0.5629929 -0.8268558 -0.88902795 -0.11237013 -0.40983862 0.8913534 0.76797235 -0.33763573 -0.28938913 0.006882874 0.55840164 -0.49930248 -1.1081842 -0.058109693 -0.16057616 -0.45932674 -0.08553206 0.29026777 -1.1557492 -0.10480449 -0.3687319 0.3050579 -0.28067175 0.3700913 -1.0075768 -0.46784812 -0.7669293 -0.8018441 -0.6340506 -0.26727208 0.7608716 0.55179054 0.2648417 -0.48524392 1.0945477 0.67835593 0.93833584 0.46152255 -0.03183867 0.06502694 -0.079683445 1.0739218 1.0022643 0.068668075 -0.39570215 -0.73485863 -0.18443313 -0.9080092 -0.81794745 -0.48419058 0.62263113 -0.78958523 -1.3353109 -0.17565455 -0.31424412 0.32176217 0.6206519 -1.1506038 -0.14684014 0.6555104 0.22156233 0.105606735 -0.64123714 -0.08127661 0.57899016 -0.91907525 0.3539022 -0.9496298 -0.8872512 -0.022572558 1.2195555 -0.0724296 -0.043671165 1.1577523 0.0635498 -0.87060404 -0.12333722 -0.5602039 0.77775854 -0.5301058 -0.3840689 0.007329176 1.1136122 0.29448333 -0.03976069 -0.37292516 -0.5769946 0.21288806 -0.50498617 1.0076748 -0.8847891 -0.9226277 0.07677299 0.6925347 1.079498 0.84051055 0.5536571 -0.6843251 1.1201952 -1.1014434 0.117960714 -1.133627 -0.46334076 0.027993219 -1.1459634 0.6421484 -0.09341659 0.14650698 1.1182932 -0.09498005 0.10046428 -0.12408366 -0.4154483 -0.9418079 -0.8216121 0.6655098 -0.24779579 0.12140447 -1.0504836 -0.241893 -0.037331652 0.029563919 0.7973045 -0.086509444 -0.082533225 -0.29051575 1.2371156 0.78417677 -0.94065386 -0.49492607 0.028223358 -0.45842513 1.4587684 -0.59476614 -0.62526476 1.4225675 0.7482362 0.28016904 -0.2257876 0.4782834 -0.40500528 -0.28304002 -0.8927136 -0.8639541 0.36829653 -0.24000628 -0.2711708 -0.25616306 -0.0004440847 1.3548659 0.21174239 1.0048306 -0.94325805 -0.47263056 0.64845294 0.5249314 0.46031317 -0.8895219 0.26996678 -1.2284845 1.4186679 -0.72843283 -0.13404167 0.73134285 -0.00013908233 -0.94812477 0.5542984 0.17905502 0.48878962 -0.39368835 0.45976675 0.14391619 -0.45941773 0.027823983 0.58275926
