5 200
*dt_0 -0.055861562 -0.05729453 -0.03179841 0.01962253 0.018970793 0.00271008 -0.045085385 -0.015232273 -0.049826346 0.032701783 0.014420034 0.011066712 -0.0062515815 -0.0040636533 -0.025657631 -0.012463755 0.0012003578 0.035726767 -0.029482966 -0.024575135 -0.008405223 -0.011973618 -0.012610774 0.013662433 0.029293295 -0.036776155 -0.036004547 -0.026662393 -0.013772445 -0.041554723 0.032003965 0.028740875 -0.028547125 -0.010710024 0.00047256245 0.012330858 -0.014962321 -0.04602242 0.00016080317 -0.0066137947 -0.008320012 -0.013603004 0.0049750255 -0.02818698 0.007798981 -0.017020224 0.008253039 -0.0015349815 0.016206063 -0.03207455 -0.03091995 -0.035058007 -0.044352025 -0.037715744 -0.0023181427 0.051786833 0.005304293 0.009634664 -0.026309472 0.04621286 0.032970678 0.061065566 0.010321561 0.009251992 0.003125483 0.006292295 0.04340866 0.035851706 -0.007935898 -0.026945608 -0.047218945 -0.015836604 -0.03816214 -0.021565406 -0.008522819 0.032949183 -0.033767287 -0.03838092 -0.011095513 -0.008635434 0.01314293 0.028126 -0.026532754 0.0141721 0.026880555 0.031542424 0.009450099 -0.028160451 0.007188881 0.030345788 -0.04859703 0.039420877 -0.05243928 -0.031745724 0.023168555 0.045046277 0.012043536 -0.008710457 0.05470023 0.002896077 -0.025140136 0.006504014 -0.03670552 0.024760924 -0.04110608 -0.008220018 0.00957579 0.041204806 0.019607913 -0.017405288 -0.004982763 -0.026429063 -0.014479911 -0.012616171 0.046948526 -0.049440976 -0.037417438 -0.012743807 0.020836098 0.03219894 0.039608583 0.037417937 -0.011866255 0.051632516 -0.036197003 0.008597151 -0.053356484 -0.009069974 0.010685215 -0.0548002 0.031093094 0.00656151 0.0054215523 0.06110028 -0.013878663 0.019225936 -0.0017378319 -0.025690105 -0.038496427 -0.047618493 0.04481645 -0.00034903875 0.008731425 -0.03617466 -0.027527053 0.0048133577 -0.009658909 0.048273787 -0.00046046928 0.015538712 -0.011743503 0.038310915 0.014274209 -0.017588865 -0.028366406 0.0027250077 -0.021375794 0.05256312 -0.03749732 -0.024346473 0.05580944 0.028601713 0.020318184 -0.012613028 0.015957119 -0.017794108 -0.013413629 -0.026992153 -0.041359104 0.024522003 -0.00794263 -0.0023653365 -0.0138666425 -0.0070648096 0.04273393 0.028999893 0.058095798 -0.024715655 -0.0095264185 0.006620891 0.012912318 0.030050207 -0.03076642 0.002388862 -0.035955828 0.06701983 -0.010117977 0.007706781 0.03750688 -0.0026992112 -0.039846405 0.032142147 0.0067533534 0.029232964 -0.006761617 0.02457732 0.010824673 -0.014583691 0.011025157 0.018666783
*dt_1 -0.028030941 -0.029201992 -0.0066744424 0.004089293 0.013505942 -0.00072429917 -0.011858815 -0.009055309 -0.017887916 0.016360367 0.0003548527 0.0069528283 -0.0059333285 -0.0032868274 -0.007782325 0.0017945764 -0.0016344785 0.011871725 -0.010619449 -0.010336316 -0.008986022 -0.010522666 -0.0011887506 0.009703744 0.0087471595 -0.012441877 -0.014887242 -0.007527026 -0.010923884 -0.014381701 0.00977489 0.0069860597 -0.0059702247 -0.00888529 -0.0012483576 0.007639771 -0.011444457 -0.020898491 0.0012480979 -0.006707454 0.00223244 0.00092460104 0.0059597217 -0.008656215 -0.0002753008 -0.006816468 0.0023977456 0.0036254057 0.0017020362 -0.017608052 -0.018730057 -0.01989119 -0.021892352 -0.016436275 -0.0025270204 0.024621507 0.005133428 0.0065479656 -0.008814355 0.01970314 0.016486667 0.030204607 0.0069854585 0.006171324 -0.00031431648 0.0069480827 0.021808866 0.020813948 0.00097190664 -0.007593115 -0.024729056 -0.004306045 -0.015775675 -0.005399123 0.0017338035 0.012430201 -0.018590083 -0.01658918 -0.00847789 -0.0063910834 0.0006375285 0.014249012 -0.009391913 0.006418642 0.006772744 0.019092472 0.004180959 -0.012777584 -0.0035809479 0.01443438 -0.024071842 0.012909752 -0.026352929 -0.011207485 0.01595548 0.021549826 0.002802618 -0.0041794623 0.02812556 -0.0030869818 -0.012401953 0.008023608 -0.013301041 0.014786616 -0.017521909 -0.0069121188 0.0050713844 0.021713976 0.00926664 -0.01125568 -0.0028305762 -0.016617713 -0.0012641252 0.00034706577 0.020675931 -0.022764437 -0.010093385 -0.004536578 0.010448716 0.017044393 0.012780648 0.018956624 -0.0040814863 0.026721762 -0.013909155 0.008734969 -0.023166634 -0.005770211 0.005568578 -0.026820911 0.011569942 0.0028081858 0.0033642591 0.028688015 -0.0061032255 0.008380803 -0.00550756 -0.015440327 -0.014956975 -0.021346768 0.016793387 0.0035435518 -0.0004574559 -0.010033727 -0.013993386 -0.002671389 -0.009486376 0.021971418 -0.0027061545 0.0128686195 -0.0080333445 0.017848775 0.004312068 -0.0024732044 -0.012214254 -0.0024075361 -0.014919776 0.024334546 -0.020066304 -0.011224718 0.024272332 0.017235793 0.005146271 -0.0055666915 0.0092860265 -0.0030153107 -0.0066194623 -0.013242652 -0.018712366 0.015313532 -0.0073331683 -0.00430661 -0.010002215 -0.005870057 0.02193576 0.011302442 0.029089006 -0.0144130625 -0.0014572694 0.008584128 -0.0015105201 0.011203752 -0.016995123 0.0057774563 -0.01523532 0.031138338 -0.006950526 0.005238597 0.012127065 -0.007004647 -0.017243424 0.012431767 -0.003444642 0.011207327 -0.0052758767 0.013336896 0.00084018876 0.00012021712 0.005014949 0.0054334747
*dt_2 -0.012082699 -0.012372131 -0.0062740417 0.0012125107 -0.0020375657 -0.0020116982 -0.0071988176 0.0031712498 -0.0075164773 0.0074542887 0.0009463153 0.000528817 0.0023365612 0.0031878843 -0.003080912 0.0017907295 -0.0042738793 0.0074270866 -0.004536518 -0.0006139879 -0.0030223976 -0.0012297595 0.0014142527 -0.0023115065 0.0019158784 -0.002671591 -0.0047873817 -0.0028327333 -0.004077463 -0.0020463432 0.0086863665 0.00855223 -0.0052674296 0.0035133823 0.0021550532 0.005162116 -0.0038959226 -0.008896146 0.0029900062 -0.00051038474 -0.0061427406 0.0016679534 -0.0035523495 -0.00830138 -0.0043640533 -0.0003303033 0.0061050393 -0.0032248378 0.0017848671 -0.004192238 -0.0040232795 -0.010872191 -0.005281055 -0.0017732923 -0.0017895742 0.004574538 0.0058456976 -0.000618927 -0.0031145446 0.0083662225 0.008464768 0.005716003 0.00041050938 0.0054025375 0.0011721533 0.0035601484 0.009557578 0.009776122 0.0018589603 -0.005113237 -0.0031219542 -0.0047457796 -0.0057716058 -0.0035280122 -0.0011452085 0.009913937 -0.0049912613 -0.009725106 -0.0027753275 -0.006607517 -0.0006078145 0.0048743193 -0.00532439 -0.002236662 0.0052063386 0.00049751805 0.0009791616 -0.0073187505 -0.003666766 0.009160137 -0.0057031233 0.0018349218 -0.004911343 -0.007825542 0.0034931654 0.0061319857 -0.0035717937 0.0028565612 0.0058203475 -0.0006793284 -0.005261992 -0.0025077327 -0.0055992664 0.007523405 -0.0024477926 0.0011009948 0.0010693959 0.0061258515 -0.0020285244 -0.0029843342 -0.0043866606 0.00020109514 0.001720482 -0.004437207 0.005742779 -0.0053372225 -0.0071309097 0.0027611428 0.0056950194 0.006990709 0.0076322546 0.0009988481 -0.004793288 0.0072580217 -0.007056773 -0.00227793 -0.0122422185 -0.004440805 -0.0029813729 -0.008190598 0.008011318 -0.0022962934 0.0032363296 0.012800427 0.0030189166 0.006421203 0.0007353542 -0.0068000043 -0.0062303036 -0.007102464 0.004608923 -0.004303724 0.0014922335 -0.008694708 -0.0023162093 0.0021208867 0.0011679938 0.0031514156 -0.00039144827 0.0028556276 0.0007130343 0.008261183 0.0033012845 -0.006363409 -0.0045298752 -0.004972028 -0.007022092 0.0122467745 -0.0024458815 -0.0065493467 0.0130226845 0.0028944178 -0.002053874 0.00019773837 0.0037742832 -0.0012814722 0.0019349017 -0.0043502674 -0.0040443665 0.006714237 -0.0052600624 -0.0014929569 -0.0059327544 -0.0041470826 0.009674393 0.003339831 0.009037653 -0.0086087985 -0.0019954867 0.005052515 0.0039542206 0.0048992964 -0.00096667156 0.003965484 -0.010123277 0.014309476 -0.006236988 -0.0029334011 0.004285644 -0.00011178863 -0.008255335 0.004433112 0.0011942453 0.0019061725 -0.0017088953 1.9620984e-06 -0.0014894272 -0.0043417704 -0.0009045489 0.0047353217
*dt_3 -0.019940881 -0.018439462 -0.008810924 -0.0015880741 0.001355268 0.005031365 -0.013101295 -0.006223586 -0.013974155 0.011963184 0.0076357587 0.00038131376 0.0023276303 0.0035034944 -0.011655152 0.0031536904 0.004585909 0.008397033 -0.004241495 -0.008539459 0.003008553 -0.009072987 0.002854206 0.0013054436 0.009284942 -0.011851973 -0.0032515149 -0.0010143707 -0.008790414 -0.011659507 0.009517533 0.005993658 -0.008026125 0.00061491213 0.0031210138 -0.0003238695 -0.002765352 -0.006650726 0.005471887 -0.0002692857 0.0011623179 -0.002015533 -0.0034180318 -0.005634851 -0.0011684488 -0.0075117243 0.0010001989 -0.0010140002 0.007950395 -0.0070432913 -0.011948595 -0.012812337 -0.007830368 -0.010089248 0.004684376 0.016334796 0.0018580981 0.0014372581 -0.011166489 0.013147458 0.008828419 0.020841485 0.0016291026 0.005933751 -0.0012325821 0.0063069565 0.015234754 0.0135852555 -0.0022866663 -0.008216567 -0.008853832 -0.008086929 -0.008435453 0.00069650594 0.0016771725 0.013972286 -0.006957804 -0.009641264 -0.0018544965 0.00062324846 0.0007663192 0.0068336567 -0.0028900113 0.0041499077 0.0015325147 0.01195069 -0.00014205085 -0.003963115 -0.0051282104 0.009762706 -0.014050421 0.012767056 -0.016204365 -0.01279548 0.010909791 0.005418088 0.006417789 -0.0051662405 0.0100900205 0.005737553 -0.002247224 0.00567138 -0.012122451 0.004903793 -0.01132609 0.00070015556 0.008026118 0.007893519 0.002837389 -0.01019485 0.0029095428 -0.006662379 -0.007308329 -0.0063687144 0.0097374525 -0.010092257 -0.011441693 -0.00083653623 0.0009832536 0.0061538513 0.0049600033 0.007879862 0.0013306141 0.008568087 -0.0070744227 0.0024829009 -0.015795847 0.0019542258 0.007273121 -0.018957801 0.01249891 0.003400792 -0.000108007145 0.02108047 0.0016527592 0.007185228 -0.00083153084 -0.010424268 -0.0066682026 -0.015548756 0.014488138 -0.002733697 0.0040643523 -0.011780837 -0.007401435 0.0016369855 -0.0032639876 0.014226745 -0.0032247799 0.00903966 0.0004956337 0.005712968 -0.0003565661 0.0016739871 -0.0068495166 -0.0031457958 -0.008650333 0.009415363 -0.009102874 -0.0057806224 0.018290423 0.0019570247 0.00875494 0.0012820462 0.0034256855 -0.0053467616 0.0021358144 -0.0032154485 -0.0074008657 0.011122092 -0.008583081 0.0027385766 -0.0063734343 -0.0072546187 0.008330875 0.011479228 0.019563748 -0.0023849665 -0.0036154597 0.0009830447 0.003692646 0.010644125 -0.0026157785 -0.00021782951 -0.0077725467 0.018973121 -0.0018709849 0.0055465945 0.012257263 -0.0029174613 -0.014607129 0.013116159 -0.0028425136 0.004272929 0.0030030857 0.00666195 0.006747007 -0.0052770306 0.008299667 0.0074420087
*dt_4 -0.019247996 -0.020137936 -0.006025388 0.0025491144 0.0024114398 0.003893423 -0.016316019 -0.004262041 -0.015763441 0.010709474 0.009258862 0.0020011815 0.002295746 -0.003407029 -0.01217941 -0.0004576146 -0.00034772305 0.0065003675 -0.0038201609 -0.005119363 0.0029367227 -0.0028441045 -0.0072148195 0.0059500574 0.010807971 -0.008994616 -0.014683298 -0.0028417194 -0.010755098 -0.01579525 0.009630155 0.010645615 -0.011692879 0.00071744446 -0.0007631181 0.004630822 -0.0047179223 -0.016088678 0.0021788634 -0.003607563 -0.0038969722 -0.0024624835 -0.0044169016 -0.0056548472 0.002675269 -0.00029093897 0.0050779916 0.0017647359 -0.00036482388 -0.00403273 -0.012204032 -0.017127382 -0.016680133 -0.013392329 0.00061703834 0.018394219 6.141056e-05 -5.8653703e-05 -0.004242679 0.01341278 0.013366907 0.017988259 -0.002690347 0.007965748 0.0019755124 0.003072889 0.013354969 0.007814732 -0.003238311 -0.012403759 -0.017777655 -0.008665716 -0.015267802 -0.0016142068 0.0028517803 0.01370828 -0.009829543 -0.0065231496 -0.005975812 -0.0057036816 -0.0007502854 0.010663891 -0.0012576807 0.008130305 0.009735281 0.012541898 0.004320639 -0.013469255 0.00342949 0.012971617 -0.016697502 0.015338138 -0.016121475 -0.005345662 0.014203374 0.009781347 0.0019981558 0.0011703867 0.017340802 -0.0043181484 -0.0042310986 0.0016821427 -0.015523691 0.005239521 -0.014787372 0.0021785367 0.005354382 0.010097129 0.0036986528 -0.010934742 -0.0040014335 -0.0036526169 -0.009294151 0.001815948 0.016341804 -0.019353103 -0.008591467 -0.008962364 0.008030834 0.004822385 0.014757117 0.010083645 0.0020528533 0.018029645 -0.0044502458 0.00011908202 -0.017366983 -0.003715738 0.00035472072 -0.01656299 0.007919561 0.0020836378 0.0057771998 0.023781361 -0.005339022 0.011765334 0.0032189968 -0.013725134 -0.010495005 -0.019110736 0.015885824 0.0015448384 -0.00066321105 -0.005789784 -0.0125747 0.0050249854 -0.00692895 0.015457216 0.0041863783 0.011712445 -0.00422777 0.010714272 -0.0025881857 -0.001912059 -0.010163875 -0.006107851 -0.009994852 0.018119056 -0.012865155 -0.011063037 0.014888073 0.0071306634 0.0012317856 -0.007351903 0.0037876377 -0.0030947598 -0.0028972349 -0.0038391498 -0.014716506 0.013334345 0.00013094295 0.00016454124 -0.010616161 -0.0057608397 0.008595 0.0132854 0.022213966 -0.0085243285 0.00089157 -3.7264832e-05 0.0010824606 0.011356925 -0.006428992 0.0018434039 -0.009441329 0.025510844 0.0012861456 0.0009836315 0.007059744 -0.00045689358 -0.009573417 0.0071959468 0.0061385236 0.012579114 0.0019318734 0.0069041294 -0.0028573882 -0.003372988 -0.0017678038 0.002786857
*dt_0 -0.055861562 -0.05729453 -0.03179841 0.01962253 0.018970793 0.00271008 -0.045085385 -0.015232273 -0.049826346 0.032701783 0.014420034 0.011066712 -0.0062515815 -0.0040636533 -0.025657631 -0.012463755 0.0012003578 0.035726767 -0.029482966 -0.024575135 -0.008405223 -0.011973618 -0.012610774 0.013662433 0.029293295 -0.036776155 -0.036004547 -0.026662393 -0.013772445 -0.041554723 0.032003965 0.028740875 -0.028547125 -0.010710024 0.00047256245 0.012330858 -0.014962321 -0.04602242 0.00016080317 -0.0066137947 -0.008320012 -0.013603004 0.0049750255 -0.02818698 0.007798981 -0.017020224 0.008253039 -0.0015349815 0.016206063 -0.03207455 -0.03091995 -0.035058007 -0.044352025 -0.037715744 -0.0023181427 0.051786833 0.005304293 0.009634664 -0.026309472 0.04621286 0.032970678 0.061065566 0.010321561 0.009251992 0.003125483 0.006292295 0.04340866 0.035851706 -0.007935898 -0.026945608 -0.047218945 -0.015836604 -0.03816214 -0.021565406 -0.008522819 0.032949183 -0.033767287 -0.03838092 -0.011095513 -0.008635434 0.01314293 0.028126 -0.026532754 0.0141721 0.026880555 0.031542424 0.009450099 -0.028160451 0.007188881 0.030345788 -0.04859703 0.039420877 -0.05243928 -0.031745724 0.023168555 0.045046277 0.012043536 -0.008710457 0.05470023 0.002896077 -0.025140136 0.006504014 -0.03670552 0.024760924 -0.04110608 -0.008220018 0.00957579 0.041204806 0.019607913 -0.017405288 -0.004982763 -0.026429063 -0.014479911 -0.012616171 0.046948526 -0.049440976 -0.037417438 -0.012743807 0.020836098 0.03219894 0.039608583 0.037417937 -0.011866255 0.051632516 -0.036197003 0.008597151 -0.053356484 -0.009069974 0.010685215 -0.0548002 0.031093094 0.00656151 0.0054215523 0.06110028 -0.013878663 0.019225936 -0.0017378319 -0.025690105 -0.038496427 -0.047618493 0.04481645 -0.00034903875 0.008731425 -0.03617466 -0.027527053 0.0048133577 -0.009658909 0.048273787 -0.00046046928 0.015538712 -0.011743503 0.038310915 0.014274209 -0.017588865 -0.028366406 0.0027250077 -0.021375794 0.05256312 -0.03749732 -0.024346473 0.05580944 0.028601713 0.020318184 -0.012613028 0.015957119 -0.017794108 -0.013413629 -0.026992153 -0.041359104 0.024522003 -0.00794263 -0.0023653365 -0.0138666425 -0.0070648096 0.04273393 0.028999893 0.058095798 -0.024715655 -0.0095264185 0.006620891 0.012912318 0.030050207 -0.03076642 0.002388862 -0.035955828 0.06701983 -0.010117977 0.007706781 0.03750688 -0.0026992112 -0.039846405 0.032142147 0.0067533534 0.029232964 -0.006761617 0.02457732 0.010824673 -0.014583691 0.011025157 0.018666783
*dt_1 -0.028030941 -0.029201992 -0.0066744424 0.004089293 0.013505942 -0.00072429917 -0.011858815 -0.009055309 -0.017887916 0.016360367 0.0003548527 0.0069528283 -0.0059333285 -0.0032868274 -0.007782325 0.0017945764 -0.0016344785 0.011871725 -0.010619449 -0.010336316 -0.008986022 -0.010522666 -0.0011887506 0.009703744 0.0087471595 -0.012441877 -0.014887242 -0.007527026 -0.010923884 -0.014381701 0.00977489 0.0069860597 -0.0059702247 -0.00888529 -0.0012483576 0.007639771 -0.011444457 -0.020898491 0.0012480979 -0.006707454 0.00223244 0.00092460104 0.0059597217 -0.008656215 -0.0002753008 -0.006816468 0.0023977456 0.0036254057 0.0017020362 -0.017608052 -0.018730057 -0.01989119 -0.021892352 -0.016436275 -0.0025270204 0.024621507 0.005133428 0.0065479656 -0.008814355 0.01970314 0.016486667 0.030204607 0.0069854585 0.006171324 -0.00031431648 0.0069480827 0.021808866 0.020813948 0.00097190664 -0.007593115 -0.024729056 -0.004306045 -0.015775675 -0.005399123 0.0017338035 0.012430201 -0.018590083 -0.01658918 -0.00847789 -0.0063910834 0.0006375285 0.014249012 -0.009391913 0.006418642 0.006772744 0.019092472 0.004180959 -0.012777584 -0.0035809479 0.01443438 -0.024071842 0.012909752 -0.026352929 -0.011207485 0.01595548 0.021549826 0.002802618 -0.0041794623 0.02812556 -0.0030869818 -0.012401953 0.008023608 -0.013301041 0.014786616 -0.017521909 -0.0069121188 0.0050713844 0.021713976 0.00926664 -0.01125568 -0.0028305762 -0.016617713 -0.0012641252 0.00034706577 0.020675931 -0.022764437 -0.010093385 -0.004536578 0.010448716 0.017044393 0.012780648 0.018956624 -0.0040814863 0.026721762 -0.013909155 0.008734969 -0.023166634 -0.005770211 0.005568578 -0.026820911 0.011569942 0.0028081858 0.0033642591 0.028688015 -0.0061032255 0.008380803 -0.00550756 -0.015440327 -0.014956975 -0.021346768 0.016793387 0.0035435518 -0.0004574559 -0.010033727 -0.013993386 -0.002671389 -0.009486376 0.021971418 -0.0027061545 0.0128686195 -0.0080333445 0.017848775 0.004312068 -0.0024732044 -0.012214254 -0.0024075361 -0.014919776 0.024334546 -0.020066304 -0.011224718 0.024272332 0.017235793 0.005146271 -0.0055666915 0.0092860265 -0.0030153107 -0.0066194623 -0.013242652 -0.018712366 0.015313532 -0.0073331683 -0.00430661 -0.010002215 -0.005870057 0.02193576 0.011302442 0.029089006 -0.0144130625 -0.0014572694 0.008584128 -0.0015105201 0.011203752 -0.016995123 0.0057774563 -0.01523532 0.031138338 -0.006950526 0.005238597 0.012127065 -0.007004647 -0.017243424 0.012431767 -0.003444642 0.011207327 -0.0052758767 0.013336896 0.00084018876 0.00012021712 0.005014949 0.0054334747
*dt_2 -0.012082699 -0.012372131 -0.0062740417 0.0012125107 -0.0020375657 -0.0020116982 -0.0071988176 0.0031712498 -0.0075164773 0.0074542887 0.0009463153 0.000528817 0.0023365612 0.0031878843 -0.003080912 0.0017907295 -0.0042738793 0.0074270866 -0.004536518 -0.0006139879 -0.0030223976 -0.0012297595 0.0014142527 -0.0023115065 0.0019158784 -0.002671591 -0.0047873817 -0.0028327333 -0.004077463 -0.0020463432 0.0086863665 0.00855223 -0.0052674296 0.0035133823 0.0021550532 0.005162116 -0.0038959226 -0.008896146 0.0029900062 -0.00051038474 -0.0061427406 0.0016679534 -0.0035523495 -0.00830138 -0.0043640533 -0.0003303033 0.0061050393 -0.0032248378 0.0017848671 -0.004192238 -0.0040232795 -0.010872191 -0.005281055 -0.0017732923 -0.0017895742 0.004574538 0.0058456976 -0.000618927 -0.0031145446 0.0083662225 0.008464768 0.005716003 0.00041050938 0.0054025375 0.0011721533 0.0035601484 0.009557578 0.009776122 0.0018589603 -0.005113237 -0.0031219542 -0.0047457796 -0.0057716058 -0.0035280122 -0.0011452085 0.009913937 -0.0049912613 -0.009725106 -0.0027753275 -0.006607517 -0.0006078145 0.0048743193 -0.00532439 -0.002236662 0.0052063386 0.00049751805 0.0009791616 -0.0073187505 -0.003666766 0.009160137 -0.0057031233 0.0018349218 -0.004911343 -0.007825542 0.0034931654 0.0061319857 -0.0035717937 0.0028565612 0.0058203475 -0.0006793284 -0.005261992 -0.0025077327 -0.0055992664 0.007523405 -0.0024477926 0.0011009948 0.0010693959 0.0061258515 -0.0020285244 -0.0029843342 -0.0043866606 0.00020109514 0.001720482 -0.004437207 0.005742779 -0.0053372225 -0.0071309097 0.0027611428 0.0056950194 0.006990709 0.0076322546 0.0009988481 -0.004793288 0.0072580217 -0.007056773 -0.00227793 -0.0122422185 -0.004440805 -0.0029813729 -0.008190598 0.008011318 -0.0022962934 0.0032363296 0.012800427 0.0030189166 0.006421203 0.0007353542 -0.0068000043 -0.0062303036 -0.007102464 0.004608923 -0.004303724 0.0014922335 -0.008694708 -0.0023162093 0.0021208867 0.0011679938 0.0031514156 -0.00039144827 0.0028556276 0.0007130343 0.008261183 0.0033012845 -0.006363409 -0.0045298752 -0.004972028 -0.007022092 0.0122467745 -0.0024458815 -0.0065493467 0.0130226845 0.0028944178 -0.002053874 0.00019773837 0.0037742832 -0.0012814722 0.0019349017 -0.0043502674 -0.0040443665 0.006714237 -0.0052600624 -0.0014929569 -0.0059327544 -0.0041470826 0.009674393 0.003339831 0.009037653 -0.0086087985 -0.0019954867 0.005052515 0.0039542206 0.0048992964 -0.00096667156 0.003965484 -0.010123277 0.014309476 -0.006236988 -0.0029334011 0.004285644 -0.00011178863 -0.008255335 0.004433112 0.0011942453 0.0019061725 -0.0017088953 1.9620984e-06 -0.0014894272 -0.0043417704 -0.0009045489 0.0047353217
*dt_3 -0.019940881 -0.018439462 -0.008810924 -0.0015880741 0.001355268 0.005031365 -0.013101295 -0.006223586 -0.013974155 0.011963184 0.0076357587 0.00038131376 0.0023276303 0.0035034944 -0.011655152 0.0031536904 0.004585909 0.008397033 -0.004241495 -0.008539459 0.003008553 -0.009072987 0.002854206 0.0013054436 0.009284942 -0.011851973 -0.0032515149 -0.0010143707 -0.008790414 -0.011659507 0.009517533 0.005993658 -0.008026125 0.00061491213 0.0031210138 -0.0003238695 -0.002765352 -0.006650726 0.005471887 -0.0002692857 0.0011623179 -0.002015533 -0.0034180318 -0.005634851 -0.0011684488 -0.0075117243 0.0010001989 -0.0010140002 0.007950395 -0.0070432913 -0.011948595 -0.012812337 -0.007830368 -0.010089248 0.004684376 0.016334796 0.0018580981 0.0014372581 -0.011166489 0.013147458 0.008828419 0.020841485 0.0016291026 0.005933751 -0.0012325821 0.0063069565 0.015234754 0.0135852555 -0.0022866663 -0.008216567 -0.008853832 -0.008086929 -0.008435453 0.00069650594 0.0016771725 0.013972286 -0.006957804 -0.009641264 -0.0018544965 0.00062324846 0.0007663192 0.0068336567 -0.0028900113 0.0041499077 0.0015325147 0.01195069 -0.00014205085 -0.003963115 -0.0051282104 0.009762706 -0.014050421 0.012767056 -0.016204365 -0.01279548 0.010909791 0.005418088 0.006417789 -0.0051662405 0.0100900205 0.005737553 -0.002247224 0.00567138 -0.012122451 0.004903793 -0.01132609 0.00070015556 0.008026118 0.007893519 0.002837389 -0.01019485 0.0029095428 -0.006662379 -0.007308329 -0.0063687144 0.0097374525 -0.010092257 -0.011441693 -0.00083653623 0.0009832536 0.0061538513 0.0049600033 0.007879862 0.0013306141 0.008568087 -0.0070744227 0.0024829009 -0.015795847 0.0019542258 0.007273121 -0.018957801 0.01249891 0.003400792 -0.000108007145 0.02108047 0.0016527592 0.007185228 -0.00083153084 -0.010424268 -0.0066682026 -0.015548756 0.014488138 -0.002733697 0.0040643523 -0.011780837 -0.007401435 0.0016369855 -0.0032639876 0.014226745 -0.0032247799 0.00903966 0.0004956337 0.005712968 -0.0003565661 0.0016739871 -0.0068495166 -0.0031457958 -0.008650333 0.009415363 -0.009102874 -0.0057806224 0.018290423 0.0019570247 0.00875494 0.0012820462 0.0034256855 -0.0053467616 0.0021358144 -0.0032154485 -0.0074008657 0.011122092 -0.008583081 0.0027385766 -0.0063734343 -0.0072546187 0.008330875 0.011479228 0.019563748 -0.0023849665 -0.0036154597 0.0009830447 0.003692646 0.010644125 -0.0026157785 -0.00021782951 -0.0077725467 0.018973121 -0.0018709849 0.0055465945 0.012257263 -0.0029174613 -0.014607129 0.013116159 -0.0028425136 0.004272929 0.0030030857 0.00666195 0.006747007 -0.0052770306 0.008299667 0.0074420087
*dt_4 -0.019247996 -0.020137936 -0.006025388 0.0025491144 0.0024114398 0.003893423 -0.016316019 -0.004262041 -0.015763441 0.010709474 0.009258862 0.0020011815 0.002295746 -0.003407029 -0.01217941 -0.0004576146 -0.00034772305 0.0065003675 -0.0038201609 -0.005119363 0.0029367227 -0.0028441045 -0.0072148195 0.0059500574 0.010807971 -0.008994616 -0.014683298 -0.0028417194 -0.010755098 -0.01579525 0.009630155 0.010645615 -0.011692879 0.00071744446 -0.0007631181 0.004630822 -0.0047179223 -0.016088678 0.0021788634 -0.003607563 -0.0038969722 -0.0024624835 -0.0044169016 -0.0056548472 0.002675269 -0.00029093897 0.0050779916 0.0017647359 -0.00036482388 -0.00403273 -0.012204032 -0.017127382 -0.016680133 -0.013392329 0.00061703834 0.018394219 6.141056e-05 -5.8653703e-05 -0.004242679 0.01341278 0.013366907 0.017988259 -0.002690347 0.007965748 0.0019755124 0.003072889 0.013354969 0.007814732 -0.003238311 -0.012403759 -0.017777655 -0.008665716 -0.015267802 -0.0016142068 0.0028517803 0.01370828 -0.009829543 -0.0065231496 -0.005975812 -0.0057036816 -0.0007502854 0.010663891 -0.0012576807 0.008130305 0.009735281 0.012541898 0.004320639 -0.013469255 0.00342949 0.012971617 -0.016697502 0.015338138 -0.016121475 -0.005345662 0.014203374 0.009781347 0.0019981558 0.0011703867 0.017340802 -0.0043181484 -0.0042310986 0.0016821427 -0.015523691 0.005239521 -0.014787372 0.0021785367 0.005354382 0.010097129 0.0036986528 -0.010934742 -0.0040014335 -0.0036526169 -0.009294151 0.001815948 0.016341804 -0.019353103 -0.008591467 -0.008962364 0.008030834 0.004822385 0.014757117 0.010083645 0.0020528533 0.018029645 -0.0044502458 0.00011908202 -0.017366983 -0.003715738 0.00035472072 -0.01656299 0.007919561 0.0020836378 0.0057771998 0.023781361 -0.005339022 0.011765334 0.0032189968 -0.013725134 -0.010495005 -0.019110736 0.015885824 0.0015448384 -0.00066321105 -0.005789784 -0.0125747 0.0050249854 -0.00692895 0.015457216 0.0041863783 0.011712445 -0.00422777 0.010714272 -0.0025881857 -0.001912059 -0.010163875 -0.006107851 -0.009994852 0.018119056 -0.012865155 -0.011063037 0.014888073 0.0071306634 0.0012317856 -0.007351903 0.0037876377 -0.0030947598 -0.0028972349 -0.0038391498 -0.014716506 0.013334345 0.00013094295 0.00016454124 -0.010616161 -0.0057608397 0.008595 0.0132854 0.022213966 -0.0085243285 0.00089157 -3.7264832e-05 0.0010824606 0.011356925 -0.006428992 0.0018434039 -0.009441329 0.025510844 0.0012861456 0.0009836315 0.007059744 -0.00045689358 -0.009573417 0.0071959468 0.0061385236 0.012579114 0.0019318734 0.0069041294 -0.0028573882 -0.003372988 -0.0017678038 0.002786857
