21 200
*dt_0 -110.44122 -43.839565 -37.24894 38.113262 -145.29245 91.4781 -62.349667 -34.650265 67.46973 61.238926 111.38718 -26.671959 -73.36603 -42.45455 12.0608835 101.141594 21.794083 -49.65708 66.415215 107.10106 103.73674 -16.412771 -41.789608 -141.02052 54.447243 -97.91505 99.47482 75.43152 -19.63149 26.399649 -24.139822 -11.378956 -28.603424 19.415485 -6.9416656 -23.079884 141.33878 98.27317 1.5610771 -62.74151 1.6289663 124.29347 40.390102 2.5475254 -23.48196 -57.093254 -11.528967 109.57419 108.82026 -15.653033 -123.16373 76.167656 125.757416 163.36339 -148.13275 41.0425 8.487562 -22.441826 73.0354 -15.971832 -126.5523 -21.408516 -60.025707 -83.07321 -59.082123 -36.964417 38.05155 13.649443 4.7886257 -0.35858202 81.765076 -8.056591 100.5173 26.90737 30.846653 39.03959 -8.647985 -163.88832 -48.997627 -5.734111 -20.396025 61.761765 -47.154232 -82.21838 -20.846996 30.861998 86.80764 7.758416 -45.582516 -63.814003 -61.166595 55.47682 26.048225 -25.298157 39.40133 -121.67372 -46.395443 -20.463512 -78.10204 -2.1428962 50.896942 95.80204 -104.367966 9.920636 -92.66917 -73.229454 13.653602 75.63927 32.48016 -114.58351 28.756365 -99.20382 -54.255722 -7.457819 17.862337 63.53402 118.23113 -48.98792 -13.43272 111.35326 15.371416 -84.75931 4.1939793 39.38124 48.95354 -16.001818 19.025599 -60.33853 -33.045376 -95.072586 69.76872 -27.012192 22.267536 48.535046 -22.382198 -95.592575 -78.678345 -24.29078 131.82352 32.190742 -118.307556 -56.387497 -147.83191 -27.627977 -72.57707 -35.264683 69.589676 -47.24355 -93.223595 -46.286945 27.589008 -66.00869 123.85383 75.30327 -33.749477 -33.79423 86.35656 45.84629 -88.204865 -19.230745 -74.28702 -45.4597 21.843208 -8.03142 -64.89801 27.363394 109.13259 -52.768513 3.278009 98.24533 7.812178 70.92239 82.66174 -25.564856 -64.91405 4.9093413 29.67842 -70.6564 -96.22508 75.26482 -62.46324 -8.034844 58.338833 -7.44228 -47.74411 113.199265 -21.91817 14.349155 121.35057 -30.778584 53.10877 4.1769733 -31.75544 -68.55324 21.737011 70.714935 134.95612 -25.55803 -63.25506 88.42499
*dt_1 -77.67446 167.82394 -79.84241 41.870895 -253.98317 182.77937 -152.80876 -41.674828 34.42761 59.067036 28.73616 -43.700874 -77.25288 -66.080345 -6.170331 80.865685 -1.2248974 -19.904646 -7.516175 43.306595 90.46645 -33.021637 -52.26409 -30.735405 139.64673 -107.84391 35.73256 -94.55004 -29.79578 -41.38863 -75.19706 91.64971 -14.009467 38.95705 66.273605 0.25313044 181.48663 20.610085 170.77711 -17.597523 -51.99902 -103.22854 -47.43816 58.64483 21.610434 15.830933 146.98459 76.28076 48.956944 2.3147159 -8.128643 199.38867 1.6372366 220.28485 -30.813416 55.31679 -15.531545 -116.087105 94.60217 105.11332 -9.547602 -51.79864 -126.50695 -139.64618 14.918508 -148.41245 62.07462 34.5988 -35.52517 -45.318398 171.26572 52.78351 89.71585 -5.3729854 -26.049618 76.738754 -18.894213 -85.683655 -139.01834 116.82474 124.94351 54.03098 24.005217 -26.869482 31.341816 8.986357 69.338104 -10.997435 123.13734 -78.54001 -87.31747 34.607227 66.07029 60.07703 29.368235 -15.487831 -50.739746 16.092505 -116.67039 0.5012629 -22.935818 78.79148 -135.29054 -80.37564 -169.3713 0.49985415 47.427013 50.93134 100.29029 -44.48291 32.094906 -66.93024 -113.051186 24.537525 36.13286 -9.995617 0.5666554 -110.76538 -50.020855 63.904278 73.7988 0.9906831 32.621773 -54.17708 -60.22853 -58.30407 3.9944158 -50.879864 43.340412 -128.14024 104.70222 -66.966705 30.942764 57.690468 -109.79558 -0.19171125 -43.129086 20.411665 120.35132 45.554333 -79.79822 22.48506 -51.714603 -67.144936 25.156693 7.4604564 154.72665 30.190805 -16.013657 -43.92588 1.2187266 -27.165264 83.926445 -17.171572 34.763577 -10.0606785 -5.3812857 24.498774 -124.19786 95.868195 -27.201204 -127.27284 69.03698 -60.296455 -27.051136 -43.41078 94.55204 -1.4598881 66.73131 42.34349 14.095731 -47.132618 41.792404 35.755066 8.772873 -41.606834 -54.74068 -80.023735 -92.021416 73.42615 122.66245 138.21045 150.42911 -103.21094 -24.32793 21.664707 -96.86327 -51.014595 214.25558 -4.144267 58.045593 -26.9587 33.45621 -87.72466 146.41132 37.714474 219.97133 -77.333206 -82.681816 122.24574
*dt_2 -228.83122 -107.42952 -58.020515 -142.4577 -182.26315 223.34637 -75.31727 -147.75993 37.484825 -0.7840187 139.6861 -12.718012 -178.66422 -84.59655 -43.143803 83.000084 109.40196 -83.45525 30.723513 96.252464 56.314312 -40.091946 -124.64924 -112.686646 250.86958 -212.38948 16.959778 32.774235 -160.79562 -45.938095 -83.80839 81.66261 9.989948 -67.27834 -136.4635 36.22756 179.71536 71.13833 73.3308 -138.4091 17.978962 14.788108 -73.04294 67.888405 110.40979 -54.511936 43.537766 178.6634 68.68242 -119.01734 -107.964294 69.5384 -31.190027 73.334946 -45.718487 44.86952 83.25673 102.11658 121.0834 42.5493 3.1974654 16.351728 -65.79312 -190.96658 -0.02345109 -81.425545 74.98893 45.545086 24.270042 5.6465497 -6.0576444 69.17655 0.61809456 61.10728 16.131159 47.65677 54.282207 -75.77895 -72.64509 165.79877 -111.70163 82.43998 -22.353848 14.230048 -9.053285 166.2738 151.43428 68.50967 19.512053 -129.09515 -233.31776 63.193768 -114.30466 131.8335 96.08749 -149.28833 -97.504906 -145.04407 -101.65875 -53.62757 26.32912 144.59373 -161.75037 -6.950863 -134.59158 17.26114 114.99606 148.31706 102.4742 -168.89601 106.09707 -165.08488 41.178516 61.111958 18.089361 56.02625 105.63679 -178.09604 -39.382248 23.689096 -110.86479 -23.601444 -5.026931 56.131077 11.604318 -119.34017 -18.890713 50.34201 54.94699 -268.04807 204.04053 -8.792302 15.061173 84.77462 -117.514496 3.7045674 -70.466774 42.74513 24.199158 60.535793 -62.1858 103.58409 20.666082 -17.179802 -89.51587 68.22968 -22.81341 87.3994 -81.38258 60.34108 106.761856 -45.35269 -88.50458 14.198198 -142.75964 112.75854 13.168112 80.45085 -227.20204 34.353455 -35.607388 1.6938434 38.319553 -58.463852 -8.159096 -52.2347 92.95347 -130.05334 48.45963 44.99581 26.567406 56.64736 115.138 56.315502 -36.507046 42.713802 144.52742 -174.1626 11.870062 103.572334 6.5999546 142.60457 69.458916 23.780563 -53.649464 91.666245 18.056343 -38.042896 199.7575 -17.985268 -19.034132 1.0847539 -44.58335 4.9609985 -0.35289973 202.21146 237.56137 -15.058768 -147.13452 76.91316
*dt_3 -83.11454 -134.44693 -58.560345 116.45396 -317.3983 171.83177 -146.29347 71.1768 192.94012 25.516209 98.478096 -3.7903554 -157.73367 0.11325437 60.33167 180.0278 56.979107 94.11694 5.097865 50.128914 47.51365 60.680065 25.94542 -16.828176 95.66139 -244.1161 -72.75944 38.06605 -16.221296 71.26177 -64.5634 69.89253 -47.100548 -92.03592 -33.801346 69.13002 124.54184 -25.014877 82.33297 -134.34099 -50.549034 96.03576 -64.7635 18.25998 -89.64133 -61.221664 23.625393 237.80827 29.676144 -18.979925 -202.11682 32.283905 -16.693968 189.36333 -270.65048 125.99932 20.398703 40.145782 217.15227 20.909737 -29.214954 -37.66626 -130.04947 -97.489944 -36.83694 -84.34501 64.714905 -97.86074 -44.25072 42.60836 52.320957 -14.347597 13.396723 19.79041 107.83209 -87.642685 134.02281 -193.1799 -182.5354 29.664024 4.0106163 -15.796948 -112.53741 -62.05712 16.8412 84.14102 94.147064 -69.48963 -44.85101 -11.539877 -163.09023 101.51771 34.327175 152.28746 61.780327 -37.554157 -98.620285 -15.781969 36.45824 13.934578 77.73798 29.512512 -161.58487 32.537804 -180.01944 -63.60422 -31.245296 125.75936 20.06416 -106.21657 -4.47598 -194.35892 -54.42813 -19.972664 7.5832367 23.508442 37.033913 -188.69354 92.02667 17.159313 75.209206 -84.0197 -69.769615 12.610351 8.549294 -18.018267 -76.33231 -81.879555 21.72142 -7.6486807 75.604515 61.729015 18.90688 72.56101 -115.31175 -27.301275 -127.635 -49.74866 103.26847 -22.328495 -114.7091 148.56071 -197.38885 -8.420888 -203.5203 -40.221645 -2.3290048 -111.41392 54.962357 32.633232 -23.447216 -45.853775 -18.514706 137.75633 -143.48706 -11.108673 14.601594 -4.3895392 -167.92874 -19.268843 -89.454124 53.576065 3.1224108 -37.88486 -109.6549 -23.484222 121.91725 -136.5663 -108.55278 76.92618 175.57588 71.859665 12.039262 96.15655 57.167477 -30.416418 79.49564 -74.72635 -65.18543 180.45547 12.259784 215.04553 42.824043 39.185596 -193.39098 176.68507 -92.53324 -95.4796 55.02736 -20.842518 73.51349 -21.042692 -52.021347 74.22224 -39.354828 72.41481 222.93231 -25.336216 -90.63399 160.37753
*dt_4 -113.90651 16.473183 -31.560593 2.7925525 -224.93796 103.36885 -52.49777 8.420532 104.33592 -28.454874 109.60391 -1.2589526 -146.9625 -21.175426 -18.165953 68.85719 54.829533 14.289891 49.14301 28.305445 59.867256 -20.380575 -25.478014 -77.8233 54.763405 -100.18372 131.71503 27.529148 -87.609795 23.525656 -51.250088 11.533801 -13.466705 61.94784 -79.0729 -50.77205 164.56076 111.47461 133.2581 -149.44919 92.93784 184.35185 -70.34418 -22.536524 35.496742 -88.98248 47.742104 131.59186 153.07274 -53.38281 -119.82925 187.43922 62.255276 86.48375 -90.81267 -7.3484554 28.043882 34.850723 87.96355 -17.115242 -79.506744 57.045116 -64.66592 -47.322254 -20.120111 -49.921288 16.22875 7.1050367 106.50963 -70.43471 81.14017 34.178024 140.3079 113.774765 36.654472 44.366756 -1.7954388 -199.78517 -84.427765 134.85599 -16.431242 16.405754 2.8693314 -75.67276 16.310234 99.465546 185.36441 -6.280949 -61.606968 -99.402824 -57.32911 15.491929 -12.33279 16.011625 121.597664 -109.55243 6.3823943 8.403446 -96.43592 23.023464 -14.3957815 139.52351 -95.609055 39.58509 -107.85737 -90.29465 40.355675 45.6036 70.974014 -194.68219 66.9856 -149.52682 -10.088294 41.796135 -35.30284 110.229034 -17.78005 -49.858658 -72.84504 26.138964 19.547518 -110.547935 16.345299 -28.633835 51.035545 -70.68318 -4.53916 -80.481636 32.2952 -51.472622 63.085865 -1.5282788 41.301243 115.26822 -37.050404 -60.53465 -99.747475 -9.58413 18.731762 58.552807 -93.616295 -9.735546 -100.9445 -32.04628 -16.169256 -79.66614 73.29382 -31.341545 -41.012306 3.2738733 -21.168058 -90.888275 98.4784 117.57201 -39.916878 -13.811509 152.23802 13.350358 -108.374245 -40.07967 -48.35938 4.3927007 71.98729 -36.698997 -28.666206 -28.172167 58.317413 -145.92763 16.527592 28.727787 57.465195 127.738655 91.2742 29.309847 41.422806 50.510963 15.750426 -93.89852 -163.9181 159.68231 22.883717 97.68625 95.76244 -19.670015 -91.937454 101.910736 -56.469646 30.951998 125.51747 42.549263 11.800793 54.596684 -119.80965 -36.58285 -4.933596 89.90214 260.5441 62.25123 -99.855545 57.65082
*dt_5 37.560215 -39.737087 -103.57654 55.506638 -308.94394 206.71152 27.158329 -20.188984 15.322475 65.9527 175.90483 96.704445 -75.295784 29.625895 -149.12256 38.45869 104.93282 -5.513774 41.07181 99.505325 124.30247 -65.83688 -39.776356 -93.63658 166.16162 -137.44862 170.38449 47.72204 -166.89388 -21.977648 -25.89921 -20.303064 -9.228184 10.913532 -80.063835 -22.160723 98.13229 165.90865 159.56506 -121.0115 -58.420036 211.04677 -53.598015 -18.70211 -93.73643 -96.44642 -61.768867 159.32402 149.15645 -126.17544 -82.8841 110.46803 77.838425 118.918976 -104.33055 2.9601552 -102.14732 -102.3492 135.58728 186.7283 -170.39146 57.987823 -175.70683 -44.935303 63.435055 -128.28722 54.16061 -71.517166 -19.772846 1.4077485 208.30956 -73.20107 73.78448 74.68303 -11.562245 -85.3872 -85.531525 -179.06227 -11.422437 112.855194 -132.25462 -5.258286 -17.424812 -84.24623 73.26102 -24.448269 83.57134 -85.46913 -6.6204815 -55.258343 -77.475365 43.482304 -22.973783 110.29354 52.70106 -43.552525 -5.9496746 40.990025 -81.42416 26.343782 6.403659 155.25674 -127.7103 -24.209614 -61.204082 -12.332207 26.486847 96.772766 83.24248 -195.0552 157.16733 -123.51991 22.915022 -116.76013 48.169926 83.96223 24.166927 9.834714 -80.03561 -66.090836 68.287094 -20.980476 -4.7818093 -102.68543 5.1065016 -169.97879 60.62997 -136.98364 87.149864 -102.43706 140.01067 -129.43448 32.207993 100.99677 -114.86839 -59.90418 -162.34215 -60.903793 87.107635 43.11622 -152.91093 28.1183 60.584446 122.12735 -49.295265 38.983425 63.56266 -80.43933 -134.2163 -42.228916 -2.8012583 -6.7535625 64.74656 159.6418 100.66475 -88.919876 48.68376 -53.929176 -206.78374 71.11018 -100.49451 -38.48842 92.6831 -29.824865 3.7284298 33.354538 131.75473 -36.822266 -77.41522 52.782253 70.42053 135.76257 129.05678 -19.795315 -0.4374565 31.84717 -12.319571 -160.17183 -154.18364 108.83135 92.99941 81.72104 27.227222 -114.6784 -32.008522 87.1599 -5.488849 -15.410739 125.273605 -8.811832 139.99652 -64.70838 -223.19936 4.395456 -23.581017 149.74234 71.691574 -42.184303 50.246243 121.74629
*dt_6 -141.06587 -10.2935095 -98.57023 87.76081 -99.95217 38.909626 25.55461 -15.897059 0.57672966 99.91231 -60.663677 85.52814 -22.300718 45.251507 76.5088 60.80782 -14.268529 -28.522125 58.86136 131.45094 69.03202 35.171383 -0.93319947 -144.53593 152.16963 -78.98568 52.242878 -21.633823 22.131895 29.624588 2.2180917 -67.9958 -13.159979 9.529283 -42.622932 -45.304615 79.62301 59.598583 30.755417 -106.65705 73.01385 37.77151 -77.60948 18.48724 -76.42004 83.51295 7.185051 113.75034 96.72479 -19.864126 -15.976234 70.08087 68.67268 181.53934 -93.25466 120.44505 -18.887442 -58.077995 68.47076 75.214455 -96.872314 37.197784 -77.0955 -144.0236 -69.490425 -81.872986 -47.996983 -10.164329 -28.245468 102.14619 83.5336 7.221758 -0.25259933 -26.064608 32.485676 -43.603092 -67.34226 -148.29442 9.831017 -45.56512 -15.406714 -100.11564 -12.815582 -76.5718 -50.68544 -24.552868 136.56065 59.607082 43.204487 -154.2969 -166.34206 72.44901 -134.25488 1.7637255 39.516888 -104.71338 45.90824 -2.762578 -80.74661 -2.4482112 -53.31971 67.28181 -14.076729 -59.392715 -18.115017 -41.090317 -41.54997 132.50687 29.597088 -196.29814 -32.554173 -220.34932 67.58787 -52.260696 50.507698 150.42667 35.801666 -68.50905 -86.08323 -25.710331 -27.334394 23.026196 26.154402 -48.77462 -47.757824 -167.08324 -25.339943 -9.8858795 -1.0869815 19.139767 -36.08216 -39.43383 14.943398 105.24973 -29.237545 -32.915596 -55.863937 106.56998 18.579618 82.604385 -108.36009 57.32689 -97.13999 -142.68663 -39.851894 -99.00645 -34.00908 -77.36816 -29.610403 24.0126 -118.52195 -52.011906 63.46889 125.32499 22.402222 6.6267357 27.294226 -38.289173 -91.42935 -49.566177 -55.458076 -92.31763 58.527256 -90.57618 -8.111898 -39.704826 68.99755 -114.46205 -5.3915434 -8.245978 5.71468 75.153046 -24.55337 -4.009529 -29.603233 -75.78574 53.345783 -54.45746 -105.170166 215.84035 82.20711 68.13057 66.92749 -16.910276 21.48696 -10.308646 -102.20416 154.4845 73.42272 -26.597366 126.27007 43.48553 -78.94107 -116.938194 26.427664 84.77038 105.34429 -28.754768 33.543247 40.87713
*dt_7 -82.5739 0.8628063 -52.76145 47.852634 -224.02817 158.33508 -84.7938 -103.1591 -31.863028 135.07008 65.48312 30.627735 -123.882866 -29.971655 -10.965065 25.009735 109.861855 -16.761993 86.160324 19.463865 114.35242 -27.669777 10.582524 -116.7528 60.734383 -135.99551 139.93979 26.761719 -103.27825 -6.482794 -106.20669 77.568665 -47.27372 60.48134 -45.97396 -28.332048 -60.070652 177.71007 124.727974 -69.654686 -55.460403 154.6453 -47.050728 45.215866 -54.762005 -47.35819 81.03164 232.61566 51.97301 -34.32115 -100.13453 71.87665 -11.473344 253.86621 -170.62447 -72.72204 -16.75023 -69.97797 179.68779 124.18512 -233.08252 -88.79873 92.94099 -92.52179 26.159513 -80.64206 -30.84068 160.01637 -21.361725 13.225759 206.29144 -7.5947714 82.271324 93.052536 42.159508 -87.72135 -38.913033 -122.85398 -68.77958 43.392597 -26.149681 26.276045 -80.47052 -34.040024 2.9565244 73.14635 130.32086 -31.746063 -21.471815 -48.059406 -23.94834 18.550941 -85.38566 -60.8102 26.498674 -31.43623 89.71174 76.24313 -49.684105 67.25809 -68.761475 7.2003393 -74.9806 86.38276 -143.40746 1.0750778 17.06711 47.234955 75.146164 -121.51593 117.33828 -137.7618 -6.438879 49.40811 41.85889 23.370964 16.616339 -7.150111 -68.74647 99.36357 -3.2640185 -26.44021 -28.05377 -107.15369 29.423912 -182.41487 -33.7353 -14.389118 -35.05037 -153.08682 -6.388994 1.4856427 -49.496414 55.17127 -157.68333 73.39801 -63.91783 -28.589134 47.916237 52.968327 -74.44205 -82.11355 -69.4987 -7.3736067 -21.053934 -56.753242 38.51073 -104.00088 -168.01497 -71.5383 -47.26187 42.428253 75.532104 160.18422 66.109406 -50.648743 6.7866883 -35.78765 -124.09331 7.171158 -74.43843 -142.89487 86.90031 -11.548545 8.178755 75.53169 78.85734 43.55074 -38.676056 39.143044 77.94087 35.591515 185.22076 -99.722916 3.6011977 -16.379301 -48.234276 -108.995026 -158.75603 152.6875 -11.720346 60.28985 144.28807 -68.72305 47.48446 -14.453359 -91.67418 40.927227 134.04373 -80.10302 84.90209 21.524502 -108.58158 -8.903776 -55.342133 85.84746 94.63971 -66.93236 -12.517894 -1.9623559
*dt_8 -143.17618 -14.197958 -7.152748 68.369804 -182.44348 166.16275 -186.38373 -36.603626 -31.696556 19.467525 12.941664 66.51833 -101.0683 -44.233685 -14.585437 50.126102 15.509539 17.4102 -45.22598 -104.12112 105.96356 53.78362 21.533548 -160.81853 164.4638 -94.80071 107.935486 10.676795 7.6860046 -149.10422 20.886587 32.583294 66.08577 -16.741896 -53.739082 -21.749563 97.23313 -6.564559 92.19418 -110.638466 30.914743 13.681143 -220.96246 -10.641073 7.1633444 83.53315 116.28554 63.07759 32.21261 22.583961 -65.41264 57.111023 10.186159 233.29205 -126.04062 152.47885 22.600908 -43.639637 169.89633 98.17377 -19.435186 35.0919 59.819916 -162.04118 14.37905 -138.24916 -151.1727 14.695497 48.981415 -22.316116 89.148026 28.743769 -82.489395 34.57943 -4.5501184 77.37993 -27.924973 -74.177795 71.845856 42.654465 -10.379543 -83.43915 -101.58368 -157.21289 3.695793 54.52219 131.8496 31.214933 9.118493 -81.06257 -153.04866 29.188318 -141.81723 -60.302586 64.969055 30.711372 18.724945 44.257896 21.177563 -67.61282 15.262488 25.737598 -101.34908 -73.21317 -123.01957 -4.329011 11.645729 29.565495 71.82771 -177.76053 98.3189 -133.81467 -18.6655 -44.77137 -47.166107 93.96087 37.689808 -27.49033 -92.069984 12.525324 69.48031 -23.493206 20.653221 -2.6952364 73.303055 -93.85604 -29.591658 -109.430664 -15.154365 -225.25809 13.721567 -63.5516 93.85197 -42.116703 -10.540242 -56.01341 5.584134 108.44403 129.66667 49.388203 -93.10083 30.570639 -92.24306 20.942242 -85.69832 108.96679 43.12485 -17.625065 -74.68526 -29.381498 35.475662 -5.0787296 -2.0152905 62.122234 104.89313 24.67619 57.654 -16.23906 -105.58765 -68.17502 -70.19404 -63.677902 50.53039 -51.38086 -22.247766 13.718891 161.1857 -18.959217 80.76806 56.442524 29.58261 118.34795 -36.23963 171.57289 74.89473 26.151127 73.38465 -135.00237 -63.39179 205.00273 37.40218 51.39634 18.307344 -44.505695 53.96422 66.42513 -18.03562 8.3473425 143.75287 -2.2034063 24.683578 46.928696 55.10466 -148.4942 -0.7532221 45.141346 45.765694 72.931564 69.96263 84.29873
*dt_9 -28.856829 5.853573 -101.256386 18.225578 -195.18729 254.2742 -167.70909 3.57929 116.589714 6.9532223 126.99939 -114.06943 -95.956436 -104.538635 -97.17927 80.84819 83.924385 -57.987293 -142.62196 135.43198 82.51577 -77.05954 -132.09178 16.380632 175.34473 -141.41397 53.730873 23.104996 -92.91217 -90.49083 -43.459103 34.23929 -4.640635 63.68112 -160.06555 36.97907 72.723656 102.77219 272.60635 -82.93314 98.78782 -54.78735 -176.22083 53.673027 -58.289043 -57.858242 -54.765697 32.697998 33.829132 25.93933 -41.335064 -40.415222 146.78145 28.501358 -121.6289 70.5783 11.290149 -113.706894 126.98236 -15.9823475 -71.843895 89.45764 -161.44716 -84.59134 90.69039 13.627812 -5.006993 -51.68927 47.892414 60.090767 8.689758 -8.633768 106.59433 32.919674 56.1117 -42.29404 -19.375137 -60.98405 25.149977 50.971973 22.159082 -25.207897 -9.126327 -189.74117 17.333366 -11.610161 105.27597 62.47649 -52.06437 -110.98758 -76.953 -1.5666409 -28.676367 -64.05041 -46.818737 18.787575 76.32765 68.37088 -12.3246975 47.87479 -0.5669327 94.47737 -84.2143 49.967823 -3.6884642 13.76021 98.38539 206.1913 242.78741 -150.11807 149.97945 -161.10501 11.323487 -52.644424 69.25448 -37.800747 -50.628586 -17.86358 -119.90641 78.75603 155.33102 -25.46482 22.468252 -64.87825 -30.261917 -139.14052 18.691677 -15.810581 51.870373 -209.40315 74.9852 -106.896996 -173.87395 46.26955 -230.9881 -92.10335 -1.3862159 -59.277176 135.2996 32.793324 -114.281265 -17.992567 -6.7569227 -64.615166 -112.265915 -198.09676 102.455315 -154.35748 -50.22911 -227.88794 -30.523136 68.83366 21.885754 -37.119778 -120.309685 -101.06944 -132.88194 -25.175188 -187.96465 -14.741892 -55.173767 -60.681183 11.942717 73.29456 57.633694 -30.255894 56.630516 13.941025 110.61643 110.58253 65.79676 22.017801 172.39435 -48.94747 34.683903 -13.890417 41.177696 56.556683 -112.8087 60.256386 44.81567 57.55991 -52.49368 -48.317505 110.90734 -8.185272 11.983337 52.1437 143.34584 -10.3852215 46.157967 37.01713 -23.23712 -36.222458 -71.18534 35.01162 265.48846 31.068542 -32.51105 61.55682
*dt_10 -79.59822 9.553531 -29.547441 84.8857 -114.14809 112.99981 -33.000885 -109.2514 -147.5069 14.9739 137.58888 -23.12984 -73.91512 -84.11012 61.173767 11.707575 9.33806 8.239158 22.905704 32.08718 -2.7805302 -15.4266615 -22.382692 -98.6655 67.85951 -174.48964 39.92892 10.993494 -10.361191 32.41487 -24.298794 2.9371457 -26.483253 -1.6124343 -87.906944 11.999854 48.860188 74.66379 34.803997 -58.03201 27.361658 34.10425 -43.311275 30.907751 45.650738 -14.128412 107.15028 124.39307 52.430687 -16.676678 -119.20213 83.93184 56.527493 173.05539 -97.23108 -40.188877 -79.34301 -4.2602963 178.53531 36.455746 -106.56859 -23.462385 10.107933 -127.68496 71.0652 -61.641495 -80.76825 70.34371 -8.100269 62.702415 -14.299392 31.236425 54.34874 2.8490963 -17.460056 -60.913074 0.7953844 -90.03247 -53.609596 45.212643 14.771999 38.439667 -6.515837 -63.53626 0.66700155 147.35712 116.097176 17.149235 -52.205513 -118.61593 -156.28253 118.08432 -97.33022 20.129833 50.930687 -45.59659 -31.569462 21.027386 -24.306068 19.806307 -83.622215 -24.37724 -99.91476 -13.027403 -70.82557 -9.746843 -12.754261 -34.815025 44.142303 -97.71306 42.31365 -147.99126 -15.150183 43.566936 47.83722 -11.429661 -35.52997 -35.496643 -68.517204 73.4457 -112.0039 -44.10683 -45.894108 65.962524 83.21298 -28.721027 -69.44018 -40.688004 -26.28251 -71.47289 111.19439 -44.54423 23.914837 -40.07612 -74.70634 -6.8226833 7.1100454 14.811272 8.183748 1.0935479 -77.22985 90.53436 -70.0246 27.64947 14.944114 35.69063 -10.110802 79.13743 -27.514585 -23.065212 -43.530663 -91.54506 46.142387 61.887344 12.670201 8.61807 31.281418 -32.072647 -82.670845 -23.827868 -84.479454 -36.708546 89.387695 -45.28025 13.399135 10.422693 87.65047 -28.784296 23.970446 -17.70921 35.81856 135.28264 -24.513603 31.051762 -27.453829 -45.35201 6.217719 -86.06522 -82.054695 76.4908 -40.86499 73.341385 83.92326 -54.948456 0.7337721 11.966238 -49.164726 43.919994 77.66286 -61.829865 156.90643 24.90195 -77.477356 46.87913 99.28117 83.46202 77.786606 -42.58388 -67.81492 47.586174
*dt_11 -187.69324 -1.6275393 -28.60354 225.95695 -163.78679 174.9158 -56.324783 -101.276245 -33.62615 -49.532906 98.60818 2.7858312 -268.58737 -96.91172 -28.781425 96.71475 95.22905 7.965163 108.2401 55.771942 30.590696 -54.290558 61.746105 -161.19827 6.934509 -178.67055 143.57452 31.501587 -42.069633 32.859116 -189.59497 -43.71616 -9.63643 -4.8491974 9.317631 -6.13575 155.53423 59.72368 110.30798 -191.4654 23.6862 121.777954 62.419163 8.830997 52.68618 43.05488 38.00392 219.13734 93.89121 51.209328 -60.147675 151.66068 122.600235 181.32457 -127.39988 -8.991361 -65.91925 17.249298 141.71088 21.899282 -81.40437 -2.4080818 -31.677284 -178.80066 -100.69917 -42.689816 -46.446247 136.85957 97.061 11.02327 -99.45378 87.11221 57.343372 73.56034 44.467777 -53.296528 -50.589935 -96.86168 -99.56832 106.13081 12.761935 3.4459074 -39.20438 -111.36228 -20.001394 35.542473 233.49336 13.211516 -79.34006 -78.18372 -11.281605 86.0419 -29.069378 -89.62573 33.28618 -60.56108 -34.106136 -77.4781 -111.801926 123.24602 -58.33708 78.95149 -172.3534 46.567917 -94.20472 -21.815699 -95.00289 52.391926 35.209568 -148.65923 73.238266 -117.03143 -70.495766 49.92185 -75.78345 -14.670999 51.290337 -29.653994 -142.30746 85.570404 -89.66294 -101.18384 -130.13184 94.04324 119.801 -12.38519 -22.159008 -100.23 -14.575943 -196.26207 149.1265 -40.462532 -0.59805274 -156.97363 -75.32745 -25.675266 -102.037094 70.954735 95.3499 70.59099 -144.9048 -23.335175 -102.559265 -68.21213 88.37962 -26.299137 45.63974 -46.566757 -33.5466 -113.94606 -73.11786 -8.822554 93.63841 -39.322044 107.933464 -27.565212 30.290092 12.584161 -74.12793 -27.141268 -48.46568 -89.32951 104.986786 -54.17186 -16.851536 -82.85415 184.02179 -160.08963 -76.79275 -6.315996 71.918175 162.61395 127.67622 -3.2373347 77.02081 8.386537 -101.77048 -110.02715 -66.83049 221.89551 18.10798 97.220604 78.93537 -91.04519 16.769152 -19.136438 -18.902634 4.0371866 90.93062 -113.871185 12.0292 67.35501 -119.22038 -39.14286 -14.846012 110.963165 144.00386 63.200054 40.801838 -14.183021
*dt_12 -84.712326 17.038961 -12.401738 24.690985 -280.87817 231.46779 -128.81592 -73.815186 85.38938 18.56879 54.132973 46.45524 -122.78936 25.247963 -1.7814862 65.89529 98.11665 -45.794495 -14.647664 17.493229 124.51249 -81.00365 -29.257153 -97.80904 126.44445 -88.008484 183.643 50.69294 -87.048645 -35.01263 -110.55913 106.922516 -1.9793985 112.224846 9.083969 93.47476 53.48641 87.21876 217.54459 -188.78763 88.12339 154.92212 -53.474876 -6.4891148 6.6341033 -98.883896 62.233322 136.02422 100.72587 -33.661068 -153.435 242.73346 117.853615 191.95636 -154.78084 64.4539 -88.30246 -67.274185 165.13367 17.85659 -25.68499 44.106194 -67.29649 -77.46156 -1.868258 -133.1364 -48.159256 -0.1776223 125.00333 10.942375 103.77955 139.94743 161.88829 36.034866 93.34104 36.60665 -39.022354 -151.46236 -46.751472 123.144196 29.35327 42.86667 29.492624 -134.72949 -7.533896 38.461765 214.56915 37.555298 -51.214436 -184.34535 -160.3257 6.376784 -30.772888 26.124063 85.36413 -77.65962 -28.423769 -0.67537856 -131.28615 76.3552 -47.330288 140.56905 -82.34448 29.933361 -108.03876 -36.554092 -30.035563 10.762647 55.91336 -233.78299 210.7016 -160.7023 7.571332 -0.53625834 61.8534 53.637997 31.302065 -72.64861 -185.91861 69.71173 -6.0233774 -14.369177 15.220431 53.689976 44.13081 -203.1124 0.6545309 -33.424625 41.284542 -191.59618 51.097683 -118.70359 -17.394543 -23.244871 -131.47473 -60.910088 -87.02059 -56.5386 -23.62653 32.192867 -95.961975 20.613462 -36.568348 -76.04218 -25.36663 -1.290133 -15.606127 -3.0191865 -153.11107 -53.121067 -60.43245 -136.18301 162.74835 110.6255 -76.876015 -32.058235 -18.23621 -17.128958 -124.23163 18.604486 -73.48404 -108.273094 133.53339 21.83722 17.23919 35.21317 108.99403 -43.865486 -7.5127473 104.888214 105.85026 42.689068 81.83549 12.805927 -3.6234193 -68.18083 28.578768 -128.13168 -92.82722 293.5104 102.78458 35.23702 137.09288 -98.21573 -49.06886 34.33881 -112.84742 114.93232 216.68837 -134.91115 34.93356 122.78984 -90.81168 -77.585976 51.151955 23.261122 196.08493 31.52783 -5.53549 69.272766
*dt_13 -10.714041 -69.94662 -46.691555 -94.187256 -121.23543 103.4282 -134.20161 -9.349527 -46.191765 6.1145425 92.742325 -67.184586 -25.299417 38.626606 3.818712 85.74395 0.70293784 -23.893183 -33.847683 -2.952323 19.895527 39.665077 -111.37075 -83.80162 25.74831 -122.5475 32.77633 76.0297 -44.33721 31.871704 -90.53863 -28.742157 15.480694 58.94309 2.9461617 40.310097 41.43942 43.92005 106.06011 -97.68995 79.79524 114.2664 -38.174744 6.3288617 56.935352 2.81711 95.67424 150.45851 137.4114 -106.87183 -202.8319 58.74224 15.346841 157.42377 28.657623 25.534292 -41.018642 -74.589584 178.346 49.18959 -70.408066 -175.45222 -40.508183 -16.81552 102.334625 -111.56374 12.159756 4.2773576 2.482462 71.53594 52.46324 -9.6097145 -39.055576 108.28444 -13.175715 69.41216 -101.08926 -92.261116 -52.517815 185.20764 -95.63655 52.990437 -104.70611 -14.980741 88.05549 33.27448 200.73163 -16.4356 -45.52627 -142.41704 -133.76672 -27.167164 -27.554976 109.986916 71.78919 61.51835 12.729019 53.174385 -53.537827 52.303467 -63.103855 5.1916003 73.396454 -10.303057 -127.84554 10.982397 -42.80045 8.70985 -42.11469 -184.3333 37.835743 -101.76749 35.397354 22.730776 59.31153 2.7454157 -64.57958 -66.5777 -70.18778 53.85795 11.893528 -0.014136791 23.305548 -29.916807 19.836555 -0.6956606 -68.71299 -7.275284 1.993593 -168.18246 185.68024 -118.39007 21.860268 -54.557175 -104.56217 -74.36135 -73.03515 68.53674 35.647156 20.379263 -100.99034 20.251982 -35.65074 6.5222783 40.19786 110.26914 26.864693 84.33999 -108.21478 8.258167 -29.330704 14.682806 -12.93151 151.45384 17.195503 73.70326 65.85439 -123.88053 -81.07967 -79.425285 -25.179586 -31.124828 28.10437 -47.112194 -14.058574 -29.51677 107.05045 -62.59821 -75.270615 58.438538 54.7208 125.761024 -102.01893 -49.15977 -2.9580812 51.501762 87.67125 -95.687515 -52.372528 230.30264 84.24154 26.81995 30.735432 22.16061 78.99321 3.6553993 -25.60817 88.382935 19.72736 -63.38238 142.96495 122.41721 -89.31377 4.304563 -39.086098 0.5765214 43.266724 -3.7884574 -46.238754 8.338057
*dt_14 4.7604704 35.103935 -66.52882 6.7967887 -65.474144 47.545006 61.1289 -90.81212 59.72472 -119.22119 16.194895 -4.8838596 -151.14182 83.04681 172.9496 65.08426 15.139788 -23.880247 83.197914 -49.638412 -106.123375 -15.545811 11.037113 -74.465866 93.629616 -67.873215 125.55598 -106.32487 -28.562786 31.115938 -7.941033 -83.89779 -92.306725 9.0096245 -55.84647 -29.817327 74.356476 -22.142208 106.98381 -120.51492 58.3832 104.92582 -9.183815 -53.02034 90.539024 46.707664 -92.674576 102.05549 132.49498 9.8003 22.047823 53.866932 176.71252 190.96588 12.882409 -40.152332 -18.152918 36.044125 -35.040966 -34.31004 -27.859762 101.8722 -26.671457 -10.428293 17.948566 -86.79028 -108.25912 -100.89436 151.6651 168.4143 -37.611443 -33.53126 -53.15542 -3.267439 6.4459424 -37.107227 -22.357254 -34.071865 19.382671 104.90524 -91.26299 -23.392645 -86.105 -110.120636 -21.709698 20.781446 237.11429 98.40498 -46.1583 -198.08919 -154.40408 -36.621468 -107.105705 45.48075 34.396713 -161.30649 39.817425 -40.866344 -132.94757 -36.17761 -40.33292 99.16065 88.76772 -53.966152 -177.22276 -55.12796 -60.224346 7.487487 -45.17076 -63.183994 35.51581 -130.17511 6.579995 -51.694214 194.14252 79.366554 50.06047 11.645957 -165.03168 81.33786 -123.31743 -93.716484 -75.95038 3.850547 -20.457813 -89.35653 121.99644 -57.654705 92.720314 -25.476418 58.509098 -82.829025 79.19007 -122.94101 36.838554 -5.255796 -84.585396 53.787193 51.967953 68.06967 -170.5327 -26.300308 18.61039 -86.275475 60.134567 51.118374 -128.4705 -44.018276 -177.59206 -155.64163 -133.35756 -118.27871 125.05764 119.73769 174.72829 0.33161485 40.44518 -44.990353 -67.55556 -42.62567 49.252556 -12.698445 128.19496 -36.57196 0.09733707 -52.29428 178.03217 -83.01142 4.7158813 95.867325 14.498761 40.091717 67.77534 5.136199 -117.08504 34.32403 -45.29279 7.209021 -104.19573 87.659355 134.46913 32.789227 -11.676561 -35.43134 34.784298 -120.82267 -129.52829 105.63511 133.08562 -94.28722 83.06386 91.31383 -290.12198 -28.694302 -26.142488 44.45319 169.19946 69.9156 96.72975 -17.205862
*dt_15 11.584748 -167.86398 -30.754879 -61.096004 -94.42663 55.56412 -76.49753 -11.955033 17.368822 96.34856 -78.45373 15.336868 -122.77055 27.246357 170.32854 105.270065 10.693009 74.56893 153.4484 3.2818596 -41.538353 38.120724 105.2753 24.546204 149.71729 -179.44781 155.44316 -93.21564 68.56742 32.072487 -175.1994 -104.499405 54.807255 -175.15367 40.963367 -133.20476 62.332684 236.70471 -54.284817 13.452424 22.401644 39.84165 74.16368 189.47354 13.94979 162.93193 -11.156335 146.28316 104.98453 -131.00925 -137.59387 35.690243 156.24803 190.39432 -88.278564 -91.54047 -152.17633 -51.758766 190.45279 41.259544 -211.97437 -104.09094 -68.05148 -128.15698 -202.70813 -2.6617665 -122.406494 -32.87497 5.179303 145.45663 18.222178 -23.870441 -22.669785 -128.26453 106.131065 56.914383 16.970572 -88.49243 -79.92739 97.25226 -304.3982 -113.94237 -49.76805 -100.51245 -30.165844 -7.4255085 162.59076 -19.41263 -57.238983 -124.020546 36.958637 228.29477 98.07234 8.39537 124.103325 62.602795 26.294378 26.726398 -137.23293 -104.53949 -14.967308 156.70033 59.422146 -25.095901 -199.69537 3.033594 36.569553 178.24272 63.588367 -216.88954 26.70153 -57.59651 -62.33425 99.141174 94.516136 -66.174866 11.830571 -132.30519 66.25295 103.995224 35.284626 -53.75022 -13.636247 6.5004377 78.199 -7.0793357 -6.8296714 74.11011 69.585594 21.535196 -54.59132 -77.114044 -1.1568799 27.637676 -22.266884 -0.8520083 -3.1965408 134.61424 33.520485 42.636074 -127.27325 -16.518017 62.342113 41.86985 -84.66179 -128.46562 141.32964 51.036777 -55.794857 -34.66422 -84.705414 25.908548 102.436615 47.04801 -3.36281 4.280511 72.5609 82.409676 -6.611336 -44.953598 -15.198752 66.342 63.52261 74.885414 -75.28219 1.7175457 166.47412 18.537704 -61.68605 17.42732 -23.661392 89.61649 117.579285 -47.459183 68.507744 -48.480854 77.939514 -28.809744 -90.019394 128.23405 -165.15361 157.84276 -114.19944 -166.64227 -153.70555 114.49789 9.985716 159.09688 69.589294 -173.0905 204.77794 85.33624 37.38876 68.47049 48.71749 21.016308 82.6263 -40.66327 -90.31878 131.78242
*dt_16 -194.28773 -11.746642 -103.05698 95.03911 -193.3026 148.09174 -16.972271 -54.573605 14.374279 93.2331 134.86218 55.20973 -124.242805 -62.790474 -116.65679 -3.9989104 -9.678494 -3.4895678 20.994093 9.534808 175.99265 -88.63951 -124.90396 -125.708984 146.46394 -61.04005 115.596794 165.64069 -87.27746 34.014786 -121.02045 -25.356142 -32.714108 -37.251972 -30.542385 -25.145554 213.13718 14.614094 119.67071 -92.431244 -31.16397 -17.25161 -22.923395 -31.625895 27.81979 -105.38162 -22.40081 189.96274 101.83907 67.804794 -111.90192 169.06137 69.59873 136.69742 -175.51787 -2.6998029 -49.7705 -119.09309 80.91699 96.94868 -128.37247 7.669671 74.75939 -12.825952 -4.272634 47.228565 12.462494 -3.0625305 52.43197 2.0866103 61.373634 -51.95724 85.384766 -70.27005 18.098925 56.861786 -27.664629 -208.524 -2.786056 -26.871939 -74.11022 108.177704 -69.9476 -39.80905 -99.31459 94.0469 148.38754 57.79159 19.070656 -151.07344 -88.88102 19.044725 1.6599882 -110.40113 7.496748 -55.341335 -75.66199 60.045315 -62.37685 73.74613 -44.548206 25.598227 -25.680614 -86.33884 16.567898 -131.02542 -74.41331 23.223925 93.313995 -198.2149 76.92158 -87.34097 -4.543388 -37.867817 -40.156784 42.486588 87.21527 5.818232 -105.02366 92.56557 -14.621203 7.2928863 84.75423 -1.794514 -11.437225 -29.394096 25.565405 -104.656845 31.64539 -165.29156 20.146124 -32.52066 35.441788 -90.99522 -18.21362 -15.699447 -110.79558 -42.057655 100.42869 64.181595 -68.582596 -23.221666 45.91144 -105.45648 -127.544624 4.938093 47.061893 23.440645 -2.4537408 -133.88728 61.44902 -123.62217 126.75637 99.21824 13.257416 22.92999 21.904444 38.420357 -87.48703 -40.847908 -3.0874758 -34.55942 15.359091 -19.062704 7.9110503 -12.658096 37.796547 24.965855 -28.985237 -31.151281 88.924644 24.368013 79.00208 15.429834 -13.961117 -6.8511868 -5.554888 -127.70324 -168.99081 211.6138 116.20334 -24.142254 0.6105921 -102.0629 7.756109 -17.105537 -75.08957 10.364384 57.17684 -70.6962 83.045135 21.521421 -44.724102 -118.90802 47.472122 137.67375 113.36499 -42.402657 2.854895 32.034386
*dt_17 -164.6515 44.710114 -164.80917 128.10345 -359.47208 134.11043 -74.29261 -66.47568 -27.264162 36.156067 220.54926 -1.1163466 -70.78148 47.673103 47.640705 75.272964 -18.152428 -109.32654 186.52664 132.92043 153.30238 11.867737 82.54298 -187.19579 127.69515 -53.08458 186.00519 55.181805 -5.55052 88.691 96.80245 -141.31805 -69.19528 92.15735 9.435514 -43.72014 115.93396 1.1557524 132.95639 -114.37429 26.457245 196.99918 30.151175 47.645092 104.0301 -151.12845 -85.60379 144.37886 -10.1805935 -106.234604 -38.95813 166.12442 107.42811 180.54651 -103.714584 41.240158 -26.164213 51.565586 67.840775 79.98119 -181.03911 -8.849714 -160.06888 -21.821999 66.46358 -41.195477 43.151768 33.98066 154.78912 -19.95468 104.46499 -250.58028 210.86732 73.30115 87.04748 51.04834 -20.051645 -367.8623 -52.864365 179.62439 55.823116 91.722664 -160.33751 -9.313227 -27.402653 -74.57651 200.25713 -30.196732 -45.039997 -65.055534 -161.24187 105.05561 -77.59034 71.44281 90.90948 -48.82451 1.8807194 78.4631 -222.96913 162.68175 74.12628 144.17633 -77.681725 124.61005 -146.34187 -71.06358 130.9437 -91.49915 78.77597 -104.4379 13.886419 -159.50761 52.526176 68.8942 -30.30858 68.27324 -48.903423 -9.110398 -103.904236 -20.159735 -114.94349 43.511627 21.006748 -33.229595 52.49649 9.311401 29.698399 47.830063 99.43235 -190.33061 162.33272 -158.59282 24.332762 106.97637 -149.94179 52.10249 38.988636 -25.729107 136.8583 121.87413 -29.166965 85.305595 189.80844 79.703804 -115.27355 44.43308 -63.731277 -3.279592 -122.97147 79.20792 -29.720272 -148.15639 65.507126 258.2875 108.81794 -62.97136 90.49106 228.453 -37.133835 -104.2496 -91.86267 42.773235 120.40803 -50.205235 -133.55226 -46.83739 141.20917 -35.05788 -73.59114 70.99366 35.754395 181.45824 139.82018 -97.48139 32.791214 -52.43145 26.456509 -231.4504 -246.25658 165.80087 1.8975916 44.208027 121.998344 48.057907 -59.284748 9.58892 -135.99678 98.02406 135.09048 -70.64076 -75.58975 -17.019245 -113.8897 54.409954 113.40839 93.404884 171.60538 -36.883636 30.16255 67.0319
*dt_18 -0.6309264 28.59607 -84.646965 56.42878 -254.74878 171.20117 -118.648315 -61.90758 37.530426 5.7880793 107.11177 198.16554 -106.20973 -97.97035 -26.438812 42.023445 -67.46323 28.269005 11.440779 138.75272 158.57542 -79.60547 14.876451 -22.793612 -6.6464267 -120.66035 90.12986 63.451103 25.55421 -6.467598 -189.79135 -33.078796 -132.06433 11.723891 -184.81023 -16.47834 166.52283 28.788633 115.79747 -86.58797 -16.289846 14.226837 -20.667068 12.719378 47.454563 -57.900593 66.61897 191.51447 81.37928 -133.51845 -23.30503 212.9845 167.0122 81.68448 -84.97129 8.195458 -81.955666 -1.0291733 -56.260517 -64.24136 -105.131935 -15.829691 -25.087606 -55.1307 90.07119 80.724556 16.081923 -39.06882 -15.180578 -51.38376 -48.75991 88.92632 100.94473 -13.752928 105.60576 23.012545 -29.482782 -113.674774 -62.953594 -0.330158 62.529163 69.31902 3.0804517 -3.2465942 -139.40256 131.95668 141.29008 -63.58807 -11.126616 16.182327 23.501545 50.031464 -20.377754 54.1121 -52.885212 -118.7962 -29.063738 77.47038 -164.55484 119.061775 69.10353 1.0945542 -75.99471 -63.353973 -137.13742 -130.73763 78.27323 45.023243 -25.633398 -75.933846 66.44998 -38.390774 17.94336 155.99976 -12.268479 -9.511448 -73.83071 -83.853745 -66.0172 92.532585 23.391457 -90.528885 102.43924 -50.43129 59.78036 -53.08278 -56.5578 -99.45571 74.090996 -43.14869 33.643135 -10.113987 -92.22759 5.0031347 -79.745804 -11.389527 -43.297997 40.88231 54.60793 47.166027 -110.66546 -23.864552 63.96236 -25.582378 9.925751 84.058105 63.75885 73.40281 -56.40787 11.735092 -16.63225 53.592728 93.632744 36.862892 -53.005917 -94.53473 6.033676 17.905851 -42.059727 -127.103325 -78.93482 -97.67627 134.95772 -4.3141017 87.951935 -56.11158 5.0146255 -95.51898 21.431566 14.019728 126.26489 105.465576 114.48729 -134.3952 -67.68887 89.92849 98.74351 -123.3095 -103.02531 196.69254 125.829346 87.96306 68.758385 -57.568787 71.17184 7.7528257 -27.325945 102.61331 60.06456 -84.07567 29.544247 -4.3782053 -40.655476 -43.248066 175.0738 13.22081 56.00226 -106.383026 37.957634 37.851566
*dt_19 -157.43822 14.570297 -173.5875 -8.644928 -276.86325 129.15315 -181.49417 -12.887928 -11.833273 175.56345 164.45197 29.162048 -136.0329 5.6371126 9.697815 94.835594 73.154 171.13889 66.87539 -46.682545 178.28926 -38.92755 14.963556 -146.65477 -3.9878407 -193.57852 128.22792 148.2673 -218.61859 -24.691044 84.33389 50.702972 -148.31294 52.18225 -155.37285 59.519585 55.890205 61.05343 212.16324 -149.38081 -132.66191 44.79016 -132.91338 77.03413 -23.175491 33.95131 137.58624 224.54208 173.13344 92.63337 -171.14401 220.21364 189.08351 215.04468 -154.83781 35.5632 16.664143 67.192604 175.05138 84.250206 -113.69416 -75.23054 -27.562092 19.301384 -132.85396 88.81824 -31.646809 -25.26907 68.94553 31.51038 0.4880644 -68.09579 -88.385254 23.3652 -14.492958 90.77211 63.511024 -147.96602 -31.282848 214.7087 2.7891912 -16.152302 -96.90382 -132.89389 -80.16659 0.9669976 210.0328 77.71254 -163.86409 -107.5447 -194.647 14.860403 -14.517477 -116.108604 49.61558 -135.03479 33.60233 82.759125 -9.431608 -43.372215 4.4820266 33.919422 -67.09088 -15.618078 -132.3568 70.43897 83.33923 25.656452 13.76277 -211.35896 181.10777 -69.99417 -66.98983 47.00705 -49.877934 205.92137 102.786865 -71.62858 -78.9793 30.218437 15.600748 -64.07946 -58.506096 148.55182 63.80889 -153.41469 68.36169 -165.59447 134.64606 -267.34406 67.9172 -24.46401 3.5800724 3.6758862 -30.789177 -63.00841 -38.174576 91.16624 108.873314 -123.0936 -167.39465 -64.22272 -142.80537 -115.6879 -9.159451 19.634705 163.62663 211.99748 -44.8995 -123.35678 43.12554 -81.60248 73.68805 -10.873333 134.2936 -48.81162 103.05538 46.769314 -137.2897 -72.41426 30.377846 -8.175181 28.322683 111.6089 -101.25478 -177.06067 183.61247 -21.403795 -24.939898 59.76429 79.541046 23.952814 152.95064 261.0012 -73.05261 85.51137 70.46678 -126.516464 -198.40735 83.003845 144.2547 85.307556 144.64049 -76.6508 -88.602234 95.08505 78.79422 36.22317 93.49122 -123.76189 -66.16912 -111.65613 69.4642 -138.9967 30.778915 26.579334 134.42284 5.2864933 18.050245 117.36398
*dt_20 -66.4713 -46.60232 -42.12506 22.90293 -188.6665 55.082806 -39.516285 33.44061 -112.66835 15.634285 72.48585 -4.224349 -92.63447 113.49953 36.846832 -9.212577 14.845665 13.947983 150.50414 132.21509 17.174265 67.81815 -146.38748 -21.290611 -1.2562145 -89.724625 94.68949 207.62895 -48.37376 63.854553 -19.847586 -205.31042 69.317986 60.573513 -114.95043 26.26329 224.61322 62.18462 94.80907 -28.426744 137.7678 8.88979 8.321837 79.06704 -44.478157 -58.097874 -88.77678 189.65366 21.704819 6.236728 -144.53407 102.70377 135.41467 164.05754 -39.19205 -25.551435 -46.287605 -40.082554 23.584816 99.20499 -109.25601 -1.763745 -28.826897 -61.168636 5.1111116 5.049244 107.61109 -76.75477 53.91295 28.58568 150.78682 32.28844 83.030945 7.385501 -4.1738443 51.73507 15.026516 -230.40335 -21.04643 34.87883 -31.28082 79.3235 -68.515396 -84.60331 63.481792 30.5231 237.36523 20.126827 -43.218674 -42.627663 -92.543686 -40.10167 90.51044 30.126719 135.36684 -43.986053 -34.812412 21.889866 -3.6967432 39.06757 11.802464 7.207981 -75.99605 -113.21828 -66.55368 39.00751 -19.561773 -35.548386 7.1001954 -216.1281 92.996216 -117.143814 90.83245 -40.917835 40.08817 12.17967 47.395134 19.319094 -83.847824 25.305887 -81.82326 -67.5544 29.260735 -39.719334 21.297579 16.893951 110.83667 42.9236 30.760883 -149.61017 120.34124 23.160347 -39.65032 -10.915716 -36.736156 -41.69505 12.000785 35.435966 134.72752 -48.64729 -91.371956 105.39289 -46.25738 -57.19647 -166.43419 32.99624 81.972145 121.31475 11.47047 84.8007 58.667805 -195.9155 184.1527 -83.80063 -96.30802 -31.059547 12.989136 15.5662775 -36.809864 7.0586734 -76.296936 -172.90686 56.02941 117.51884 -28.673544 77.32749 -10.490412 -64.551704 -65.46728 67.321976 107.75042 96.476875 -8.480087 85.63113 36.213997 -196.27759 28.143055 -39.1062 -239.10168 183.19496 0.511959 82.58136 76.94787 -18.656557 -50.065426 2.9486737 -161.47357 80.13813 64.36267 -62.07641 58.24651 35.878056 -62.170315 27.685997 27.478243 228.47798 59.37393 -22.67252 -52.328026 102.7152
*dt_0 -110.44122 -43.839565 -37.24894 38.113262 -145.29245 91.4781 -62.349667 -34.650265 67.46973 61.238926 111.38718 -26.671959 -73.36603 -42.45455 12.0608835 101.141594 21.794083 -49.65708 66.415215 107.10106 103.73674 -16.412771 -41.789608 -141.02052 54.447243 -97.91505 99.47482 75.43152 -19.63149 26.399649 -24.139822 -11.378956 -28.603424 19.415485 -6.9416656 -23.079884 141.33878 98.27317 1.5610771 -62.74151 1.6289663 124.29347 40.390102 2.5475254 -23.48196 -57.093254 -11.528967 109.57419 108.82026 -15.653033 -123.16373 76.167656 125.757416 163.36339 -148.13275 41.0425 8.487562 -22.441826 73.0354 -15.971832 -126.5523 -21.408516 -60.025707 -83.07321 -59.082123 -36.964417 38.05155 13.649443 4.7886257 -0.35858202 81.765076 -8.056591 100.5173 26.90737 30.846653 39.03959 -8.647985 -163.88832 -48.997627 -5.734111 -20.396025 61.761765 -47.154232 -82.21838 -20.846996 30.861998 86.80764 7.758416 -45.582516 -63.814003 -61.166595 55.47682 26.048225 -25.298157 39.40133 -121.67372 -46.395443 -20.463512 -78.10204 -2.1428962 50.896942 95.80204 -104.367966 9.920636 -92.66917 -73.229454 13.653602 75.63927 32.48016 -114.58351 28.756365 -99.20382 -54.255722 -7.457819 17.862337 63.53402 118.23113 -48.98792 -13.43272 111.35326 15.371416 -84.75931 4.1939793 39.38124 48.95354 -16.001818 19.025599 -60.33853 -33.045376 -95.072586 69.76872 -27.012192 22.267536 48.535046 -22.382198 -95.592575 -78.678345 -24.29078 131.82352 32.190742 -118.307556 -56.387497 -147.83191 -27.627977 -72.57707 -35.264683 69.589676 -47.24355 -93.223595 -46.286945 27.589008 -66.00869 123.85383 75.30327 -33.749477 -33.79423 86.35656 45.84629 -88.204865 -19.230745 -74.28702 -45.4597 21.843208 -8.03142 -64.89801 27.363394 109.13259 -52.768513 3.278009 98.24533 7.812178 70.92239 82.66174 -25.564856 -64.91405 4.9093413 29.67842 -70.6564 -96.22508 75.26482 -62.46324 -8.034844 58.338833 -7.44228 -47.74411 113.199265 -21.91817 14.349155 121.35057 -30.778584 53.10877 4.1769733 -31.75544 -68.55324 21.737011 70.714935 134.95612 -25.55803 -63.25506 88.42499
*dt_1 -77.67446 167.82394 -79.84241 41.870895 -253.98317 182.77937 -152.80876 -41.674828 34.42761 59.067036 28.73616 -43.700874 -77.25288 -66.080345 -6.170331 80.865685 -1.2248974 -19.904646 -7.516175 43.306595 90.46645 -33.021637 -52.26409 -30.735405 139.64673 -107.84391 35.73256 -94.55004 -29.79578 -41.38863 -75.19706 91.64971 -14.009467 38.95705 66.273605 0.25313044 181.48663 20.610085 170.77711 -17.597523 -51.99902 -103.22854 -47.43816 58.64483 21.610434 15.830933 146.98459 76.28076 48.956944 2.3147159 -8.128643 199.38867 1.6372366 220.28485 -30.813416 55.31679 -15.531545 -116.087105 94.60217 105.11332 -9.547602 -51.79864 -126.50695 -139.64618 14.918508 -148.41245 62.07462 34.5988 -35.52517 -45.318398 171.26572 52.78351 89.71585 -5.3729854 -26.049618 76.738754 -18.894213 -85.683655 -139.01834 116.82474 124.94351 54.03098 24.005217 -26.869482 31.341816 8.986357 69.338104 -10.997435 123.13734 -78.54001 -87.31747 34.607227 66.07029 60.07703 29.368235 -15.487831 -50.739746 16.092505 -116.67039 0.5012629 -22.935818 78.79148 -135.29054 -80.37564 -169.3713 0.49985415 47.427013 50.93134 100.29029 -44.48291 32.094906 -66.93024 -113.051186 24.537525 36.13286 -9.995617 0.5666554 -110.76538 -50.020855 63.904278 73.7988 0.9906831 32.621773 -54.17708 -60.22853 -58.30407 3.9944158 -50.879864 43.340412 -128.14024 104.70222 -66.966705 30.942764 57.690468 -109.79558 -0.19171125 -43.129086 20.411665 120.35132 45.554333 -79.79822 22.48506 -51.714603 -67.144936 25.156693 7.4604564 154.72665 30.190805 -16.013657 -43.92588 1.2187266 -27.165264 83.926445 -17.171572 34.763577 -10.0606785 -5.3812857 24.498774 -124.19786 95.868195 -27.201204 -127.27284 69.03698 -60.296455 -27.051136 -43.41078 94.55204 -1.4598881 66.73131 42.34349 14.095731 -47.132618 41.792404 35.755066 8.772873 -41.606834 -54.74068 -80.023735 -92.021416 73.42615 122.66245 138.21045 150.42911 -103.21094 -24.32793 21.664707 -96.86327 -51.014595 214.25558 -4.144267 58.045593 -26.9587 33.45621 -87.72466 146.41132 37.714474 219.97133 -77.333206 -82.681816 122.24574
*dt_2 -228.83122 -107.42952 -58.020515 -142.4577 -182.26315 223.34637 -75.31727 -147.75993 37.484825 -0.7840187 139.6861 -12.718012 -178.66422 -84.59655 -43.143803 83.000084 109.40196 -83.45525 30.723513 96.252464 56.314312 -40.091946 -124.64924 -112.686646 250.86958 -212.38948 16.959778 32.774235 -160.79562 -45.938095 -83.80839 81.66261 9.989948 -67.27834 -136.4635 36.22756 179.71536 71.13833 73.3308 -138.4091 17.978962 14.788108 -73.04294 67.888405 110.40979 -54.511936 43.537766 178.6634 68.68242 -119.01734 -107.964294 69.5384 -31.190027 73.334946 -45.718487 44.86952 83.25673 102.11658 121.0834 42.5493 3.1974654 16.351728 -65.79312 -190.96658 -0.02345109 -81.425545 74.98893 45.545086 24.270042 5.6465497 -6.0576444 69.17655 0.61809456 61.10728 16.131159 47.65677 54.282207 -75.77895 -72.64509 165.79877 -111.70163 82.43998 -22.353848 14.230048 -9.053285 166.2738 151.43428 68.50967 19.512053 -129.09515 -233.31776 63.193768 -114.30466 131.8335 96.08749 -149.28833 -97.504906 -145.04407 -101.65875 -53.62757 26.32912 144.59373 -161.75037 -6.950863 -134.59158 17.26114 114.99606 148.31706 102.4742 -168.89601 106.09707 -165.08488 41.178516 61.111958 18.089361 56.02625 105.63679 -178.09604 -39.382248 23.689096 -110.86479 -23.601444 -5.026931 56.131077 11.604318 -119.34017 -18.890713 50.34201 54.94699 -268.04807 204.04053 -8.792302 15.061173 84.77462 -117.514496 3.7045674 -70.466774 42.74513 24.199158 60.535793 -62.1858 103.58409 20.666082 -17.179802 -89.51587 68.22968 -22.81341 87.3994 -81.38258 60.34108 106.761856 -45.35269 -88.50458 14.198198 -142.75964 112.75854 13.168112 80.45085 -227.20204 34.353455 -35.607388 1.6938434 38.319553 -58.463852 -8.159096 -52.2347 92.95347 -130.05334 48.45963 44.99581 26.567406 56.64736 115.138 56.315502 -36.507046 42.713802 144.52742 -174.1626 11.870062 103.572334 6.5999546 142.60457 69.458916 23.780563 -53.649464 91.666245 18.056343 -38.042896 199.7575 -17.985268 -19.034132 1.0847539 -44.58335 4.9609985 -0.35289973 202.21146 237.56137 -15.058768 -147.13452 76.91316
*dt_3 -83.11454 -134.44693 -58.560345 116.45396 -317.3983 171.83177 -146.29347 71.1768 192.94012 25.516209 98.478096 -3.7903554 -157.73367 0.11325437 60.33167 180.0278 56.979107 94.11694 5.097865 50.128914 47.51365 60.680065 25.94542 -16.828176 95.66139 -244.1161 -72.75944 38.06605 -16.221296 71.26177 -64.5634 69.89253 -47.100548 -92.03592 -33.801346 69.13002 124.54184 -25.014877 82.33297 -134.34099 -50.549034 96.03576 -64.7635 18.25998 -89.64133 -61.221664 23.625393 237.80827 29.676144 -18.979925 -202.11682 32.283905 -16.693968 189.36333 -270.65048 125.99932 20.398703 40.145782 217.15227 20.909737 -29.214954 -37.66626 -130.04947 -97.489944 -36.83694 -84.34501 64.714905 -97.86074 -44.25072 42.60836 52.320957 -14.347597 13.396723 19.79041 107.83209 -87.642685 134.02281 -193.1799 -182.5354 29.664024 4.0106163 -15.796948 -112.53741 -62.05712 16.8412 84.14102 94.147064 -69.48963 -44.85101 -11.539877 -163.09023 101.51771 34.327175 152.28746 61.780327 -37.554157 -98.620285 -15.781969 36.45824 13.934578 77.73798 29.512512 -161.58487 32.537804 -180.01944 -63.60422 -31.245296 125.75936 20.06416 -106.21657 -4.47598 -194.35892 -54.42813 -19.972664 7.5832367 23.508442 37.033913 -188.69354 92.02667 17.159313 75.209206 -84.0197 -69.769615 12.610351 8.549294 -18.018267 -76.33231 -81.879555 21.72142 -7.6486807 75.604515 61.729015 18.90688 72.56101 -115.31175 -27.301275 -127.635 -49.74866 103.26847 -22.328495 -114.7091 148.56071 -197.38885 -8.420888 -203.5203 -40.221645 -2.3290048 -111.41392 54.962357 32.633232 -23.447216 -45.853775 -18.514706 137.75633 -143.48706 -11.108673 14.601594 -4.3895392 -167.92874 -19.268843 -89.454124 53.576065 3.1224108 -37.88486 -109.6549 -23.484222 121.91725 -136.5663 -108.55278 76.92618 175.57588 71.859665 12.039262 96.15655 57.167477 -30.416418 79.49564 -74.72635 -65.18543 180.45547 12.259784 215.04553 42.824043 39.185596 -193.39098 176.68507 -92.53324 -95.4796 55.02736 -20.842518 73.51349 -21.042692 -52.021347 74.22224 -39.354828 72.41481 222.93231 -25.336216 -90.63399 160.37753
*dt_4 -113.90651 16.473183 -31.560593 2.7925525 -224.93796 103.36885 -52.49777 8.420532 104.33592 -28.454874 109.60391 -1.2589526 -146.9625 -21.175426 -18.165953 68.85719 54.829533 14.289891 49.14301 28.305445 59.867256 -20.380575 -25.478014 -77.8233 54.763405 -100.18372 131.71503 27.529148 -87.609795 23.525656 -51.250088 11.533801 -13.466705 61.94784 -79.0729 -50.77205 164.56076 111.47461 133.2581 -149.44919 92.93784 184.35185 -70.34418 -22.536524 35.496742 -88.98248 47.742104 131.59186 153.07274 -53.38281 -119.82925 187.43922 62.255276 86.48375 -90.81267 -7.3484554 28.043882 34.850723 87.96355 -17.115242 -79.506744 57.045116 -64.66592 -47.322254 -20.120111 -49.921288 16.22875 7.1050367 106.50963 -70.43471 81.14017 34.178024 140.3079 113.774765 36.654472 44.366756 -1.7954388 -199.78517 -84.427765 134.85599 -16.431242 16.405754 2.8693314 -75.67276 16.310234 99.465546 185.36441 -6.280949 -61.606968 -99.402824 -57.32911 15.491929 -12.33279 16.011625 121.597664 -109.55243 6.3823943 8.403446 -96.43592 23.023464 -14.3957815 139.52351 -95.609055 39.58509 -107.85737 -90.29465 40.355675 45.6036 70.974014 -194.68219 66.9856 -149.52682 -10.088294 41.796135 -35.30284 110.229034 -17.78005 -49.858658 -72.84504 26.138964 19.547518 -110.547935 16.345299 -28.633835 51.035545 -70.68318 -4.53916 -80.481636 32.2952 -51.472622 63.085865 -1.5282788 41.301243 115.26822 -37.050404 -60.53465 -99.747475 -9.58413 18.731762 58.552807 -93.616295 -9.735546 -100.9445 -32.04628 -16.169256 -79.66614 73.29382 -31.341545 -41.012306 3.2738733 -21.168058 -90.888275 98.4784 117.57201 -39.916878 -13.811509 152.23802 13.350358 -108.374245 -40.07967 -48.35938 4.3927007 71.98729 -36.698997 -28.666206 -28.172167 58.317413 -145.92763 16.527592 28.727787 57.465195 127.738655 91.2742 29.309847 41.422806 50.510963 15.750426 -93.89852 -163.9181 159.68231 22.883717 97.68625 95.76244 -19.670015 -91.937454 101.910736 -56.469646 30.951998 125.51747 42.549263 11.800793 54.596684 -119.80965 -36.58285 -4.933596 89.90214 260.5441 62.25123 -99.855545 57.65082
*dt_5 37.560215 -39.737087 -103.57654 55.506638 -308.94394 206.71152 27.158329 -20.188984 15.322475 65.9527 175.90483 96.704445 -75.295784 29.625895 -149.12256 38.45869 104.93282 -5.513774 41.07181 99.505325 124.30247 -65.83688 -39.776356 -93.63658 166.16162 -137.44862 170.38449 47.72204 -166.89388 -21.977648 -25.89921 -20.303064 -9.228184 10.913532 -80.063835 -22.160723 98.13229 165.90865 159.56506 -121.0115 -58.420036 211.04677 -53.598015 -18.70211 -93.73643 -96.44642 -61.768867 159.32402 149.15645 -126.17544 -82.8841 110.46803 77.838425 118.918976 -104.33055 2.9601552 -102.14732 -102.3492 135.58728 186.7283 -170.39146 57.987823 -175.70683 -44.935303 63.435055 -128.28722 54.16061 -71.517166 -19.772846 1.4077485 208.30956 -73.20107 73.78448 74.68303 -11.562245 -85.3872 -85.531525 -179.06227 -11.422437 112.855194 -132.25462 -5.258286 -17.424812 -84.24623 73.26102 -24.448269 83.57134 -85.46913 -6.6204815 -55.258343 -77.475365 43.482304 -22.973783 110.29354 52.70106 -43.552525 -5.9496746 40.990025 -81.42416 26.343782 6.403659 155.25674 -127.7103 -24.209614 -61.204082 -12.332207 26.486847 96.772766 83.24248 -195.0552 157.16733 -123.51991 22.915022 -116.76013 48.169926 83.96223 24.166927 9.834714 -80.03561 -66.090836 68.287094 -20.980476 -4.7818093 -102.68543 5.1065016 -169.97879 60.62997 -136.98364 87.149864 -102.43706 140.01067 -129.43448 32.207993 100.99677 -114.86839 -59.90418 -162.34215 -60.903793 87.107635 43.11622 -152.91093 28.1183 60.584446 122.12735 -49.295265 38.983425 63.56266 -80.43933 -134.2163 -42.228916 -2.8012583 -6.7535625 64.74656 159.6418 100.66475 -88.919876 48.68376 -53.929176 -206.78374 71.11018 -100.49451 -38.48842 92.6831 -29.824865 3.7284298 33.354538 131.75473 -36.822266 -77.41522 52.782253 70.42053 135.76257 129.05678 -19.795315 -0.4374565 31.84717 -12.319571 -160.17183 -154.18364 108.83135 92.99941 81.72104 27.227222 -114.6784 -32.008522 87.1599 -5.488849 -15.410739 125.273605 -8.811832 139.99652 -64.70838 -223.19936 4.395456 -23.581017 149.74234 71.691574 -42.184303 50.246243 121.74629
*dt_6 -141.06587 -10.2935095 -98.57023 87.76081 -99.95217 38.909626 25.55461 -15.897059 0.57672966 99.91231 -60.663677 85.52814 -22.300718 45.251507 76.5088 60.80782 -14.268529 -28.522125 58.86136 131.45094 69.03202 35.171383 -0.93319947 -144.53593 152.16963 -78.98568 52.242878 -21.633823 22.131895 29.624588 2.2180917 -67.9958 -13.159979 9.529283 -42.622932 -45.304615 79.62301 59.598583 30.755417 -106.65705 73.01385 37.77151 -77.60948 18.48724 -76.42004 83.51295 7.185051 113.75034 96.72479 -19.864126 -15.976234 70.08087 68.67268 181.53934 -93.25466 120.44505 -18.887442 -58.077995 68.47076 75.214455 -96.872314 37.197784 -77.0955 -144.0236 -69.490425 -81.872986 -47.996983 -10.164329 -28.245468 102.14619 83.5336 7.221758 -0.25259933 -26.064608 32.485676 -43.603092 -67.34226 -148.29442 9.831017 -45.56512 -15.406714 -100.11564 -12.815582 -76.5718 -50.68544 -24.552868 136.56065 59.607082 43.204487 -154.2969 -166.34206 72.44901 -134.25488 1.7637255 39.516888 -104.71338 45.90824 -2.762578 -80.74661 -2.4482112 -53.31971 67.28181 -14.076729 -59.392715 -18.115017 -41.090317 -41.54997 132.50687 29.597088 -196.29814 -32.554173 -220.34932 67.58787 -52.260696 50.507698 150.42667 35.801666 -68.50905 -86.08323 -25.710331 -27.334394 23.026196 26.154402 -48.77462 -47.757824 -167.08324 -25.339943 -9.8858795 -1.0869815 19.139767 -36.08216 -39.43383 14.943398 105.24973 -29.237545 -32.915596 -55.863937 106.56998 18.579618 82.604385 -108.36009 57.32689 -97.13999 -142.68663 -39.851894 -99.00645 -34.00908 -77.36816 -29.610403 24.0126 -118.52195 -52.011906 63.46889 125.32499 22.402222 6.6267357 27.294226 -38.289173 -91.42935 -49.566177 -55.458076 -92.31763 58.527256 -90.57618 -8.111898 -39.704826 68.99755 -114.46205 -5.3915434 -8.245978 5.71468 75.153046 -24.55337 -4.009529 -29.603233 -75.78574 53.345783 -54.45746 -105.170166 215.84035 82.20711 68.13057 66.92749 -16.910276 21.48696 -10.308646 -102.20416 154.4845 73.42272 -26.597366 126.27007 43.48553 -78.94107 -116.938194 26.427664 84.77038 105.34429 -28.754768 33.543247 40.87713
*dt_7 -82.5739 0.8628063 -52.76145 47.852634 -224.02817 158.33508 -84.7938 -103.1591 -31.863028 135.07008 65.48312 30.627735 -123.882866 -29.971655 -10.965065 25.009735 109.861855 -16.761993 86.160324 19.463865 114.35242 -27.669777 10.582524 -116.7528 60.734383 -135.99551 139.93979 26.761719 -103.27825 -6.482794 -106.20669 77.568665 -47.27372 60.48134 -45.97396 -28.332048 -60.070652 177.71007 124.727974 -69.654686 -55.460403 154.6453 -47.050728 45.215866 -54.762005 -47.35819 81.03164 232.61566 51.97301 -34.32115 -100.13453 71.87665 -11.473344 253.86621 -170.62447 -72.72204 -16.75023 -69.97797 179.68779 124.18512 -233.08252 -88.79873 92.94099 -92.52179 26.159513 -80.64206 -30.84068 160.01637 -21.361725 13.225759 206.29144 -7.5947714 82.271324 93.052536 42.159508 -87.72135 -38.913033 -122.85398 -68.77958 43.392597 -26.149681 26.276045 -80.47052 -34.040024 2.9565244 73.14635 130.32086 -31.746063 -21.471815 -48.059406 -23.94834 18.550941 -85.38566 -60.8102 26.498674 -31.43623 89.71174 76.24313 -49.684105 67.25809 -68.761475 7.2003393 -74.9806 86.38276 -143.40746 1.0750778 17.06711 47.234955 75.146164 -121.51593 117.33828 -137.7618 -6.438879 49.40811 41.85889 23.370964 16.616339 -7.150111 -68.74647 99.36357 -3.2640185 -26.44021 -28.05377 -107.15369 29.423912 -182.41487 -33.7353 -14.389118 -35.05037 -153.08682 -6.388994 1.4856427 -49.496414 55.17127 -157.68333 73.39801 -63.91783 -28.589134 47.916237 52.968327 -74.44205 -82.11355 -69.4987 -7.3736067 -21.053934 -56.753242 38.51073 -104.00088 -168.01497 -71.5383 -47.26187 42.428253 75.532104 160.18422 66.109406 -50.648743 6.7866883 -35.78765 -124.09331 7.171158 -74.43843 -142.89487 86.90031 -11.548545 8.178755 75.53169 78.85734 43.55074 -38.676056 39.143044 77.94087 35.591515 185.22076 -99.722916 3.6011977 -16.379301 -48.234276 -108.995026 -158.75603 152.6875 -11.720346 60.28985 144.28807 -68.72305 47.48446 -14.453359 -91.67418 40.927227 134.04373 -80.10302 84.90209 21.524502 -108.58158 -8.903776 -55.342133 85.84746 94.63971 -66.93236 -12.517894 -1.9623559
*dt_8 -143.17618 -14.197958 -7.152748 68.369804 -182.44348 166.16275 -186.38373 -36.603626 -31.696556 19.467525 12.941664 66.51833 -101.0683 -44.233685 -14.585437 50.126102 15.509539 17.4102 -45.22598 -104.12112 105.96356 53.78362 21.533548 -160.81853 164.4638 -94.80071 107.935486 10.676795 7.6860046 -149.10422 20.886587 32.583294 66.08577 -16.741896 -53.739082 -21.749563 97.23313 -6.564559 92.19418 -110.638466 30.914743 13.681143 -220.96246 -10.641073 7.1633444 83.53315 116.28554 63.07759 32.21261 22.583961 -65.41264 57.111023 10.186159 233.29205 -126.04062 152.47885 22.600908 -43.639637 169.89633 98.17377 -19.435186 35.0919 59.819916 -162.04118 14.37905 -138.24916 -151.1727 14.695497 48.981415 -22.316116 89.148026 28.743769 -82.489395 34.57943 -4.5501184 77.37993 -27.924973 -74.177795 71.845856 42.654465 -10.379543 -83.43915 -101.58368 -157.21289 3.695793 54.52219 131.8496 31.214933 9.118493 -81.06257 -153.04866 29.188318 -141.81723 -60.302586 64.969055 30.711372 18.724945 44.257896 21.177563 -67.61282 15.262488 25.737598 -101.34908 -73.21317 -123.01957 -4.329011 11.645729 29.565495 71.82771 -177.76053 98.3189 -133.81467 -18.6655 -44.77137 -47.166107 93.96087 37.689808 -27.49033 -92.069984 12.525324 69.48031 -23.493206 20.653221 -2.6952364 73.303055 -93.85604 -29.591658 -109.430664 -15.154365 -225.25809 13.721567 -63.5516 93.85197 -42.116703 -10.540242 -56.01341 5.584134 108.44403 129.66667 49.388203 -93.10083 30.570639 -92.24306 20.942242 -85.69832 108.96679 43.12485 -17.625065 -74.68526 -29.381498 35.475662 -5.0787296 -2.0152905 62.122234 104.89313 24.67619 57.654 -16.23906 -105.58765 -68.17502 -70.19404 -63.677902 50.53039 -51.38086 -22.247766 13.718891 161.1857 -18.959217 80.76806 56.442524 29.58261 118.34795 -36.23963 171.57289 74.89473 26.151127 73.38465 -135.00237 -63.39179 205.00273 37.40218 51.39634 18.307344 -44.505695 53.96422 66.42513 -18.03562 8.3473425 143.75287 -2.2034063 24.683578 46.928696 55.10466 -148.4942 -0.7532221 45.141346 45.765694 72.931564 69.96263 84.29873
*dt_9 -28.856829 5.853573 -101.256386 18.225578 -195.18729 254.2742 -167.70909 3.57929 116.589714 6.9532223 126.99939 -114.06943 -95.956436 -104.538635 -97.17927 80.84819 83.924385 -57.987293 -142.62196 135.43198 82.51577 -77.05954 -132.09178 16.380632 175.34473 -141.41397 53.730873 23.104996 -92.91217 -90.49083 -43.459103 34.23929 -4.640635 63.68112 -160.06555 36.97907 72.723656 102.77219 272.60635 -82.93314 98.78782 -54.78735 -176.22083 53.673027 -58.289043 -57.858242 -54.765697 32.697998 33.829132 25.93933 -41.335064 -40.415222 146.78145 28.501358 -121.6289 70.5783 11.290149 -113.706894 126.98236 -15.9823475 -71.843895 89.45764 -161.44716 -84.59134 90.69039 13.627812 -5.006993 -51.68927 47.892414 60.090767 8.689758 -8.633768 106.59433 32.919674 56.1117 -42.29404 -19.375137 -60.98405 25.149977 50.971973 22.159082 -25.207897 -9.126327 -189.74117 17.333366 -11.610161 105.27597 62.47649 -52.06437 -110.98758 -76.953 -1.5666409 -28.676367 -64.05041 -46.818737 18.787575 76.32765 68.37088 -12.3246975 47.87479 -0.5669327 94.47737 -84.2143 49.967823 -3.6884642 13.76021 98.38539 206.1913 242.78741 -150.11807 149.97945 -161.10501 11.323487 -52.644424 69.25448 -37.800747 -50.628586 -17.86358 -119.90641 78.75603 155.33102 -25.46482 22.468252 -64.87825 -30.261917 -139.14052 18.691677 -15.810581 51.870373 -209.40315 74.9852 -106.896996 -173.87395 46.26955 -230.9881 -92.10335 -1.3862159 -59.277176 135.2996 32.793324 -114.281265 -17.992567 -6.7569227 -64.615166 -112.265915 -198.09676 102.455315 -154.35748 -50.22911 -227.88794 -30.523136 68.83366 21.885754 -37.119778 -120.309685 -101.06944 -132.88194 -25.175188 -187.96465 -14.741892 -55.173767 -60.681183 11.942717 73.29456 57.633694 -30.255894 56.630516 13.941025 110.61643 110.58253 65.79676 22.017801 172.39435 -48.94747 34.683903 -13.890417 41.177696 56.556683 -112.8087 60.256386 44.81567 57.55991 -52.49368 -48.317505 110.90734 -8.185272 11.983337 52.1437 143.34584 -10.3852215 46.157967 37.01713 -23.23712 -36.222458 -71.18534 35.01162 265.48846 31.068542 -32.51105 61.55682
*dt_10 -79.59822 9.553531 -29.547441 84.8857 -114.14809 112.99981 -33.000885 -109.2514 -147.5069 14.9739 137.58888 -23.12984 -73.91512 -84.11012 61.173767 11.707575 9.33806 8.239158 22.905704 32.08718 -2.7805302 -15.4266615 -22.382692 -98.6655 67.85951 -174.48964 39.92892 10.993494 -10.361191 32.41487 -24.298794 2.9371457 -26.483253 -1.6124343 -87.906944 11.999854 48.860188 74.66379 34.803997 -58.03201 27.361658 34.10425 -43.311275 30.907751 45.650738 -14.128412 107.15028 124.39307 52.430687 -16.676678 -119.20213 83.93184 56.527493 173.05539 -97.23108 -40.188877 -79.34301 -4.2602963 178.53531 36.455746 -106.56859 -23.462385 10.107933 -127.68496 71.0652 -61.641495 -80.76825 70.34371 -8.100269 62.702415 -14.299392 31.236425 54.34874 2.8490963 -17.460056 -60.913074 0.7953844 -90.03247 -53.609596 45.212643 14.771999 38.439667 -6.515837 -63.53626 0.66700155 147.35712 116.097176 17.149235 -52.205513 -118.61593 -156.28253 118.08432 -97.33022 20.129833 50.930687 -45.59659 -31.569462 21.027386 -24.306068 19.806307 -83.622215 -24.37724 -99.91476 -13.027403 -70.82557 -9.746843 -12.754261 -34.815025 44.142303 -97.71306 42.31365 -147.99126 -15.150183 43.566936 47.83722 -11.429661 -35.52997 -35.496643 -68.517204 73.4457 -112.0039 -44.10683 -45.894108 65.962524 83.21298 -28.721027 -69.44018 -40.688004 -26.28251 -71.47289 111.19439 -44.54423 23.914837 -40.07612 -74.70634 -6.8226833 7.1100454 14.811272 8.183748 1.0935479 -77.22985 90.53436 -70.0246 27.64947 14.944114 35.69063 -10.110802 79.13743 -27.514585 -23.065212 -43.530663 -91.54506 46.142387 61.887344 12.670201 8.61807 31.281418 -32.072647 -82.670845 -23.827868 -84.479454 -36.708546 89.387695 -45.28025 13.399135 10.422693 87.65047 -28.784296 23.970446 -17.70921 35.81856 135.28264 -24.513603 31.051762 -27.453829 -45.35201 6.217719 -86.06522 -82.054695 76.4908 -40.86499 73.341385 83.92326 -54.948456 0.7337721 11.966238 -49.164726 43.919994 77.66286 -61.829865 156.90643 24.90195 -77.477356 46.87913 99.28117 83.46202 77.786606 -42.58388 -67.81492 47.586174
*dt_11 -187.69324 -1.6275393 -28.60354 225.95695 -163.78679 174.9158 -56.324783 -101.276245 -33.62615 -49.532906 98.60818 2.7858312 -268.58737 -96.91172 -28.781425 96.71475 95.22905 7.965163 108.2401 55.771942 30.590696 -54.290558 61.746105 -161.19827 6.934509 -178.67055 143.57452 31.501587 -42.069633 32.859116 -189.59497 -43.71616 -9.63643 -4.8491974 9.317631 -6.13575 155.53423 59.72368 110.30798 -191.4654 23.6862 121.777954 62.419163 8.830997 52.68618 43.05488 38.00392 219.13734 93.89121 51.209328 -60.147675 151.66068 122.600235 181.32457 -127.39988 -8.991361 -65.91925 17.249298 141.71088 21.899282 -81.40437 -2.4080818 -31.677284 -178.80066 -100.69917 -42.689816 -46.446247 136.85957 97.061 11.02327 -99.45378 87.11221 57.343372 73.56034 44.467777 -53.296528 -50.589935 -96.86168 -99.56832 106.13081 12.761935 3.4459074 -39.20438 -111.36228 -20.001394 35.542473 233.49336 13.211516 -79.34006 -78.18372 -11.281605 86.0419 -29.069378 -89.62573 33.28618 -60.56108 -34.106136 -77.4781 -111.801926 123.24602 -58.33708 78.95149 -172.3534 46.567917 -94.20472 -21.815699 -95.00289 52.391926 35.209568 -148.65923 73.238266 -117.03143 -70.495766 49.92185 -75.78345 -14.670999 51.290337 -29.653994 -142.30746 85.570404 -89.66294 -101.18384 -130.13184 94.04324 119.801 -12.38519 -22.159008 -100.23 -14.575943 -196.26207 149.1265 -40.462532 -0.59805274 -156.97363 -75.32745 -25.675266 -102.037094 70.954735 95.3499 70.59099 -144.9048 -23.335175 -102.559265 -68.21213 88.37962 -26.299137 45.63974 -46.566757 -33.5466 -113.94606 -73.11786 -8.822554 93.63841 -39.322044 107.933464 -27.565212 30.290092 12.584161 -74.12793 -27.141268 -48.46568 -89.32951 104.986786 -54.17186 -16.851536 -82.85415 184.02179 -160.08963 -76.79275 -6.315996 71.918175 162.61395 127.67622 -3.2373347 77.02081 8.386537 -101.77048 -110.02715 -66.83049 221.89551 18.10798 97.220604 78.93537 -91.04519 16.769152 -19.136438 -18.902634 4.0371866 90.93062 -113.871185 12.0292 67.35501 -119.22038 -39.14286 -14.846012 110.963165 144.00386 63.200054 40.801838 -14.183021
*dt_12 -84.712326 17.038961 -12.401738 24.690985 -280.87817 231.46779 -128.81592 -73.815186 85.38938 18.56879 54.132973 46.45524 -122.78936 25.247963 -1.7814862 65.89529 98.11665 -45.794495 -14.647664 17.493229 124.51249 -81.00365 -29.257153 -97.80904 126.44445 -88.008484 183.643 50.69294 -87.048645 -35.01263 -110.55913 106.922516 -1.9793985 112.224846 9.083969 93.47476 53.48641 87.21876 217.54459 -188.78763 88.12339 154.92212 -53.474876 -6.4891148 6.6341033 -98.883896 62.233322 136.02422 100.72587 -33.661068 -153.435 242.73346 117.853615 191.95636 -154.78084 64.4539 -88.30246 -67.274185 165.13367 17.85659 -25.68499 44.106194 -67.29649 -77.46156 -1.868258 -133.1364 -48.159256 -0.1776223 125.00333 10.942375 103.77955 139.94743 161.88829 36.034866 93.34104 36.60665 -39.022354 -151.46236 -46.751472 123.144196 29.35327 42.86667 29.492624 -134.72949 -7.533896 38.461765 214.56915 37.555298 -51.214436 -184.34535 -160.3257 6.376784 -30.772888 26.124063 85.36413 -77.65962 -28.423769 -0.67537856 -131.28615 76.3552 -47.330288 140.56905 -82.34448 29.933361 -108.03876 -36.554092 -30.035563 10.762647 55.91336 -233.78299 210.7016 -160.7023 7.571332 -0.53625834 61.8534 53.637997 31.302065 -72.64861 -185.91861 69.71173 -6.0233774 -14.369177 15.220431 53.689976 44.13081 -203.1124 0.6545309 -33.424625 41.284542 -191.59618 51.097683 -118.70359 -17.394543 -23.244871 -131.47473 -60.910088 -87.02059 -56.5386 -23.62653 32.192867 -95.961975 20.613462 -36.568348 -76.04218 -25.36663 -1.290133 -15.606127 -3.0191865 -153.11107 -53.121067 -60.43245 -136.18301 162.74835 110.6255 -76.876015 -32.058235 -18.23621 -17.128958 -124.23163 18.604486 -73.48404 -108.273094 133.53339 21.83722 17.23919 35.21317 108.99403 -43.865486 -7.5127473 104.888214 105.85026 42.689068 81.83549 12.805927 -3.6234193 -68.18083 28.578768 -128.13168 -92.82722 293.5104 102.78458 35.23702 137.09288 -98.21573 -49.06886 34.33881 -112.84742 114.93232 216.68837 -134.91115 34.93356 122.78984 -90.81168 -77.585976 51.151955 23.261122 196.08493 31.52783 -5.53549 69.272766
*dt_13 -10.714041 -69.94662 -46.691555 -94.187256 -121.23543 103.4282 -134.20161 -9.349527 -46.191765 6.1145425 92.742325 -67.184586 -25.299417 38.626606 3.818712 85.74395 0.70293784 -23.893183 -33.847683 -2.952323 19.895527 39.665077 -111.37075 -83.80162 25.74831 -122.5475 32.77633 76.0297 -44.33721 31.871704 -90.53863 -28.742157 15.480694 58.94309 2.9461617 40.310097 41.43942 43.92005 106.06011 -97.68995 79.79524 114.2664 -38.174744 6.3288617 56.935352 2.81711 95.67424 150.45851 137.4114 -106.87183 -202.8319 58.74224 15.346841 157.42377 28.657623 25.534292 -41.018642 -74.589584 178.346 49.18959 -70.408066 -175.45222 -40.508183 -16.81552 102.334625 -111.56374 12.159756 4.2773576 2.482462 71.53594 52.46324 -9.6097145 -39.055576 108.28444 -13.175715 69.41216 -101.08926 -92.261116 -52.517815 185.20764 -95.63655 52.990437 -104.70611 -14.980741 88.05549 33.27448 200.73163 -16.4356 -45.52627 -142.41704 -133.76672 -27.167164 -27.554976 109.986916 71.78919 61.51835 12.729019 53.174385 -53.537827 52.303467 -63.103855 5.1916003 73.396454 -10.303057 -127.84554 10.982397 -42.80045 8.70985 -42.11469 -184.3333 37.835743 -101.76749 35.397354 22.730776 59.31153 2.7454157 -64.57958 -66.5777 -70.18778 53.85795 11.893528 -0.014136791 23.305548 -29.916807 19.836555 -0.6956606 -68.71299 -7.275284 1.993593 -168.18246 185.68024 -118.39007 21.860268 -54.557175 -104.56217 -74.36135 -73.03515 68.53674 35.647156 20.379263 -100.99034 20.251982 -35.65074 6.5222783 40.19786 110.26914 26.864693 84.33999 -108.21478 8.258167 -29.330704 14.682806 -12.93151 151.45384 17.195503 73.70326 65.85439 -123.88053 -81.07967 -79.425285 -25.179586 -31.124828 28.10437 -47.112194 -14.058574 -29.51677 107.05045 -62.59821 -75.270615 58.438538 54.7208 125.761024 -102.01893 -49.15977 -2.9580812 51.501762 87.67125 -95.687515 -52.372528 230.30264 84.24154 26.81995 30.735432 22.16061 78.99321 3.6553993 -25.60817 88.382935 19.72736 -63.38238 142.96495 122.41721 -89.31377 4.304563 -39.086098 0.5765214 43.266724 -3.7884574 -46.238754 8.338057
*dt_14 4.7604704 35.103935 -66.52882 6.7967887 -65.474144 47.545006 61.1289 -90.81212 59.72472 -119.22119 16.194895 -4.8838596 -151.14182 83.04681 172.9496 65.08426 15.139788 -23.880247 83.197914 -49.638412 -106.123375 -15.545811 11.037113 -74.465866 93.629616 -67.873215 125.55598 -106.32487 -28.562786 31.115938 -7.941033 -83.89779 -92.306725 9.0096245 -55.84647 -29.817327 74.356476 -22.142208 106.98381 -120.51492 58.3832 104.92582 -9.183815 -53.02034 90.539024 46.707664 -92.674576 102.05549 132.49498 9.8003 22.047823 53.866932 176.71252 190.96588 12.882409 -40.152332 -18.152918 36.044125 -35.040966 -34.31004 -27.859762 101.8722 -26.671457 -10.428293 17.948566 -86.79028 -108.25912 -100.89436 151.6651 168.4143 -37.611443 -33.53126 -53.15542 -3.267439 6.4459424 -37.107227 -22.357254 -34.071865 19.382671 104.90524 -91.26299 -23.392645 -86.105 -110.120636 -21.709698 20.781446 237.11429 98.40498 -46.1583 -198.08919 -154.40408 -36.621468 -107.105705 45.48075 34.396713 -161.30649 39.817425 -40.866344 -132.94757 -36.17761 -40.33292 99.16065 88.76772 -53.966152 -177.22276 -55.12796 -60.224346 7.487487 -45.17076 -63.183994 35.51581 -130.17511 6.579995 -51.694214 194.14252 79.366554 50.06047 11.645957 -165.03168 81.33786 -123.31743 -93.716484 -75.95038 3.850547 -20.457813 -89.35653 121.99644 -57.654705 92.720314 -25.476418 58.509098 -82.829025 79.19007 -122.94101 36.838554 -5.255796 -84.585396 53.787193 51.967953 68.06967 -170.5327 -26.300308 18.61039 -86.275475 60.134567 51.118374 -128.4705 -44.018276 -177.59206 -155.64163 -133.35756 -118.27871 125.05764 119.73769 174.72829 0.33161485 40.44518 -44.990353 -67.55556 -42.62567 49.252556 -12.698445 128.19496 -36.57196 0.09733707 -52.29428 178.03217 -83.01142 4.7158813 95.867325 14.498761 40.091717 67.77534 5.136199 -117.08504 34.32403 -45.29279 7.209021 -104.19573 87.659355 134.46913 32.789227 -11.676561 -35.43134 34.784298 -120.82267 -129.52829 105.63511 133.08562 -94.28722 83.06386 91.31383 -290.12198 -28.694302 -26.142488 44.45319 169.19946 69.9156 96.72975 -17.205862
*dt_15 11.584748 -167.86398 -30.754879 -61.096004 -94.42663 55.56412 -76.49753 -11.955033 17.368822 96.34856 -78.45373 15.336868 -122.77055 27.246357 170.32854 105.270065 10.693009 74.56893 153.4484 3.2818596 -41.538353 38.120724 105.2753 24.546204 149.71729 -179.44781 155.44316 -93.21564 68.56742 32.072487 -175.1994 -104.499405 54.807255 -175.15367 40.963367 -133.20476 62.332684 236.70471 -54.284817 13.452424 22.401644 39.84165 74.16368 189.47354 13.94979 162.93193 -11.156335 146.28316 104.98453 -131.00925 -137.59387 35.690243 156.24803 190.39432 -88.278564 -91.54047 -152.17633 -51.758766 190.45279 41.259544 -211.97437 -104.09094 -68.05148 -128.15698 -202.70813 -2.6617665 -122.406494 -32.87497 5.179303 145.45663 18.222178 -23.870441 -22.669785 -128.26453 106.131065 56.914383 16.970572 -88.49243 -79.92739 97.25226 -304.3982 -113.94237 -49.76805 -100.51245 -30.165844 -7.4255085 162.59076 -19.41263 -57.238983 -124.020546 36.958637 228.29477 98.07234 8.39537 124.103325 62.602795 26.294378 26.726398 -137.23293 -104.53949 -14.967308 156.70033 59.422146 -25.095901 -199.69537 3.033594 36.569553 178.24272 63.588367 -216.88954 26.70153 -57.59651 -62.33425 99.141174 94.516136 -66.174866 11.830571 -132.30519 66.25295 103.995224 35.284626 -53.75022 -13.636247 6.5004377 78.199 -7.0793357 -6.8296714 74.11011 69.585594 21.535196 -54.59132 -77.114044 -1.1568799 27.637676 -22.266884 -0.8520083 -3.1965408 134.61424 33.520485 42.636074 -127.27325 -16.518017 62.342113 41.86985 -84.66179 -128.46562 141.32964 51.036777 -55.794857 -34.66422 -84.705414 25.908548 102.436615 47.04801 -3.36281 4.280511 72.5609 82.409676 -6.611336 -44.953598 -15.198752 66.342 63.52261 74.885414 -75.28219 1.7175457 166.47412 18.537704 -61.68605 17.42732 -23.661392 89.61649 117.579285 -47.459183 68.507744 -48.480854 77.939514 -28.809744 -90.019394 128.23405 -165.15361 157.84276 -114.19944 -166.64227 -153.70555 114.49789 9.985716 159.09688 69.589294 -173.0905 204.77794 85.33624 37.38876 68.47049 48.71749 21.016308 82.6263 -40.66327 -90.31878 131.78242
*dt_16 -194.28773 -11.746642 -103.05698 95.03911 -193.3026 148.09174 -16.972271 -54.573605 14.374279 93.2331 134.86218 55.20973 -124.242805 -62.790474 -116.65679 -3.9989104 -9.678494 -3.4895678 20.994093 9.534808 175.99265 -88.63951 -124.90396 -125.708984 146.46394 -61.04005 115.596794 165.64069 -87.27746 34.014786 -121.02045 -25.356142 -32.714108 -37.251972 -30.542385 -25.145554 213.13718 14.614094 119.67071 -92.431244 -31.16397 -17.25161 -22.923395 -31.625895 27.81979 -105.38162 -22.40081 189.96274 101.83907 67.804794 -111.90192 169.06137 69.59873 136.69742 -175.51787 -2.6998029 -49.7705 -119.09309 80.91699 96.94868 -128.37247 7.669671 74.75939 -12.825952 -4.272634 47.228565 12.462494 -3.0625305 52.43197 2.0866103 61.373634 -51.95724 85.384766 -70.27005 18.098925 56.861786 -27.664629 -208.524 -2.786056 -26.871939 -74.11022 108.177704 -69.9476 -39.80905 -99.31459 94.0469 148.38754 57.79159 19.070656 -151.07344 -88.88102 19.044725 1.6599882 -110.40113 7.496748 -55.341335 -75.66199 60.045315 -62.37685 73.74613 -44.548206 25.598227 -25.680614 -86.33884 16.567898 -131.02542 -74.41331 23.223925 93.313995 -198.2149 76.92158 -87.34097 -4.543388 -37.867817 -40.156784 42.486588 87.21527 5.818232 -105.02366 92.56557 -14.621203 7.2928863 84.75423 -1.794514 -11.437225 -29.394096 25.565405 -104.656845 31.64539 -165.29156 20.146124 -32.52066 35.441788 -90.99522 -18.21362 -15.699447 -110.79558 -42.057655 100.42869 64.181595 -68.582596 -23.221666 45.91144 -105.45648 -127.544624 4.938093 47.061893 23.440645 -2.4537408 -133.88728 61.44902 -123.62217 126.75637 99.21824 13.257416 22.92999 21.904444 38.420357 -87.48703 -40.847908 -3.0874758 -34.55942 15.359091 -19.062704 7.9110503 -12.658096 37.796547 24.965855 -28.985237 -31.151281 88.924644 24.368013 79.00208 15.429834 -13.961117 -6.8511868 -5.554888 -127.70324 -168.99081 211.6138 116.20334 -24.142254 0.6105921 -102.0629 7.756109 -17.105537 -75.08957 10.364384 57.17684 -70.6962 83.045135 21.521421 -44.724102 -118.90802 47.472122 137.67375 113.36499 -42.402657 2.854895 32.034386
*dt_17 -164.6515 44.710114 -164.80917 128.10345 -359.47208 134.11043 -74.29261 -66.47568 -27.264162 36.156067 220.54926 -1.1163466 -70.78148 47.673103 47.640705 75.272964 -18.152428 -109.32654 186.52664 132.92043 153.30238 11.867737 82.54298 -187.19579 127.69515 -53.08458 186.00519 55.181805 -5.55052 88.691 96.80245 -141.31805 -69.19528 92.15735 9.435514 -43.72014 115.93396 1.1557524 132.95639 -114.37429 26.457245 196.99918 30.151175 47.645092 104.0301 -151.12845 -85.60379 144.37886 -10.1805935 -106.234604 -38.95813 166.12442 107.42811 180.54651 -103.714584 41.240158 -26.164213 51.565586 67.840775 79.98119 -181.03911 -8.849714 -160.06888 -21.821999 66.46358 -41.195477 43.151768 33.98066 154.78912 -19.95468 104.46499 -250.58028 210.86732 73.30115 87.04748 51.04834 -20.051645 -367.8623 -52.864365 179.62439 55.823116 91.722664 -160.33751 -9.313227 -27.402653 -74.57651 200.25713 -30.196732 -45.039997 -65.055534 -161.24187 105.05561 -77.59034 71.44281 90.90948 -48.82451 1.8807194 78.4631 -222.96913 162.68175 74.12628 144.17633 -77.681725 124.61005 -146.34187 -71.06358 130.9437 -91.49915 78.77597 -104.4379 13.886419 -159.50761 52.526176 68.8942 -30.30858 68.27324 -48.903423 -9.110398 -103.904236 -20.159735 -114.94349 43.511627 21.006748 -33.229595 52.49649 9.311401 29.698399 47.830063 99.43235 -190.33061 162.33272 -158.59282 24.332762 106.97637 -149.94179 52.10249 38.988636 -25.729107 136.8583 121.87413 -29.166965 85.305595 189.80844 79.703804 -115.27355 44.43308 -63.731277 -3.279592 -122.97147 79.20792 -29.720272 -148.15639 65.507126 258.2875 108.81794 -62.97136 90.49106 228.453 -37.133835 -104.2496 -91.86267 42.773235 120.40803 -50.205235 -133.55226 -46.83739 141.20917 -35.05788 -73.59114 70.99366 35.754395 181.45824 139.82018 -97.48139 32.791214 -52.43145 26.456509 -231.4504 -246.25658 165.80087 1.8975916 44.208027 121.998344 48.057907 -59.284748 9.58892 -135.99678 98.02406 135.09048 -70.64076 -75.58975 -17.019245 -113.8897 54.409954 113.40839 93.404884 171.60538 -36.883636 30.16255 67.0319
*dt_18 -0.6309264 28.59607 -84.646965 56.42878 -254.74878 171.20117 -118.648315 -61.90758 37.530426 5.7880793 107.11177 198.16554 -106.20973 -97.97035 -26.438812 42.023445 -67.46323 28.269005 11.440779 138.75272 158.57542 -79.60547 14.876451 -22.793612 -6.6464267 -120.66035 90.12986 63.451103 25.55421 -6.467598 -189.79135 -33.078796 -132.06433 11.723891 -184.81023 -16.47834 166.52283 28.788633 115.79747 -86.58797 -16.289846 14.226837 -20.667068 12.719378 47.454563 -57.900593 66.61897 191.51447 81.37928 -133.51845 -23.30503 212.9845 167.0122 81.68448 -84.97129 8.195458 -81.955666 -1.0291733 -56.260517 -64.24136 -105.131935 -15.829691 -25.087606 -55.1307 90.07119 80.724556 16.081923 -39.06882 -15.180578 -51.38376 -48.75991 88.92632 100.94473 -13.752928 105.60576 23.012545 -29.482782 -113.674774 -62.953594 -0.330158 62.529163 69.31902 3.0804517 -3.2465942 -139.40256 131.95668 141.29008 -63.58807 -11.126616 16.182327 23.501545 50.031464 -20.377754 54.1121 -52.885212 -118.7962 -29.063738 77.47038 -164.55484 119.061775 69.10353 1.0945542 -75.99471 -63.353973 -137.13742 -130.73763 78.27323 45.023243 -25.633398 -75.933846 66.44998 -38.390774 17.94336 155.99976 -12.268479 -9.511448 -73.83071 -83.853745 -66.0172 92.532585 23.391457 -90.528885 102.43924 -50.43129 59.78036 -53.08278 -56.5578 -99.45571 74.090996 -43.14869 33.643135 -10.113987 -92.22759 5.0031347 -79.745804 -11.389527 -43.297997 40.88231 54.60793 47.166027 -110.66546 -23.864552 63.96236 -25.582378 9.925751 84.058105 63.75885 73.40281 -56.40787 11.735092 -16.63225 53.592728 93.632744 36.862892 -53.005917 -94.53473 6.033676 17.905851 -42.059727 -127.103325 -78.93482 -97.67627 134.95772 -4.3141017 87.951935 -56.11158 5.0146255 -95.51898 21.431566 14.019728 126.26489 105.465576 114.48729 -134.3952 -67.68887 89.92849 98.74351 -123.3095 -103.02531 196.69254 125.829346 87.96306 68.758385 -57.568787 71.17184 7.7528257 -27.325945 102.61331 60.06456 -84.07567 29.544247 -4.3782053 -40.655476 -43.248066 175.0738 13.22081 56.00226 -106.383026 37.957634 37.851566
*dt_19 -157.43822 14.570297 -173.5875 -8.644928 -276.86325 129.15315 -181.49417 -12.887928 -11.833273 175.56345 164.45197 29.162048 -136.0329 5.6371126 9.697815 94.835594 73.154 171.13889 66.87539 -46.682545 178.28926 -38.92755 14.963556 -146.65477 -3.9878407 -193.57852 128.22792 148.2673 -218.61859 -24.691044 84.33389 50.702972 -148.31294 52.18225 -155.37285 59.519585 55.890205 61.05343 212.16324 -149.38081 -132.66191 44.79016 -132.91338 77.03413 -23.175491 33.95131 137.58624 224.54208 173.13344 92.63337 -171.14401 220.21364 189.08351 215.04468 -154.83781 35.5632 16.664143 67.192604 175.05138 84.250206 -113.69416 -75.23054 -27.562092 19.301384 -132.85396 88.81824 -31.646809 -25.26907 68.94553 31.51038 0.4880644 -68.09579 -88.385254 23.3652 -14.492958 90.77211 63.511024 -147.96602 -31.282848 214.7087 2.7891912 -16.152302 -96.90382 -132.89389 -80.16659 0.9669976 210.0328 77.71254 -163.86409 -107.5447 -194.647 14.860403 -14.517477 -116.108604 49.61558 -135.03479 33.60233 82.759125 -9.431608 -43.372215 4.4820266 33.919422 -67.09088 -15.618078 -132.3568 70.43897 83.33923 25.656452 13.76277 -211.35896 181.10777 -69.99417 -66.98983 47.00705 -49.877934 205.92137 102.786865 -71.62858 -78.9793 30.218437 15.600748 -64.07946 -58.506096 148.55182 63.80889 -153.41469 68.36169 -165.59447 134.64606 -267.34406 67.9172 -24.46401 3.5800724 3.6758862 -30.789177 -63.00841 -38.174576 91.16624 108.873314 -123.0936 -167.39465 -64.22272 -142.80537 -115.6879 -9.159451 19.634705 163.62663 211.99748 -44.8995 -123.35678 43.12554 -81.60248 73.68805 -10.873333 134.2936 -48.81162 103.05538 46.769314 -137.2897 -72.41426 30.377846 -8.175181 28.322683 111.6089 -101.25478 -177.06067 183.61247 -21.403795 -24.939898 59.76429 79.541046 23.952814 152.95064 261.0012 -73.05261 85.51137 70.46678 -126.516464 -198.40735 83.003845 144.2547 85.307556 144.64049 -76.6508 -88.602234 95.08505 78.79422 36.22317 93.49122 -123.76189 -66.16912 -111.65613 69.4642 -138.9967 30.778915 26.579334 134.42284 5.2864933 18.050245 117.36398
*dt_20 -66.4713 -46.60232 -42.12506 22.90293 -188.6665 55.082806 -39.516285 33.44061 -112.66835 15.634285 72.48585 -4.224349 -92.63447 113.49953 36.846832 -9.212577 14.845665 13.947983 150.50414 132.21509 17.174265 67.81815 -146.38748 -21.290611 -1.2562145 -89.724625 94.68949 207.62895 -48.37376 63.854553 -19.847586 -205.31042 69.317986 60.573513 -114.95043 26.26329 224.61322 62.18462 94.80907 -28.426744 137.7678 8.88979 8.321837 79.06704 -44.478157 -58.097874 -88.77678 189.65366 21.704819 6.236728 -144.53407 102.70377 135.41467 164.05754 -39.19205 -25.551435 -46.287605 -40.082554 23.584816 99.20499 -109.25601 -1.763745 -28.826897 -61.168636 5.1111116 5.049244 107.61109 -76.75477 53.91295 28.58568 150.78682 32.28844 83.030945 7.385501 -4.1738443 51.73507 15.026516 -230.40335 -21.04643 34.87883 -31.28082 79.3235 -68.515396 -84.60331 63.481792 30.5231 237.36523 20.126827 -43.218674 -42.627663 -92.543686 -40.10167 90.51044 30.126719 135.36684 -43.986053 -34.812412 21.889866 -3.6967432 39.06757 11.802464 7.207981 -75.99605 -113.21828 -66.55368 39.00751 -19.561773 -35.548386 7.1001954 -216.1281 92.996216 -117.143814 90.83245 -40.917835 40.08817 12.17967 47.395134 19.319094 -83.847824 25.305887 -81.82326 -67.5544 29.260735 -39.719334 21.297579 16.893951 110.83667 42.9236 30.760883 -149.61017 120.34124 23.160347 -39.65032 -10.915716 -36.736156 -41.69505 12.000785 35.435966 134.72752 -48.64729 -91.371956 105.39289 -46.25738 -57.19647 -166.43419 32.99624 81.972145 121.31475 11.47047 84.8007 58.667805 -195.9155 184.1527 -83.80063 -96.30802 -31.059547 12.989136 15.5662775 -36.809864 7.0586734 -76.296936 -172.90686 56.02941 117.51884 -28.673544 77.32749 -10.490412 -64.551704 -65.46728 67.321976 107.75042 96.476875 -8.480087 85.63113 36.213997 -196.27759 28.143055 -39.1062 -239.10168 183.19496 0.511959 82.58136 76.94787 -18.656557 -50.065426 2.9486737 -161.47357 80.13813 64.36267 -62.07641 58.24651 35.878056 -62.170315 27.685997 27.478243 228.47798 59.37393 -22.67252 -52.328026 102.7152
