5 100
*dt_0 -0.4774577 3.1026006 -1.747089 2.247307 0.38491538 -2.2629583 -0.91422856 1.4406226 0.22501439 -0.18805194 0.5272714 0.55624515 -0.5650456 1.2087394 0.083941996 -3.5397484 2.6340241 1.3032343 -0.79511154 1.9903305 1.4286069 2.5820165 -0.9974993 2.9647734 0.1893341 -0.7675319 -2.1814723 -4.1121597 2.2555604 -3.5455413 -0.493246 0.80164546 -1.2461267 -0.35602078 -1.1990048 -0.9604349 -0.75634235 -0.41332754 -3.015395 0.59850645 -0.5731501 -1.5028485 -2.008334 -0.59795535 0.036037475 -2.3673508 -1.4283146 1.638178 0.5774003 0.10249274 -2.418665 3.4545836 0.10227111 -1.9406209 -0.37394667 1.269934 -2.4306808 1.0018508 -3.822162 0.72180504 0.3927082 3.719266 0.80317736 -3.053532 1.5154904 -0.10797189 -0.5527495 -3.0692382 -2.2690456 0.8270108 -1.7417735 -1.9129565 -3.2553039 -1.481968 -0.11447432 -0.47948635 0.48664707 -0.07712309 0.5958535 4.0414295 1.7434717 -0.32044387 -5.2600317 2.2590845 0.3405223 0.4692102 -0.3515693 -0.97960865 3.1449237 -2.7123456 -2.1616452 2.723053 -2.6868343 -0.10855573 -2.3998787 3.302593 1.1811696 -0.81329477 2.7509236 -1.0095414
*dt_1 -1.0957536 3.2925296 -1.4264656 0.74564046 -0.53258 -1.2027918 -0.68488413 2.570875 2.4755027 -0.69417804 1.168949 -0.6617138 0.17554387 0.859356 1.7936945 -3.9841313 0.7672825 0.9319705 0.66161007 3.2006407 2.7025182 2.3106637 -1.0562983 2.7586763 -1.4638901 -0.801131 -2.6819086 -2.6221063 1.9872776 -4.0710316 0.13669564 -0.21378778 -1.7015115 0.34991375 -1.4160961 -1.6050571 -0.075189084 0.1400624 -3.652803 0.13766046 1.0342118 -1.0514115 -1.7619815 -0.80641955 0.43388662 -1.2914065 -2.7518816 2.5274413 0.08160672 -0.13384202 -1.6741035 4.166779 1.112935 -1.2315435 -0.94990164 0.36380526 -1.961611 1.4769244 -2.5830486 0.08016407 0.5044606 3.563439 1.4265765 -2.3123558 1.5274049 -0.55814075 -1.5221069 -3.5364664 -2.325558 1.3281887 -0.40932068 -2.2500339 -2.843032 0.461283 1.4100876 -0.64197457 1.5334797 0.8311986 -0.88497585 4.651729 1.7993248 0.6105122 -5.623289 2.081357 -0.40448022 1.7279121 -0.644365 -0.2416199 2.9235487 -2.2369635 -1.6828239 3.3894036 -1.5564369 0.7579616 -1.9366943 2.8771966 1.6953099 -0.0737551 1.9128047 -0.6415766
*dt_2 -1.2861022 1.6329851 -1.2202351 2.3998294 0.68596 -0.92281365 -0.13507995 1.4824873 0.73343015 -0.50331086 0.074430384 -0.3778665 -0.8403174 0.22461179 1.7440921 -3.2338638 1.943944 1.0406018 0.100880384 1.7898527 0.29448655 1.5771965 -0.85753846 3.6471767 -0.96589696 -0.8767957 -2.3176038 -2.7140243 1.6756538 -3.933837 -0.64955324 -0.39695907 0.010422345 0.0059315674 -2.1191819 -0.9712007 -0.8219484 -0.96353215 -2.8518734 -0.47144955 1.1245718 0.024264138 -0.6372741 0.28176525 0.4912858 -3.012045 -2.5537057 2.7318695 0.15181983 0.0369702 -3.0584679 3.034344 -0.25170475 -1.5678301 -0.8615316 1.1809028 -2.0383475 2.4031966 -1.9833556 0.56084937 0.5576595 4.049768 1.5028077 -2.4238765 1.0067457 -1.2402556 -0.86086893 -3.2135236 -3.0809038 0.93174434 -2.1167328 -1.7219136 -2.598567 -0.19219403 0.78994775 -0.3980048 1.2594155 -1.048075 -0.026194068 3.8732078 0.70327157 0.65871954 -4.4262013 1.7825353 -0.71631426 2.626638 -0.5798819 0.7768582 2.3304408 -2.5113316 -2.8344727 3.004652 -2.6745794 0.7679874 -1.8996066 3.6035705 1.5209432 0.17180681 2.9002008 -0.50172246
*dt_3 0.23034781 4.5133896 -0.7267907 2.3955657 -0.619223 -1.442095 -1.3707883 2.4004676 1.3715872 -0.8315818 0.8663734 -0.15849003 -0.50696033 1.4185178 1.2140223 -4.09349 3.231362 1.2627017 0.13005413 3.6136336 0.7105614 2.4455216 -1.2033387 4.398462 -2.2132962 -1.257721 -2.4376795 -3.8320782 3.5005264 -4.836398 -0.8108195 -0.81020117 -1.0596011 -0.28790966 -1.4395932 -1.6942645 -0.9035418 -0.103171214 -5.5174255 -0.7356142 0.20827778 -0.49419343 -3.3044505 1.2579455 0.5818465 -4.7418265 -2.3798378 3.3579378 0.030313157 1.5620921 -4.920498 5.70929 0.884487 -2.0074172 -1.778916 -0.25806075 -2.556755 2.3732896 -4.3440247 -0.16219218 0.42534193 4.1331363 0.44692266 -2.4025536 2.4647539 0.12729988 -1.3659372 -3.9630976 -4.3255157 1.9848671 -2.1312773 -2.051303 -3.6759799 0.45580408 1.51602 -0.2962968 1.3545054 -0.40126747 0.9100207 7.4281683 0.78381455 -0.9010678 -6.5081735 3.7055624 -1.3713393 1.398792 -0.3078786 1.0027153 4.5498843 -3.914095 -1.1176565 3.3623438 -2.9962125 -0.33941984 -2.9405448 3.7846587 1.464177 0.47099784 2.4420362 -0.74498904
*dt_4 -1.1469414 2.6419775 -1.3416251 2.0156329 -0.055246636 -2.437128 -1.2280785 3.3331695 0.9581104 -0.1502373 0.10144265 -0.972952 0.3109285 1.3732774 1.1522529 -3.7497528 1.9011152 0.9434339 -0.14864881 3.0404446 0.4244473 2.818036 -0.65208066 3.0441031 -1.2932205 -0.2370119 -2.4538672 -2.9621456 2.3633692 -3.091326 0.3750849 0.2665181 -0.95113176 1.2412894 -1.6126065 -0.07382219 -1.1348597 -0.195143 -3.1413662 -0.55214256 -0.74275774 -0.49673152 -2.7102258 -0.357279 -0.2584984 -1.8521248 -1.1037892 1.8977056 0.81759477 0.8578592 -2.4572144 3.2262566 0.8331565 -1.0056065 -1.7424589 0.9415756 -1.751575 1.8686446 -3.4516075 0.101926014 1.3893641 2.9669983 0.90614575 -1.5483602 2.0351744 0.49361634 -1.2661939 -2.2918437 -3.0638936 1.4207991 -1.4260507 -2.0604248 -2.5249772 -0.66686344 1.4158698 0.06175931 1.6081982 -1.6787131 0.061055936 3.5131352 0.24751203 -0.32219136 -6.718446 2.4815254 -0.458947 1.5073488 -0.55004853 -0.12548131 2.7850692 -2.400243 -1.5658498 1.8248298 -2.8185172 0.21438427 -2.628527 3.398597 1.3876388 0.15563178 1.6639446 -0.6915556
*dt_0 -0.4774577 3.1026006 -1.747089 2.247307 0.38491538 -2.2629583 -0.91422856 1.4406226 0.22501439 -0.18805194 0.5272714 0.55624515 -0.5650456 1.2087394 0.083941996 -3.5397484 2.6340241 1.3032343 -0.79511154 1.9903305 1.4286069 2.5820165 -0.9974993 2.9647734 0.1893341 -0.7675319 -2.1814723 -4.1121597 2.2555604 -3.5455413 -0.493246 0.80164546 -1.2461267 -0.35602078 -1.1990048 -0.9604349 -0.75634235 -0.41332754 -3.015395 0.59850645 -0.5731501 -1.5028485 -2.008334 -0.59795535 0.036037475 -2.3673508 -1.4283146 1.638178 0.5774003 0.10249274 -2.418665 3.4545836 0.10227111 -1.9406209 -0.37394667 1.269934 -2.4306808 1.0018508 -3.822162 0.72180504 0.3927082 3.719266 0.80317736 -3.053532 1.5154904 -0.10797189 -0.5527495 -3.0692382 -2.2690456 0.8270108 -1.7417735 -1.9129565 -3.2553039 -1.481968 -0.11447432 -0.47948635 0.48664707 -0.07712309 0.5958535 4.0414295 1.7434717 -0.32044387 -5.2600317 2.2590845 0.3405223 0.4692102 -0.3515693 -0.97960865 3.1449237 -2.7123456 -2.1616452 2.723053 -2.6868343 -0.10855573 -2.3998787 3.302593 1.1811696 -0.81329477 2.7509236 -1.0095414
*dt_1 -1.0957536 3.2925296 -1.4264656 0.74564046 -0.53258 -1.2027918 -0.68488413 2.570875 2.4755027 -0.69417804 1.168949 -0.6617138 0.17554387 0.859356 1.7936945 -3.9841313 0.7672825 0.9319705 0.66161007 3.2006407 2.7025182 2.3106637 -1.0562983 2.7586763 -1.4638901 -0.801131 -2.6819086 -2.6221063 1.9872776 -4.0710316 0.13669564 -0.21378778 -1.7015115 0.34991375 -1.4160961 -1.6050571 -0.075189084 0.1400624 -3.652803 0.13766046 1.0342118 -1.0514115 -1.7619815 -0.80641955 0.43388662 -1.2914065 -2.7518816 2.5274413 0.08160672 -0.13384202 -1.6741035 4.166779 1.112935 -1.2315435 -0.94990164 0.36380526 -1.961611 1.4769244 -2.5830486 0.08016407 0.5044606 3.563439 1.4265765 -2.3123558 1.5274049 -0.55814075 -1.5221069 -3.5364664 -2.325558 1.3281887 -0.40932068 -2.2500339 -2.843032 0.461283 1.4100876 -0.64197457 1.5334797 0.8311986 -0.88497585 4.651729 1.7993248 0.6105122 -5.623289 2.081357 -0.40448022 1.7279121 -0.644365 -0.2416199 2.9235487 -2.2369635 -1.6828239 3.3894036 -1.5564369 0.7579616 -1.9366943 2.8771966 1.6953099 -0.0737551 1.9128047 -0.6415766
*dt_2 -1.2861022 1.6329851 -1.2202351 2.3998294 0.68596 -0.92281365 -0.13507995 1.4824873 0.73343015 -0.50331086 0.074430384 -0.3778665 -0.8403174 0.22461179 1.7440921 -3.2338638 1.943944 1.0406018 0.100880384 1.7898527 0.29448655 1.5771965 -0.85753846 3.6471767 -0.96589696 -0.8767957 -2.3176038 -2.7140243 1.6756538 -3.933837 -0.64955324 -0.39695907 0.010422345 0.0059315674 -2.1191819 -0.9712007 -0.8219484 -0.96353215 -2.8518734 -0.47144955 1.1245718 0.024264138 -0.6372741 0.28176525 0.4912858 -3.012045 -2.5537057 2.7318695 0.15181983 0.0369702 -3.0584679 3.034344 -0.25170475 -1.5678301 -0.8615316 1.1809028 -2.0383475 2.4031966 -1.9833556 0.56084937 0.5576595 4.049768 1.5028077 -2.4238765 1.0067457 -1.2402556 -0.86086893 -3.2135236 -3.0809038 0.93174434 -2.1167328 -1.7219136 -2.598567 -0.19219403 0.78994775 -0.3980048 1.2594155 -1.048075 -0.026194068 3.8732078 0.70327157 0.65871954 -4.4262013 1.7825353 -0.71631426 2.626638 -0.5798819 0.7768582 2.3304408 -2.5113316 -2.8344727 3.004652 -2.6745794 0.7679874 -1.8996066 3.6035705 1.5209432 0.17180681 2.9002008 -0.50172246
*dt_3 0.23034781 4.5133896 -0.7267907 2.3955657 -0.619223 -1.442095 -1.3707883 2.4004676 1.3715872 -0.8315818 0.8663734 -0.15849003 -0.50696033 1.4185178 1.2140223 -4.09349 3.231362 1.2627017 0.13005413 3.6136336 0.7105614 2.4455216 -1.2033387 4.398462 -2.2132962 -1.257721 -2.4376795 -3.8320782 3.5005264 -4.836398 -0.8108195 -0.81020117 -1.0596011 -0.28790966 -1.4395932 -1.6942645 -0.9035418 -0.103171214 -5.5174255 -0.7356142 0.20827778 -0.49419343 -3.3044505 1.2579455 0.5818465 -4.7418265 -2.3798378 3.3579378 0.030313157 1.5620921 -4.920498 5.70929 0.884487 -2.0074172 -1.778916 -0.25806075 -2.556755 2.3732896 -4.3440247 -0.16219218 0.42534193 4.1331363 0.44692266 -2.4025536 2.4647539 0.12729988 -1.3659372 -3.9630976 -4.3255157 1.9848671 -2.1312773 -2.051303 -3.6759799 0.45580408 1.51602 -0.2962968 1.3545054 -0.40126747 0.9100207 7.4281683 0.78381455 -0.9010678 -6.5081735 3.7055624 -1.3713393 1.398792 -0.3078786 1.0027153 4.5498843 -3.914095 -1.1176565 3.3623438 -2.9962125 -0.33941984 -2.9405448 3.7846587 1.464177 0.47099784 2.4420362 -0.74498904
*dt_4 -1.1469414 2.6419775 -1.3416251 2.0156329 -0.055246636 -2.437128 -1.2280785 3.3331695 0.9581104 -0.1502373 0.10144265 -0.972952 0.3109285 1.3732774 1.1522529 -3.7497528 1.9011152 0.9434339 -0.14864881 3.0404446 0.4244473 2.818036 -0.65208066 3.0441031 -1.2932205 -0.2370119 -2.4538672 -2.9621456 2.3633692 -3.091326 0.3750849 0.2665181 -0.95113176 1.2412894 -1.6126065 -0.07382219 -1.1348597 -0.195143 -3.1413662 -0.55214256 -0.74275774 -0.49673152 -2.7102258 -0.357279 -0.2584984 -1.8521248 -1.1037892 1.8977056 0.81759477 0.8578592 -2.4572144 3.2262566 0.8331565 -1.0056065 -1.7424589 0.9415756 -1.751575 1.8686446 -3.4516075 0.101926014 1.3893641 2.9669983 0.90614575 -1.5483602 2.0351744 0.49361634 -1.2661939 -2.2918437 -3.0638936 1.4207991 -1.4260507 -2.0604248 -2.5249772 -0.66686344 1.4158698 0.06175931 1.6081982 -1.6787131 0.061055936 3.5131352 0.24751203 -0.32219136 -6.718446 2.4815254 -0.458947 1.5073488 -0.55004853 -0.12548131 2.7850692 -2.400243 -1.5658498 1.8248298 -2.8185172 0.21438427 -2.628527 3.398597 1.3876388 0.15563178 1.6639446 -0.6915556
