5 200
*dt_0 -2.991454 -2.8168862 -2.5443726 1.849142 -0.745293 -0.8300199 -3.0217535 1.1564027 -2.539857 1.7495515 0.49576426 -0.45424923 -0.1850743 1.0439453 -1.6371839 -0.9177682 -0.48582643 3.1246133 -2.1407661 -1.51963 -0.58717316 0.3867275 -0.5856698 -0.47015855 0.72589576 -1.6045705 -1.6753551 -2.4792256 -0.1992871 -1.1230289 3.4249763 3.4517443 -1.6502569 0.6436814 0.8346207 1.4732263 -0.37238178 -3.2136195 -0.19461997 0.077828825 -2.8821008 0.10802167 -0.56786096 -2.7659185 -0.4456761 -0.21783645 1.3665661 -1.3952482 1.7372725 -0.93974423 -0.8205803 -2.0084608 -1.1022605 -1.1658537 -0.20562044 0.988481 1.4595209 -0.4937006 -2.036206 2.7961512 1.8738877 1.0447382 0.15803647 0.3265504 0.022379989 -0.13364607 2.2041454 2.856991 0.18473268 -1.4073685 -0.79396605 -1.2218162 -1.241831 -2.134077 -1.0733305 2.7787564 -0.71359825 -4.1054354 -0.545689 -1.186174 0.9040601 1.037288 -2.637898 -0.1391512 1.2739284 -1.2327645 0.6962573 -1.6377856 -0.053521935 2.295926 -1.1621858 1.2856333 -1.159355 -2.9923387 -0.04988461 2.4091563 -1.3456367 0.23241368 1.6566534 0.6695552 -2.4010642 -0.95126665 -1.5390447 1.5086403 -1.2385199 -0.023834523 0.27805793 2.1057706 -0.2225267 0.020475928 -1.6923896 -0.7097789 -0.057949103 -2.4103305 2.0005875 -0.9487118 -3.2663238 0.24576424 2.1198356 1.4246404 2.3024094 1.100379 -1.7444457 0.99137133 -2.7117908 -0.32108787 -3.9192476 -1.0507225 -0.7612769 -2.2012584 2.4190476 -0.3762984 0.2077054 3.1144035 0.6288895 1.4088839 0.59812564 -1.1949004 -2.2620733 -2.4198365 2.5944355 -2.1187456 0.9908574 -3.2118568 -0.25122645 1.1270926 1.1025507 1.2671328 0.068814695 -0.35893884 0.65510637 2.31529 2.3395183 -2.7262685 -1.3434277 0.41929567 -0.2425221 4.320576 -0.73126143 -1.456037 4.4581695 1.152967 0.52607775 0.21706292 0.86601985 -1.2099944 0.35201895 -1.875917 -1.547344 1.2489045 -1.5609674 -0.33705774 -0.17209424 -0.5874752 3.3546252 0.9386777 1.9752887 -1.7941506 -0.87526053 1.608366 1.5121422 2.0970287 -0.61724496 0.7644772 -3.3125913 3.8301945 -1.9736063 -0.15590149 3.3199487 0.8062898 -2.2270637 2.104912 0.54529834 0.96757525 0.0031683936 0.0368235 0.55990994 -2.5407484 -0.10681002 2.2427168
*dt_1 -2.4886205 -2.4662464 -1.77819 1.1091393 -1.3152633 -1.0192242 -1.9950557 2.08312 -1.371948 1.4862661 0.14875177 -0.25800982 0.4708982 1.4390639 -0.8434231 0.09096915 -1.3502237 2.196233 -1.3747718 -0.59955 -0.7418188 0.36229098 0.27844715 -1.0065289 -0.0636842 -0.5033245 -1.0783983 -1.5611644 -0.44019088 0.1907332 3.0537155 3.197923 -1.1047165 1.3516405 0.9341859 1.6988221 -0.2927799 -2.7683554 0.4346148 0.07512608 -3.0836723 0.6024031 -1.2103709 -2.808307 -0.996587 0.20520791 1.7142174 -1.5007229 1.2188097 -0.23307596 -0.31209296 -2.3076386 -0.4940516 0.19039333 -0.17121589 -0.090669654 2.1558375 -0.78457314 -1.1539135 2.1719031 1.802139 -0.003421677 -0.21662043 0.91212803 -0.20089185 0.19734338 1.8973815 2.6432374 0.56246686 -0.98490393 0.37738225 -1.3441571 -0.76745176 -1.7136432 -0.5479363 2.8052762 -0.38759825 -3.6334653 -0.9318179 -1.9356734 0.20723903 0.802855 -2.1204484 -0.6432081 0.9862846 -1.3855683 0.4468493 -1.299832 -0.97676504 2.3040712 -0.40181485 0.123080395 -0.25813192 -2.4071238 0.024655905 1.588952 -1.8924037 0.7730047 0.45408237 0.26760152 -1.88495 -1.4032934 -0.822878 1.674538 -0.2700797 0.2584881 0.12660731 1.6075249 -1.2675894 0.11410225 -1.8321565 0.29532513 0.6663598 -2.1704454 1.0612947 -0.12660585 -2.4767542 0.7848567 1.9506271 1.017433 1.6173173 -0.14788626 -1.8518713 0.43604854 -2.034984 -0.8623388 -3.4502125 -1.3365388 -1.2017175 -1.3361738 2.2813423 -0.6446358 0.63634646 2.396903 1.1764731 1.5658132 0.43046024 -1.2975272 -1.4747957 -1.8821821 1.2863075 -2.3853192 0.31959087 -2.705006 0.1491842 0.65468395 1.0150782 -0.09002252 -0.013662357 -0.2490778 0.8061549 1.7776572 1.8929396 -2.5482292 -0.97081596 -0.23571455 -0.79091394 3.5228882 0.10364673 -1.2614411 3.8203995 0.57695895 -0.9639758 0.48639274 0.8626037 -0.219242 1.189908 -1.5278002 -0.67357004 1.6246887 -2.1074104 -0.34876102 -0.83962303 -1.4391428 3.0545278 0.4726513 1.3637931 -2.235768 -0.36143953 2.0183053 1.401735 1.1563575 0.26010594 1.2194245 -2.8523118 3.3723257 -2.335467 -1.0944393 2.2399771 0.6939742 -1.4088651 1.173863 0.33383405 0.016338374 -0.1700975 -0.5808501 -0.33724615 -1.9292828 -0.5166551 1.6709051
*dt_2 -2.0699568 -2.235531 -1.420196 0.3974489 -2.4916189 -1.3146257 -1.022996 3.8116035 -0.07255722 1.322745 -0.22788595 0.0070618014 1.6027675 2.296428 0.2578372 1.1831253 -2.7538924 1.6538943 -0.80456203 0.58429503 -1.198569 0.6338015 1.3355372 -2.2346845 -1.0882821 0.7458939 -0.29299778 -0.6792434 -0.7462471 2.0385911 3.3233583 3.4788318 -0.79133356 2.6491113 1.1398059 2.2243981 -0.13645001 -2.657231 1.3359072 0.23623264 -4.2686534 1.2342978 -2.3788688 -3.500138 -1.87023 0.84902453 2.6435792 -2.1440122 0.8877938 0.7789747 0.60723925 -2.897097 0.3290507 2.0639462 -0.37834755 -1.8748664 3.4810524 -1.4137738 -0.27255747 1.6305431 2.0488675 -1.6986668 -0.76082104 1.7938384 -0.5447386 0.65284765 1.7416983 2.6863158 1.0771397 -0.6713841 2.3521698 -1.7590643 -0.1796661 -1.6241966 -0.13007148 3.3891363 0.24435575 -3.553424 -1.5160023 -3.4369254 -0.55429244 0.4034779 -2.1529922 -1.6245263 0.9935709 -2.1878219 0.16331969 -1.2847544 -2.120823 2.6727102 0.7189371 -1.4085329 1.2604091 -2.2376626 -0.1628895 0.8568283 -2.8942916 1.7361759 -1.1706532 -0.34464774 -1.5967727 -2.4308617 0.03718648 2.2143376 1.1816822 0.7496994 -0.012848105 1.1712782 -2.978356 0.34889767 -2.3298016 1.9832119 1.7655823 -2.4955962 -0.030660873 1.0792466 -1.9540334 1.7321965 1.9602505 0.78050905 1.13216 -2.0136378 -2.2878008 -0.25771654 -1.7221402 -1.9334395 -3.3207965 -1.9859644 -2.1872418 -0.16393857 2.5377727 -1.243946 1.2389568 1.6023029 2.210979 2.1578112 0.5069737 -1.4926548 -0.8043441 -1.254483 -0.30022538 -3.2145767 -0.3040905 -2.6622667 0.9339997 0.3023385 1.3021091 -2.2353218 -0.10923439 -0.45661694 1.2491931 1.3768953 1.7305865 -3.2001765 -0.6305856 -1.1562175 -1.5162716 3.0160346 1.5395758 -1.2672435 3.571664 -0.05802828 -3.0377238 0.86633533 1.0134975 0.8938724 2.5337489 -1.1634568 0.4603071 2.0754006 -3.0508635 -0.44032753 -1.6964928 -2.5559282 3.053987 -0.25851303 0.5184691 -3.1825328 0.16486324 2.7788067 1.7604 0.15395136 1.8023342 1.9147655 -2.8713078 3.2090225 -3.2115164 -2.6471903 1.2490383 0.73286664 -0.582317 0.09740735 0.40973428 -1.302355 -0.34244525 -1.7730368 -1.5613059 -1.7709837 -1.2221943 1.2440752
*dt_3 -2.0409708 -2.025209 -1.6092044 0.87846977 -1.2263443 -0.7921386 -1.6579225 1.9187032 -1.1628958 1.255435 0.07466112 -0.25305054 0.6033183 1.3127427 -0.53392303 0.09419122 -1.1981385 1.9771204 -1.2193727 -0.4337717 -0.6846275 0.3628382 0.2718673 -1.0829375 -0.03421106 -0.40343183 -0.72907305 -1.2228136 -0.42582938 0.30332395 2.6740832 2.7056482 -1.0176541 1.2338843 0.7249916 1.4414613 -0.20447305 -2.2919922 0.42095187 0.12579481 -2.811904 0.55378056 -1.155969 -2.4287167 -0.9171137 0.2570412 1.5283003 -1.3411087 1.0196486 -0.115062565 -0.11531715 -1.9613049 -0.37760267 0.256306 -0.2764048 -0.2969615 1.9156611 -0.76450247 -0.99676317 1.7772571 1.5877153 -0.21135466 -0.18987596 0.8265228 -0.23461875 0.26875958 1.6353651 2.2441232 0.4507627 -0.7783084 0.5853911 -1.1326946 -0.5495485 -1.4520959 -0.5065172 2.4956155 -0.13884147 -3.0206594 -0.7855807 -1.7634056 0.12081166 0.5607935 -1.8666035 -0.6996216 0.870801 -1.3302557 0.349612 -1.2005328 -0.803761 1.9503125 -0.24820143 0.02353121 0.02502545 -2.1179256 -0.02619662 1.3258415 -1.6281465 0.7124311 0.2756441 0.14640896 -1.6434084 -1.2069366 -0.6119678 1.4415141 -0.044718362 0.24446835 0.11920431 1.3532257 -1.1925523 0.082465425 -1.5175474 0.44022322 0.6699973 -1.9454772 0.87109196 0.01756894 -2.0128796 0.75086147 1.5560532 0.9294666 1.3923017 -0.32067868 -1.4748803 0.33743602 -1.7990267 -0.8173621 -2.834279 -1.1163027 -1.084487 -0.99883014 1.9715829 -0.63288677 0.5015862 1.9044636 1.1216925 1.447476 0.53529274 -1.0936139 -1.2995633 -1.3849231 0.99378765 -2.0212479 0.3363304 -2.3685663 0.28137994 0.5964396 0.9732288 -0.30766717 -0.04381865 -0.30053282 0.79268026 1.469466 1.5676885 -2.3299458 -0.81789994 -0.29419765 -0.6499616 2.9711065 0.3214572 -1.1039422 3.176563 0.47901192 -0.8472325 0.43799207 0.75701237 -0.18976419 1.1117768 -1.1821103 -0.45868507 1.2706558 -1.8021249 -0.35535878 -0.7488255 -1.1477946 2.5117986 0.25612015 1.0160642 -1.8959856 -0.33504316 1.7182295 1.2142464 0.9970003 0.45689407 1.0519433 -2.446806 2.8153152 -1.973023 -1.0199203 1.8099564 0.5508621 -1.2215916 0.9163613 0.33602858 -0.1360272 -0.050495666 -0.62539256 -0.31701723 -1.7631079 -0.50768757 1.3892938
*dt_4 -1.7968276 -1.7965827 -1.443872 0.7812944 -1.1070715 -0.6958282 -1.4713571 1.7400886 -1.037627 1.1210128 0.057829313 -0.22694236 0.5729738 1.1645482 -0.43815127 0.08024192 -1.0889693 1.7676692 -1.0909709 -0.35593706 -0.62129736 0.3513497 0.22214234 -0.9972295 -0.03180669 -0.33686915 -0.6482928 -1.0708123 -0.39838755 0.29603526 2.3907325 2.4176812 -0.92805827 1.1136621 0.62240547 1.3019513 -0.18564467 -2.052897 0.38211277 0.11085027 -2.5483918 0.5042486 -1.0531057 -2.1729121 -0.8165235 0.26551467 1.38594 -1.2025453 0.87862265 -0.07766911 -0.07897016 -1.764689 -0.35571858 0.24862054 -0.2824467 -0.30582052 1.7156794 -0.7038694 -0.8641306 1.565139 1.4415178 -0.2391711 -0.18573317 0.7520585 -0.21709672 0.24473633 1.4504044 1.9825729 0.39847833 -0.68693924 0.54751694 -1.0103942 -0.48142123 -1.3004607 -0.45559788 2.2437325 -0.09619697 -2.6670449 -0.7111271 -1.6160742 0.09552343 0.48661098 -1.6714971 -0.6443712 0.79873085 -1.2160863 0.3136417 -1.1110742 -0.6937948 1.7383846 -0.2043097 0.004983018 0.07246432 -1.8750144 -0.025943328 1.1821411 -1.4704444 0.6624895 0.23296455 0.08569539 -1.4687915 -1.100899 -0.53448427 1.2860391 -0.0042997594 0.23051755 0.09756415 1.2107033 -1.0911231 0.071349226 -1.3625902 0.44134983 0.6235044 -1.7276195 0.77965975 0.011941232 -1.7716717 0.6587742 1.3825074 0.8331235 1.2670354 -0.3240759 -1.3019626 0.31635022 -1.6045334 -0.7524621 -2.5041363 -1.0125779 -1.0014739 -0.85245883 1.7489471 -0.58018625 0.4620499 1.6703912 1.0029054 1.3242314 0.5098947 -0.984638 -1.1676471 -1.2022531 0.8699022 -1.7866193 0.29366627 -2.103066 0.27082703 0.54507864 0.87148964 -0.32452086 -0.022535449 -0.28067765 0.7103371 1.3159087 1.3804103 -2.1114902 -0.7379274 -0.2869712 -0.5816345 2.6584613 0.32669356 -1.0031145 2.7992225 0.43770966 -0.7879853 0.3636566 0.68408656 -0.15868123 0.98978907 -1.0344758 -0.40939447 1.1218319 -1.5774217 -0.33951044 -0.6860826 -1.011207 2.2174108 0.1989026 0.8756036 -1.7087331 -0.28786424 1.5298599 1.0770223 0.87873733 0.43549567 0.94968617 -2.1858509 2.5054536 -1.7447071 -0.93523747 1.5674131 0.47822115 -1.0746326 0.78063804 0.32863006 -0.12941447 -0.03525629 -0.5883 -0.32391834 -1.5834483 -0.49094263 1.205303
*dt_0 -2.991454 -2.8168862 -2.5443726 1.849142 -0.745293 -0.8300199 -3.0217535 1.1564027 -2.539857 1.7495515 0.49576426 -0.45424923 -0.1850743 1.0439453 -1.6371839 -0.9177682 -0.48582643 3.1246133 -2.1407661 -1.51963 -0.58717316 0.3867275 -0.5856698 -0.47015855 0.72589576 -1.6045705 -1.6753551 -2.4792256 -0.1992871 -1.1230289 3.4249763 3.4517443 -1.6502569 0.6436814 0.8346207 1.4732263 -0.37238178 -3.2136195 -0.19461997 0.077828825 -2.8821008 0.10802167 -0.56786096 -2.7659185 -0.4456761 -0.21783645 1.3665661 -1.3952482 1.7372725 -0.93974423 -0.8205803 -2.0084608 -1.1022605 -1.1658537 -0.20562044 0.988481 1.4595209 -0.4937006 -2.036206 2.7961512 1.8738877 1.0447382 0.15803647 0.3265504 0.022379989 -0.13364607 2.2041454 2.856991 0.18473268 -1.4073685 -0.79396605 -1.2218162 -1.241831 -2.134077 -1.0733305 2.7787564 -0.71359825 -4.1054354 -0.545689 -1.186174 0.9040601 1.037288 -2.637898 -0.1391512 1.2739284 -1.2327645 0.6962573 -1.6377856 -0.053521935 2.295926 -1.1621858 1.2856333 -1.159355 -2.9923387 -0.04988461 2.4091563 -1.3456367 0.23241368 1.6566534 0.6695552 -2.4010642 -0.95126665 -1.5390447 1.5086403 -1.2385199 -0.023834523 0.27805793 2.1057706 -0.2225267 0.020475928 -1.6923896 -0.7097789 -0.057949103 -2.4103305 2.0005875 -0.9487118 -3.2663238 0.24576424 2.1198356 1.4246404 2.3024094 1.100379 -1.7444457 0.99137133 -2.7117908 -0.32108787 -3.9192476 -1.0507225 -0.7612769 -2.2012584 2.4190476 -0.3762984 0.2077054 3.1144035 0.6288895 1.4088839 0.59812564 -1.1949004 -2.2620733 -2.4198365 2.5944355 -2.1187456 0.9908574 -3.2118568 -0.25122645 1.1270926 1.1025507 1.2671328 0.068814695 -0.35893884 0.65510637 2.31529 2.3395183 -2.7262685 -1.3434277 0.41929567 -0.2425221 4.320576 -0.73126143 -1.456037 4.4581695 1.152967 0.52607775 0.21706292 0.86601985 -1.2099944 0.35201895 -1.875917 -1.547344 1.2489045 -1.5609674 -0.33705774 -0.17209424 -0.5874752 3.3546252 0.9386777 1.9752887 -1.7941506 -0.87526053 1.608366 1.5121422 2.0970287 -0.61724496 0.7644772 -3.3125913 3.8301945 -1.9736063 -0.15590149 3.3199487 0.8062898 -2.2270637 2.104912 0.54529834 0.96757525 0.0031683936 0.0368235 0.55990994 -2.5407484 -0.10681002 2.2427168
*dt_1 -2.4886205 -2.4662464 -1.77819 1.1091393 -1.3152633 -1.0192242 -1.9950557 2.08312 -1.371948 1.4862661 0.14875177 -0.25800982 0.4708982 1.4390639 -0.8434231 0.09096915 -1.3502237 2.196233 -1.3747718 -0.59955 -0.7418188 0.36229098 0.27844715 -1.0065289 -0.0636842 -0.5033245 -1.0783983 -1.5611644 -0.44019088 0.1907332 3.0537155 3.197923 -1.1047165 1.3516405 0.9341859 1.6988221 -0.2927799 -2.7683554 0.4346148 0.07512608 -3.0836723 0.6024031 -1.2103709 -2.808307 -0.996587 0.20520791 1.7142174 -1.5007229 1.2188097 -0.23307596 -0.31209296 -2.3076386 -0.4940516 0.19039333 -0.17121589 -0.090669654 2.1558375 -0.78457314 -1.1539135 2.1719031 1.802139 -0.003421677 -0.21662043 0.91212803 -0.20089185 0.19734338 1.8973815 2.6432374 0.56246686 -0.98490393 0.37738225 -1.3441571 -0.76745176 -1.7136432 -0.5479363 2.8052762 -0.38759825 -3.6334653 -0.9318179 -1.9356734 0.20723903 0.802855 -2.1204484 -0.6432081 0.9862846 -1.3855683 0.4468493 -1.299832 -0.97676504 2.3040712 -0.40181485 0.123080395 -0.25813192 -2.4071238 0.024655905 1.588952 -1.8924037 0.7730047 0.45408237 0.26760152 -1.88495 -1.4032934 -0.822878 1.674538 -0.2700797 0.2584881 0.12660731 1.6075249 -1.2675894 0.11410225 -1.8321565 0.29532513 0.6663598 -2.1704454 1.0612947 -0.12660585 -2.4767542 0.7848567 1.9506271 1.017433 1.6173173 -0.14788626 -1.8518713 0.43604854 -2.034984 -0.8623388 -3.4502125 -1.3365388 -1.2017175 -1.3361738 2.2813423 -0.6446358 0.63634646 2.396903 1.1764731 1.5658132 0.43046024 -1.2975272 -1.4747957 -1.8821821 1.2863075 -2.3853192 0.31959087 -2.705006 0.1491842 0.65468395 1.0150782 -0.09002252 -0.013662357 -0.2490778 0.8061549 1.7776572 1.8929396 -2.5482292 -0.97081596 -0.23571455 -0.79091394 3.5228882 0.10364673 -1.2614411 3.8203995 0.57695895 -0.9639758 0.48639274 0.8626037 -0.219242 1.189908 -1.5278002 -0.67357004 1.6246887 -2.1074104 -0.34876102 -0.83962303 -1.4391428 3.0545278 0.4726513 1.3637931 -2.235768 -0.36143953 2.0183053 1.401735 1.1563575 0.26010594 1.2194245 -2.8523118 3.3723257 -2.335467 -1.0944393 2.2399771 0.6939742 -1.4088651 1.173863 0.33383405 0.016338374 -0.1700975 -0.5808501 -0.33724615 -1.9292828 -0.5166551 1.6709051
*dt_2 -2.0699568 -2.235531 -1.420196 0.3974489 -2.4916189 -1.3146257 -1.022996 3.8116035 -0.07255722 1.322745 -0.22788595 0.0070618014 1.6027675 2.296428 0.2578372 1.1831253 -2.7538924 1.6538943 -0.80456203 0.58429503 -1.198569 0.6338015 1.3355372 -2.2346845 -1.0882821 0.7458939 -0.29299778 -0.6792434 -0.7462471 2.0385911 3.3233583 3.4788318 -0.79133356 2.6491113 1.1398059 2.2243981 -0.13645001 -2.657231 1.3359072 0.23623264 -4.2686534 1.2342978 -2.3788688 -3.500138 -1.87023 0.84902453 2.6435792 -2.1440122 0.8877938 0.7789747 0.60723925 -2.897097 0.3290507 2.0639462 -0.37834755 -1.8748664 3.4810524 -1.4137738 -0.27255747 1.6305431 2.0488675 -1.6986668 -0.76082104 1.7938384 -0.5447386 0.65284765 1.7416983 2.6863158 1.0771397 -0.6713841 2.3521698 -1.7590643 -0.1796661 -1.6241966 -0.13007148 3.3891363 0.24435575 -3.553424 -1.5160023 -3.4369254 -0.55429244 0.4034779 -2.1529922 -1.6245263 0.9935709 -2.1878219 0.16331969 -1.2847544 -2.120823 2.6727102 0.7189371 -1.4085329 1.2604091 -2.2376626 -0.1628895 0.8568283 -2.8942916 1.7361759 -1.1706532 -0.34464774 -1.5967727 -2.4308617 0.03718648 2.2143376 1.1816822 0.7496994 -0.012848105 1.1712782 -2.978356 0.34889767 -2.3298016 1.9832119 1.7655823 -2.4955962 -0.030660873 1.0792466 -1.9540334 1.7321965 1.9602505 0.78050905 1.13216 -2.0136378 -2.2878008 -0.25771654 -1.7221402 -1.9334395 -3.3207965 -1.9859644 -2.1872418 -0.16393857 2.5377727 -1.243946 1.2389568 1.6023029 2.210979 2.1578112 0.5069737 -1.4926548 -0.8043441 -1.254483 -0.30022538 -3.2145767 -0.3040905 -2.6622667 0.9339997 0.3023385 1.3021091 -2.2353218 -0.10923439 -0.45661694 1.2491931 1.3768953 1.7305865 -3.2001765 -0.6305856 -1.1562175 -1.5162716 3.0160346 1.5395758 -1.2672435 3.571664 -0.05802828 -3.0377238 0.86633533 1.0134975 0.8938724 2.5337489 -1.1634568 0.4603071 2.0754006 -3.0508635 -0.44032753 -1.6964928 -2.5559282 3.053987 -0.25851303 0.5184691 -3.1825328 0.16486324 2.7788067 1.7604 0.15395136 1.8023342 1.9147655 -2.8713078 3.2090225 -3.2115164 -2.6471903 1.2490383 0.73286664 -0.582317 0.09740735 0.40973428 -1.302355 -0.34244525 -1.7730368 -1.5613059 -1.7709837 -1.2221943 1.2440752
*dt_3 -2.0409708 -2.025209 -1.6092044 0.87846977 -1.2263443 -0.7921386 -1.6579225 1.9187032 -1.1628958 1.255435 0.07466112 -0.25305054 0.6033183 1.3127427 -0.53392303 0.09419122 -1.1981385 1.9771204 -1.2193727 -0.4337717 -0.6846275 0.3628382 0.2718673 -1.0829375 -0.03421106 -0.40343183 -0.72907305 -1.2228136 -0.42582938 0.30332395 2.6740832 2.7056482 -1.0176541 1.2338843 0.7249916 1.4414613 -0.20447305 -2.2919922 0.42095187 0.12579481 -2.811904 0.55378056 -1.155969 -2.4287167 -0.9171137 0.2570412 1.5283003 -1.3411087 1.0196486 -0.115062565 -0.11531715 -1.9613049 -0.37760267 0.256306 -0.2764048 -0.2969615 1.9156611 -0.76450247 -0.99676317 1.7772571 1.5877153 -0.21135466 -0.18987596 0.8265228 -0.23461875 0.26875958 1.6353651 2.2441232 0.4507627 -0.7783084 0.5853911 -1.1326946 -0.5495485 -1.4520959 -0.5065172 2.4956155 -0.13884147 -3.0206594 -0.7855807 -1.7634056 0.12081166 0.5607935 -1.8666035 -0.6996216 0.870801 -1.3302557 0.349612 -1.2005328 -0.803761 1.9503125 -0.24820143 0.02353121 0.02502545 -2.1179256 -0.02619662 1.3258415 -1.6281465 0.7124311 0.2756441 0.14640896 -1.6434084 -1.2069366 -0.6119678 1.4415141 -0.044718362 0.24446835 0.11920431 1.3532257 -1.1925523 0.082465425 -1.5175474 0.44022322 0.6699973 -1.9454772 0.87109196 0.01756894 -2.0128796 0.75086147 1.5560532 0.9294666 1.3923017 -0.32067868 -1.4748803 0.33743602 -1.7990267 -0.8173621 -2.834279 -1.1163027 -1.084487 -0.99883014 1.9715829 -0.63288677 0.5015862 1.9044636 1.1216925 1.447476 0.53529274 -1.0936139 -1.2995633 -1.3849231 0.99378765 -2.0212479 0.3363304 -2.3685663 0.28137994 0.5964396 0.9732288 -0.30766717 -0.04381865 -0.30053282 0.79268026 1.469466 1.5676885 -2.3299458 -0.81789994 -0.29419765 -0.6499616 2.9711065 0.3214572 -1.1039422 3.176563 0.47901192 -0.8472325 0.43799207 0.75701237 -0.18976419 1.1117768 -1.1821103 -0.45868507 1.2706558 -1.8021249 -0.35535878 -0.7488255 -1.1477946 2.5117986 0.25612015 1.0160642 -1.8959856 -0.33504316 1.7182295 1.2142464 0.9970003 0.45689407 1.0519433 -2.446806 2.8153152 -1.973023 -1.0199203 1.8099564 0.5508621 -1.2215916 0.9163613 0.33602858 -0.1360272 -0.050495666 -0.62539256 -0.31701723 -1.7631079 -0.50768757 1.3892938
*dt_4 -1.7968276 -1.7965827 -1.443872 0.7812944 -1.1070715 -0.6958282 -1.4713571 1.7400886 -1.037627 1.1210128 0.057829313 -0.22694236 0.5729738 1.1645482 -0.43815127 0.08024192 -1.0889693 1.7676692 -1.0909709 -0.35593706 -0.62129736 0.3513497 0.22214234 -0.9972295 -0.03180669 -0.33686915 -0.6482928 -1.0708123 -0.39838755 0.29603526 2.3907325 2.4176812 -0.92805827 1.1136621 0.62240547 1.3019513 -0.18564467 -2.052897 0.38211277 0.11085027 -2.5483918 0.5042486 -1.0531057 -2.1729121 -0.8165235 0.26551467 1.38594 -1.2025453 0.87862265 -0.07766911 -0.07897016 -1.764689 -0.35571858 0.24862054 -0.2824467 -0.30582052 1.7156794 -0.7038694 -0.8641306 1.565139 1.4415178 -0.2391711 -0.18573317 0.7520585 -0.21709672 0.24473633 1.4504044 1.9825729 0.39847833 -0.68693924 0.54751694 -1.0103942 -0.48142123 -1.3004607 -0.45559788 2.2437325 -0.09619697 -2.6670449 -0.7111271 -1.6160742 0.09552343 0.48661098 -1.6714971 -0.6443712 0.79873085 -1.2160863 0.3136417 -1.1110742 -0.6937948 1.7383846 -0.2043097 0.004983018 0.07246432 -1.8750144 -0.025943328 1.1821411 -1.4704444 0.6624895 0.23296455 0.08569539 -1.4687915 -1.100899 -0.53448427 1.2860391 -0.0042997594 0.23051755 0.09756415 1.2107033 -1.0911231 0.071349226 -1.3625902 0.44134983 0.6235044 -1.7276195 0.77965975 0.011941232 -1.7716717 0.6587742 1.3825074 0.8331235 1.2670354 -0.3240759 -1.3019626 0.31635022 -1.6045334 -0.7524621 -2.5041363 -1.0125779 -1.0014739 -0.85245883 1.7489471 -0.58018625 0.4620499 1.6703912 1.0029054 1.3242314 0.5098947 -0.984638 -1.1676471 -1.2022531 0.8699022 -1.7866193 0.29366627 -2.103066 0.27082703 0.54507864 0.87148964 -0.32452086 -0.022535449 -0.28067765 0.7103371 1.3159087 1.3804103 -2.1114902 -0.7379274 -0.2869712 -0.5816345 2.6584613 0.32669356 -1.0031145 2.7992225 0.43770966 -0.7879853 0.3636566 0.68408656 -0.15868123 0.98978907 -1.0344758 -0.40939447 1.1218319 -1.5774217 -0.33951044 -0.6860826 -1.011207 2.2174108 0.1989026 0.8756036 -1.7087331 -0.28786424 1.5298599 1.0770223 0.87873733 0.43549567 0.94968617 -2.1858509 2.5054536 -1.7447071 -0.93523747 1.5674131 0.47822115 -1.0746326 0.78063804 0.32863006 -0.12941447 -0.03525629 -0.5883 -0.32391834 -1.5834483 -0.49094263 1.205303
