5 100
*dt_0 3.4520884 -2.1778119 5.3106575 -1.395255 1.6146328 0.50748026 0.8333292 -4.502871 3.5223527 2.1692774 -2.1366174 6.192183 1.7938174 -1.3625143 -4.8700023 7.4788594 -0.5046677 2.4081712 0.48886055 3.0953124 -4.960951 -2.297405 0.7076421 -5.393426 1.3515271 1.9690136 5.3883467 -0.89337015 -2.1695948 4.2058654 -1.7925797 0.122427896 -3.0096705 2.5348833 -1.0794182 1.4770675 -4.0932307 -0.15053426 3.8028312 1.8228005 -1.8545451 -1.5277532 -1.3363585 5.426826 -0.43195295 -3.4051578 2.1965904 -0.7314577 -2.3760984 -0.68083215 4.950697 -4.2180653 0.7002752 0.51659155 -2.0018826 1.5180507 -0.8573315 -1.4752871 -1.9964973 -0.58503985 -1.3711927 2.197776 -3.2648413 1.7738171 -0.19650023 0.1628225 2.7847388 1.8687277 10.310405 -1.376054 0.6604847 -1.5765432 -1.5028942 1.4736959 -2.3544946 5.1494727 -7.2911386 -1.5434737 3.82949 0.50261307 -3.0058906 -0.21922332 -0.12524092 0.28906086 4.660057 -0.090280056 0.9976342 0.6472132 -2.1375072 -0.51844305 0.30673915 -1.839232 2.8560755 1.9573818 2.5648086 -1.6270334 0.20025499 4.8008966 0.71298736 0.7389175
*dt_1 3.1423986 -0.57743347 5.4439006 -2.5011473 1.6650875 0.36735794 -0.10049251 -3.9515467 4.074796 0.39613876 -2.8901763 6.1387916 4.222441 -2.7197316 -2.6060061 6.724138 -1.6812342 1.6327077 2.9854913 2.7279358 -3.7747734 -1.5546037 -1.6596315 -3.3254478 -1.0508609 1.6419096 6.612784 -1.5231707 -3.1029139 4.74811 -2.6540873 2.46128 -2.382055 4.581435 -0.9069171 1.0693597 -3.7000802 1.6693075 2.0374353 1.3577479 0.06943199 -0.9553731 0.54183865 6.0386252 -1.2578696 -2.8025413 1.8409102 -1.1164442 -2.7358906 -2.0843291 3.926469 -2.171184 -0.72069544 0.4363711 -1.9071499 -0.13866083 -1.8476071 -0.94643456 -0.60021436 -2.5032656 -2.6589944 0.41254696 -1.827379 3.3642461 -0.30733052 -0.025223741 1.3367953 0.6582016 8.026746 -2.0341709 1.0990409 -0.9837309 -1.5711374 2.8586252 -1.1124367 4.4624295 -4.977842 -1.5199808 3.977412 2.356641 -0.6260874 1.1705345 -2.5005739 -0.5264762 4.3502574 0.02723531 0.23899545 1.2843287 -1.5021173 0.11257046 -1.0573765 -2.950728 1.3132669 3.4809103 1.4617064 -3.0055873 0.31625953 5.299706 1.8414146 0.04420632
*dt_2 5.420121 -3.2367632 11.002517 -3.1881182 2.3921251 0.3110195 1.4797688 -6.353175 5.678909 2.9524102 -0.75506914 8.775031 3.3961067 -3.3829582 -6.5151396 8.768428 0.05737321 1.5104986 2.3958814 3.991877 -3.8193824 -1.5664937 -2.9549146 -4.9264503 0.33055583 1.6773394 8.795621 -0.8360589 -2.8912115 5.490731 -4.100335 1.7443079 -2.5300498 4.007275 -1.5636953 1.3353562 -2.8449633 2.3190892 2.5479214 1.0504673 -1.1529583 -0.14411844 -1.6771771 6.732408 0.84985894 -4.498969 1.8617067 0.6690963 -2.8180125 -1.6695671 7.1479664 -1.9191947 0.14959739 1.1073279 -2.2453008 0.9860881 -2.0970724 -1.65644 -0.86265796 -0.85661 -3.570827 0.8989397 -2.7193708 2.690941 -2.3791716 -1.7497846 1.6963581 1.230633 12.80331 -2.7562401 0.85644597 0.06678405 -2.0481308 2.903903 -0.93968856 5.547076 -7.151433 -0.002303636 4.749192 1.7702556 -1.795562 -0.4113768 -2.0854714 0.2950877 4.9557757 1.4772897 1.8894906 1.7728562 -2.7866683 -0.07791707 -1.672515 -2.4137108 3.0532458 3.9136276 3.3978496 -3.7815723 0.6595627 6.9718633 4.944067 1.7909944
*dt_3 4.740647 -1.3594126 7.5352955 -1.6930588 1.2119875 -0.9299064 0.87484586 -4.007786 3.3277612 0.24816288 -2.4580774 8.033377 3.5086677 0.096265964 -3.673627 8.083014 0.17951784 2.7073545 1.3308538 3.3016372 -4.752567 -0.035830468 -1.8592433 -5.2513266 0.27795258 2.1343791 8.191881 -1.6579187 -2.2699263 4.0376368 -3.742444 1.7329208 -2.221961 4.9541907 -1.1016064 1.7870176 -3.9297395 -0.11197912 3.3115137 0.24357247 -1.6751918 -1.2475545 -2.0703185 6.9938855 -1.0322927 -5.1197057 0.41604683 -0.19197048 -4.105 -1.657566 6.150744 -3.4091668 -0.733972 2.2066305 -1.3089638 0.8260555 -2.819272 -1.0544343 -2.4389157 -1.8800043 -3.233805 4.0690036 -3.929386 1.6767067 -0.96550065 1.0743389 3.102824 2.2569163 9.356252 -1.4060186 0.5012345 -1.0596325 -2.8642547 1.2442173 -1.1127791 5.839444 -7.1012335 -2.7998357 4.1392064 2.8296337 -3.6568258 1.2548631 -2.3408475 2.076624 6.0466223 1.728724 1.2095861 2.6149373 -0.21767731 -2.0719697 -0.99517953 -2.768343 1.3245181 3.0433278 2.686946 -1.2204884 1.4435401 7.931382 3.534141 0.86580086
*dt_4 3.979721 -2.2182388 6.9905987 -3.6592317 1.0757188 -0.5840323 1.4146252 -5.0177245 4.831047 1.9343774 -1.5790907 8.658477 3.933998 -1.1874068 -6.709467 8.091792 -0.5385097 1.8314744 2.3291574 3.872813 -5.395329 -1.2101923 -1.0179586 -6.015454 -1.0897186 1.5758898 8.247751 -1.8926817 -3.3212564 5.9170103 -1.8375324 2.4342597 -4.1750484 6.1179132 -1.4925176 1.8511027 -3.9650767 0.58601373 2.346223 0.899536 -1.2465193 -0.124133095 -2.5707164 5.497192 -0.38915604 -5.214484 2.2274668 -1.4286251 -3.5243058 -2.2671273 7.168724 -4.2015657 0.2566277 3.2277975 -2.1359878 0.59451073 -0.55521894 -1.3636674 -0.34667972 0.4554582 -0.78776485 1.2304255 -2.369004 3.2538424 -1.0106343 -0.39066485 3.230025 3.5244071 11.644161 -3.3206563 2.0740557 -0.9095832 -1.6261212 2.1209 -0.49427763 7.9023037 -7.8616223 -3.6525917 3.6398034 1.0866667 -3.342395 0.73964673 -3.184343 0.20044948 7.33989 0.66589457 1.6677868 1.1445042 -0.83550394 0.9612701 -1.821459 -2.857532 4.058518 3.338438 2.6860857 -2.5597692 0.027245991 7.814622 2.757902 0.5912377
*dt_0 3.4520884 -2.1778119 5.3106575 -1.395255 1.6146328 0.50748026 0.8333292 -4.502871 3.5223527 2.1692774 -2.1366174 6.192183 1.7938174 -1.3625143 -4.8700023 7.4788594 -0.5046677 2.4081712 0.48886055 3.0953124 -4.960951 -2.297405 0.7076421 -5.393426 1.3515271 1.9690136 5.3883467 -0.89337015 -2.1695948 4.2058654 -1.7925797 0.122427896 -3.0096705 2.5348833 -1.0794182 1.4770675 -4.0932307 -0.15053426 3.8028312 1.8228005 -1.8545451 -1.5277532 -1.3363585 5.426826 -0.43195295 -3.4051578 2.1965904 -0.7314577 -2.3760984 -0.68083215 4.950697 -4.2180653 0.7002752 0.51659155 -2.0018826 1.5180507 -0.8573315 -1.4752871 -1.9964973 -0.58503985 -1.3711927 2.197776 -3.2648413 1.7738171 -0.19650023 0.1628225 2.7847388 1.8687277 10.310405 -1.376054 0.6604847 -1.5765432 -1.5028942 1.4736959 -2.3544946 5.1494727 -7.2911386 -1.5434737 3.82949 0.50261307 -3.0058906 -0.21922332 -0.12524092 0.28906086 4.660057 -0.090280056 0.9976342 0.6472132 -2.1375072 -0.51844305 0.30673915 -1.839232 2.8560755 1.9573818 2.5648086 -1.6270334 0.20025499 4.8008966 0.71298736 0.7389175
*dt_1 3.1423986 -0.57743347 5.4439006 -2.5011473 1.6650875 0.36735794 -0.10049251 -3.9515467 4.074796 0.39613876 -2.8901763 6.1387916 4.222441 -2.7197316 -2.6060061 6.724138 -1.6812342 1.6327077 2.9854913 2.7279358 -3.7747734 -1.5546037 -1.6596315 -3.3254478 -1.0508609 1.6419096 6.612784 -1.5231707 -3.1029139 4.74811 -2.6540873 2.46128 -2.382055 4.581435 -0.9069171 1.0693597 -3.7000802 1.6693075 2.0374353 1.3577479 0.06943199 -0.9553731 0.54183865 6.0386252 -1.2578696 -2.8025413 1.8409102 -1.1164442 -2.7358906 -2.0843291 3.926469 -2.171184 -0.72069544 0.4363711 -1.9071499 -0.13866083 -1.8476071 -0.94643456 -0.60021436 -2.5032656 -2.6589944 0.41254696 -1.827379 3.3642461 -0.30733052 -0.025223741 1.3367953 0.6582016 8.026746 -2.0341709 1.0990409 -0.9837309 -1.5711374 2.8586252 -1.1124367 4.4624295 -4.977842 -1.5199808 3.977412 2.356641 -0.6260874 1.1705345 -2.5005739 -0.5264762 4.3502574 0.02723531 0.23899545 1.2843287 -1.5021173 0.11257046 -1.0573765 -2.950728 1.3132669 3.4809103 1.4617064 -3.0055873 0.31625953 5.299706 1.8414146 0.04420632
*dt_2 5.420121 -3.2367632 11.002517 -3.1881182 2.3921251 0.3110195 1.4797688 -6.353175 5.678909 2.9524102 -0.75506914 8.775031 3.3961067 -3.3829582 -6.5151396 8.768428 0.05737321 1.5104986 2.3958814 3.991877 -3.8193824 -1.5664937 -2.9549146 -4.9264503 0.33055583 1.6773394 8.795621 -0.8360589 -2.8912115 5.490731 -4.100335 1.7443079 -2.5300498 4.007275 -1.5636953 1.3353562 -2.8449633 2.3190892 2.5479214 1.0504673 -1.1529583 -0.14411844 -1.6771771 6.732408 0.84985894 -4.498969 1.8617067 0.6690963 -2.8180125 -1.6695671 7.1479664 -1.9191947 0.14959739 1.1073279 -2.2453008 0.9860881 -2.0970724 -1.65644 -0.86265796 -0.85661 -3.570827 0.8989397 -2.7193708 2.690941 -2.3791716 -1.7497846 1.6963581 1.230633 12.80331 -2.7562401 0.85644597 0.06678405 -2.0481308 2.903903 -0.93968856 5.547076 -7.151433 -0.002303636 4.749192 1.7702556 -1.795562 -0.4113768 -2.0854714 0.2950877 4.9557757 1.4772897 1.8894906 1.7728562 -2.7866683 -0.07791707 -1.672515 -2.4137108 3.0532458 3.9136276 3.3978496 -3.7815723 0.6595627 6.9718633 4.944067 1.7909944
*dt_3 4.740647 -1.3594126 7.5352955 -1.6930588 1.2119875 -0.9299064 0.87484586 -4.007786 3.3277612 0.24816288 -2.4580774 8.033377 3.5086677 0.096265964 -3.673627 8.083014 0.17951784 2.7073545 1.3308538 3.3016372 -4.752567 -0.035830468 -1.8592433 -5.2513266 0.27795258 2.1343791 8.191881 -1.6579187 -2.2699263 4.0376368 -3.742444 1.7329208 -2.221961 4.9541907 -1.1016064 1.7870176 -3.9297395 -0.11197912 3.3115137 0.24357247 -1.6751918 -1.2475545 -2.0703185 6.9938855 -1.0322927 -5.1197057 0.41604683 -0.19197048 -4.105 -1.657566 6.150744 -3.4091668 -0.733972 2.2066305 -1.3089638 0.8260555 -2.819272 -1.0544343 -2.4389157 -1.8800043 -3.233805 4.0690036 -3.929386 1.6767067 -0.96550065 1.0743389 3.102824 2.2569163 9.356252 -1.4060186 0.5012345 -1.0596325 -2.8642547 1.2442173 -1.1127791 5.839444 -7.1012335 -2.7998357 4.1392064 2.8296337 -3.6568258 1.2548631 -2.3408475 2.076624 6.0466223 1.728724 1.2095861 2.6149373 -0.21767731 -2.0719697 -0.99517953 -2.768343 1.3245181 3.0433278 2.686946 -1.2204884 1.4435401 7.931382 3.534141 0.86580086
*dt_4 3.979721 -2.2182388 6.9905987 -3.6592317 1.0757188 -0.5840323 1.4146252 -5.0177245 4.831047 1.9343774 -1.5790907 8.658477 3.933998 -1.1874068 -6.709467 8.091792 -0.5385097 1.8314744 2.3291574 3.872813 -5.395329 -1.2101923 -1.0179586 -6.015454 -1.0897186 1.5758898 8.247751 -1.8926817 -3.3212564 5.9170103 -1.8375324 2.4342597 -4.1750484 6.1179132 -1.4925176 1.8511027 -3.9650767 0.58601373 2.346223 0.899536 -1.2465193 -0.124133095 -2.5707164 5.497192 -0.38915604 -5.214484 2.2274668 -1.4286251 -3.5243058 -2.2671273 7.168724 -4.2015657 0.2566277 3.2277975 -2.1359878 0.59451073 -0.55521894 -1.3636674 -0.34667972 0.4554582 -0.78776485 1.2304255 -2.369004 3.2538424 -1.0106343 -0.39066485 3.230025 3.5244071 11.644161 -3.3206563 2.0740557 -0.9095832 -1.6261212 2.1209 -0.49427763 7.9023037 -7.8616223 -3.6525917 3.6398034 1.0866667 -3.342395 0.73964673 -3.184343 0.20044948 7.33989 0.66589457 1.6677868 1.1445042 -0.83550394 0.9612701 -1.821459 -2.857532 4.058518 3.338438 2.6860857 -2.5597692 0.027245991 7.814622 2.757902 0.5912377
