5 100
*dt_0 -2.0225644 -4.099947 -13.08801 4.2623167 1.6592646 -1.0262331 -12.976861 0.6625943 -5.448903 5.103615 6.211605 0.45746318 -0.2997524 -1.99037 2.9216433 -10.735374 -6.034333 8.571513 -8.651547 -2.8100345 5.180455 9.376935 -3.6773036 -4.2533345 2.2141914 -5.622951 -7.417564 -4.1796722 6.434274 -6.136734 3.5915086 7.5207486 -8.029167 3.4563897 -2.5989516 0.88478625 5.6935673 -2.7834604 -6.496375 2.542416 -1.9162173 -8.167886 1.2072676 -9.675538 3.1005046 0.093870476 5.9143953 -1.594474 5.531538 -8.136231 2.1354094 2.6567566 -3.2979035 -6.0969267 -2.3836532 7.184303 0.91677314 4.3575697 -5.893766 4.152039 4.078054 1.1405442 6.3554163 -0.011983199 0.62990266 -1.2892038 -2.072546 -1.6134912 -5.6320724 -8.575537 3.8212292 -2.6345189 0.02717505 -1.0940226 -6.4683504 2.2547197 0.3341993 -6.4556637 0.10400042 -1.6523823 11.398236 4.783844 -9.831445 -3.046049 1.2629849 -2.2035694 -1.3165523 -7.6421275 11.125683 2.2292235 -3.5882328 6.701332 1.2118602 -0.39149353 -3.0951223 4.935043 5.818229 -2.4743028 -0.42276925 4.01752
*dt_1 -1.403401 -4.706121 -13.024292 2.758779 0.871412 -0.21093966 -12.564057 2.7827165 -5.2147593 5.1435585 4.799634 0.3709553 -0.55438113 -2.9173012 4.063142 -10.271342 -7.077737 8.6699915 -7.773594 -1.2905642 6.231694 8.842634 -3.344632 -4.720923 1.5117036 -5.372738 -7.458281 -2.6093848 5.702103 -6.276585 4.1285686 7.409875 -7.078497 4.348958 -2.8392577 1.3311757 5.534767 -0.84508634 -6.6081896 0.43977934 -1.8775997 -8.239141 1.576344 -10.771734 3.0003946 0.024509989 5.975673 -0.77691156 4.170275 -7.509921 1.4981945 3.8777554 -0.6054825 -5.507114 -2.9314265 7.4082675 2.1642644 4.1421123 -5.096645 3.17924 4.6853237 -0.8449165 7.408448 0.15954505 1.4890168 -1.6565169 -2.030744 -1.4298284 -6.0090666 -8.384603 4.265328 -2.2223809 0.7395872 0.7910015 -4.4996214 3.8820167 0.45334682 -5.662115 -1.393547 -1.9232172 11.379917 4.6713643 -9.604318 -2.9022434 -1.3982615 -1.6268537 -1.9551606 -8.270551 10.476368 3.084953 -3.1728654 5.880049 2.666068 0.8194333 -4.252654 4.2577453 5.518626 -3.102473 -1.2616951 5.044522
*dt_2 -3.6600418 -7.3950124 -14.2646 3.4159315 2.331882 0.89707136 -13.664649 1.7146988 -6.413724 7.711334 5.9215503 0.6672305 -1.4527014 -4.0653043 3.9200842 -11.748078 -9.597555 10.298981 -9.289239 -1.7920152 5.62623 9.38936 -4.697567 -5.475355 2.3488085 -7.3195486 -9.782865 -2.9987085 6.245363 -7.0005217 3.5666628 8.137005 -9.179728 4.784964 -2.3225074 1.5674887 7.418499 -2.6347919 -7.375649 1.6897243 -2.4616766 -9.727916 1.9608155 -12.696839 3.3244584 -0.48486334 9.050991 -0.908629 5.671575 -10.06527 2.4510133 1.6036468 -1.7409041 -7.6536856 -3.9834528 9.434847 2.3778079 4.197551 -6.4503274 4.752457 5.9977036 -0.35047767 10.076441 2.2216609 0.54097617 -1.7932147 -0.027136808 -0.8681918 -4.71635 -8.858955 4.8541193 -1.2935885 0.5250046 0.6225349 -8.952487 2.3752573 0.36825168 -7.5112724 -1.3539109 -2.8688102 13.23074 6.664448 -11.167701 -4.431937 -1.5567893 -1.7637665 -0.7759324 -9.641252 13.188628 4.847451 -5.082983 6.006714 2.1803064 -1.2471625 -3.1675403 5.5678287 7.2021046 -4.6552534 0.48358563 4.796047
*dt_3 -1.8332132 -4.7265496 -13.173621 4.5717287 -0.48464087 -2.4693553 -12.656981 2.8539536 -4.5957265 4.487384 5.594756 0.9618676 0.24043721 -2.1621664 4.2291307 -11.262701 -7.1431203 7.964544 -8.063406 0.10413188 4.5920725 8.421335 -3.7446258 -3.4911265 1.3591795 -5.0377183 -8.122129 -5.0309763 6.401185 -7.559305 4.7330422 7.800691 -7.050371 4.7135835 -2.607591 1.0160618 4.0683746 -1.6147965 -6.657849 1.3045126 -1.084778 -7.0910015 2.1693053 -11.6302805 1.8659502 -0.06093052 6.290298 -1.0928829 5.047633 -6.361366 0.6122067 2.9035778 -2.2094364 -5.759009 -2.8406694 7.474162 1.3112454 5.2523613 -6.286787 3.7333035 5.2899585 1.7551434 5.740975 0.27962512 1.9396889 -2.0838742 -1.0566359 -0.85361695 -7.027227 -8.895677 3.0410094 -2.5115256 0.12775022 -1.1863974 -4.1231966 4.0721655 0.10112635 -5.9552073 -2.406998 -1.887272 11.458294 4.9801235 -11.848137 -4.018616 0.40683037 -1.6508943 -2.2812848 -6.595289 10.24419 3.7152605 -4.5065603 6.441567 0.87764597 0.68099433 -4.402776 6.1416125 5.962029 -1.6137358 -0.7295027 3.6089473
*dt_4 -2.52641 -5.2993846 -13.873515 4.381978 1.1654743 -2.054186 -14.699272 2.0748472 -5.3932657 6.362394 5.645317 0.8136116 0.5458157 -2.4550476 3.5009124 -13.164531 -8.167682 8.629938 -7.974209 -2.2048926 6.0361733 10.736059 -3.6635816 -7.2333627 1.8484049 -5.9026146 -8.133667 -4.764086 5.4900217 -7.3221836 5.493352 9.734103 -8.31071 5.211262 -0.8504032 2.3995283 7.902503 -4.3780794 -5.931939 2.967425 -3.563368 -7.6813526 0.017981533 -12.609422 1.4889908 -0.054951258 7.9175086 -2.7869425 5.6330795 -8.479526 2.1848316 2.3974562 -2.0486863 -4.9232793 -3.135562 6.579239 2.8223145 4.662789 -5.4035425 4.4593954 6.4088774 0.036991496 7.981571 1.0872085 0.7158341 -2.212911 -1.5578088 -1.2074058 -6.853742 -8.889167 5.804477 -2.9628787 -0.37672058 -0.05534889 -7.1051545 4.2265496 0.3033095 -7.2729106 -0.10930823 -3.5641444 13.771632 5.8340445 -10.556914 -4.188628 0.26220253 -2.5843937 -2.3948586 -8.662477 12.436098 3.6241999 -1.7957428 5.600211 3.2512457 -0.2296463 -4.631577 4.4607406 5.0126243 -3.7143075 -1.5062248 6.966755
*dt_0 -2.0225644 -4.099947 -13.08801 4.2623167 1.6592646 -1.0262331 -12.976861 0.6625943 -5.448903 5.103615 6.211605 0.45746318 -0.2997524 -1.99037 2.9216433 -10.735374 -6.034333 8.571513 -8.651547 -2.8100345 5.180455 9.376935 -3.6773036 -4.2533345 2.2141914 -5.622951 -7.417564 -4.1796722 6.434274 -6.136734 3.5915086 7.5207486 -8.029167 3.4563897 -2.5989516 0.88478625 5.6935673 -2.7834604 -6.496375 2.542416 -1.9162173 -8.167886 1.2072676 -9.675538 3.1005046 0.093870476 5.9143953 -1.594474 5.531538 -8.136231 2.1354094 2.6567566 -3.2979035 -6.0969267 -2.3836532 7.184303 0.91677314 4.3575697 -5.893766 4.152039 4.078054 1.1405442 6.3554163 -0.011983199 0.62990266 -1.2892038 -2.072546 -1.6134912 -5.6320724 -8.575537 3.8212292 -2.6345189 0.02717505 -1.0940226 -6.4683504 2.2547197 0.3341993 -6.4556637 0.10400042 -1.6523823 11.398236 4.783844 -9.831445 -3.046049 1.2629849 -2.2035694 -1.3165523 -7.6421275 11.125683 2.2292235 -3.5882328 6.701332 1.2118602 -0.39149353 -3.0951223 4.935043 5.818229 -2.4743028 -0.42276925 4.01752
*dt_1 -1.403401 -4.706121 -13.024292 2.758779 0.871412 -0.21093966 -12.564057 2.7827165 -5.2147593 5.1435585 4.799634 0.3709553 -0.55438113 -2.9173012 4.063142 -10.271342 -7.077737 8.6699915 -7.773594 -1.2905642 6.231694 8.842634 -3.344632 -4.720923 1.5117036 -5.372738 -7.458281 -2.6093848 5.702103 -6.276585 4.1285686 7.409875 -7.078497 4.348958 -2.8392577 1.3311757 5.534767 -0.84508634 -6.6081896 0.43977934 -1.8775997 -8.239141 1.576344 -10.771734 3.0003946 0.024509989 5.975673 -0.77691156 4.170275 -7.509921 1.4981945 3.8777554 -0.6054825 -5.507114 -2.9314265 7.4082675 2.1642644 4.1421123 -5.096645 3.17924 4.6853237 -0.8449165 7.408448 0.15954505 1.4890168 -1.6565169 -2.030744 -1.4298284 -6.0090666 -8.384603 4.265328 -2.2223809 0.7395872 0.7910015 -4.4996214 3.8820167 0.45334682 -5.662115 -1.393547 -1.9232172 11.379917 4.6713643 -9.604318 -2.9022434 -1.3982615 -1.6268537 -1.9551606 -8.270551 10.476368 3.084953 -3.1728654 5.880049 2.666068 0.8194333 -4.252654 4.2577453 5.518626 -3.102473 -1.2616951 5.044522
*dt_2 -3.6600418 -7.3950124 -14.2646 3.4159315 2.331882 0.89707136 -13.664649 1.7146988 -6.413724 7.711334 5.9215503 0.6672305 -1.4527014 -4.0653043 3.9200842 -11.748078 -9.597555 10.298981 -9.289239 -1.7920152 5.62623 9.38936 -4.697567 -5.475355 2.3488085 -7.3195486 -9.782865 -2.9987085 6.245363 -7.0005217 3.5666628 8.137005 -9.179728 4.784964 -2.3225074 1.5674887 7.418499 -2.6347919 -7.375649 1.6897243 -2.4616766 -9.727916 1.9608155 -12.696839 3.3244584 -0.48486334 9.050991 -0.908629 5.671575 -10.06527 2.4510133 1.6036468 -1.7409041 -7.6536856 -3.9834528 9.434847 2.3778079 4.197551 -6.4503274 4.752457 5.9977036 -0.35047767 10.076441 2.2216609 0.54097617 -1.7932147 -0.027136808 -0.8681918 -4.71635 -8.858955 4.8541193 -1.2935885 0.5250046 0.6225349 -8.952487 2.3752573 0.36825168 -7.5112724 -1.3539109 -2.8688102 13.23074 6.664448 -11.167701 -4.431937 -1.5567893 -1.7637665 -0.7759324 -9.641252 13.188628 4.847451 -5.082983 6.006714 2.1803064 -1.2471625 -3.1675403 5.5678287 7.2021046 -4.6552534 0.48358563 4.796047
*dt_3 -1.8332132 -4.7265496 -13.173621 4.5717287 -0.48464087 -2.4693553 -12.656981 2.8539536 -4.5957265 4.487384 5.594756 0.9618676 0.24043721 -2.1621664 4.2291307 -11.262701 -7.1431203 7.964544 -8.063406 0.10413188 4.5920725 8.421335 -3.7446258 -3.4911265 1.3591795 -5.0377183 -8.122129 -5.0309763 6.401185 -7.559305 4.7330422 7.800691 -7.050371 4.7135835 -2.607591 1.0160618 4.0683746 -1.6147965 -6.657849 1.3045126 -1.084778 -7.0910015 2.1693053 -11.6302805 1.8659502 -0.06093052 6.290298 -1.0928829 5.047633 -6.361366 0.6122067 2.9035778 -2.2094364 -5.759009 -2.8406694 7.474162 1.3112454 5.2523613 -6.286787 3.7333035 5.2899585 1.7551434 5.740975 0.27962512 1.9396889 -2.0838742 -1.0566359 -0.85361695 -7.027227 -8.895677 3.0410094 -2.5115256 0.12775022 -1.1863974 -4.1231966 4.0721655 0.10112635 -5.9552073 -2.406998 -1.887272 11.458294 4.9801235 -11.848137 -4.018616 0.40683037 -1.6508943 -2.2812848 -6.595289 10.24419 3.7152605 -4.5065603 6.441567 0.87764597 0.68099433 -4.402776 6.1416125 5.962029 -1.6137358 -0.7295027 3.6089473
*dt_4 -2.52641 -5.2993846 -13.873515 4.381978 1.1654743 -2.054186 -14.699272 2.0748472 -5.3932657 6.362394 5.645317 0.8136116 0.5458157 -2.4550476 3.5009124 -13.164531 -8.167682 8.629938 -7.974209 -2.2048926 6.0361733 10.736059 -3.6635816 -7.2333627 1.8484049 -5.9026146 -8.133667 -4.764086 5.4900217 -7.3221836 5.493352 9.734103 -8.31071 5.211262 -0.8504032 2.3995283 7.902503 -4.3780794 -5.931939 2.967425 -3.563368 -7.6813526 0.017981533 -12.609422 1.4889908 -0.054951258 7.9175086 -2.7869425 5.6330795 -8.479526 2.1848316 2.3974562 -2.0486863 -4.9232793 -3.135562 6.579239 2.8223145 4.662789 -5.4035425 4.4593954 6.4088774 0.036991496 7.981571 1.0872085 0.7158341 -2.212911 -1.5578088 -1.2074058 -6.853742 -8.889167 5.804477 -2.9628787 -0.37672058 -0.05534889 -7.1051545 4.2265496 0.3033095 -7.2729106 -0.10930823 -3.5641444 13.771632 5.8340445 -10.556914 -4.188628 0.26220253 -2.5843937 -2.3948586 -8.662477 12.436098 3.6241999 -1.7957428 5.600211 3.2512457 -0.2296463 -4.631577 4.4607406 5.0126243 -3.7143075 -1.5062248 6.966755
