5 300
*dt_0 -0.58928734 -0.81444675 -3.530159 6.434032 2.8169534 -2.6554065 -0.6940898 0.48279732 -1.199614 -0.94364345 -1.7012947 -2.1461701 -0.58318824 -1.2906188 2.5629282 -7.535072 1.7161576 1.6896015 -2.2487452 -0.010133195 -3.3898156 2.683952 0.15138295 4.62318 1.9869751 1.7990083 -4.777382 -3.3690054 1.5344783 -2.1887057 2.0288522 2.6943343 -2.0574563 -1.0007184 -1.6873058 2.2138078 -0.9597808 -6.5109296 -2.32176 -0.34423226 -1.6275072 -1.3106828 2.866381 0.5446468 0.14224553 1.6494833 -1.2516307 -0.76014006 -0.5593271 -0.28135923 0.48898435 0.48969823 -4.807219 -1.0798653 -3.6887245 2.87835 -1.9401408 3.029924 -2.9045248 -0.61785966 2.1880298 1.6587125 1.2510395 0.07366851 1.6486719 -1.0872018 2.8450065 0.8064658 -0.6047733 -1.7414932 -1.5101933 0.05695774 -3.9303575 -4.6517444 -0.9829983 0.9697161 -1.9876367 -2.6473706 0.3657889 3.8739755 1.7380205 3.4281769 -3.4633007 -0.14215744 3.8360758 2.054796 0.6348697 -1.6364977 2.8800745 -3.585175 -0.8669985 2.6407208 -2.2420027 0.1493462 -1.892703 5.5500364 2.408173 1.6499116 2.0384252 -0.33915696 -3.208577 -2.4890072 -0.3059125 2.4113612 -3.8805857 0.24771973 -0.21412994 4.128011 1.3323455 2.9243736 -2.7474308 -3.2973504 0.6300459 0.44571695 0.37840775 -2.724938 -4.3214607 -1.3072731 3.7635088 3.4422846 4.5110526 4.420395 -2.797555 3.7188458 -4.200089 0.6952996 1.6847705 -3.176788 0.85853726 -0.69328696 -0.17792743 3.4071703 0.027221622 -0.45578638 -1.5423073 -0.2177436 -0.9521034 -0.70258975 -5.1094875 -4.483234 0.75733864 -1.3381662 -0.70096534 -1.5122181 -0.3242829 -0.3834809 1.4949191 0.8971402 1.2185634 -2.5529542 -2.4276223 2.5850308 3.4693286 -4.5919456 -1.2258707 1.6835951 -1.3396084 1.3771995 -1.050668 -0.4109578 3.0023355 1.9440576 -1.1523309 -1.3639575 -1.3512344 -0.20912439 -0.9686998 -1.9428524 -2.7159393 0.19312578 1.3610187 1.4999655 1.8326367 1.8171116 2.3472774 2.8252118 1.9209102 -3.0985835 -2.1162624 -2.5053768 -0.18279539 1.8453084 -4.2392435 -4.0605836 -4.1614804 1.696945 1.2898071 1.5918031 1.9481206 2.7270203 -0.59898615 -1.5705805 0.23000574 2.288194 -0.83035487 -1.5965935 0.15042141 -0.0036577885 1.3808479 -0.6414663 -5.2146006 -2.5533001 4.2351217 -2.1628294 2.7755542 -1.6866901 3.316699 -1.3616654 -0.41017514 1.6818235 -3.082706 1.0676596 -2.031945 -2.521959 1.1952263 1.5297439 -2.510944 -2.5883172 -0.30183822 -0.29090652 -2.5087547 -2.470682 3.091261 2.6576052 -4.3870587 -1.0244473 -2.3241808 -0.14014317 -2.9598272 3.2627792 0.38474143 -4.2010684 1.9676021 -0.81945944 1.8690357 3.117469 -2.496916 -1.7142185 2.1658406 -4.981818 3.98126 1.5030118 2.9625058 0.73725694 -1.6123116 0.0763108 -1.5707122 2.8109334 -0.32963592 -5.0817986 -0.56015056 -2.0465157 1.0665811 -1.327325 -5.848928 -1.6785605 3.5882933 3.9003637 0.16288424 -2.720287 1.5325141 4.008148 2.0850117 -0.82314897 -1.2535298 2.6284978 3.2001858 4.755948 2.773485 2.3068185 -3.4989233 -0.8222614 -1.8321639 0.34782898 4.4532003 -2.1554596 -2.1475308 -3.7058074 -2.7075667 -0.42348143 -1.1817888 2.389871 1.2702848 1.7670114 -4.094299 3.737515 -0.31285182 0.39805165 -5.2197385 1.6112523 -1.8607143 -1.862033 -2.1575856 0.13993795 2.089766 7.074899 -0.9303797 -1.7263738 2.342638 0.010639329
*dt_1 -1.2491889 0.8465665 -3.612072 5.843553 1.9017497 -3.2155216 -2.363491 1.739064 0.20737204 -1.9892814 -2.4079728 -3.2523873 0.96383625 0.4776511 2.61314 -6.8655577 2.1752403 0.9227211 -0.016899705 1.0983043 -2.8971915 3.9794786 0.0530514 5.4683957 2.307527 2.5994716 -4.8294277 -2.6410775 1.3801653 -3.25616 1.3421032 2.3431015 -1.5479115 1.6793281 -2.0112028 1.5933055 -1.4419347 -4.8511286 -1.5241556 0.30833098 0.3911122 0.40325996 1.4599001 2.4609654 -0.4405205 -0.31962833 -1.481123 0.26084492 -0.235039 1.9178188 -0.7918845 0.68184 -3.0380876 0.7540151 -1.837587 1.7215735 -2.9088268 3.621367 -5.034592 -1.4941883 2.471222 3.4193807 -0.05003981 -0.56678104 1.8059897 1.6920626 2.0048866 -0.011671285 -1.4058601 0.28314033 -1.7052419 -1.3846792 -3.572975 -4.2855525 0.3179594 1.1339078 0.016713774 -3.5764802 0.33146545 5.0910344 -1.5593381 2.3982656 -4.0949645 1.5102795 2.8789558 2.2433977 -0.96503747 -0.7980955 -0.25222522 -4.2360954 -2.1478968 0.97122866 -3.6485643 1.7689065 -2.6251042 4.214208 -0.029146463 2.6556861 -0.4371033 -0.5961911 -2.8173113 -3.3091524 -0.7765437 1.2102472 -5.757381 -0.4251833 -0.6388352 3.846494 2.120976 3.3980985 -2.3526366 -2.0484827 1.1145035 -0.34537157 -0.35574946 -1.1291875 -5.097861 -0.8968571 2.1231318 2.0836556 1.2551327 4.519748 -1.1581839 1.5997638 -4.4213557 1.8106722 0.58993626 -1.8444748 1.0265759 0.14620623 1.6366512 3.9438229 -1.917813 0.97448957 -0.08179323 0.81971973 -1.8189006 -0.94826895 -2.5021832 -2.4573097 -1.2196608 -0.39497137 -3.0282152 -1.6693234 -1.6069015 -0.117631525 2.0954285 -1.3815868 1.6591339 -1.5684607 -0.52943254 0.030483512 2.7615764 -2.6234431 -0.28801072 1.207989 -0.5769954 -0.7494619 0.0058959075 -0.21438111 4.230568 -0.23914006 -2.2366827 0.9600945 -2.0891602 -0.8155619 -0.34786227 0.21660821 -0.9531222 1.1814975 1.5365994 0.84624857 2.3244665 1.0532463 0.4374056 2.4989283 0.6802506 -2.892978 -1.326536 -3.7379491 -0.33225858 1.6982286 -4.1691036 -4.11392 -2.2142067 -0.8732644 1.5968093 0.36681917 -0.4373303 2.2807434 0.0041311923 -2.0713189 0.98520637 0.38463247 0.43813953 -1.1158061 -1.8674395 1.2155511 0.99815744 -1.1516399 -4.965969 -3.3126752 3.4697802 -1.6543798 3.148734 -0.3476808 0.96953386 -1.0821307 -2.9714491 0.06616231 -2.7875073 1.6386747 -0.3073484 -2.9086795 0.9384804 1.7131189 -3.356327 -0.9630578 1.3638476 1.626915 -0.22749151 -2.940859 -0.12703189 1.0899887 -3.6047022 -2.345942 -2.7527955 -1.1533344 -4.567514 1.8563143 1.6651651 -1.8489987 1.9773853 1.1094975 2.3567266 3.5148327 -2.0014305 -1.682733 0.32179523 -3.6635778 1.5516584 -1.4934021 2.4801207 -0.57143104 -0.3990333 -0.40563303 -1.373119 0.86097413 -0.03307468 -3.409932 0.7785375 0.022953227 1.9463241 -2.6850085 -4.432479 -2.207896 2.4655032 4.52135 1.4810594 -2.4776678 2.2004783 1.8239851 -0.5215149 -0.489299 -0.28297713 2.2718308 3.2947924 3.6847155 2.8497772 2.2066886 -3.726822 -2.1328862 -2.7249207 -0.42918697 4.5477357 -1.4257526 -0.38750947 -3.4896653 -2.1990905 1.08169 0.29508108 2.3285563 3.3442717 2.901267 -4.670628 4.5884347 -2.2966383 -0.93371904 -4.4216413 2.1888025 -2.557589 -0.8311625 -1.2839752 0.75779957 1.5541321 3.878381 -1.3885913 -2.3625064 1.8366194 1.1791968
*dt_2 -2.5155087 0.5178634 -2.9335005 6.2502975 2.7129555 -1.6838628 -3.0503325 0.35389158 -0.63007975 0.009966293 -1.5874127 -3.318454 1.9146079 -1.740631 1.4340553 -5.3797426 2.4525347 1.3190987 -0.50293845 1.6031885 -2.5360718 2.0943336 -0.66248614 4.0334725 1.365046 0.81500643 -4.230659 -2.0058446 1.1937822 -2.5456688 2.6815386 3.2937148 -2.3882835 1.7126309 -1.9108719 1.0668554 -1.2066482 -4.49603 -1.8027735 0.84222156 -0.6652723 -1.8545146 2.8063543 1.7980839 -0.11057975 -0.45219192 0.8559675 -1.3918841 -0.64476234 0.25751856 -0.45000505 -0.9605538 -1.9921083 -0.41195762 -1.78967 3.3162625 -1.4601912 3.1715636 -3.9753299 -0.33247027 2.3576756 3.7298167 2.0132308 0.7416248 1.3268104 0.20001958 2.7982554 0.5668931 -1.4590862 -1.3951331 -2.8456228 -1.5886455 -2.744922 -3.6129332 -0.45358983 0.4700226 -2.1653075 -3.1492503 1.1349927 4.247556 -0.97849834 0.8559801 -3.533922 0.22023726 3.029546 0.9865957 -1.4338099 -0.5137773 1.83696 -2.8974159 -1.9181167 2.3679626 -4.285106 -0.53712744 -4.3703837 3.328011 2.5454652 1.5185279 1.0199342 -0.98115396 -0.42632523 -2.1574135 -2.2955675 2.2166502 -5.3143444 0.10548784 -1.7462506 2.4429817 1.4286332 3.0793643 -3.1176448 -2.15238 0.70948136 -0.54197454 0.28432018 -0.40168872 -3.207298 -2.218528 1.8794038 2.8465543 2.1190045 4.6041594 -1.3557942 3.6506832 -3.3573723 1.8075986 0.09645691 -2.1800036 1.9828005 -1.638557 0.670435 2.7611318 -0.81183565 2.0553153 0.029613381 -0.094432026 -1.6891426 -0.8862319 -3.7951667 -4.8217244 -1.0293494 -0.73947895 0.08392132 -1.8269157 -2.074159 0.3316468 -0.9436109 1.6123505 0.9438171 -1.5332441 -2.727573 1.7601112 1.9462792 -2.1857846 -1.0038999 0.31581 -2.9456184 -1.5280113 -1.1307924 -0.22470365 4.252608 0.315898 0.079102635 -1.1550149 -1.8350044 -1.4460196 0.10106998 0.8005258 -1.5601958 -0.34517646 1.4168698 1.6306922 0.24974987 0.038675494 0.3066194 2.365108 3.261606 -2.2057908 -2.6964066 -2.3098648 2.2547154 2.2911282 -3.322285 -2.8693209 -1.6489496 2.2233756 1.5514815 2.1626344 1.182923 1.3527716 -2.239694 -1.6826311 -0.4564218 3.143282 -0.45783177 -0.27275774 -1.738304 1.0340545 3.1326764 -1.0795096 -4.6877213 -3.0290873 3.749201 -1.9689245 1.9196395 -1.3520197 1.9156646 -2.5705917 0.16611178 1.3662978 -1.7901314 2.1743703 -1.9562608 -2.7239268 -0.09048494 1.9223301 -1.9338706 -1.0898308 1.3547753 0.06407026 0.5202351 -1.2471359 0.18343653 2.701033 -3.0977035 -0.39522886 -4.409266 0.061113156 -3.2069418 0.99655795 0.41003266 -1.3315202 2.273317 0.17574672 1.7647963 3.7338297 -3.7799466 -2.1717372 1.8488114 -4.1534934 2.1557746 -0.91903675 2.725617 0.71003515 -1.7497553 -0.77102876 -0.2719986 1.291583 -0.7737337 -1.8074511 -0.8148619 -0.19612423 0.73524 -0.5241832 -2.7687032 -0.60826874 3.159977 4.7368455 1.39047 -0.81244946 2.151992 3.0736682 -0.47041833 0.5551081 1.427526 -0.2606318 2.5555608 3.381288 2.459453 -0.80381167 -3.6222904 -1.6131437 -1.7145288 0.3133958 4.946602 -2.0131185 -1.2652258 -3.2017848 -1.8699048 -0.23210603 -0.88340104 2.8120878 1.64593 1.8762964 -2.7621453 4.5290527 -1.8254116 -0.5255246 -4.710249 3.6643784 -2.611897 -0.9464057 -1.5899659 1.6279253 2.73452 4.871878 -2.0478942 -0.6205439 2.5533864 0.14254603
*dt_3 -0.23029718 0.78198004 -3.0845013 3.5725133 2.914481 -1.4407101 -0.8591087 1.008927 -0.6538786 -0.74729574 -2.6120255 -1.9865639 0.8370941 -0.2644213 2.319553 -7.7606874 2.1762896 1.3836726 1.2779791 1.7238829 -2.4110274 0.55202657 0.7376746 5.22969 2.6482916 2.2654674 -2.5253997 -3.4029334 2.5911155 -3.2546601 2.5471568 0.12738906 -2.8321414 2.215304 -1.7512835 2.8914466 -0.7411355 -4.927484 -1.6249964 -1.4410472 0.8685981 -0.37220484 2.5106432 1.4595493 -0.7609387 2.3945916 -0.4192423 0.07327742 -1.4864484 1.2402955 1.1557806 -0.6087529 -4.955998 -0.7192157 -1.6611778 3.0048623 -2.5939898 5.802914 -3.266538 -1.8476386 2.2593932 0.9617483 -0.6561929 -1.3176535 0.5464339 0.1309285 2.7616348 1.5217407 -2.5103135 -0.20638788 -0.20082144 -2.6346605 -4.920118 -2.6098728 -2.2624688 1.9099752 -2.5501704 -3.3709462 1.9261401 5.2209034 -1.230049 2.4186974 -3.0629616 -0.6809342 4.298567 2.8242996 0.8476111 0.6709948 1.6976151 -4.0758457 -0.95825356 1.842475 -2.530794 1.1778089 -2.5790827 3.3301108 2.498612 1.5840697 -1.6934416 -1.3113337 -1.8584428 -3.3355026 -0.5193243 0.5534613 -5.569723 0.82939917 0.5681841 1.8036731 2.9626615 5.051594 -3.0853035 -1.0149548 0.931877 -0.980966 -2.25749 -4.245301 -5.938456 0.17269886 2.9282706 1.6160022 2.936009 4.4913626 -4.6369185 3.456039 -4.9426055 0.22942434 0.39366433 -1.8978851 1.0630839 -2.9759371 -0.5354325 4.080576 -2.5134118 0.8202529 -0.51499814 0.7743832 -0.8839738 -1.7328794 -5.4881454 -3.7133102 -1.5867026 -0.874534 -0.82161677 -0.45939755 1.4683824 -1.5284948 0.631753 0.16621856 1.2671325 -1.5145062 0.081830844 -0.26979157 2.3471484 -3.8268535 1.0494868 1.7712457 -2.5656617 -1.7375675 -1.6023892 -2.2296252 3.953952 0.64398545 -1.668855 -0.5160896 -2.7937186 0.10768401 -2.5707195 0.53019124 -2.013592 1.7922298 0.40644863 2.427295 -0.51430994 2.0374346 0.45148998 2.0545216 0.77912635 -1.2061156 -2.9872024 -1.044039 0.39768553 2.031672 -5.550142 -3.235903 -2.6854475 1.2693383 2.5324323 3.5208132 0.12835355 2.8280149 0.22033474 -1.737527 1.150438 1.2267154 0.9053163 -3.2221878 -0.80666757 -0.7167513 2.294576 0.071611226 -6.0758 -4.216763 5.6248693 -2.2610059 1.1995724 -1.8460627 1.2200512 -1.1690556 -2.784282 0.064284526 -2.6397812 1.8531746 -2.9278262 -3.3459294 -0.21792608 0.9696851 -0.86690253 -4.3629003 0.27068782 1.2359151 -0.79543144 -1.021415 0.7845721 1.4354424 -4.5585227 -2.2541428 -2.6606247 -1.0353076 -2.939755 2.6554475 0.32726645 0.4079823 0.9498933 0.07222337 1.8361987 3.4614139 -3.2663064 -4.615616 1.0559739 -4.5193195 3.2943797 1.5220854 2.5595632 2.1789901 -1.8068925 -1.5436263 -3.3586013 2.3792121 0.25926182 -4.033686 0.6799674 -2.3742635 1.0002145 -1.0441601 -4.5503163 -1.0029006 3.3045888 3.6972992 1.3438287 -3.401055 0.77426094 4.2648044 -0.1591817 -1.4257293 -0.0786073 1.9307506 1.6003243 3.6514633 3.3934264 0.5415704 -2.4480247 -4.0352736 -1.6129805 0.5572414 4.4400725 -1.7061566 -1.0686123 -2.2033126 -1.9873672 0.15923962 -0.5975885 4.069163 3.7458332 2.7318528 -3.8812308 3.2560756 -0.12012737 1.5674419 -4.302638 2.2861235 -1.5076919 -2.0872102 -2.617757 1.6088444 -0.10370112 5.132093 -1.2598033 -2.2765558 0.40047142 0.1819076
*dt_4 -1.379491 0.37261733 -4.6472545 4.997902 1.3558925 -1.797824 -0.6789457 0.12841247 0.25594524 -1.8429586 -1.3950759 -2.9826388 -0.74087054 -1.3954391 3.541833 -6.105755 3.823367 1.1431539 -1.3541374 0.41869757 -1.582181 1.0541999 2.5526621 3.8411477 3.2095962 2.9459395 -3.9068613 -1.8506136 -0.533569 -1.8055845 2.2845378 3.9367895 -2.239411 1.9123707 -1.6156924 2.4257803 -0.56155246 -5.6411567 -0.33072972 -1.1749305 0.69185024 -1.2315238 1.2958454 2.807367 -2.1136987 0.5975568 -1.3017344 0.73099124 -1.6011547 2.460806 -1.7117957 0.6257374 -3.5141246 0.18289863 -3.4753878 2.3151343 -2.9979043 2.0855 -4.378853 -2.3620615 1.3002445 3.3656037 0.7326451 1.2514429 1.0465124 1.4695488 3.7344413 1.1372093 -0.96755147 0.27757177 -1.3587182 -0.29191938 -3.1313055 -3.3993034 0.07145407 -0.55753815 0.38770553 -1.9265709 0.0746162 5.9891396 0.55579907 2.222865 -2.1407616 1.0366852 2.7765472 3.3330784 0.2585556 -1.0080407 0.07053973 -5.4865017 -1.4734919 0.94436693 -0.97033286 0.036192555 -1.2857018 4.7806563 2.0221055 2.6342106 -0.7231476 -1.068322 -1.0894772 -3.6128597 -0.4009298 -0.22335319 -5.2610674 0.86830765 0.52912664 1.3650429 -0.11858229 2.7694168 -4.2199335 -2.0475686 2.3258164 0.41426256 -0.70652354 -3.897216 -5.0609307 -0.78626937 3.1945415 2.458845 1.0547451 2.9642406 -4.0582213 3.0231285 -4.682648 0.7299893 0.42083716 -1.5032128 0.5686772 -1.9041207 1.3117191 4.465106 -2.25978 0.78345025 -0.3297623 0.20238377 -2.8683197 -1.8054321 -3.3061247 -4.2736516 -0.40934098 -1.0678835 -1.8171605 -2.0869558 1.1916239 -1.3969636 1.5520264 -1.5627699 1.9746524 -1.044905 -1.7507076 -0.26075396 2.227243 -3.1877782 -1.4596534 0.5991218 -1.7684739 -0.70005643 -0.14313833 -0.90842247 2.3379 1.6578864 -0.7454093 0.27473453 -0.85430336 -1.5761538 -0.32761744 -0.40156507 -1.7813368 2.025385 1.7199847 2.6009655 1.7994541 1.1358354 -2.1469393 2.9573314 1.7699672 -1.5037984 -3.0859857 -2.2331119 1.682989 2.977629 -3.908435 -3.232602 -2.375242 1.9185103 2.3343592 2.3858037 1.3786652 2.0937011 -0.6004665 -0.7010808 -1.6001174 1.2499609 1.0874376 -3.1745417 1.5541186 -0.18721417 1.7588353 -0.5472428 -5.0613894 -1.5259885 4.564528 -2.3367198 2.5123172 -0.5216072 2.4825234 -0.8751343 -0.98774743 0.6742886 -1.4461344 0.3078637 -1.6593921 -3.7589264 0.21824946 -0.0868634 -2.2316883 -4.4067297 -1.6798177 -0.5005924 -1.2539909 -2.5711567 1.2675768 2.2344944 -3.5279315 -1.1304725 -2.8283134 -0.42819476 -4.8854756 1.7595958 1.3641379 0.9859507 1.0635855 0.886395 2.2908843 3.1473048 -3.555846 -3.129397 0.97010756 -3.7228315 3.2320354 0.37936938 1.7571663 -0.22071601 0.9026107 1.9219952 -1.4444007 1.5438175 -1.2926912 -1.4520719 -0.19330452 -0.36791882 0.8125823 -1.8844274 -5.0866103 0.24268931 0.8837239 3.7364094 2.2829587 -3.7562232 1.8755974 3.5852282 -0.6556422 -1.4212929 1.260878 1.9480029 2.6568155 2.5589886 2.3039126 0.5462855 -3.344606 -1.7215073 -2.3779902 -0.7974961 5.22848 -0.36796278 0.19229709 -3.649037 -0.65353763 -1.502972 -1.9676003 2.8732336 2.659806 3.2228072 -3.8854728 3.8620968 -1.8829694 -1.1475374 -5.4541817 4.0061016 -1.8298149 0.9624129 -1.9312086 0.08475056 0.98951757 5.480024 -1.0786892 -1.5715984 0.75644654 -1.1478461
*dt_0 -0.58928734 -0.81444675 -3.530159 6.434032 2.8169534 -2.6554065 -0.6940898 0.48279732 -1.199614 -0.94364345 -1.7012947 -2.1461701 -0.58318824 -1.2906188 2.5629282 -7.535072 1.7161576 1.6896015 -2.2487452 -0.010133195 -3.3898156 2.683952 0.15138295 4.62318 1.9869751 1.7990083 -4.777382 -3.3690054 1.5344783 -2.1887057 2.0288522 2.6943343 -2.0574563 -1.0007184 -1.6873058 2.2138078 -0.9597808 -6.5109296 -2.32176 -0.34423226 -1.6275072 -1.3106828 2.866381 0.5446468 0.14224553 1.6494833 -1.2516307 -0.76014006 -0.5593271 -0.28135923 0.48898435 0.48969823 -4.807219 -1.0798653 -3.6887245 2.87835 -1.9401408 3.029924 -2.9045248 -0.61785966 2.1880298 1.6587125 1.2510395 0.07366851 1.6486719 -1.0872018 2.8450065 0.8064658 -0.6047733 -1.7414932 -1.5101933 0.05695774 -3.9303575 -4.6517444 -0.9829983 0.9697161 -1.9876367 -2.6473706 0.3657889 3.8739755 1.7380205 3.4281769 -3.4633007 -0.14215744 3.8360758 2.054796 0.6348697 -1.6364977 2.8800745 -3.585175 -0.8669985 2.6407208 -2.2420027 0.1493462 -1.892703 5.5500364 2.408173 1.6499116 2.0384252 -0.33915696 -3.208577 -2.4890072 -0.3059125 2.4113612 -3.8805857 0.24771973 -0.21412994 4.128011 1.3323455 2.9243736 -2.7474308 -3.2973504 0.6300459 0.44571695 0.37840775 -2.724938 -4.3214607 -1.3072731 3.7635088 3.4422846 4.5110526 4.420395 -2.797555 3.7188458 -4.200089 0.6952996 1.6847705 -3.176788 0.85853726 -0.69328696 -0.17792743 3.4071703 0.027221622 -0.45578638 -1.5423073 -0.2177436 -0.9521034 -0.70258975 -5.1094875 -4.483234 0.75733864 -1.3381662 -0.70096534 -1.5122181 -0.3242829 -0.3834809 1.4949191 0.8971402 1.2185634 -2.5529542 -2.4276223 2.5850308 3.4693286 -4.5919456 -1.2258707 1.6835951 -1.3396084 1.3771995 -1.050668 -0.4109578 3.0023355 1.9440576 -1.1523309 -1.3639575 -1.3512344 -0.20912439 -0.9686998 -1.9428524 -2.7159393 0.19312578 1.3610187 1.4999655 1.8326367 1.8171116 2.3472774 2.8252118 1.9209102 -3.0985835 -2.1162624 -2.5053768 -0.18279539 1.8453084 -4.2392435 -4.0605836 -4.1614804 1.696945 1.2898071 1.5918031 1.9481206 2.7270203 -0.59898615 -1.5705805 0.23000574 2.288194 -0.83035487 -1.5965935 0.15042141 -0.0036577885 1.3808479 -0.6414663 -5.2146006 -2.5533001 4.2351217 -2.1628294 2.7755542 -1.6866901 3.316699 -1.3616654 -0.41017514 1.6818235 -3.082706 1.0676596 -2.031945 -2.521959 1.1952263 1.5297439 -2.510944 -2.5883172 -0.30183822 -0.29090652 -2.5087547 -2.470682 3.091261 2.6576052 -4.3870587 -1.0244473 -2.3241808 -0.14014317 -2.9598272 3.2627792 0.38474143 -4.2010684 1.9676021 -0.81945944 1.8690357 3.117469 -2.496916 -1.7142185 2.1658406 -4.981818 3.98126 1.5030118 2.9625058 0.73725694 -1.6123116 0.0763108 -1.5707122 2.8109334 -0.32963592 -5.0817986 -0.56015056 -2.0465157 1.0665811 -1.327325 -5.848928 -1.6785605 3.5882933 3.9003637 0.16288424 -2.720287 1.5325141 4.008148 2.0850117 -0.82314897 -1.2535298 2.6284978 3.2001858 4.755948 2.773485 2.3068185 -3.4989233 -0.8222614 -1.8321639 0.34782898 4.4532003 -2.1554596 -2.1475308 -3.7058074 -2.7075667 -0.42348143 -1.1817888 2.389871 1.2702848 1.7670114 -4.094299 3.737515 -0.31285182 0.39805165 -5.2197385 1.6112523 -1.8607143 -1.862033 -2.1575856 0.13993795 2.089766 7.074899 -0.9303797 -1.7263738 2.342638 0.010639329
*dt_1 -1.2491889 0.8465665 -3.612072 5.843553 1.9017497 -3.2155216 -2.363491 1.739064 0.20737204 -1.9892814 -2.4079728 -3.2523873 0.96383625 0.4776511 2.61314 -6.8655577 2.1752403 0.9227211 -0.016899705 1.0983043 -2.8971915 3.9794786 0.0530514 5.4683957 2.307527 2.5994716 -4.8294277 -2.6410775 1.3801653 -3.25616 1.3421032 2.3431015 -1.5479115 1.6793281 -2.0112028 1.5933055 -1.4419347 -4.8511286 -1.5241556 0.30833098 0.3911122 0.40325996 1.4599001 2.4609654 -0.4405205 -0.31962833 -1.481123 0.26084492 -0.235039 1.9178188 -0.7918845 0.68184 -3.0380876 0.7540151 -1.837587 1.7215735 -2.9088268 3.621367 -5.034592 -1.4941883 2.471222 3.4193807 -0.05003981 -0.56678104 1.8059897 1.6920626 2.0048866 -0.011671285 -1.4058601 0.28314033 -1.7052419 -1.3846792 -3.572975 -4.2855525 0.3179594 1.1339078 0.016713774 -3.5764802 0.33146545 5.0910344 -1.5593381 2.3982656 -4.0949645 1.5102795 2.8789558 2.2433977 -0.96503747 -0.7980955 -0.25222522 -4.2360954 -2.1478968 0.97122866 -3.6485643 1.7689065 -2.6251042 4.214208 -0.029146463 2.6556861 -0.4371033 -0.5961911 -2.8173113 -3.3091524 -0.7765437 1.2102472 -5.757381 -0.4251833 -0.6388352 3.846494 2.120976 3.3980985 -2.3526366 -2.0484827 1.1145035 -0.34537157 -0.35574946 -1.1291875 -5.097861 -0.8968571 2.1231318 2.0836556 1.2551327 4.519748 -1.1581839 1.5997638 -4.4213557 1.8106722 0.58993626 -1.8444748 1.0265759 0.14620623 1.6366512 3.9438229 -1.917813 0.97448957 -0.08179323 0.81971973 -1.8189006 -0.94826895 -2.5021832 -2.4573097 -1.2196608 -0.39497137 -3.0282152 -1.6693234 -1.6069015 -0.117631525 2.0954285 -1.3815868 1.6591339 -1.5684607 -0.52943254 0.030483512 2.7615764 -2.6234431 -0.28801072 1.207989 -0.5769954 -0.7494619 0.0058959075 -0.21438111 4.230568 -0.23914006 -2.2366827 0.9600945 -2.0891602 -0.8155619 -0.34786227 0.21660821 -0.9531222 1.1814975 1.5365994 0.84624857 2.3244665 1.0532463 0.4374056 2.4989283 0.6802506 -2.892978 -1.326536 -3.7379491 -0.33225858 1.6982286 -4.1691036 -4.11392 -2.2142067 -0.8732644 1.5968093 0.36681917 -0.4373303 2.2807434 0.0041311923 -2.0713189 0.98520637 0.38463247 0.43813953 -1.1158061 -1.8674395 1.2155511 0.99815744 -1.1516399 -4.965969 -3.3126752 3.4697802 -1.6543798 3.148734 -0.3476808 0.96953386 -1.0821307 -2.9714491 0.06616231 -2.7875073 1.6386747 -0.3073484 -2.9086795 0.9384804 1.7131189 -3.356327 -0.9630578 1.3638476 1.626915 -0.22749151 -2.940859 -0.12703189 1.0899887 -3.6047022 -2.345942 -2.7527955 -1.1533344 -4.567514 1.8563143 1.6651651 -1.8489987 1.9773853 1.1094975 2.3567266 3.5148327 -2.0014305 -1.682733 0.32179523 -3.6635778 1.5516584 -1.4934021 2.4801207 -0.57143104 -0.3990333 -0.40563303 -1.373119 0.86097413 -0.03307468 -3.409932 0.7785375 0.022953227 1.9463241 -2.6850085 -4.432479 -2.207896 2.4655032 4.52135 1.4810594 -2.4776678 2.2004783 1.8239851 -0.5215149 -0.489299 -0.28297713 2.2718308 3.2947924 3.6847155 2.8497772 2.2066886 -3.726822 -2.1328862 -2.7249207 -0.42918697 4.5477357 -1.4257526 -0.38750947 -3.4896653 -2.1990905 1.08169 0.29508108 2.3285563 3.3442717 2.901267 -4.670628 4.5884347 -2.2966383 -0.93371904 -4.4216413 2.1888025 -2.557589 -0.8311625 -1.2839752 0.75779957 1.5541321 3.878381 -1.3885913 -2.3625064 1.8366194 1.1791968
*dt_2 -2.5155087 0.5178634 -2.9335005 6.2502975 2.7129555 -1.6838628 -3.0503325 0.35389158 -0.63007975 0.009966293 -1.5874127 -3.318454 1.9146079 -1.740631 1.4340553 -5.3797426 2.4525347 1.3190987 -0.50293845 1.6031885 -2.5360718 2.0943336 -0.66248614 4.0334725 1.365046 0.81500643 -4.230659 -2.0058446 1.1937822 -2.5456688 2.6815386 3.2937148 -2.3882835 1.7126309 -1.9108719 1.0668554 -1.2066482 -4.49603 -1.8027735 0.84222156 -0.6652723 -1.8545146 2.8063543 1.7980839 -0.11057975 -0.45219192 0.8559675 -1.3918841 -0.64476234 0.25751856 -0.45000505 -0.9605538 -1.9921083 -0.41195762 -1.78967 3.3162625 -1.4601912 3.1715636 -3.9753299 -0.33247027 2.3576756 3.7298167 2.0132308 0.7416248 1.3268104 0.20001958 2.7982554 0.5668931 -1.4590862 -1.3951331 -2.8456228 -1.5886455 -2.744922 -3.6129332 -0.45358983 0.4700226 -2.1653075 -3.1492503 1.1349927 4.247556 -0.97849834 0.8559801 -3.533922 0.22023726 3.029546 0.9865957 -1.4338099 -0.5137773 1.83696 -2.8974159 -1.9181167 2.3679626 -4.285106 -0.53712744 -4.3703837 3.328011 2.5454652 1.5185279 1.0199342 -0.98115396 -0.42632523 -2.1574135 -2.2955675 2.2166502 -5.3143444 0.10548784 -1.7462506 2.4429817 1.4286332 3.0793643 -3.1176448 -2.15238 0.70948136 -0.54197454 0.28432018 -0.40168872 -3.207298 -2.218528 1.8794038 2.8465543 2.1190045 4.6041594 -1.3557942 3.6506832 -3.3573723 1.8075986 0.09645691 -2.1800036 1.9828005 -1.638557 0.670435 2.7611318 -0.81183565 2.0553153 0.029613381 -0.094432026 -1.6891426 -0.8862319 -3.7951667 -4.8217244 -1.0293494 -0.73947895 0.08392132 -1.8269157 -2.074159 0.3316468 -0.9436109 1.6123505 0.9438171 -1.5332441 -2.727573 1.7601112 1.9462792 -2.1857846 -1.0038999 0.31581 -2.9456184 -1.5280113 -1.1307924 -0.22470365 4.252608 0.315898 0.079102635 -1.1550149 -1.8350044 -1.4460196 0.10106998 0.8005258 -1.5601958 -0.34517646 1.4168698 1.6306922 0.24974987 0.038675494 0.3066194 2.365108 3.261606 -2.2057908 -2.6964066 -2.3098648 2.2547154 2.2911282 -3.322285 -2.8693209 -1.6489496 2.2233756 1.5514815 2.1626344 1.182923 1.3527716 -2.239694 -1.6826311 -0.4564218 3.143282 -0.45783177 -0.27275774 -1.738304 1.0340545 3.1326764 -1.0795096 -4.6877213 -3.0290873 3.749201 -1.9689245 1.9196395 -1.3520197 1.9156646 -2.5705917 0.16611178 1.3662978 -1.7901314 2.1743703 -1.9562608 -2.7239268 -0.09048494 1.9223301 -1.9338706 -1.0898308 1.3547753 0.06407026 0.5202351 -1.2471359 0.18343653 2.701033 -3.0977035 -0.39522886 -4.409266 0.061113156 -3.2069418 0.99655795 0.41003266 -1.3315202 2.273317 0.17574672 1.7647963 3.7338297 -3.7799466 -2.1717372 1.8488114 -4.1534934 2.1557746 -0.91903675 2.725617 0.71003515 -1.7497553 -0.77102876 -0.2719986 1.291583 -0.7737337 -1.8074511 -0.8148619 -0.19612423 0.73524 -0.5241832 -2.7687032 -0.60826874 3.159977 4.7368455 1.39047 -0.81244946 2.151992 3.0736682 -0.47041833 0.5551081 1.427526 -0.2606318 2.5555608 3.381288 2.459453 -0.80381167 -3.6222904 -1.6131437 -1.7145288 0.3133958 4.946602 -2.0131185 -1.2652258 -3.2017848 -1.8699048 -0.23210603 -0.88340104 2.8120878 1.64593 1.8762964 -2.7621453 4.5290527 -1.8254116 -0.5255246 -4.710249 3.6643784 -2.611897 -0.9464057 -1.5899659 1.6279253 2.73452 4.871878 -2.0478942 -0.6205439 2.5533864 0.14254603
*dt_3 -0.23029718 0.78198004 -3.0845013 3.5725133 2.914481 -1.4407101 -0.8591087 1.008927 -0.6538786 -0.74729574 -2.6120255 -1.9865639 0.8370941 -0.2644213 2.319553 -7.7606874 2.1762896 1.3836726 1.2779791 1.7238829 -2.4110274 0.55202657 0.7376746 5.22969 2.6482916 2.2654674 -2.5253997 -3.4029334 2.5911155 -3.2546601 2.5471568 0.12738906 -2.8321414 2.215304 -1.7512835 2.8914466 -0.7411355 -4.927484 -1.6249964 -1.4410472 0.8685981 -0.37220484 2.5106432 1.4595493 -0.7609387 2.3945916 -0.4192423 0.07327742 -1.4864484 1.2402955 1.1557806 -0.6087529 -4.955998 -0.7192157 -1.6611778 3.0048623 -2.5939898 5.802914 -3.266538 -1.8476386 2.2593932 0.9617483 -0.6561929 -1.3176535 0.5464339 0.1309285 2.7616348 1.5217407 -2.5103135 -0.20638788 -0.20082144 -2.6346605 -4.920118 -2.6098728 -2.2624688 1.9099752 -2.5501704 -3.3709462 1.9261401 5.2209034 -1.230049 2.4186974 -3.0629616 -0.6809342 4.298567 2.8242996 0.8476111 0.6709948 1.6976151 -4.0758457 -0.95825356 1.842475 -2.530794 1.1778089 -2.5790827 3.3301108 2.498612 1.5840697 -1.6934416 -1.3113337 -1.8584428 -3.3355026 -0.5193243 0.5534613 -5.569723 0.82939917 0.5681841 1.8036731 2.9626615 5.051594 -3.0853035 -1.0149548 0.931877 -0.980966 -2.25749 -4.245301 -5.938456 0.17269886 2.9282706 1.6160022 2.936009 4.4913626 -4.6369185 3.456039 -4.9426055 0.22942434 0.39366433 -1.8978851 1.0630839 -2.9759371 -0.5354325 4.080576 -2.5134118 0.8202529 -0.51499814 0.7743832 -0.8839738 -1.7328794 -5.4881454 -3.7133102 -1.5867026 -0.874534 -0.82161677 -0.45939755 1.4683824 -1.5284948 0.631753 0.16621856 1.2671325 -1.5145062 0.081830844 -0.26979157 2.3471484 -3.8268535 1.0494868 1.7712457 -2.5656617 -1.7375675 -1.6023892 -2.2296252 3.953952 0.64398545 -1.668855 -0.5160896 -2.7937186 0.10768401 -2.5707195 0.53019124 -2.013592 1.7922298 0.40644863 2.427295 -0.51430994 2.0374346 0.45148998 2.0545216 0.77912635 -1.2061156 -2.9872024 -1.044039 0.39768553 2.031672 -5.550142 -3.235903 -2.6854475 1.2693383 2.5324323 3.5208132 0.12835355 2.8280149 0.22033474 -1.737527 1.150438 1.2267154 0.9053163 -3.2221878 -0.80666757 -0.7167513 2.294576 0.071611226 -6.0758 -4.216763 5.6248693 -2.2610059 1.1995724 -1.8460627 1.2200512 -1.1690556 -2.784282 0.064284526 -2.6397812 1.8531746 -2.9278262 -3.3459294 -0.21792608 0.9696851 -0.86690253 -4.3629003 0.27068782 1.2359151 -0.79543144 -1.021415 0.7845721 1.4354424 -4.5585227 -2.2541428 -2.6606247 -1.0353076 -2.939755 2.6554475 0.32726645 0.4079823 0.9498933 0.07222337 1.8361987 3.4614139 -3.2663064 -4.615616 1.0559739 -4.5193195 3.2943797 1.5220854 2.5595632 2.1789901 -1.8068925 -1.5436263 -3.3586013 2.3792121 0.25926182 -4.033686 0.6799674 -2.3742635 1.0002145 -1.0441601 -4.5503163 -1.0029006 3.3045888 3.6972992 1.3438287 -3.401055 0.77426094 4.2648044 -0.1591817 -1.4257293 -0.0786073 1.9307506 1.6003243 3.6514633 3.3934264 0.5415704 -2.4480247 -4.0352736 -1.6129805 0.5572414 4.4400725 -1.7061566 -1.0686123 -2.2033126 -1.9873672 0.15923962 -0.5975885 4.069163 3.7458332 2.7318528 -3.8812308 3.2560756 -0.12012737 1.5674419 -4.302638 2.2861235 -1.5076919 -2.0872102 -2.617757 1.6088444 -0.10370112 5.132093 -1.2598033 -2.2765558 0.40047142 0.1819076
*dt_4 -1.379491 0.37261733 -4.6472545 4.997902 1.3558925 -1.797824 -0.6789457 0.12841247 0.25594524 -1.8429586 -1.3950759 -2.9826388 -0.74087054 -1.3954391 3.541833 -6.105755 3.823367 1.1431539 -1.3541374 0.41869757 -1.582181 1.0541999 2.5526621 3.8411477 3.2095962 2.9459395 -3.9068613 -1.8506136 -0.533569 -1.8055845 2.2845378 3.9367895 -2.239411 1.9123707 -1.6156924 2.4257803 -0.56155246 -5.6411567 -0.33072972 -1.1749305 0.69185024 -1.2315238 1.2958454 2.807367 -2.1136987 0.5975568 -1.3017344 0.73099124 -1.6011547 2.460806 -1.7117957 0.6257374 -3.5141246 0.18289863 -3.4753878 2.3151343 -2.9979043 2.0855 -4.378853 -2.3620615 1.3002445 3.3656037 0.7326451 1.2514429 1.0465124 1.4695488 3.7344413 1.1372093 -0.96755147 0.27757177 -1.3587182 -0.29191938 -3.1313055 -3.3993034 0.07145407 -0.55753815 0.38770553 -1.9265709 0.0746162 5.9891396 0.55579907 2.222865 -2.1407616 1.0366852 2.7765472 3.3330784 0.2585556 -1.0080407 0.07053973 -5.4865017 -1.4734919 0.94436693 -0.97033286 0.036192555 -1.2857018 4.7806563 2.0221055 2.6342106 -0.7231476 -1.068322 -1.0894772 -3.6128597 -0.4009298 -0.22335319 -5.2610674 0.86830765 0.52912664 1.3650429 -0.11858229 2.7694168 -4.2199335 -2.0475686 2.3258164 0.41426256 -0.70652354 -3.897216 -5.0609307 -0.78626937 3.1945415 2.458845 1.0547451 2.9642406 -4.0582213 3.0231285 -4.682648 0.7299893 0.42083716 -1.5032128 0.5686772 -1.9041207 1.3117191 4.465106 -2.25978 0.78345025 -0.3297623 0.20238377 -2.8683197 -1.8054321 -3.3061247 -4.2736516 -0.40934098 -1.0678835 -1.8171605 -2.0869558 1.1916239 -1.3969636 1.5520264 -1.5627699 1.9746524 -1.044905 -1.7507076 -0.26075396 2.227243 -3.1877782 -1.4596534 0.5991218 -1.7684739 -0.70005643 -0.14313833 -0.90842247 2.3379 1.6578864 -0.7454093 0.27473453 -0.85430336 -1.5761538 -0.32761744 -0.40156507 -1.7813368 2.025385 1.7199847 2.6009655 1.7994541 1.1358354 -2.1469393 2.9573314 1.7699672 -1.5037984 -3.0859857 -2.2331119 1.682989 2.977629 -3.908435 -3.232602 -2.375242 1.9185103 2.3343592 2.3858037 1.3786652 2.0937011 -0.6004665 -0.7010808 -1.6001174 1.2499609 1.0874376 -3.1745417 1.5541186 -0.18721417 1.7588353 -0.5472428 -5.0613894 -1.5259885 4.564528 -2.3367198 2.5123172 -0.5216072 2.4825234 -0.8751343 -0.98774743 0.6742886 -1.4461344 0.3078637 -1.6593921 -3.7589264 0.21824946 -0.0868634 -2.2316883 -4.4067297 -1.6798177 -0.5005924 -1.2539909 -2.5711567 1.2675768 2.2344944 -3.5279315 -1.1304725 -2.8283134 -0.42819476 -4.8854756 1.7595958 1.3641379 0.9859507 1.0635855 0.886395 2.2908843 3.1473048 -3.555846 -3.129397 0.97010756 -3.7228315 3.2320354 0.37936938 1.7571663 -0.22071601 0.9026107 1.9219952 -1.4444007 1.5438175 -1.2926912 -1.4520719 -0.19330452 -0.36791882 0.8125823 -1.8844274 -5.0866103 0.24268931 0.8837239 3.7364094 2.2829587 -3.7562232 1.8755974 3.5852282 -0.6556422 -1.4212929 1.260878 1.9480029 2.6568155 2.5589886 2.3039126 0.5462855 -3.344606 -1.7215073 -2.3779902 -0.7974961 5.22848 -0.36796278 0.19229709 -3.649037 -0.65353763 -1.502972 -1.9676003 2.8732336 2.659806 3.2228072 -3.8854728 3.8620968 -1.8829694 -1.1475374 -5.4541817 4.0061016 -1.8298149 0.9624129 -1.9312086 0.08475056 0.98951757 5.480024 -1.0786892 -1.5715984 0.75644654 -1.1478461
