5 200
*dt_0 -1.6096495 -1.855129 -2.6144497 2.4911249 1.3254046 -0.58230454 -2.690164 -0.9148565 -2.8966312 0.86989176 0.40995744 0.88580924 -1.3860672 -0.6630656 -0.78631485 -2.425081 -0.0042460933 2.5730746 -3.0036669 -1.6149274 -0.7686 0.6357235 -1.2968812 0.7800621 2.3047597 -2.090009 -2.2967818 -3.1475618 0.23338804 -2.8494256 1.6114279 1.9659985 -1.7708296 -1.4548528 -0.4831423 0.53721935 -0.11925975 -2.3868277 -0.89871436 -0.24468 -0.7640671 -1.6647614 0.49461883 -2.298065 1.3614502 -1.2833256 -0.1540275 -1.0465928 1.7577913 -1.7708939 -0.38744158 -0.30467764 -2.2683835 -2.5102205 -0.372265 2.38283 0.038401723 0.13889551 -1.8924105 2.8854709 0.4603135 2.5943103 1.1260649 -0.74350286 -0.1285553 -1.025622 1.8401679 1.248047 -1.0932566 -0.8714595 -2.3909814 -0.05971262 -2.350973 -2.6819017 -2.4137766 1.1033771 -1.2171043 -2.7741325 -0.022915008 0.44378442 1.9799793 1.4569821 -3.2280667 0.35465327 1.6432227 0.79444486 0.49739888 -1.5496218 1.3531718 0.62719375 -1.9615879 2.374625 -2.2827287 -2.3206143 -0.43587124 2.9848206 1.0226057 -0.8409497 2.7586458 0.76267624 -2.084364 -0.023961075 -1.2883805 0.37721255 -1.9389992 -1.4282435 -0.5223028 2.889368 1.4785346 -0.045180604 -0.24136753 -1.5830022 -0.5373356 -1.5465918 3.0188375 -2.4609847 -2.4198024 -0.5434325 1.0742645 2.2506402 2.3097534 2.332101 -1.5824459 2.3859065 -2.94845 0.41807067 -2.3993866 -0.37623343 0.717285 -2.6450498 1.5329143 0.7377302 -0.13626918 1.5163538 -1.5372751 -0.1846055 0.0036275452 0.51524746 -2.5668504 -2.0489178 2.8195603 -0.20512538 0.19260007 -3.163769 -0.8118414 0.022256015 0.41145086 3.0537589 0.28800753 -1.3909434 -0.5578619 2.4620428 2.026158 -2.1128006 -1.6766645 2.0634766 0.42256078 3.1906915 -2.0422783 -0.9618376 2.7610204 2.2848012 1.4875641 -1.0215026 0.2748905 -1.9039063 -1.2456316 -2.0065107 -2.6400902 -0.027505293 0.6026864 -0.3862532 0.9832106 1.1343348 2.2968378 0.8493868 2.0295572 -0.88606966 -1.1910709 -0.11593981 1.4537657 1.3124963 -2.1836603 -0.7690502 -1.9050804 3.119904 -0.6868131 0.1919689 2.769913 0.5953941 -1.7876407 1.5452064 1.1482505 1.8440849 -0.9936345 1.4922951 1.4172993 -1.7171493 0.3317888 1.5493488
*dt_1 -1.2814883 -1.4615338 -1.9923629 1.9123023 1.0723041 -0.47267473 -2.0503373 -0.7085983 -2.2342937 0.6966892 0.2726835 0.69368577 -1.0999007 -0.5237792 -0.5970954 -1.8521142 -0.015686592 1.9803283 -2.318486 -1.264874 -0.6354498 0.46872714 -0.9810308 0.63226384 1.7596352 -1.6017152 -1.776934 -2.4312215 0.15693678 -2.1902585 1.2340726 1.4998369 -1.3337398 -1.1531922 -0.39452687 0.42836177 -0.11738087 -1.8542093 -0.6870492 -0.21309963 -0.5663779 -1.2474866 0.40815797 -1.7586426 1.039658 -1.0031661 -0.12083321 -0.7801118 1.3350782 -1.3998827 -0.32971373 -0.25729322 -1.7717915 -1.9583527 -0.2956051 1.8552715 0.051429026 0.12517157 -1.4621023 2.2371826 0.36378965 2.0397582 0.8931881 -0.5681932 -0.10444772 -0.77601874 1.4502819 1.0108086 -0.83702093 -0.6526501 -1.8844396 -0.023702051 -1.8148481 -2.0597138 -1.8562824 0.850011 -0.9711485 -2.1611419 -0.039339226 0.33478984 1.5077425 1.1372944 -2.5052917 0.2815113 1.2501233 0.64449257 0.38742784 -1.2020664 1.01705 0.49265873 -1.543379 1.8340507 -1.787111 -1.7894505 -0.30402583 2.336867 0.7784614 -0.64549637 2.1809032 0.5733926 -1.6417278 0.022359366 -0.9894276 0.3131628 -1.5023249 -1.1341081 -0.40169612 2.2740457 1.1513866 -0.046531454 -0.19047242 -1.2617465 -0.39250734 -1.179192 2.352764 -1.9332564 -1.8459979 -0.42745873 0.84485376 1.7565548 1.7717729 1.8320503 -1.2141207 1.8824836 -2.2812452 0.34517953 -1.871519 -0.30805603 0.5622696 -2.0681126 1.1873218 0.5618271 -0.10213429 1.1868954 -1.1940053 -0.13849297 -0.026839994 0.3735793 -1.9901545 -1.5904583 2.182052 -0.15387212 0.1321892 -2.4303608 -0.64247745 -0.0016520036 0.2844858 2.368356 0.20311086 -1.041694 -0.44442382 1.9186692 1.5690961 -1.6069406 -1.3037263 1.5907606 0.3008361 2.490987 -1.6039721 -0.7367399 2.1558647 1.8097986 1.1358733 -0.7947449 0.25623068 -1.4546326 -0.96562815 -1.5821092 -2.051983 0.00059063046 0.43059483 -0.31905138 0.7356451 0.864071 1.8317604 0.6561245 1.5807011 -0.710607 -0.8999529 -0.04741992 1.1005899 0.9981955 -1.7193742 -0.5644912 -1.4926814 2.4314723 -0.56312925 0.16088422 2.1458507 0.43344158 -1.3936403 1.1860044 0.848797 1.4153044 -0.7884075 1.1796694 1.0768236 -1.3029578 0.2595873 1.1916775
*dt_2 -0.8668985 -0.98903275 -1.3575948 1.2942533 0.7091628 -0.31974345 -1.3954735 -0.46763405 -1.5141038 0.47088 0.19056244 0.4646907 -0.7330969 -0.34565467 -0.4079312 -1.2534215 -0.015410254 1.3470496 -1.5704496 -0.8501111 -0.4222126 0.32296723 -0.6636446 0.41357696 1.1914285 -1.0827316 -1.199273 -1.6446062 0.10810168 -1.4790374 0.846622 1.0272758 -0.9114325 -0.7645349 -0.25852782 0.29192382 -0.074253984 -1.2547235 -0.4597237 -0.13878359 -0.3971652 -0.84534955 0.2630692 -1.2011689 0.7000061 -0.6744214 -0.072896734 -0.53724414 0.90860844 -0.93941563 -0.21448472 -0.1771476 -1.192594 -1.3169472 -0.2014427 1.247064 0.039642837 0.076671615 -0.98927313 1.5148636 0.24937153 1.3684556 0.59737796 -0.37826246 -0.06783971 -0.5225962 0.98109275 0.68297756 -0.5637682 -0.44821343 -1.2616484 -0.02453731 -1.2275336 -1.395787 -1.259284 0.5856721 -0.6485476 -1.4680498 -0.025215529 0.2190314 1.0199994 0.76705986 -1.6970574 0.18307494 0.8537943 0.42248207 0.2607969 -0.81538606 0.6865111 0.33970225 -1.0358268 1.2372825 -1.1989654 -1.2175035 -0.2113868 1.5767049 0.52233684 -0.43095303 1.4628187 0.39043278 -1.1095902 0.0020731234 -0.6730875 0.21412708 -1.0096545 -0.75863457 -0.27267072 1.531948 0.7681562 -0.028046872 -0.13561398 -0.84078336 -0.26663435 -0.8068785 1.5855123 -1.3004717 -1.2582183 -0.2821625 0.5735879 1.1887361 1.2059298 1.2278445 -0.8269759 1.2649761 -1.5470958 0.22147098 -1.2719506 -0.21128859 0.37126663 -1.3959203 0.8114644 0.3761646 -0.06633332 0.8059861 -0.79939353 -0.08698897 -0.009675633 0.25065106 -1.3487111 -1.0757226 1.4768239 -0.1165829 0.09395316 -1.6555775 -0.43053514 0.006435339 0.20438954 1.593078 0.14106902 -0.711097 -0.29304913 1.2988566 1.0644078 -1.0993538 -0.8823646 1.0688 0.20271292 1.6898267 -1.0753222 -0.50362295 1.4660279 1.2143704 0.7637709 -0.5331539 0.16872795 -0.9872938 -0.6454874 -1.0666353 -1.3842263 0.0005143427 0.288978 -0.21199334 0.49595085 0.58023274 1.2377005 0.44443688 1.0649577 -0.4831467 -0.6132926 -0.033028994 0.7539687 0.6787931 -1.1511283 -0.3824741 -1.0162963 1.6498674 -0.3833016 0.099245206 1.4536663 0.3022119 -0.9444564 0.80434346 0.58125496 0.9530851 -0.5299957 0.78809315 0.7280788 -0.8895418 0.17018078 0.812389
*dt_3 -1.0112381 -1.1518595 -1.5847429 1.503231 0.8257218 -0.36273086 -1.6301674 -0.5568586 -1.7675389 0.5500942 0.23267187 0.53960174 -0.8528109 -0.39917594 -0.48463464 -1.4595435 -0.004107228 1.568306 -1.824839 -1.0012139 -0.48126134 0.36654294 -0.76978254 0.4833597 1.395502 -1.2710443 -1.3882561 -1.9118341 0.122667596 -1.7333281 0.9852389 1.190755 -1.0638279 -0.8921911 -0.29935062 0.32942376 -0.08170767 -1.4505571 -0.53452694 -0.1596356 -0.45563132 -0.991787 0.30605826 -1.3905714 0.81865716 -0.7944592 -0.09458542 -0.62868243 1.0692797 -1.0937498 -0.25492784 -0.20316026 -1.3850491 -1.539575 -0.22249925 1.4622341 0.039274067 0.09017712 -1.1644467 1.7660326 0.28461134 1.6075239 0.6955257 -0.44280115 -0.08492367 -0.6076027 1.1446477 0.7963795 -0.66269535 -0.5236674 -1.4683349 -0.032516025 -1.4274788 -1.6191918 -1.4649274 0.68429327 -0.7527628 -1.7047341 -0.024464292 0.26942632 1.1923094 0.8931386 -1.9724891 0.2195087 0.98440635 0.5018855 0.30074295 -0.9390625 0.7957251 0.38959533 -1.2129822 1.4543451 -1.4056444 -1.4236157 -0.24243069 1.8285164 0.6236507 -0.51410383 1.6994674 0.46744114 -1.2836692 0.011981829 -0.7891056 0.24138755 -1.1866183 -0.881149 -0.3089645 1.7813112 0.9002074 -0.039285097 -0.146092 -0.984784 -0.323613 -0.9454804 1.8450112 -1.5126015 -1.4703639 -0.32918406 0.6567982 1.3785543 1.3960761 1.4342809 -0.95265883 1.4642166 -1.7977893 0.2649014 -1.4792937 -0.23327287 0.44807482 -1.6325651 0.94676375 0.4456255 -0.08537479 0.9422151 -0.9298276 -0.103833966 -0.013899906 0.29440764 -1.5679127 -1.2585715 1.7299143 -0.1335763 0.113054425 -1.9322314 -0.5004995 0.006681829 0.23524798 1.8654455 0.15959336 -0.8251326 -0.3367677 1.503249 1.2352979 -1.2691504 -1.027734 1.249465 0.2394151 1.9549652 -1.2572321 -0.5823023 1.7066631 1.4069802 0.9058107 -0.61742014 0.19185473 -1.1572995 -0.7507672 -1.236032 -1.6104687 -0.00083906535 0.33340278 -0.23859559 0.58312815 0.6735766 1.4302893 0.526677 1.2480266 -0.54803085 -0.7193932 -0.04730043 0.87854767 0.7976764 -1.3384432 -0.4551349 -1.175334 1.9172338 -0.43863714 0.12741578 1.7035383 0.35062024 -1.1056659 0.9462167 0.67343503 1.1100401 -0.6084945 0.9233017 0.86057067 -1.0396876 0.21417837 0.9490026
*dt_4 -1.1222347 -1.2815144 -1.7532178 1.6755896 0.916263 -0.40244615 -1.8155289 -0.6144484 -1.9654824 0.60958344 0.2631079 0.6007461 -0.9437018 -0.45375878 -0.5400648 -1.6270629 -0.011361143 1.736561 -2.0265815 -1.1027977 -0.530453 0.4154381 -0.8735793 0.5463077 1.5530633 -1.4077214 -1.5610156 -2.1240344 0.13108234 -1.929713 1.0935758 1.3289211 -1.1892422 -0.9914289 -0.3397894 0.37436578 -0.093676575 -1.6278775 -0.59798235 -0.18426181 -0.5113953 -1.1027975 0.33654726 -1.5463961 0.91768277 -0.8700911 -0.09854982 -0.6903387 1.1732242 -1.2057314 -0.28547952 -0.23422301 -1.5535309 -1.7148116 -0.25185445 1.6281556 0.037124153 0.09540395 -1.2797968 1.9620388 0.32453552 1.7794313 0.7641135 -0.4876736 -0.088922 -0.680925 1.2695612 0.8743947 -0.7372728 -0.588035 -1.6436597 -0.037077382 -1.5979285 -1.799689 -1.6219715 0.7600632 -0.83857924 -1.8866315 -0.03407007 0.28816515 1.3187965 0.99777436 -2.1853378 0.25250506 1.107911 0.5598511 0.3411545 -1.0605146 0.9011174 0.44022107 -1.3505422 1.6189535 -1.5605454 -1.564444 -0.26004267 2.0345855 0.6826451 -0.55984086 1.8987387 0.50036037 -1.4274197 0.007025834 -0.87978035 0.26627943 -1.3209611 -0.9749685 -0.3453161 1.9795487 1.0012383 -0.04956368 -0.1724679 -1.0878524 -0.3624577 -1.0346102 2.061866 -1.6960478 -1.6248478 -0.3818217 0.7387998 1.5280209 1.5659069 1.5944132 -1.0542787 1.6394864 -1.9892467 0.29006925 -1.6441262 -0.26828173 0.48374343 -1.811572 1.0452816 0.49504244 -0.082505986 1.0512563 -1.0424881 -0.10580805 -0.0067582647 0.31916958 -1.7445035 -1.4041996 1.9210432 -0.13973616 0.11673844 -2.1333463 -0.5654448 0.016582133 0.25568795 2.073743 0.19136114 -0.9121134 -0.38421953 1.6763813 1.362412 -1.4129573 -1.1472601 1.3829093 0.26469088 2.1845498 -1.400908 -0.6564177 1.8875669 1.5687728 0.99294114 -0.7000666 0.21219653 -1.2786171 -0.83895546 -1.3716468 -1.7997032 0.006362475 0.38508323 -0.268704 0.63813746 0.7506459 1.5854527 0.58807653 1.3908203 -0.6181495 -0.7903945 -0.05424902 0.96886986 0.88627607 -1.4911338 -0.5004761 -1.3053194 2.139773 -0.48008806 0.13342324 1.8800933 0.39156944 -1.218208 1.0407335 0.7627056 1.2464699 -0.67497456 1.0235407 0.94182557 -1.1524668 0.21803755 1.0446522
*dt_0 -1.6096495 -1.855129 -2.6144497 2.4911249 1.3254046 -0.58230454 -2.690164 -0.9148565 -2.8966312 0.86989176 0.40995744 0.88580924 -1.3860672 -0.6630656 -0.78631485 -2.425081 -0.0042460933 2.5730746 -3.0036669 -1.6149274 -0.7686 0.6357235 -1.2968812 0.7800621 2.3047597 -2.090009 -2.2967818 -3.1475618 0.23338804 -2.8494256 1.6114279 1.9659985 -1.7708296 -1.4548528 -0.4831423 0.53721935 -0.11925975 -2.3868277 -0.89871436 -0.24468 -0.7640671 -1.6647614 0.49461883 -2.298065 1.3614502 -1.2833256 -0.1540275 -1.0465928 1.7577913 -1.7708939 -0.38744158 -0.30467764 -2.2683835 -2.5102205 -0.372265 2.38283 0.038401723 0.13889551 -1.8924105 2.8854709 0.4603135 2.5943103 1.1260649 -0.74350286 -0.1285553 -1.025622 1.8401679 1.248047 -1.0932566 -0.8714595 -2.3909814 -0.05971262 -2.350973 -2.6819017 -2.4137766 1.1033771 -1.2171043 -2.7741325 -0.022915008 0.44378442 1.9799793 1.4569821 -3.2280667 0.35465327 1.6432227 0.79444486 0.49739888 -1.5496218 1.3531718 0.62719375 -1.9615879 2.374625 -2.2827287 -2.3206143 -0.43587124 2.9848206 1.0226057 -0.8409497 2.7586458 0.76267624 -2.084364 -0.023961075 -1.2883805 0.37721255 -1.9389992 -1.4282435 -0.5223028 2.889368 1.4785346 -0.045180604 -0.24136753 -1.5830022 -0.5373356 -1.5465918 3.0188375 -2.4609847 -2.4198024 -0.5434325 1.0742645 2.2506402 2.3097534 2.332101 -1.5824459 2.3859065 -2.94845 0.41807067 -2.3993866 -0.37623343 0.717285 -2.6450498 1.5329143 0.7377302 -0.13626918 1.5163538 -1.5372751 -0.1846055 0.0036275452 0.51524746 -2.5668504 -2.0489178 2.8195603 -0.20512538 0.19260007 -3.163769 -0.8118414 0.022256015 0.41145086 3.0537589 0.28800753 -1.3909434 -0.5578619 2.4620428 2.026158 -2.1128006 -1.6766645 2.0634766 0.42256078 3.1906915 -2.0422783 -0.9618376 2.7610204 2.2848012 1.4875641 -1.0215026 0.2748905 -1.9039063 -1.2456316 -2.0065107 -2.6400902 -0.027505293 0.6026864 -0.3862532 0.9832106 1.1343348 2.2968378 0.8493868 2.0295572 -0.88606966 -1.1910709 -0.11593981 1.4537657 1.3124963 -2.1836603 -0.7690502 -1.9050804 3.119904 -0.6868131 0.1919689 2.769913 0.5953941 -1.7876407 1.5452064 1.1482505 1.8440849 -0.9936345 1.4922951 1.4172993 -1.7171493 0.3317888 1.5493488
*dt_1 -1.2814883 -1.4615338 -1.9923629 1.9123023 1.0723041 -0.47267473 -2.0503373 -0.7085983 -2.2342937 0.6966892 0.2726835 0.69368577 -1.0999007 -0.5237792 -0.5970954 -1.8521142 -0.015686592 1.9803283 -2.318486 -1.264874 -0.6354498 0.46872714 -0.9810308 0.63226384 1.7596352 -1.6017152 -1.776934 -2.4312215 0.15693678 -2.1902585 1.2340726 1.4998369 -1.3337398 -1.1531922 -0.39452687 0.42836177 -0.11738087 -1.8542093 -0.6870492 -0.21309963 -0.5663779 -1.2474866 0.40815797 -1.7586426 1.039658 -1.0031661 -0.12083321 -0.7801118 1.3350782 -1.3998827 -0.32971373 -0.25729322 -1.7717915 -1.9583527 -0.2956051 1.8552715 0.051429026 0.12517157 -1.4621023 2.2371826 0.36378965 2.0397582 0.8931881 -0.5681932 -0.10444772 -0.77601874 1.4502819 1.0108086 -0.83702093 -0.6526501 -1.8844396 -0.023702051 -1.8148481 -2.0597138 -1.8562824 0.850011 -0.9711485 -2.1611419 -0.039339226 0.33478984 1.5077425 1.1372944 -2.5052917 0.2815113 1.2501233 0.64449257 0.38742784 -1.2020664 1.01705 0.49265873 -1.543379 1.8340507 -1.787111 -1.7894505 -0.30402583 2.336867 0.7784614 -0.64549637 2.1809032 0.5733926 -1.6417278 0.022359366 -0.9894276 0.3131628 -1.5023249 -1.1341081 -0.40169612 2.2740457 1.1513866 -0.046531454 -0.19047242 -1.2617465 -0.39250734 -1.179192 2.352764 -1.9332564 -1.8459979 -0.42745873 0.84485376 1.7565548 1.7717729 1.8320503 -1.2141207 1.8824836 -2.2812452 0.34517953 -1.871519 -0.30805603 0.5622696 -2.0681126 1.1873218 0.5618271 -0.10213429 1.1868954 -1.1940053 -0.13849297 -0.026839994 0.3735793 -1.9901545 -1.5904583 2.182052 -0.15387212 0.1321892 -2.4303608 -0.64247745 -0.0016520036 0.2844858 2.368356 0.20311086 -1.041694 -0.44442382 1.9186692 1.5690961 -1.6069406 -1.3037263 1.5907606 0.3008361 2.490987 -1.6039721 -0.7367399 2.1558647 1.8097986 1.1358733 -0.7947449 0.25623068 -1.4546326 -0.96562815 -1.5821092 -2.051983 0.00059063046 0.43059483 -0.31905138 0.7356451 0.864071 1.8317604 0.6561245 1.5807011 -0.710607 -0.8999529 -0.04741992 1.1005899 0.9981955 -1.7193742 -0.5644912 -1.4926814 2.4314723 -0.56312925 0.16088422 2.1458507 0.43344158 -1.3936403 1.1860044 0.848797 1.4153044 -0.7884075 1.1796694 1.0768236 -1.3029578 0.2595873 1.1916775
*dt_2 -0.8668985 -0.98903275 -1.3575948 1.2942533 0.7091628 -0.31974345 -1.3954735 -0.46763405 -1.5141038 0.47088 0.19056244 0.4646907 -0.7330969 -0.34565467 -0.4079312 -1.2534215 -0.015410254 1.3470496 -1.5704496 -0.8501111 -0.4222126 0.32296723 -0.6636446 0.41357696 1.1914285 -1.0827316 -1.199273 -1.6446062 0.10810168 -1.4790374 0.846622 1.0272758 -0.9114325 -0.7645349 -0.25852782 0.29192382 -0.074253984 -1.2547235 -0.4597237 -0.13878359 -0.3971652 -0.84534955 0.2630692 -1.2011689 0.7000061 -0.6744214 -0.072896734 -0.53724414 0.90860844 -0.93941563 -0.21448472 -0.1771476 -1.192594 -1.3169472 -0.2014427 1.247064 0.039642837 0.076671615 -0.98927313 1.5148636 0.24937153 1.3684556 0.59737796 -0.37826246 -0.06783971 -0.5225962 0.98109275 0.68297756 -0.5637682 -0.44821343 -1.2616484 -0.02453731 -1.2275336 -1.395787 -1.259284 0.5856721 -0.6485476 -1.4680498 -0.025215529 0.2190314 1.0199994 0.76705986 -1.6970574 0.18307494 0.8537943 0.42248207 0.2607969 -0.81538606 0.6865111 0.33970225 -1.0358268 1.2372825 -1.1989654 -1.2175035 -0.2113868 1.5767049 0.52233684 -0.43095303 1.4628187 0.39043278 -1.1095902 0.0020731234 -0.6730875 0.21412708 -1.0096545 -0.75863457 -0.27267072 1.531948 0.7681562 -0.028046872 -0.13561398 -0.84078336 -0.26663435 -0.8068785 1.5855123 -1.3004717 -1.2582183 -0.2821625 0.5735879 1.1887361 1.2059298 1.2278445 -0.8269759 1.2649761 -1.5470958 0.22147098 -1.2719506 -0.21128859 0.37126663 -1.3959203 0.8114644 0.3761646 -0.06633332 0.8059861 -0.79939353 -0.08698897 -0.009675633 0.25065106 -1.3487111 -1.0757226 1.4768239 -0.1165829 0.09395316 -1.6555775 -0.43053514 0.006435339 0.20438954 1.593078 0.14106902 -0.711097 -0.29304913 1.2988566 1.0644078 -1.0993538 -0.8823646 1.0688 0.20271292 1.6898267 -1.0753222 -0.50362295 1.4660279 1.2143704 0.7637709 -0.5331539 0.16872795 -0.9872938 -0.6454874 -1.0666353 -1.3842263 0.0005143427 0.288978 -0.21199334 0.49595085 0.58023274 1.2377005 0.44443688 1.0649577 -0.4831467 -0.6132926 -0.033028994 0.7539687 0.6787931 -1.1511283 -0.3824741 -1.0162963 1.6498674 -0.3833016 0.099245206 1.4536663 0.3022119 -0.9444564 0.80434346 0.58125496 0.9530851 -0.5299957 0.78809315 0.7280788 -0.8895418 0.17018078 0.812389
*dt_3 -1.0112381 -1.1518595 -1.5847429 1.503231 0.8257218 -0.36273086 -1.6301674 -0.5568586 -1.7675389 0.5500942 0.23267187 0.53960174 -0.8528109 -0.39917594 -0.48463464 -1.4595435 -0.004107228 1.568306 -1.824839 -1.0012139 -0.48126134 0.36654294 -0.76978254 0.4833597 1.395502 -1.2710443 -1.3882561 -1.9118341 0.122667596 -1.7333281 0.9852389 1.190755 -1.0638279 -0.8921911 -0.29935062 0.32942376 -0.08170767 -1.4505571 -0.53452694 -0.1596356 -0.45563132 -0.991787 0.30605826 -1.3905714 0.81865716 -0.7944592 -0.09458542 -0.62868243 1.0692797 -1.0937498 -0.25492784 -0.20316026 -1.3850491 -1.539575 -0.22249925 1.4622341 0.039274067 0.09017712 -1.1644467 1.7660326 0.28461134 1.6075239 0.6955257 -0.44280115 -0.08492367 -0.6076027 1.1446477 0.7963795 -0.66269535 -0.5236674 -1.4683349 -0.032516025 -1.4274788 -1.6191918 -1.4649274 0.68429327 -0.7527628 -1.7047341 -0.024464292 0.26942632 1.1923094 0.8931386 -1.9724891 0.2195087 0.98440635 0.5018855 0.30074295 -0.9390625 0.7957251 0.38959533 -1.2129822 1.4543451 -1.4056444 -1.4236157 -0.24243069 1.8285164 0.6236507 -0.51410383 1.6994674 0.46744114 -1.2836692 0.011981829 -0.7891056 0.24138755 -1.1866183 -0.881149 -0.3089645 1.7813112 0.9002074 -0.039285097 -0.146092 -0.984784 -0.323613 -0.9454804 1.8450112 -1.5126015 -1.4703639 -0.32918406 0.6567982 1.3785543 1.3960761 1.4342809 -0.95265883 1.4642166 -1.7977893 0.2649014 -1.4792937 -0.23327287 0.44807482 -1.6325651 0.94676375 0.4456255 -0.08537479 0.9422151 -0.9298276 -0.103833966 -0.013899906 0.29440764 -1.5679127 -1.2585715 1.7299143 -0.1335763 0.113054425 -1.9322314 -0.5004995 0.006681829 0.23524798 1.8654455 0.15959336 -0.8251326 -0.3367677 1.503249 1.2352979 -1.2691504 -1.027734 1.249465 0.2394151 1.9549652 -1.2572321 -0.5823023 1.7066631 1.4069802 0.9058107 -0.61742014 0.19185473 -1.1572995 -0.7507672 -1.236032 -1.6104687 -0.00083906535 0.33340278 -0.23859559 0.58312815 0.6735766 1.4302893 0.526677 1.2480266 -0.54803085 -0.7193932 -0.04730043 0.87854767 0.7976764 -1.3384432 -0.4551349 -1.175334 1.9172338 -0.43863714 0.12741578 1.7035383 0.35062024 -1.1056659 0.9462167 0.67343503 1.1100401 -0.6084945 0.9233017 0.86057067 -1.0396876 0.21417837 0.9490026
*dt_4 -1.1222347 -1.2815144 -1.7532178 1.6755896 0.916263 -0.40244615 -1.8155289 -0.6144484 -1.9654824 0.60958344 0.2631079 0.6007461 -0.9437018 -0.45375878 -0.5400648 -1.6270629 -0.011361143 1.736561 -2.0265815 -1.1027977 -0.530453 0.4154381 -0.8735793 0.5463077 1.5530633 -1.4077214 -1.5610156 -2.1240344 0.13108234 -1.929713 1.0935758 1.3289211 -1.1892422 -0.9914289 -0.3397894 0.37436578 -0.093676575 -1.6278775 -0.59798235 -0.18426181 -0.5113953 -1.1027975 0.33654726 -1.5463961 0.91768277 -0.8700911 -0.09854982 -0.6903387 1.1732242 -1.2057314 -0.28547952 -0.23422301 -1.5535309 -1.7148116 -0.25185445 1.6281556 0.037124153 0.09540395 -1.2797968 1.9620388 0.32453552 1.7794313 0.7641135 -0.4876736 -0.088922 -0.680925 1.2695612 0.8743947 -0.7372728 -0.588035 -1.6436597 -0.037077382 -1.5979285 -1.799689 -1.6219715 0.7600632 -0.83857924 -1.8866315 -0.03407007 0.28816515 1.3187965 0.99777436 -2.1853378 0.25250506 1.107911 0.5598511 0.3411545 -1.0605146 0.9011174 0.44022107 -1.3505422 1.6189535 -1.5605454 -1.564444 -0.26004267 2.0345855 0.6826451 -0.55984086 1.8987387 0.50036037 -1.4274197 0.007025834 -0.87978035 0.26627943 -1.3209611 -0.9749685 -0.3453161 1.9795487 1.0012383 -0.04956368 -0.1724679 -1.0878524 -0.3624577 -1.0346102 2.061866 -1.6960478 -1.6248478 -0.3818217 0.7387998 1.5280209 1.5659069 1.5944132 -1.0542787 1.6394864 -1.9892467 0.29006925 -1.6441262 -0.26828173 0.48374343 -1.811572 1.0452816 0.49504244 -0.082505986 1.0512563 -1.0424881 -0.10580805 -0.0067582647 0.31916958 -1.7445035 -1.4041996 1.9210432 -0.13973616 0.11673844 -2.1333463 -0.5654448 0.016582133 0.25568795 2.073743 0.19136114 -0.9121134 -0.38421953 1.6763813 1.362412 -1.4129573 -1.1472601 1.3829093 0.26469088 2.1845498 -1.400908 -0.6564177 1.8875669 1.5687728 0.99294114 -0.7000666 0.21219653 -1.2786171 -0.83895546 -1.3716468 -1.7997032 0.006362475 0.38508323 -0.268704 0.63813746 0.7506459 1.5854527 0.58807653 1.3908203 -0.6181495 -0.7903945 -0.05424902 0.96886986 0.88627607 -1.4911338 -0.5004761 -1.3053194 2.139773 -0.48008806 0.13342324 1.8800933 0.39156944 -1.218208 1.0407335 0.7627056 1.2464699 -0.67497456 1.0235407 0.94182557 -1.1524668 0.21803755 1.0446522
