21 200
*dt_0 -23.219948 16.765453 -11.757945 8.591242 1.4048293 11.254422 0.3327458 -12.80005 6.407948 -6.729087 6.288676 -11.871379 5.225714 3.0058324 -3.8924515 4.32286 -26.572708 -11.899763 -26.107178 9.744788 6.1184916 -7.9017353 1.7685517 -4.1812057 24.695278 17.581211 4.072774 -0.7496768 0.34783512 -30.878769 -12.961681 3.6890266 17.047632 15.525303 7.9405055 24.806822 0.74412036 9.636882 -2.8517587 -12.85707 18.028088 11.9559 -5.92939 4.390903 -11.294477 13.36463 -4.3422804 11.462806 -23.429632 3.1310744 -6.578695 -15.728813 -3.4599166 2.9520817 -8.071808 26.786413 -16.361551 -8.465288 3.0419078 -9.603559 3.2407472 4.9742913 21.409536 12.003659 8.793392 -1.7740821 14.93251 5.805972 7.104603 -5.8584657 -12.111225 15.043462 -23.833889 -28.538061 -10.8210335 9.739163 5.5219264 -2.6235044 -0.75768745 -7.4775043 0.0651054 -11.953666 16.354723 -5.440009 -18.807478 7.4303226 -16.076344 1.9973376 -1.7356162 9.305257 -9.810437 -6.136339 -17.86371 3.08659 5.2856026 -13.218727 -14.198316 -3.550185 22.577341 -11.353179 0.6216765 -9.58112 -29.711094 7.47216 -14.413941 2.738058 9.270139 22.84291 -13.244413 12.06187 -0.10225478 -11.312898 8.058095 9.674527 1.0662049 -3.323982 -0.51436734 19.691578 14.651046 19.872227 22.307137 4.578588 4.7065024 19.56314 -3.1466904 10.388884 -17.91619 -4.1627164 22.114079 -21.973005 15.543975 1.2696044 -5.0709877 8.078865 -23.557394 1.4903063 -11.599722 7.8439155 2.5004606 16.6351 15.615206 15.52742 -13.051799 -15.6357765 5.447927 -3.5555642 5.6686134 13.918337 -6.0836363 0.81361425 -5.463436 -3.8669567 -21.022522 21.20197 13.41169 -8.159906 -18.711824 6.999943 5.4119043 10.929022 9.845851 -5.385907 -7.9375033 2.4166439 11.921257 6.574774 1.7003089 -11.183565 1.4838771 -27.034983 5.405089 -21.340319 5.9087243 6.456517 -9.225945 7.199357 9.009201 -3.6385653 -12.455831 0.028713949 2.115181 4.7384367 -8.987422 -2.2471268 4.465923 0.8249461 20.005081 10.287172 -12.298644 -14.398729 -11.493141 -6.7076592 -15.302872 1.9724505 2.7711866 6.4422035 -13.235308 16.690737 -0.5075911 2.2195578
*dt_1 -18.65173 5.440991 -21.011591 3.607356 -1.5325 11.920097 -13.076405 -6.5827775 13.953083 -5.55578 11.941339 -18.73223 -3.581507 5.863229 -9.702424 -5.0490093 -11.827191 -6.3451424 -1.8773623 -2.2355995 12.855493 -13.956665 -9.575512 -14.497771 16.02043 13.980716 14.308131 0.4702946 -4.8109303 -33.612583 -9.113891 11.666823 -3.5447445 28.57587 6.961266 19.575748 16.901382 12.268182 -3.49546 13.334885 0.7034879 -4.846469 -18.15499 7.1874943 -0.4592876 12.241812 9.778586 14.409713 -14.98889 20.117662 -2.3637636 -9.269391 -4.6826196 -0.64965796 -8.165754 27.507896 -5.9725323 -15.096975 15.780154 -4.451932 2.0118916 11.159943 21.654179 -0.36303455 17.315517 -11.123457 20.415274 3.537499 2.6998022 -6.6603765 -10.311976 7.9415946 -30.475754 -27.2985 -18.761684 17.899496 1.9004089 -0.21794976 -4.1265006 -11.267374 13.343138 -11.329147 10.272086 5.943327 -9.980412 -4.885164 -4.080336 0.98099744 9.689912 14.286538 -13.203345 10.298388 -19.903292 2.1911826 -0.34230375 -18.136137 -1.3949784 -0.53491545 14.104222 -13.487615 -6.7067637 -13.594443 -24.076536 -10.316024 -18.486124 17.425253 -8.166629 10.39137 7.816774 13.825393 -4.471939 -6.9743137 22.957678 -10.040684 3.7611737 -4.702896 -10.737698 17.334984 11.817878 16.601639 13.85369 5.88822 -7.6162987 12.775774 -5.6243477 -4.3689156 -15.115349 -0.9576977 12.480851 -23.29424 22.128044 12.036317 -6.1315503 9.328887 -6.4671946 10.964297 -14.585215 1.8137941 -4.117288 -0.60697 20.837618 23.733994 -6.065451 -12.606932 -1.3669308 -5.336103 -2.5746222 5.7932363 6.3533473 6.0415673 -7.645149 -7.8013477 -14.085667 6.835896 13.749087 -20.879877 -8.188044 7.902476 7.2009015 0.0029583438 9.851342 -4.3020287 -17.824244 4.063743 0.98073745 -4.9118085 -1.2390789 -6.3304796 -1.5888698 -12.9358835 -3.1970713 -9.939611 -4.3519797 1.8423476 -11.262787 17.01117 3.066682 -4.398266 -22.733524 -4.604739 13.015193 -3.4267683 12.653696 -11.646327 2.218691 -5.3064055 19.094564 2.3945189 -7.213843 2.8458862 -22.30522 -12.745323 -0.46858695 6.715011 18.424889 16.302698 -11.208172 1.5175778 -21.92087 -0.24681933
*dt_2 -19.924974 16.730442 -20.60927 9.419948 -1.4504124 6.692108 -1.6404746 -13.981451 -6.9121 -13.163147 8.173013 -5.5085444 -3.6697268 -6.133781 -6.8909726 -4.614815 -18.738861 -10.100984 -18.418169 6.286296 5.4084344 -3.9637394 -2.7685044 0.8918019 17.923729 3.4140863 1.5113692 -5.295451 -1.1571469 -33.234055 -9.059378 12.99914 9.272214 9.806801 7.0609426 13.230115 5.222311 21.98721 -5.539175 -5.008076 8.447424 7.9482307 -12.265273 9.645634 -10.12264 6.2121377 -4.0090833 17.130669 -17.017912 4.0655584 -2.0964437 -10.0958605 -11.948275 -2.919046 -5.903868 26.008562 -7.8130817 -6.0023994 -7.292935 -2.7246454 0.5123224 13.022519 23.996723 7.3176346 6.578103 2.6341 17.125158 3.7925453 2.7539592 -9.72255 -15.388744 15.829997 -29.488564 -34.369507 -22.300665 12.887911 9.836355 -2.0117655 -9.287441 3.0991986 5.6830587 -0.55494577 14.68268 1.6371567 -7.161461 -0.50285006 -6.410635 6.523272 2.651761 5.0276403 -15.382764 0.22335017 -28.232756 -6.904029 -3.6476555 -14.650069 -3.5651853 -9.124707 24.054684 -13.595715 1.6203439 -6.3282194 -32.209957 9.741311 -10.808075 14.040686 1.3696826 19.874598 5.673933 8.9924345 -4.5210633 -18.538824 19.038782 5.384276 4.8044243 -5.810796 -1.188209 17.406734 15.541767 24.896307 17.949402 -4.614941 0.38967347 10.341234 0.6025127 2.1855376 -18.717213 3.2177563 15.740877 -16.045536 18.972198 9.235655 -5.2565393 17.436018 -19.164545 7.2703443 -8.769058 2.7377186 0.82838607 3.1807323 21.043535 22.78191 -6.6139116 -19.61137 -0.7926316 -11.978289 8.472302 23.319803 1.4283919 3.5766344 -6.9564548 -4.368438 -13.339645 16.375648 2.6467154 -13.182508 -8.192951 12.022795 4.883644 5.2655773 7.3957424 -8.924932 -13.775913 5.665921 17.952778 0.013527513 -2.5692177 -6.9345636 3.7461796 -19.968855 10.113997 -9.420601 1.1878265 2.250298 -5.072708 12.317593 8.923588 -7.2298665 -16.339016 -8.223695 11.229176 3.764396 -5.5206795 0.44916487 0.8997711 1.1157486 17.022062 -0.10963392 -6.3828583 -6.7034 -15.878815 1.9330559 -9.913911 -1.0858773 -1.785712 10.133985 -2.552814 8.371885 -5.0991354 3.6541963
*dt_3 -21.389189 16.078617 -18.099241 8.120248 2.7537768 1.3517668 -8.695168 -6.190054 2.1626704 -10.9276495 17.003157 -2.7178843 -4.5931616 -0.32006487 -2.5185106 -5.515168 -14.917115 -1.2588277 -17.04198 4.3267035 8.974671 -6.4399676 -9.563289 -4.998184 14.540106 5.466355 9.890356 -10.902687 -10.631067 -36.72817 -7.8417115 10.85291 -1.1269777 14.197904 12.302265 15.023919 18.527985 13.815399 0.24820057 2.0984929 6.5309963 5.7085533 -5.549819 13.93283 -4.13627 23.842531 3.4825575 9.551227 -13.58745 11.286442 -1.1472301 -3.3731441 3.8298523 -0.0035446621 -12.165123 37.388508 -2.163318 -10.860691 9.242466 -0.4416376 9.580235 12.2394 29.2567 3.221868 6.7835717 -1.5320765 24.785208 -4.03199 0.9678657 -11.845051 -16.222994 16.75199 -36.654552 -30.519173 -20.460566 8.829088 3.3101416 0.30303666 -11.768283 -2.4903922 11.409202 2.7285836 17.382895 5.712117 0.9205028 -2.9616318 -0.28879905 -5.936968 17.40639 9.595348 -11.383659 6.90561 -25.661713 -3.0203407 -11.990172 -17.578856 -18.195454 -15.487733 21.745493 -22.092623 -5.5802383 -6.6802645 -37.53983 -0.8274159 -6.680437 17.584797 -5.4825783 15.300472 9.230291 13.3063545 -1.0024135 -14.847114 22.581533 -1.2040497 8.671604 -6.743428 -8.394814 24.119003 16.1776 21.344444 27.264475 3.3115788 -10.736502 12.334561 -12.586187 -5.736532 -28.867823 -2.8359137 5.0267277 -8.286195 21.9798 16.446632 -5.97886 7.096092 -17.137161 17.701143 -9.290822 -0.20374255 2.4702942 -1.3326297 15.984354 22.397736 8.149383 -15.152395 6.851059 -11.420726 8.833305 10.672872 0.15549646 12.026763 -8.970997 -7.298908 -4.302702 7.3303623 10.265163 -23.042557 -12.706135 17.855919 7.336645 6.5789857 12.045853 -3.9815881 -28.673153 -1.1272645 6.617521 -17.235672 -11.632385 -0.28903654 0.75503075 -15.589638 8.976907 -10.090141 -8.598562 3.6137109 -11.335292 20.800068 13.376592 -7.8957763 -32.62856 -2.2024696 16.672594 2.172186 0.8375652 -4.431921 -9.054902 0.6189905 17.66984 -1.343881 -2.6601608 1.4194118 -23.4652 -4.392966 -11.224223 4.7866817 5.4728527 9.232703 -14.440453 -5.5782833 -23.582523 9.27655
*dt_4 -26.044167 10.910753 -19.049063 12.439562 3.8558547 9.8948555 -3.2502599 -5.9591017 1.7922516 -10.779173 11.228705 -11.346145 -5.851883 -1.8471999 -4.387393 -2.4227746 -14.690238 -2.1010323 -19.935122 5.5277076 2.5433538 -3.5914168 -4.245402 -1.0693437 19.154133 3.6858013 4.6946793 -2.2336826 -5.694758 -35.414997 -11.690498 11.436839 7.032041 16.612661 6.692011 23.138905 8.368937 18.32334 -4.1510315 -1.5568929 7.8454123 6.9602966 -5.8895593 8.828975 -4.0698395 17.474901 -4.980676 5.0842547 -12.882916 11.266006 -1.8468735 -10.292425 -5.7534404 -3.863319 -9.265915 29.965708 -5.519023 -11.84709 2.7583628 -6.371368 -0.8635482 8.019827 25.527927 2.3320603 5.963613 6.4619617 18.42815 -4.1705766 0.32304424 -1.7377918 -19.91258 7.6928625 -45.11819 -34.151306 -19.198063 7.801102 11.308968 1.6411605 -12.903331 -0.63436854 10.563961 3.4421074 11.6965475 0.09533787 -10.14519 -0.5759176 -1.1996 0.6400931 1.0507613 10.742546 -7.9930577 -0.03975904 -28.684145 -1.5844054 0.11027138 -15.510958 -7.655501 -8.747638 24.542046 -16.755047 -7.567411 -11.072268 -26.272192 1.0604843 -11.713014 18.653978 7.448387 21.54167 7.8058558 9.320972 -3.5648324 -10.686963 20.609388 8.833176 3.44656 -8.299889 2.8367624 19.484596 18.722298 19.065994 19.78002 5.858315 0.6049122 21.138021 -6.2929893 9.120974 -19.603958 -4.0062056 12.247573 -18.658493 19.412436 7.58199 -3.587959 12.765538 -12.605267 6.9407716 -10.762138 5.1958647 0.031337008 6.5609493 19.129269 23.673758 -4.3280835 -20.126562 0.9410598 -9.386725 1.0334007 13.974427 -0.16723035 5.1577873 -15.861374 -8.501021 -16.592533 12.131922 12.540791 -20.73939 -8.4526005 9.61133 5.1517625 6.4210305 9.051307 -1.5783515 -18.23396 5.0107183 8.613943 0.96857315 -1.3840431 -7.460874 -0.5264594 -15.746226 6.9835696 -20.313675 1.556379 0.3630977 -10.910215 17.22976 12.52181 -3.7132442 -22.378065 -5.937961 9.051482 -0.5395276 0.64808595 -4.856301 0.30458748 1.1937315 14.888908 5.2722754 -13.774781 -6.9736795 -22.463877 -3.116662 -5.3839054 1.569975 -2.3954895 9.175107 -6.258556 -1.9303946 -12.049312 4.587008
*dt_5 -45.54336 13.841256 -19.388302 1.3718807 -4.4522214 9.879828 -6.8758845 -12.898997 7.184305 -20.208021 25.85557 -7.679945 -7.52066 -9.250239 -12.759889 -4.613646 -27.133669 6.905014 -22.912327 0.93772674 17.38686 -21.553879 -14.44247 -8.030073 18.931015 13.668703 6.2867064 -5.0428233 -16.30411 -58.69884 -6.64231 16.108591 -5.7567425 34.375896 20.122988 37.617493 16.855303 11.3462105 -3.42025 6.771646 6.230578 9.495576 -9.374822 16.56977 -8.229735 31.751724 11.854516 1.8654999 -28.031208 21.255444 2.5096142 -6.985923 3.5721188 -10.680177 -19.999538 55.88573 -10.551705 -21.006617 21.14548 -5.844764 12.378001 9.892497 52.973103 3.428975 20.265232 3.3223355 39.93694 -9.092839 -10.287269 -10.770821 -14.814991 6.9713974 -51.24651 -44.079987 -35.93324 16.5494 15.6250925 0.6038412 -19.491877 -1.4617379 17.782013 0.29991642 22.80853 8.258951 0.32310453 1.7552513 -2.5002456 -13.63092 18.214123 21.679955 -10.94989 -0.4723652 -39.272003 -9.973211 -0.10453402 -26.549515 -16.292854 -13.818345 33.711227 -33.613636 -19.05592 -16.718168 -59.398113 -7.277196 -24.501299 23.146393 -4.9762506 23.92615 -0.3137954 12.564663 -16.380527 -12.541892 29.490385 0.17181805 19.142239 -16.65756 -5.2426434 29.077179 20.109735 28.98992 36.01232 7.9147677 -20.626078 31.888943 -27.820698 -8.714181 -53.722755 -14.398852 6.250873 -25.92345 40.127678 21.930798 -4.5209727 14.943115 -18.486576 12.503465 -16.201536 7.6139483 -0.8894829 9.694043 25.069653 35.643505 2.8005695 -17.824928 1.9932592 -15.573258 8.85992 18.788107 -3.5374305 21.43498 -23.748629 -7.897232 -15.875849 10.679832 15.545131 -30.887009 -24.602896 23.495127 10.525014 8.670463 21.455235 -5.48957 -37.375275 6.85877 8.004947 -19.262049 -1.5504515 4.65807 -6.452156 -16.705938 7.8909984 -6.7015796 -10.795837 -2.2511253 -8.878519 24.207478 23.523092 -16.534649 -51.46984 -11.856159 21.552183 -4.4247723 4.7229896 -14.898454 -6.2459493 -3.650362 27.870161 8.730919 -4.76271 -2.0230227 -30.919436 -12.496412 -13.127267 16.95572 -0.18108574 4.289801 -24.721537 0.66978055 -23.868736 8.632407
*dt_6 -42.164867 7.9652042 -15.927903 9.1362095 11.636511 5.3583446 -8.629992 -11.581943 -1.2524209 -11.613806 22.211548 -8.811053 -3.4081385 -9.685551 -14.479378 -15.589332 -26.727997 3.5223832 -24.511803 7.7872334 14.048315 -9.470704 -15.605499 -7.949426 23.813808 6.112308 13.684053 -13.388019 -1.535514 -60.04262 -13.496628 12.865511 -6.24133 17.357412 15.885066 33.257126 18.69617 16.51881 -4.3355846 7.730794 11.308433 5.9855504 -12.75616 9.728935 -5.7658334 26.15726 7.010387 5.926308 -23.911814 11.735942 -1.8444363 -11.126307 0.6976983 -4.2464 -5.5247016 57.97046 -11.693142 -17.31763 8.885666 -10.805648 9.98249 16.549921 42.51329 5.3522334 14.186424 -2.8940973 34.54662 -3.221969 -1.9921556 -7.1951585 -20.862892 12.610375 -51.05668 -44.251465 -33.568027 16.850668 8.577121 5.333715 -13.423658 1.6055536 18.333681 -1.1796265 28.07198 7.113084 -7.293095 0.1830594 -8.925033 -5.058906 26.767439 17.102146 -11.0353565 5.91434 -34.547043 -11.736758 -6.6563087 -27.44928 -21.12227 -11.995337 27.68378 -28.144428 -10.153196 -16.36236 -54.008904 3.0472677 -16.454645 18.261923 -7.0918236 23.755598 3.5948825 19.002943 -1.4585054 -11.57565 19.375105 -0.45779794 17.898623 -10.421721 -4.4153404 31.97977 14.691869 31.667664 30.734524 0.09606115 -12.558022 25.472801 -18.555243 -9.515561 -50.732727 -11.877149 7.336106 -22.302517 36.87215 20.564632 -6.445383 22.064804 -24.877537 7.7254515 -15.583763 -3.4794948 0.39442113 0.63630044 28.052246 31.919752 4.8768797 -22.569065 8.308106 -8.710862 1.619555 26.438984 -0.016961694 15.633016 -7.6011524 -11.026229 -13.9803915 9.018705 16.382399 -26.82161 -16.552023 25.329718 11.343917 5.529861 22.374796 -2.3271964 -36.87237 6.366797 14.034817 -10.764193 -10.987997 -1.8682379 -0.8848567 -19.659143 11.457993 -13.140272 -4.272213 4.4761868 -11.139834 25.010986 17.075861 -8.230483 -40.38478 -18.038853 20.525688 -1.0903511 0.27010626 -9.305947 -9.595553 2.5220876 27.056597 0.84890497 -1.5254378 8.389584 -28.47736 -5.504212 -14.678559 8.228775 -1.4821696 8.910151 -12.182849 -2.9040887 -24.555155 2.387292
*dt_7 -38.849365 20.867311 -23.213526 5.029366 -4.672723 3.72301 -14.485711 -13.644603 2.1955733 -19.329498 14.907089 -4.9078674 -14.116898 -3.8668127 -10.452901 -1.0985777 -30.903162 2.4868832 -26.042467 16.390272 9.79233 -10.773323 -9.830896 -13.515258 20.5827 14.811027 9.823649 -7.405499 -2.0454693 -46.99623 -13.650143 13.196793 2.5838778 17.288553 19.047352 23.67361 16.778316 15.340972 -11.582935 0.61143804 5.815839 7.620463 -8.781511 10.816202 -6.785061 27.966545 -0.38869193 3.8537762 -16.49671 18.351414 -6.231308 -14.635959 -1.0787604 -6.113811 -20.211216 43.677635 -6.584152 -16.224497 3.6254964 2.5358262 5.25341 10.6508255 41.46882 7.9084277 13.4873705 5.1530285 30.306479 -9.765713 -6.2515903 -16.25754 -12.999632 11.071441 -47.15865 -44.733875 -32.393593 16.014158 4.3313756 -1.3601995 -10.09272 7.563093 13.52725 0.22946955 26.41804 8.447972 -6.0057178 -10.042312 -1.2571831 -1.679685 6.7028365 10.570802 -11.65192 1.7200032 -44.241962 -14.768414 -8.47257 -22.942314 -17.528328 -14.503041 27.163816 -23.32316 -3.4198616 -11.547106 -59.215828 1.9526533 -14.579446 27.159908 2.0401886 26.41187 3.1714878 8.660819 2.014701 -6.7344985 22.368149 -2.3090343 14.828294 -8.412838 -6.813863 29.494047 18.809525 30.969286 33.805687 3.3714125 -5.7182407 30.000866 -19.1701 -1.7346847 -46.665085 -4.5843925 8.423827 -16.12787 33.977646 20.901867 -12.432334 16.418175 -25.394342 18.742262 -7.3397827 9.764974 -2.0860643 -5.6565604 18.160906 27.827782 13.694939 -29.770792 8.481391 -14.011188 7.4027476 23.668797 -10.665887 16.430054 -14.774324 -14.59942 -12.071103 11.454928 13.844908 -32.673023 -20.800182 21.772358 -2.058748 3.950134 20.848356 -7.562689 -32.1865 10.804147 10.570772 -11.718613 -7.3695908 -1.3142666 4.8669558 -23.118021 8.524769 -13.994005 -7.5150175 2.2065475 -13.022659 31.891474 23.610104 -14.056798 -33.472843 -7.7147603 18.104301 1.1311297 -0.8137089 -4.0536604 -0.57210535 -1.7600133 32.547894 20.577854 1.0147611 3.1043365 -31.696602 -6.268564 -9.297138 11.071361 3.39434 7.9666867 -14.669286 -6.197134 -25.618992 1.9155285
*dt_8 -49.57441 -0.17886361 -14.242687 -4.3664064 -2.2184918 4.8029785 -1.7839286 -17.093933 -0.6018615 -11.094304 23.927496 2.1741328 -16.486116 3.394303 -24.07607 -4.4839706 -26.961277 17.309574 -21.862211 4.6445055 15.63892 -13.244102 -21.493267 -10.0137 26.08294 12.694757 16.777536 -15.42464 -10.143833 -59.16687 -17.725122 18.523932 -9.9644 14.647321 10.0615 33.135303 18.655426 -1.1986382 0.018983971 1.8878645 3.8231964 14.14511 -12.825085 8.412846 -13.338011 23.894005 13.750463 1.3264378 -20.809315 12.647046 4.145408 -7.1444597 1.6865569 -2.899549 -8.464356 42.110867 -7.3381314 -9.304927 11.919821 -4.4418273 13.709758 3.3502758 37.845234 -7.5621777 12.667853 2.239497 33.241135 0.09726227 -8.238885 -6.4715514 -17.722439 8.59482 -40.002983 -38.94262 -35.10121 12.361691 1.370434 0.83353275 -10.773943 1.4628352 19.591303 -4.2919793 26.229689 -0.11018058 -0.9290767 1.0098486 -0.6631678 -12.111699 22.654356 19.449457 -17.586788 10.411232 -31.653706 -9.461612 -8.068429 -19.986788 -16.559128 -7.6829176 29.949495 -22.41784 -8.522124 -18.216818 -57.11991 -1.9977516 -3.391097 25.745594 -0.33484733 21.90941 1.1014235 8.087002 -8.942791 -15.961894 21.57352 -1.8064228 11.422721 -6.8098288 -7.515184 26.884727 5.487833 23.158413 35.1375 5.914593 -7.6379004 18.920792 -22.81675 -5.406131 -45.0375 -15.563854 2.5788941 -28.584574 37.4305 20.833044 -9.7118025 17.107405 -22.291903 19.295282 -16.822403 -2.1791945 -4.2029634 -1.7072427 28.190842 20.984503 14.768384 -18.773335 6.5352373 -18.364864 13.424156 14.125122 -3.7186596 14.801004 -5.6514745 -2.0248392 -17.986704 4.552726 27.729853 -22.380503 -25.839336 18.491556 8.93898 11.665635 19.286926 -1.2252219 -27.247002 2.9318674 -0.13585879 -16.804075 0.04251561 -1.1961639 1.5048369 -15.943903 12.174959 -14.789106 -13.960729 -5.093013 -11.151905 12.941572 21.105238 -3.7474473 -45.61316 -11.835229 16.700802 -6.6309094 -5.814704 -6.245392 -13.443586 3.6133895 31.86369 13.498093 -7.6533856 -5.777457 -22.009628 -8.770708 -3.7850935 12.208681 2.7317462 8.822479 -17.510723 4.4704113 -17.329424 5.533312
*dt_9 -44.180637 10.805347 -15.601286 -7.019809 -1.1881738 4.532242 5.3985233 -37.10653 -2.2965894 -20.681793 27.573853 -5.3354425 0.09099085 0.17098148 -19.432768 0.16679806 -30.682358 -8.521495 -23.076164 -3.710197 20.1679 -14.168885 -16.55463 -7.0430346 24.734863 20.009258 11.55955 -13.625373 -3.608806 -48.260056 -10.032877 16.379143 9.976837 7.7085395 8.361028 27.210754 1.1252406 -3.8781936 -10.254904 6.0477033 17.71019 3.1235785 -14.8247 7.9088035 -22.182066 18.024427 16.534468 1.0653255 -34.868523 -4.8278775 -6.5858345 -7.0666213 6.053349 -7.7210093 -3.0822785 48.56593 -21.686382 -4.4560003 2.423815 -16.309662 15.362177 14.621341 44.509777 -2.9982255 15.50724 -13.76022 35.556873 9.445716 -4.3252964 -13.654088 -10.199897 24.04383 -24.75555 -39.411926 -47.36796 13.570766 7.50698 2.1302812 -8.784512 -1.1196623 8.73878 -6.3992696 31.355556 -2.538466 -6.8440228 11.834031 -7.0533395 -9.372793 24.555521 22.679575 -22.038315 10.18211 -32.297127 -24.496286 -11.735925 -22.366024 -11.810522 -5.8351293 36.737747 -23.004599 -0.8632266 -23.506763 -65.561676 7.378943 -22.799822 4.8417716 -5.0835037 21.690182 -12.475823 6.4105473 -7.129094 -15.077577 17.864895 -11.529454 23.73638 -2.5084429 -15.545416 22.037909 -1.4404187 32.667515 22.739527 2.0132456 -20.896326 28.525675 -21.003536 -14.326823 -41.054077 -16.648264 8.818016 -36.36014 36.11938 22.328585 -7.912047 19.106201 -26.920397 8.908822 -13.077275 3.067099 14.069143 4.9317513 31.433153 23.90597 -0.22158346 -20.847054 -0.054242667 -17.869389 1.2093127 19.83214 -1.0497932 27.098543 4.25706 9.021176 -16.503742 11.809413 9.913471 -13.435686 -24.306564 19.096355 8.958621 13.806989 22.712002 -6.713892 -15.358645 5.5107045 12.102487 -12.627554 -3.0433912 -1.9577678 4.9184937 -22.28568 6.7766843 -8.40059 -5.7234583 5.2883344 -4.239034 7.2665267 23.747068 -0.9156952 -37.654865 -19.264519 7.2898293 7.026141 -10.805652 -1.0656002 -7.0633645 3.5321817 26.77524 12.815515 -9.347892 -10.608886 -20.874939 7.150531 -20.645233 8.778985 9.538812 11.330767 -19.909924 11.112641 -8.214838 2.8568227
*dt_10 -54.486023 17.765947 -24.176628 4.9738145 12.857452 -4.515914 -5.332972 -27.965391 -6.393403 -26.691778 37.38133 -16.156143 -3.6409612 5.145779 -20.437834 -6.3022294 -12.419587 -11.440505 -32.450356 5.011309 18.164114 3.8842123 -21.703918 -20.662867 22.297785 21.079649 29.448864 -6.018008 -1.5447873 -46.874302 -11.191863 15.257109 5.578116 7.179884 14.3369055 31.735804 13.552634 14.287124 -14.295266 5.0340786 15.978697 -1.8875843 -28.928108 22.810673 -17.894793 33.29205 12.905436 -3.1622787 -21.157429 14.428564 -11.458539 -18.015785 -4.040744 -9.86352 -11.284133 70.75916 -27.184113 -19.100113 -1.0924553 -26.512173 6.069076 14.98912 55.460987 0.65875447 5.657739 -9.373597 40.368214 -1.314543 -8.255757 -13.55951 -11.788261 17.135513 -60.461205 -52.400112 -57.63949 22.585842 16.167622 18.82625 -29.466549 0.12689051 14.658058 11.591986 27.214813 8.402808 -21.131655 -3.0478935 -5.4866266 -7.232366 19.504257 11.270192 -14.571412 10.082272 -44.99182 -18.20855 -12.457072 -29.157335 -14.7112465 -13.491693 32.591774 -28.325872 1.0280304 -30.111074 -69.42953 2.8697531 -22.018986 21.494978 -0.7289185 33.940212 0.5198518 3.3327985 4.9455566 -9.574557 24.090286 -13.302492 23.310972 -4.5513525 -6.067709 34.032993 7.8203144 41.810806 16.475468 6.093298 -18.129301 38.900215 -19.22514 -2.722661 -50.426304 -11.354267 8.595668 -23.185715 38.591595 21.010717 -7.0476804 16.747606 -29.876518 20.23795 -1.7821872 4.1204133 12.506384 -1.6644766 38.80377 37.979584 -3.053784 -36.871696 13.461289 -27.427313 -5.6848598 16.676355 9.875755 40.42291 -3.852892 -10.0659075 -13.435445 1.948132 13.682936 -31.478981 -6.6107225 6.238775 2.5303328 13.84639 26.276731 4.684367 -38.13684 5.899173 10.006179 -11.02216 -1.8030235 -5.5223947 2.7897565 -30.701666 9.364385 -9.467816 -4.6051183 -12.791779 -9.048164 29.438879 20.209019 -1.8692524 -45.88328 -30.126406 2.244532 2.456863 4.7524176 -2.064178 4.155822 15.474246 22.58716 5.468987 -12.406565 -0.30933723 -30.492434 12.316237 -9.580505 2.0661728 9.669081 9.237595 -20.701439 -10.053847 -20.729391 -9.008762
*dt_11 -39.66128 22.213291 -9.818487 4.867559 8.009255 -14.560661 4.057862 -20.232899 2.063209 -17.987097 27.787127 -5.711676 -30.502428 -5.388748 -3.5878863 -11.151366 -0.85919297 3.7903612 -12.397623 -3.4161866 13.450053 2.6946826 -25.231718 0.6021852 15.836942 6.0672197 12.045449 -25.399933 -34.087914 -48.27327 -7.458651 18.57527 -9.421437 21.830456 -2.839274 16.8818 15.41706 11.573579 -6.930501 14.356278 -10.145943 -10.513598 -7.786231 12.687389 -13.938658 23.225142 19.443472 8.315288 -24.241817 18.988863 5.869453 3.6587272 11.76203 -3.4268262 -23.995144 45.18147 -0.70726526 5.9963365 20.355007 -9.902991 6.0554976 12.407211 56.24268 -5.9090075 12.135228 -5.854214 18.911915 2.5339103 -1.9408941 -16.500357 -8.9419155 23.987535 -48.833717 -35.485104 -44.936386 10.701293 1.0136522 7.3644276 -31.586096 0.97857124 16.923662 15.523178 17.087992 -1.0503463 13.813821 15.576997 14.709052 -21.47109 29.514162 20.841627 -17.470093 25.954195 -49.733078 -20.797663 -9.730077 -33.61822 -2.3544164 -8.677701 35.40842 -17.394712 -8.018546 -18.290373 -60.94394 -12.3691 -14.6903105 30.09189 -7.3358793 23.403711 6.958215 3.3706667 -13.466123 -24.859188 24.347176 -14.870834 14.989136 -2.728436 -2.1245015 24.10383 10.451396 37.82516 32.894653 11.61638 -8.436526 13.274675 -19.92689 -8.785521 -38.624928 -16.943129 -4.964906 -36.20713 29.881514 28.752851 -3.1757429 34.16896 -10.892934 -0.018193189 -21.944567 0.54161066 4.5740204 9.093271 34.588387 40.996464 -3.623259 -28.120163 0.58875877 -24.153337 13.433665 14.449794 7.808211 27.292103 -20.640156 -11.237403 -26.489643 -0.55957603 16.458715 -15.938902 -17.403984 11.499077 11.366261 14.527387 16.61975 -5.2937984 -34.30198 -1.2903209 23.781157 -22.1661 -8.0330105 2.188586 -0.5771671 -24.562782 16.833324 -5.4833274 -11.051545 -9.104439 -3.6866164 29.06056 -2.159209 -4.7472267 -46.258137 -21.551422 17.453714 3.1896734 8.695038 1.0814202 -7.632389 -0.16036654 12.238081 26.283371 -10.093258 -4.886444 -24.50609 -4.373556 -10.30019 14.038306 7.676963 16.68552 -5.3889713 1.6623824 -31.669054 6.5376277
*dt_12 -51.621696 -0.31469688 -12.162958 -1.8829782 -2.4644775 5.5716977 -0.51485866 -22.024569 -4.173786 -10.531866 19.248901 -2.4235964 -3.4626653 -12.383676 -13.783892 -6.0959306 -32.05577 1.5183245 -17.777714 8.737907 11.023861 -12.322671 -12.997439 -6.148855 28.943182 3.7674398 12.906629 -18.733263 -2.19858 -55.40907 -17.652658 18.309793 3.62432 14.201034 17.17013 30.041193 14.6310835 12.138398 -1.42734 5.2862277 11.307751 5.0301213 -3.1865153 5.5523524 -13.644011 22.002836 12.333011 7.3940644 -24.5282 0.7984981 4.6764946 -3.8063006 7.262317 -7.7810335 -3.5086963 42.82649 -11.6730175 -6.268241 3.416295 -8.952391 13.335793 12.137766 40.86069 3.6053126 11.003732 -1.5022907 30.819021 0.30507126 0.9165959 -6.595774 -20.158941 24.012787 -38.89439 -28.92861 -38.38064 21.487185 4.787031 -3.7276068 -7.23491 2.5660777 13.780968 5.36776 27.24005 -9.468128 -2.7284951 7.229526 3.1443682 2.2299223 21.784632 22.406145 -17.497366 8.446291 -40.36828 -22.68771 -12.987425 -27.614265 -9.605039 -12.794349 34.96019 -23.209524 -3.2793531 -10.653466 -50.6931 3.1968749 -17.977991 22.551506 -7.6358466 20.495304 2.8209064 9.2410555 -8.705552 -13.42131 22.99952 -4.769438 17.321037 -14.278343 -5.2908945 30.454111 10.720478 33.90233 25.170208 -5.0994344 -7.352152 29.870731 -19.770414 1.28792 -40.029655 -7.8822103 12.615168 -28.874546 33.588905 16.004366 -6.916207 26.776018 -21.52762 12.064368 -13.724319 -4.6752205 1.3474815 1.7817028 27.169905 31.952412 3.4182649 -21.260296 1.6224053 -16.678495 7.049992 23.325777 -3.9840896 15.179488 -12.567773 -4.1841593 -20.355576 7.4531913 14.384172 -23.00915 -22.104052 23.599672 7.3475156 -0.75536776 29.8123 -10.663823 -20.836243 0.2184464 13.61058 -9.6168585 -3.9401195 -1.6866673 1.3566495 -24.079676 14.870838 -10.724246 -5.05046 5.6190886 -12.118694 10.89842 11.940165 4.728608 -42.542126 -20.27172 17.575289 1.7859528 -3.7335265 -7.3489885 -13.3322735 3.2034893 25.829548 5.6093936 -12.878349 0.49510914 -23.248158 0.68642706 -16.258057 5.051846 1.103737 14.724148 -13.595499 4.6513786 -12.519408 2.197377
*dt_13 -37.72497 12.328756 -8.108248 4.990704 3.9750047 5.6912494 -12.847913 -20.058277 10.255639 -8.18568 14.735849 -2.7904415 -16.307102 -17.576668 -11.206568 -7.411491 -41.123825 4.141139 -37.164524 22.7812 1.3740509 -16.620289 -2.642292 -13.322245 29.795332 11.646529 4.2762413 -29.574354 -5.850226 -64.596436 -33.532303 11.626001 -1.7600363 19.53365 24.386951 24.404778 27.05602 20.4406 -3.3506522 -1.8154699 12.988805 15.417226 -4.445371 0.7468316 -2.546166 18.14737 -1.5045003 17.781973 -17.86183 7.433854 -7.675795 -6.572547 5.2345266 0.5843589 -16.808561 51.046673 -4.626796 -10.083269 5.6452446 -1.2994812 16.157068 16.796568 48.92122 25.563873 14.28742 7.6538324 35.483074 -3.372348 5.742 -14.636319 -15.639371 19.531013 -46.53874 -35.943172 -24.846413 19.116858 -1.2112885 -5.5256324 -6.7317514 8.144215 14.130848 3.227622 30.372467 -7.878214 -10.021051 -0.80549234 -6.825611 9.683039 20.332733 21.888536 -10.730116 3.374692 -39.468517 -12.176112 -13.47085 -28.95533 -24.478718 -26.885006 28.179058 -34.09065 -6.021708 -3.0843105 -51.42506 3.4903822 -14.4722395 22.679777 -10.92385 30.938416 -2.2916493 20.238003 1.3496196 -8.105984 12.119044 -5.2201138 18.332457 -13.87678 -3.9338613 43.03825 22.594542 38.9158 38.33606 -3.1579208 -3.1909232 28.448753 -25.018406 -0.62342656 -56.910183 2.4880004 15.439879 -18.803879 35.491123 18.78754 -6.1388354 25.123138 -24.253672 4.0834546 -15.734411 -6.937114 -7.286937 0.30201378 13.210644 29.401466 9.361002 -23.067106 12.311429 -8.625216 11.229443 30.40182 -18.719492 12.065906 -16.178627 -21.402016 -5.4498315 11.386681 17.539652 -28.153816 -26.013977 24.164577 0.83898956 -5.2049713 30.001198 -10.0044155 -34.11181 -3.5132577 22.74091 -2.174759 -3.8020446 -2.1556337 3.4346702 -36.238377 16.03128 -20.816263 -3.6340914 15.197963 -19.44484 28.685125 14.696465 -12.447767 -37.896782 -13.712381 26.137728 3.5019717 -8.92843 -13.658909 -11.875763 4.0179667 39.321648 13.980882 1.1318487 17.144835 -39.71274 -5.8335295 -21.447775 14.640054 5.2707696 8.993712 -9.500523 -3.8911662 -27.890642 3.6320941
*dt_14 -42.164646 7.784103 -9.434616 3.492246 1.3219097 0.9389696 -7.8262806 -24.021494 2.480059 -14.780965 19.382875 -14.320278 1.1573111 -3.0525835 -1.8269126 1.198108 -28.499395 -6.196613 -27.150114 6.0565176 4.1356335 -1.5956588 -2.318298 -5.415646 26.138884 13.137824 14.896768 -12.667363 -14.007845 -43.088398 -18.002245 15.085679 5.286773 11.843693 20.827625 25.688757 17.069193 17.73531 -5.723078 0.8958454 7.857413 6.699873 -4.9847293 16.10207 -10.851192 22.77117 0.85242 19.265608 -18.938887 6.8629036 -6.7302237 -0.29372752 -0.816145 0.77709 -11.769623 38.073997 -9.376232 -12.117861 6.109458 -0.7988695 7.2822533 11.044975 35.5265 9.748274 0.57102346 -2.2235494 26.649277 -4.9705763 5.700354 -7.9772024 -17.324741 19.753567 -37.555435 -28.843056 -30.188986 19.212389 9.388557 -1.6961881 -13.169479 -2.7382257 17.067736 4.5304503 25.207766 -9.124651 -13.170486 -1.472825 -0.24962941 2.1134388 12.020205 8.2990465 -19.301445 7.2510166 -31.470888 -14.3915825 -22.387474 -13.27769 -18.229979 -19.190557 32.70543 -27.086569 7.599156 -3.0131397 -45.10678 0.30234206 -12.023936 20.179272 -9.184619 27.960503 10.41601 6.5664625 -11.654862 -13.260893 15.627425 -0.9218761 13.691761 -11.064966 -4.3863387 38.12476 26.441782 29.032883 20.141674 3.7883291 -0.48490798 23.787252 -11.233559 9.679965 -31.832333 -2.7849665 6.5473285 -24.396646 21.193861 10.603133 0.5470849 15.864454 -18.759962 19.11839 -0.5222466 2.8698907 10.96883 8.138674 21.773127 19.567791 -6.0616474 -23.671797 -1.7931544 -20.493366 10.124776 15.128741 -0.45493507 14.096798 -12.300419 -12.419312 -6.921887 5.8532057 13.921785 -24.978424 -18.294746 28.553549 3.4610324 7.9411697 21.710983 -3.6016054 -26.994202 -3.2192006 21.592794 -8.354657 3.4455864 -3.0234528 2.6631036 -30.397429 13.44356 -14.11992 -4.6177516 3.889011 -12.004266 18.891335 4.9765453 4.6241426 -40.89213 -5.828678 16.267317 -5.8574166 -10.354318 -1.2840463 -12.876908 8.463384 23.368675 -2.1600697 -15.232869 8.079578 -26.736818 -0.010174155 -14.802158 5.566494 3.6589382 11.743543 -2.6095183 1.1542386 -3.2303333 -0.9683526
*dt_15 -26.313372 25.791985 -39.80493 15.431997 22.693472 3.6340518 -16.23541 -4.352453 -7.5505476 -26.996801 22.933405 -10.578867 -4.4219694 -14.458092 -6.214355 -4.8138375 -17.939453 -10.810767 -10.277428 6.4079323 9.305743 -8.295085 -9.649338 -4.3337975 17.319958 11.801628 6.356224 4.081181 -5.831996 -30.794079 -9.7122 9.364524 5.073714 14.213678 6.708663 15.5096855 7.91714 14.857659 -0.6578664 9.783032 12.531415 8.5671215 -14.77335 20.521688 -14.948668 21.961721 1.1374166 7.3027935 -27.823656 9.162282 -6.487193 -9.451278 -5.737187 -12.52458 -0.10332733 46.911243 -10.762303 -26.928286 1.4692489 -13.5365095 7.1558247 18.207916 33.771603 6.2780967 11.6958685 -6.2413836 42.378105 11.71772 2.5285327 -15.910314 -23.665064 15.756833 -40.01395 -48.630013 -22.712881 11.133749 10.098284 3.1831195 -5.27906 6.564076 12.220036 2.0036435 25.516203 28.990082 1.3210963 -5.953984 -5.3784285 2.572323 7.53364 5.4521947 -15.641364 -0.5276254 -37.397354 -9.596294 -3.4994864 -26.756783 -14.488848 4.847208 36.26945 -30.17372 -13.731002 -6.0885954 -44.03534 9.752874 -15.988895 20.093208 -1.7739774 22.302338 14.953249 15.112752 14.990196 -18.490091 27.431948 0.82051337 20.092985 -10.4414215 -16.188755 37.792416 11.587355 20.250984 27.410936 -2.9805083 -16.964846 33.223278 -5.6812916 -10.829155 -38.902634 -12.124981 9.987047 -17.013918 30.461575 22.614328 -15.810615 -0.9194579 -26.22492 16.50843 -8.926724 5.4538655 7.171239 -5.1414924 14.79495 26.467987 3.6631346 -27.68867 14.675057 -9.881488 -10.970421 21.252548 6.352913 28.678646 3.459083 0.32479048 -7.740023 11.452835 -5.5838885 -24.345112 -6.7458506 15.736666 13.146521 -3.680733 16.649466 -2.1652138 -28.221338 16.99703 6.477286 -21.666248 -14.493092 -0.36252972 6.94102 -13.412273 -2.031783 -3.17487 -8.479422 -4.994612 -7.989873 19.507092 26.693462 -8.276481 -29.478504 -9.031206 16.959368 2.5256522 0.8070334 -2.305689 -1.4144095 6.823749 24.998312 -6.8857064 -0.15510544 -2.8717456 -30.505817 -4.265365 -7.368035 -3.4571078 -0.85420847 13.9184885 -1.0287175 -16.040518 -34.809505 3.017612
*dt_16 -45.746323 4.893949 -5.285477 5.1660295 -13.049397 4.4407725 -16.004202 -10.04191 7.4069753 -17.177322 14.729917 -3.474675 -11.240191 -1.9067531 -6.3259625 13.8899975 -30.724554 2.340343 -21.60926 21.98166 -8.226854 -8.988569 -3.9387236 -15.840448 17.859615 19.84186 9.767056 -3.9692519 -10.8742285 -42.344273 -22.627583 15.063007 10.019465 6.1535816 16.654804 23.051853 20.180124 16.665117 -9.753189 -5.2300215 -1.4944803 5.5042615 0.8500982 13.029112 -5.1842003 19.181774 -2.6443584 4.1562524 -12.870967 17.39403 -0.79408306 -12.945058 -4.438859 -3.1602376 -17.443031 30.555756 1.2287987 -9.464638 6.0458155 9.763331 4.6073866 13.984758 37.30763 9.072697 6.0856996 4.936983 27.506395 -21.538042 7.6257634 -9.323466 -20.106651 3.9196975 -56.294678 -24.815323 -23.030935 26.445406 5.587254 -5.8661118 -12.05865 1.3180978 8.638968 11.973017 24.933153 -7.3678756 -10.587106 -5.270911 5.9532595 -7.3516083 4.65924 13.341287 -9.387544 8.705802 -38.8285 -12.3996105 -6.851721 -14.556112 -11.47668 -23.458647 32.439568 -19.85258 -2.7803855 -5.0003443 -42.651028 -5.564901 -19.189579 32.933464 -1.2008855 26.11104 9.004643 -4.454824 6.266936 -3.2396982 19.916065 -3.764759 11.693759 -14.544083 -1.6534345 40.126938 31.853525 18.738495 29.9993 8.3958235 7.4382696 27.404566 -10.288102 15.144457 -27.228014 -1.76905 5.9137106 -20.468925 29.542902 17.842255 -2.462318 19.712555 -5.951008 20.636166 -10.573289 1.0727684 -11.291144 -8.096134 21.139559 26.249798 9.519492 -21.37249 6.7090178 -17.396883 8.861733 17.316992 -1.7805552 6.6111026 -24.770962 -12.85822 -13.019708 6.2572813 14.335251 -31.217022 -25.672552 14.753796 -1.4940257 3.283212 21.583477 -0.8198009 -37.458515 5.378622 7.7875533 -3.3382978 5.0653124 -1.6435078 0.5041507 -19.68144 12.144934 -26.106522 -13.61182 8.801342 -13.96911 31.17451 14.802934 1.3991768 -35.017426 6.4895763 25.115765 2.155736 -7.272698 1.7699322 -11.611841 8.51846 27.348743 23.634687 -15.468229 3.4774609 -33.23941 -11.3415985 -8.119104 13.193153 -3.808351 11.403323 -8.508341 -5.9900403 -7.821035 3.490137
*dt_17 -45.058674 13.502019 -18.55247 4.55777 10.7348 1.7206327 -4.2147584 -29.102686 -6.205093 -17.836134 23.84987 -6.775215 0.6326083 7.7498627 -11.081252 -4.5720654 -23.662256 -15.721268 -25.685442 -7.2290893 18.594654 -6.8779535 -10.607511 -7.69535 33.407513 18.228544 19.96558 -14.585066 6.947487 -46.558056 -2.2890232 7.0105762 3.665285 2.2690053 8.046451 20.649734 6.8454123 -9.403746 -0.66398704 1.6935933 26.529379 -10.896295 -15.4229355 12.137791 -23.403439 12.985798 10.678756 -4.6317077 -29.899275 0.71515715 -9.814039 -10.1911955 9.767466 -2.4534903 4.2863836 52.42015 -20.461662 -12.579229 0.10088897 -16.702087 18.024422 16.308088 30.618298 -1.0188682 13.087306 -22.58856 32.674026 12.704438 -0.80868244 -7.134632 -16.19222 29.725664 -20.487581 -41.650192 -40.31237 15.81454 2.5763392 2.9470506 0.26347542 -10.486187 7.835281 -3.0581622 31.005445 15.427252 -12.836424 5.354602 -7.090849 -5.4192634 18.827335 19.833763 -22.887413 16.369833 -41.14302 -26.649324 -6.6590204 -19.747746 -18.841547 10.754371 29.271242 -22.414778 0.54693437 -28.629194 -61.973114 11.539317 -14.00558 16.038843 5.9383426 26.230747 -6.576441 4.531871 6.9508286 -2.5305188 15.908731 -9.875337 21.929092 -3.9528692 -18.930439 29.362837 -10.254082 29.378801 19.084581 -7.057048 -7.8776665 28.604195 -3.5894365 -15.914311 -41.10513 -18.120146 7.480483 -34.97459 33.403732 23.33242 -17.6051 1.1009958 -29.009935 7.180563 -6.0608106 8.300974 37.85406 -3.1397061 30.077368 20.974771 0.54251105 -19.21146 3.8788767 -6.48137 -11.966289 20.924438 -0.48752683 25.669878 13.440942 7.4617167 -16.396107 3.80727 9.400043 -14.149531 -17.034273 24.27892 14.593865 8.324408 20.534605 6.6674147 -2.4011607 2.5336087 7.0312133 -21.161797 -7.6397324 -12.09359 7.9343605 -22.918304 -1.8408203 -17.75833 -4.5750937 6.639026 -2.0598814 13.720611 25.564856 13.414975 -24.841904 -11.003033 14.058134 3.7566516 -4.274159 3.9435782 -8.43328 1.9812775 22.716185 9.693732 1.1028929 -3.3356943 -22.55323 10.999155 -14.926955 -1.6163597 16.57863 16.61583 -1.4612322 0.25936532 -27.65185 1.5787339
*dt_18 -37.16808 17.596598 -31.224354 6.083116 5.928013 1.4864136 5.3835044 -9.167179 -9.672554 -11.808325 15.739766 4.1270013 -7.369674 -10.276186 -12.539539 -18.078224 -10.974436 -3.5193346 -27.495365 8.876655 14.741547 -6.1000686 -14.885647 0.48953882 27.256468 -3.5852757 3.425591 -11.06899 -6.0710516 -38.009277 -3.87592 13.238139 0.11730369 20.907433 14.377887 19.90461 -2.7063484 7.35378 1.4504105 -7.8800454 20.97708 -0.3266449 -10.712774 6.857336 -14.63966 25.66646 -10.631618 -6.0160446 -20.742176 -5.4794583 7.3419733 -6.1982527 9.468158 -11.644723 -3.5632534 46.13813 -9.83907 -13.454649 0.8275276 -9.417965 9.66449 10.670214 34.09536 -5.393928 12.982192 -3.5501657 34.802715 2.307633 -12.437169 -10.862534 -20.424883 13.554097 -35.898754 -46.389534 -31.215181 -0.4317677 10.191537 4.2606897 -22.568735 -0.9758173 8.012419 10.07086 18.469069 12.146119 -4.3885465 5.2003617 -2.18524 -4.5822873 15.738102 20.324398 -11.229996 -5.3065243 -34.140446 -18.831354 -3.7298439 -22.77228 -15.741571 -5.782232 37.868725 -17.38004 -4.7497983 -18.782993 -59.017025 7.759125 -10.674993 14.024384 4.4896283 18.479801 1.0990269 15.69966 -7.511289 -9.060858 23.309135 4.617314 11.413517 -2.1006265 -5.7859054 10.63422 -0.7080853 20.669117 36.16933 -5.912228 -15.117285 33.041477 -11.408224 -2.5984797 -34.20379 -12.853851 9.780412 -25.61461 26.2151 10.339689 -7.1970763 14.973355 -21.349722 3.141589 -10.740518 4.292869 14.863556 2.4411838 19.524673 33.27306 -1.6693876 -26.694443 -1.0861685 -7.147646 3.9015698 20.413866 -10.890828 7.906466 -6.6711717 -7.9576254 -17.04073 6.732117 13.570081 -17.066301 -5.3628106 17.060507 8.463516 12.28948 18.06166 -7.931894 -16.67052 -0.8865139 12.765974 -9.726963 -6.416547 -3.947409 12.359169 -20.442184 17.158646 -18.818878 -6.4558673 0.056566864 -19.952631 19.048714 21.178957 -6.271332 -29.556902 -24.37646 9.002351 5.619938 0.69076365 -3.9565737 0.93880343 -9.020404 20.843185 9.908191 -6.7372994 -10.380768 -12.980985 4.33387 -8.110149 2.708358 -1.5429145 1.577904 -12.328679 2.1570833 -21.249557 8.5451145
*dt_19 -29.75577 8.613048 -8.348569 3.2884314 -2.751798 10.01639 -5.896293 -20.10553 2.858038 4.235136 18.868338 -11.052263 -2.091003 7.6219177 -12.881606 -2.9342353 -22.233118 -3.8471882 -11.914652 -1.1688733 7.451497 -12.278002 -22.128448 4.351596 23.381466 4.726699 -2.974261 -10.289245 -19.825665 -61.118233 -13.749035 27.860323 1.1973697 10.29167 14.430226 28.460526 9.05368 9.7351675 3.0851746 -0.35125875 12.814449 4.6767244 -0.44766554 -1.9421737 -8.54172 19.749712 13.953323 14.094882 -25.783453 8.723999 -22.059658 1.1932222 -9.997849 4.60727 -5.5017343 33.913677 -2.478278 -20.34784 0.5843606 -8.028513 7.4963202 12.519386 17.44772 5.3545804 6.5501485 -13.745422 15.416473 19.468279 15.38933 -9.506097 -16.404987 27.49735 -25.929058 -9.901795 -25.186865 23.028063 -7.0860486 -1.3752207 -9.768471 -5.430042 21.22172 -4.3838444 22.54222 -10.463442 -0.07950796 12.621922 -4.911138 -5.5497026 11.85655 20.48916 -28.55577 22.001417 -27.518719 -17.35885 -17.770773 -17.687666 -9.246893 -7.007873 32.555454 -22.2236 2.4100616 -28.222242 -46.359646 8.138468 -12.881675 36.240734 -3.0993338 32.28298 9.290016 10.202163 -8.6703 -15.271965 15.516595 2.0122936 1.0264342 -20.012178 -14.42583 23.12593 9.776894 36.060486 25.274141 0.65422934 1.3063644 27.280012 -6.2154126 3.826651 -26.055944 -8.603044 13.006682 -27.415295 12.013529 4.1147885 -4.0531235 29.263992 -29.439407 14.004901 -0.3802801 -2.3798335 11.661057 3.3574603 44.651306 19.955511 -5.283765 -16.942125 -10.819593 -8.26546 9.996648 14.084824 9.433223 10.758543 -10.8457365 -7.1269283 -27.431303 4.9690733 9.983791 -9.802637 -26.561861 32.66883 7.19956 8.589269 24.636955 3.787533 -12.233313 -6.8211865 23.475542 -13.313095 -7.2377915 2.70428 -9.788627 -17.13818 10.306932 -25.686295 -1.1281493 10.028969 -10.532457 11.317117 14.915506 9.558295 -28.97001 -1.7198001 15.42218 2.8574357 1.6025518 3.7401633 -20.52413 7.4924345 21.208872 -5.368608 -11.239808 3.3738985 -33.160458 -9.318948 -5.588415 3.8044512 7.710956 23.094942 -3.024615 10.462828 -7.3273306 0.17083877
*dt_20 -40.609875 13.844022 -17.794868 1.6884917 8.559849 -2.520157 -1.2594159 -28.627052 -2.1272426 -20.899405 21.317646 -8.032534 -6.3090577 -3.2168605 -8.805734 -13.09657 -21.621038 1.5713956 -33.33847 4.152473 8.807364 -10.577762 -12.327866 -7.912915 34.818565 16.213322 16.885443 -18.717743 8.172795 -45.89 -11.914809 8.29828 1.5401043 7.2148714 16.469265 20.678837 18.992983 1.8511384 -0.13407567 1.7792375 23.980848 1.722113 -11.074659 8.258033 -11.953163 26.777817 1.3113282 0.6612939 -18.950495 0.9235181 -7.483976 -6.949158 13.8526 -8.893183 -5.7829013 48.74589 -12.282596 -11.880725 15.070373 -7.432736 13.165101 8.873396 45.169216 5.114067 8.692696 -8.937847 25.88669 4.0916963 -5.1024537 -2.831708 -12.3985 20.101616 -36.3415 -38.422897 -32.23949 8.8567705 10.09487 2.3854449 -6.848153 -2.2645926 9.759385 2.0934074 22.173897 2.1191087 -14.681836 1.7488296 -10.170482 -6.658889 18.82972 21.43041 -12.97193 -0.5027895 -35.06133 -14.0376625 -15.37953 -23.13165 -22.0129 -3.9254332 25.113022 -26.74261 -7.764153 -17.374008 -55.521046 -2.234985 -10.354132 19.991787 -1.9449482 22.20192 -4.979925 14.045116 -1.8017576 -5.547403 16.161366 -9.949205 19.935892 -3.256203 -3.5429904 25.674583 5.4206386 26.662624 32.161484 -1.2798358 -9.484937 28.040756 -12.567552 -1.6764075 -43.239883 -13.042005 13.991233 -25.260635 31.421217 14.0899725 -13.124417 13.4818535 -20.998814 6.103852 -7.509809 -1.0678891 13.284093 -1.1577626 17.112038 27.060389 4.0918274 -17.942442 12.800793 -10.587724 1.6507304 16.64868 -10.270867 18.192217 -3.7652578 -10.520668 -11.451097 2.9957376 11.501049 -19.909113 -16.740633 10.81966 13.127977 9.01609 16.52348 0.5690393 -24.85863 4.6400957 5.1875706 -5.082345 -0.6605176 -7.918034 7.4708505 -29.620955 13.595659 -11.130868 -7.2286386 5.814787 -12.13314 16.655687 23.519299 3.190228 -34.685146 -16.695772 10.352098 5.5112143 -2.4498353 -3.6339216 1.0384443 -9.479217 24.31924 12.025277 -1.0602103 3.0719247 -21.851067 5.058045 -15.622266 3.0415702 11.59667 4.0054674 -3.6071835 -7.3030925 -27.587547 -1.5388297
*dt_0 -23.219948 16.765453 -11.757945 8.591242 1.4048293 11.254422 0.3327458 -12.80005 6.407948 -6.729087 6.288676 -11.871379 5.225714 3.0058324 -3.8924515 4.32286 -26.572708 -11.899763 -26.107178 9.744788 6.1184916 -7.9017353 1.7685517 -4.1812057 24.695278 17.581211 4.072774 -0.7496768 0.34783512 -30.878769 -12.961681 3.6890266 17.047632 15.525303 7.9405055 24.806822 0.74412036 9.636882 -2.8517587 -12.85707 18.028088 11.9559 -5.92939 4.390903 -11.294477 13.36463 -4.3422804 11.462806 -23.429632 3.1310744 -6.578695 -15.728813 -3.4599166 2.9520817 -8.071808 26.786413 -16.361551 -8.465288 3.0419078 -9.603559 3.2407472 4.9742913 21.409536 12.003659 8.793392 -1.7740821 14.93251 5.805972 7.104603 -5.8584657 -12.111225 15.043462 -23.833889 -28.538061 -10.8210335 9.739163 5.5219264 -2.6235044 -0.75768745 -7.4775043 0.0651054 -11.953666 16.354723 -5.440009 -18.807478 7.4303226 -16.076344 1.9973376 -1.7356162 9.305257 -9.810437 -6.136339 -17.86371 3.08659 5.2856026 -13.218727 -14.198316 -3.550185 22.577341 -11.353179 0.6216765 -9.58112 -29.711094 7.47216 -14.413941 2.738058 9.270139 22.84291 -13.244413 12.06187 -0.10225478 -11.312898 8.058095 9.674527 1.0662049 -3.323982 -0.51436734 19.691578 14.651046 19.872227 22.307137 4.578588 4.7065024 19.56314 -3.1466904 10.388884 -17.91619 -4.1627164 22.114079 -21.973005 15.543975 1.2696044 -5.0709877 8.078865 -23.557394 1.4903063 -11.599722 7.8439155 2.5004606 16.6351 15.615206 15.52742 -13.051799 -15.6357765 5.447927 -3.5555642 5.6686134 13.918337 -6.0836363 0.81361425 -5.463436 -3.8669567 -21.022522 21.20197 13.41169 -8.159906 -18.711824 6.999943 5.4119043 10.929022 9.845851 -5.385907 -7.9375033 2.4166439 11.921257 6.574774 1.7003089 -11.183565 1.4838771 -27.034983 5.405089 -21.340319 5.9087243 6.456517 -9.225945 7.199357 9.009201 -3.6385653 -12.455831 0.028713949 2.115181 4.7384367 -8.987422 -2.2471268 4.465923 0.8249461 20.005081 10.287172 -12.298644 -14.398729 -11.493141 -6.7076592 -15.302872 1.9724505 2.7711866 6.4422035 -13.235308 16.690737 -0.5075911 2.2195578
*dt_1 -18.65173 5.440991 -21.011591 3.607356 -1.5325 11.920097 -13.076405 -6.5827775 13.953083 -5.55578 11.941339 -18.73223 -3.581507 5.863229 -9.702424 -5.0490093 -11.827191 -6.3451424 -1.8773623 -2.2355995 12.855493 -13.956665 -9.575512 -14.497771 16.02043 13.980716 14.308131 0.4702946 -4.8109303 -33.612583 -9.113891 11.666823 -3.5447445 28.57587 6.961266 19.575748 16.901382 12.268182 -3.49546 13.334885 0.7034879 -4.846469 -18.15499 7.1874943 -0.4592876 12.241812 9.778586 14.409713 -14.98889 20.117662 -2.3637636 -9.269391 -4.6826196 -0.64965796 -8.165754 27.507896 -5.9725323 -15.096975 15.780154 -4.451932 2.0118916 11.159943 21.654179 -0.36303455 17.315517 -11.123457 20.415274 3.537499 2.6998022 -6.6603765 -10.311976 7.9415946 -30.475754 -27.2985 -18.761684 17.899496 1.9004089 -0.21794976 -4.1265006 -11.267374 13.343138 -11.329147 10.272086 5.943327 -9.980412 -4.885164 -4.080336 0.98099744 9.689912 14.286538 -13.203345 10.298388 -19.903292 2.1911826 -0.34230375 -18.136137 -1.3949784 -0.53491545 14.104222 -13.487615 -6.7067637 -13.594443 -24.076536 -10.316024 -18.486124 17.425253 -8.166629 10.39137 7.816774 13.825393 -4.471939 -6.9743137 22.957678 -10.040684 3.7611737 -4.702896 -10.737698 17.334984 11.817878 16.601639 13.85369 5.88822 -7.6162987 12.775774 -5.6243477 -4.3689156 -15.115349 -0.9576977 12.480851 -23.29424 22.128044 12.036317 -6.1315503 9.328887 -6.4671946 10.964297 -14.585215 1.8137941 -4.117288 -0.60697 20.837618 23.733994 -6.065451 -12.606932 -1.3669308 -5.336103 -2.5746222 5.7932363 6.3533473 6.0415673 -7.645149 -7.8013477 -14.085667 6.835896 13.749087 -20.879877 -8.188044 7.902476 7.2009015 0.0029583438 9.851342 -4.3020287 -17.824244 4.063743 0.98073745 -4.9118085 -1.2390789 -6.3304796 -1.5888698 -12.9358835 -3.1970713 -9.939611 -4.3519797 1.8423476 -11.262787 17.01117 3.066682 -4.398266 -22.733524 -4.604739 13.015193 -3.4267683 12.653696 -11.646327 2.218691 -5.3064055 19.094564 2.3945189 -7.213843 2.8458862 -22.30522 -12.745323 -0.46858695 6.715011 18.424889 16.302698 -11.208172 1.5175778 -21.92087 -0.24681933
*dt_2 -19.924974 16.730442 -20.60927 9.419948 -1.4504124 6.692108 -1.6404746 -13.981451 -6.9121 -13.163147 8.173013 -5.5085444 -3.6697268 -6.133781 -6.8909726 -4.614815 -18.738861 -10.100984 -18.418169 6.286296 5.4084344 -3.9637394 -2.7685044 0.8918019 17.923729 3.4140863 1.5113692 -5.295451 -1.1571469 -33.234055 -9.059378 12.99914 9.272214 9.806801 7.0609426 13.230115 5.222311 21.98721 -5.539175 -5.008076 8.447424 7.9482307 -12.265273 9.645634 -10.12264 6.2121377 -4.0090833 17.130669 -17.017912 4.0655584 -2.0964437 -10.0958605 -11.948275 -2.919046 -5.903868 26.008562 -7.8130817 -6.0023994 -7.292935 -2.7246454 0.5123224 13.022519 23.996723 7.3176346 6.578103 2.6341 17.125158 3.7925453 2.7539592 -9.72255 -15.388744 15.829997 -29.488564 -34.369507 -22.300665 12.887911 9.836355 -2.0117655 -9.287441 3.0991986 5.6830587 -0.55494577 14.68268 1.6371567 -7.161461 -0.50285006 -6.410635 6.523272 2.651761 5.0276403 -15.382764 0.22335017 -28.232756 -6.904029 -3.6476555 -14.650069 -3.5651853 -9.124707 24.054684 -13.595715 1.6203439 -6.3282194 -32.209957 9.741311 -10.808075 14.040686 1.3696826 19.874598 5.673933 8.9924345 -4.5210633 -18.538824 19.038782 5.384276 4.8044243 -5.810796 -1.188209 17.406734 15.541767 24.896307 17.949402 -4.614941 0.38967347 10.341234 0.6025127 2.1855376 -18.717213 3.2177563 15.740877 -16.045536 18.972198 9.235655 -5.2565393 17.436018 -19.164545 7.2703443 -8.769058 2.7377186 0.82838607 3.1807323 21.043535 22.78191 -6.6139116 -19.61137 -0.7926316 -11.978289 8.472302 23.319803 1.4283919 3.5766344 -6.9564548 -4.368438 -13.339645 16.375648 2.6467154 -13.182508 -8.192951 12.022795 4.883644 5.2655773 7.3957424 -8.924932 -13.775913 5.665921 17.952778 0.013527513 -2.5692177 -6.9345636 3.7461796 -19.968855 10.113997 -9.420601 1.1878265 2.250298 -5.072708 12.317593 8.923588 -7.2298665 -16.339016 -8.223695 11.229176 3.764396 -5.5206795 0.44916487 0.8997711 1.1157486 17.022062 -0.10963392 -6.3828583 -6.7034 -15.878815 1.9330559 -9.913911 -1.0858773 -1.785712 10.133985 -2.552814 8.371885 -5.0991354 3.6541963
*dt_3 -21.389189 16.078617 -18.099241 8.120248 2.7537768 1.3517668 -8.695168 -6.190054 2.1626704 -10.9276495 17.003157 -2.7178843 -4.5931616 -0.32006487 -2.5185106 -5.515168 -14.917115 -1.2588277 -17.04198 4.3267035 8.974671 -6.4399676 -9.563289 -4.998184 14.540106 5.466355 9.890356 -10.902687 -10.631067 -36.72817 -7.8417115 10.85291 -1.1269777 14.197904 12.302265 15.023919 18.527985 13.815399 0.24820057 2.0984929 6.5309963 5.7085533 -5.549819 13.93283 -4.13627 23.842531 3.4825575 9.551227 -13.58745 11.286442 -1.1472301 -3.3731441 3.8298523 -0.0035446621 -12.165123 37.388508 -2.163318 -10.860691 9.242466 -0.4416376 9.580235 12.2394 29.2567 3.221868 6.7835717 -1.5320765 24.785208 -4.03199 0.9678657 -11.845051 -16.222994 16.75199 -36.654552 -30.519173 -20.460566 8.829088 3.3101416 0.30303666 -11.768283 -2.4903922 11.409202 2.7285836 17.382895 5.712117 0.9205028 -2.9616318 -0.28879905 -5.936968 17.40639 9.595348 -11.383659 6.90561 -25.661713 -3.0203407 -11.990172 -17.578856 -18.195454 -15.487733 21.745493 -22.092623 -5.5802383 -6.6802645 -37.53983 -0.8274159 -6.680437 17.584797 -5.4825783 15.300472 9.230291 13.3063545 -1.0024135 -14.847114 22.581533 -1.2040497 8.671604 -6.743428 -8.394814 24.119003 16.1776 21.344444 27.264475 3.3115788 -10.736502 12.334561 -12.586187 -5.736532 -28.867823 -2.8359137 5.0267277 -8.286195 21.9798 16.446632 -5.97886 7.096092 -17.137161 17.701143 -9.290822 -0.20374255 2.4702942 -1.3326297 15.984354 22.397736 8.149383 -15.152395 6.851059 -11.420726 8.833305 10.672872 0.15549646 12.026763 -8.970997 -7.298908 -4.302702 7.3303623 10.265163 -23.042557 -12.706135 17.855919 7.336645 6.5789857 12.045853 -3.9815881 -28.673153 -1.1272645 6.617521 -17.235672 -11.632385 -0.28903654 0.75503075 -15.589638 8.976907 -10.090141 -8.598562 3.6137109 -11.335292 20.800068 13.376592 -7.8957763 -32.62856 -2.2024696 16.672594 2.172186 0.8375652 -4.431921 -9.054902 0.6189905 17.66984 -1.343881 -2.6601608 1.4194118 -23.4652 -4.392966 -11.224223 4.7866817 5.4728527 9.232703 -14.440453 -5.5782833 -23.582523 9.27655
*dt_4 -26.044167 10.910753 -19.049063 12.439562 3.8558547 9.8948555 -3.2502599 -5.9591017 1.7922516 -10.779173 11.228705 -11.346145 -5.851883 -1.8471999 -4.387393 -2.4227746 -14.690238 -2.1010323 -19.935122 5.5277076 2.5433538 -3.5914168 -4.245402 -1.0693437 19.154133 3.6858013 4.6946793 -2.2336826 -5.694758 -35.414997 -11.690498 11.436839 7.032041 16.612661 6.692011 23.138905 8.368937 18.32334 -4.1510315 -1.5568929 7.8454123 6.9602966 -5.8895593 8.828975 -4.0698395 17.474901 -4.980676 5.0842547 -12.882916 11.266006 -1.8468735 -10.292425 -5.7534404 -3.863319 -9.265915 29.965708 -5.519023 -11.84709 2.7583628 -6.371368 -0.8635482 8.019827 25.527927 2.3320603 5.963613 6.4619617 18.42815 -4.1705766 0.32304424 -1.7377918 -19.91258 7.6928625 -45.11819 -34.151306 -19.198063 7.801102 11.308968 1.6411605 -12.903331 -0.63436854 10.563961 3.4421074 11.6965475 0.09533787 -10.14519 -0.5759176 -1.1996 0.6400931 1.0507613 10.742546 -7.9930577 -0.03975904 -28.684145 -1.5844054 0.11027138 -15.510958 -7.655501 -8.747638 24.542046 -16.755047 -7.567411 -11.072268 -26.272192 1.0604843 -11.713014 18.653978 7.448387 21.54167 7.8058558 9.320972 -3.5648324 -10.686963 20.609388 8.833176 3.44656 -8.299889 2.8367624 19.484596 18.722298 19.065994 19.78002 5.858315 0.6049122 21.138021 -6.2929893 9.120974 -19.603958 -4.0062056 12.247573 -18.658493 19.412436 7.58199 -3.587959 12.765538 -12.605267 6.9407716 -10.762138 5.1958647 0.031337008 6.5609493 19.129269 23.673758 -4.3280835 -20.126562 0.9410598 -9.386725 1.0334007 13.974427 -0.16723035 5.1577873 -15.861374 -8.501021 -16.592533 12.131922 12.540791 -20.73939 -8.4526005 9.61133 5.1517625 6.4210305 9.051307 -1.5783515 -18.23396 5.0107183 8.613943 0.96857315 -1.3840431 -7.460874 -0.5264594 -15.746226 6.9835696 -20.313675 1.556379 0.3630977 -10.910215 17.22976 12.52181 -3.7132442 -22.378065 -5.937961 9.051482 -0.5395276 0.64808595 -4.856301 0.30458748 1.1937315 14.888908 5.2722754 -13.774781 -6.9736795 -22.463877 -3.116662 -5.3839054 1.569975 -2.3954895 9.175107 -6.258556 -1.9303946 -12.049312 4.587008
*dt_5 -45.54336 13.841256 -19.388302 1.3718807 -4.4522214 9.879828 -6.8758845 -12.898997 7.184305 -20.208021 25.85557 -7.679945 -7.52066 -9.250239 -12.759889 -4.613646 -27.133669 6.905014 -22.912327 0.93772674 17.38686 -21.553879 -14.44247 -8.030073 18.931015 13.668703 6.2867064 -5.0428233 -16.30411 -58.69884 -6.64231 16.108591 -5.7567425 34.375896 20.122988 37.617493 16.855303 11.3462105 -3.42025 6.771646 6.230578 9.495576 -9.374822 16.56977 -8.229735 31.751724 11.854516 1.8654999 -28.031208 21.255444 2.5096142 -6.985923 3.5721188 -10.680177 -19.999538 55.88573 -10.551705 -21.006617 21.14548 -5.844764 12.378001 9.892497 52.973103 3.428975 20.265232 3.3223355 39.93694 -9.092839 -10.287269 -10.770821 -14.814991 6.9713974 -51.24651 -44.079987 -35.93324 16.5494 15.6250925 0.6038412 -19.491877 -1.4617379 17.782013 0.29991642 22.80853 8.258951 0.32310453 1.7552513 -2.5002456 -13.63092 18.214123 21.679955 -10.94989 -0.4723652 -39.272003 -9.973211 -0.10453402 -26.549515 -16.292854 -13.818345 33.711227 -33.613636 -19.05592 -16.718168 -59.398113 -7.277196 -24.501299 23.146393 -4.9762506 23.92615 -0.3137954 12.564663 -16.380527 -12.541892 29.490385 0.17181805 19.142239 -16.65756 -5.2426434 29.077179 20.109735 28.98992 36.01232 7.9147677 -20.626078 31.888943 -27.820698 -8.714181 -53.722755 -14.398852 6.250873 -25.92345 40.127678 21.930798 -4.5209727 14.943115 -18.486576 12.503465 -16.201536 7.6139483 -0.8894829 9.694043 25.069653 35.643505 2.8005695 -17.824928 1.9932592 -15.573258 8.85992 18.788107 -3.5374305 21.43498 -23.748629 -7.897232 -15.875849 10.679832 15.545131 -30.887009 -24.602896 23.495127 10.525014 8.670463 21.455235 -5.48957 -37.375275 6.85877 8.004947 -19.262049 -1.5504515 4.65807 -6.452156 -16.705938 7.8909984 -6.7015796 -10.795837 -2.2511253 -8.878519 24.207478 23.523092 -16.534649 -51.46984 -11.856159 21.552183 -4.4247723 4.7229896 -14.898454 -6.2459493 -3.650362 27.870161 8.730919 -4.76271 -2.0230227 -30.919436 -12.496412 -13.127267 16.95572 -0.18108574 4.289801 -24.721537 0.66978055 -23.868736 8.632407
*dt_6 -42.164867 7.9652042 -15.927903 9.1362095 11.636511 5.3583446 -8.629992 -11.581943 -1.2524209 -11.613806 22.211548 -8.811053 -3.4081385 -9.685551 -14.479378 -15.589332 -26.727997 3.5223832 -24.511803 7.7872334 14.048315 -9.470704 -15.605499 -7.949426 23.813808 6.112308 13.684053 -13.388019 -1.535514 -60.04262 -13.496628 12.865511 -6.24133 17.357412 15.885066 33.257126 18.69617 16.51881 -4.3355846 7.730794 11.308433 5.9855504 -12.75616 9.728935 -5.7658334 26.15726 7.010387 5.926308 -23.911814 11.735942 -1.8444363 -11.126307 0.6976983 -4.2464 -5.5247016 57.97046 -11.693142 -17.31763 8.885666 -10.805648 9.98249 16.549921 42.51329 5.3522334 14.186424 -2.8940973 34.54662 -3.221969 -1.9921556 -7.1951585 -20.862892 12.610375 -51.05668 -44.251465 -33.568027 16.850668 8.577121 5.333715 -13.423658 1.6055536 18.333681 -1.1796265 28.07198 7.113084 -7.293095 0.1830594 -8.925033 -5.058906 26.767439 17.102146 -11.0353565 5.91434 -34.547043 -11.736758 -6.6563087 -27.44928 -21.12227 -11.995337 27.68378 -28.144428 -10.153196 -16.36236 -54.008904 3.0472677 -16.454645 18.261923 -7.0918236 23.755598 3.5948825 19.002943 -1.4585054 -11.57565 19.375105 -0.45779794 17.898623 -10.421721 -4.4153404 31.97977 14.691869 31.667664 30.734524 0.09606115 -12.558022 25.472801 -18.555243 -9.515561 -50.732727 -11.877149 7.336106 -22.302517 36.87215 20.564632 -6.445383 22.064804 -24.877537 7.7254515 -15.583763 -3.4794948 0.39442113 0.63630044 28.052246 31.919752 4.8768797 -22.569065 8.308106 -8.710862 1.619555 26.438984 -0.016961694 15.633016 -7.6011524 -11.026229 -13.9803915 9.018705 16.382399 -26.82161 -16.552023 25.329718 11.343917 5.529861 22.374796 -2.3271964 -36.87237 6.366797 14.034817 -10.764193 -10.987997 -1.8682379 -0.8848567 -19.659143 11.457993 -13.140272 -4.272213 4.4761868 -11.139834 25.010986 17.075861 -8.230483 -40.38478 -18.038853 20.525688 -1.0903511 0.27010626 -9.305947 -9.595553 2.5220876 27.056597 0.84890497 -1.5254378 8.389584 -28.47736 -5.504212 -14.678559 8.228775 -1.4821696 8.910151 -12.182849 -2.9040887 -24.555155 2.387292
*dt_7 -38.849365 20.867311 -23.213526 5.029366 -4.672723 3.72301 -14.485711 -13.644603 2.1955733 -19.329498 14.907089 -4.9078674 -14.116898 -3.8668127 -10.452901 -1.0985777 -30.903162 2.4868832 -26.042467 16.390272 9.79233 -10.773323 -9.830896 -13.515258 20.5827 14.811027 9.823649 -7.405499 -2.0454693 -46.99623 -13.650143 13.196793 2.5838778 17.288553 19.047352 23.67361 16.778316 15.340972 -11.582935 0.61143804 5.815839 7.620463 -8.781511 10.816202 -6.785061 27.966545 -0.38869193 3.8537762 -16.49671 18.351414 -6.231308 -14.635959 -1.0787604 -6.113811 -20.211216 43.677635 -6.584152 -16.224497 3.6254964 2.5358262 5.25341 10.6508255 41.46882 7.9084277 13.4873705 5.1530285 30.306479 -9.765713 -6.2515903 -16.25754 -12.999632 11.071441 -47.15865 -44.733875 -32.393593 16.014158 4.3313756 -1.3601995 -10.09272 7.563093 13.52725 0.22946955 26.41804 8.447972 -6.0057178 -10.042312 -1.2571831 -1.679685 6.7028365 10.570802 -11.65192 1.7200032 -44.241962 -14.768414 -8.47257 -22.942314 -17.528328 -14.503041 27.163816 -23.32316 -3.4198616 -11.547106 -59.215828 1.9526533 -14.579446 27.159908 2.0401886 26.41187 3.1714878 8.660819 2.014701 -6.7344985 22.368149 -2.3090343 14.828294 -8.412838 -6.813863 29.494047 18.809525 30.969286 33.805687 3.3714125 -5.7182407 30.000866 -19.1701 -1.7346847 -46.665085 -4.5843925 8.423827 -16.12787 33.977646 20.901867 -12.432334 16.418175 -25.394342 18.742262 -7.3397827 9.764974 -2.0860643 -5.6565604 18.160906 27.827782 13.694939 -29.770792 8.481391 -14.011188 7.4027476 23.668797 -10.665887 16.430054 -14.774324 -14.59942 -12.071103 11.454928 13.844908 -32.673023 -20.800182 21.772358 -2.058748 3.950134 20.848356 -7.562689 -32.1865 10.804147 10.570772 -11.718613 -7.3695908 -1.3142666 4.8669558 -23.118021 8.524769 -13.994005 -7.5150175 2.2065475 -13.022659 31.891474 23.610104 -14.056798 -33.472843 -7.7147603 18.104301 1.1311297 -0.8137089 -4.0536604 -0.57210535 -1.7600133 32.547894 20.577854 1.0147611 3.1043365 -31.696602 -6.268564 -9.297138 11.071361 3.39434 7.9666867 -14.669286 -6.197134 -25.618992 1.9155285
*dt_8 -49.57441 -0.17886361 -14.242687 -4.3664064 -2.2184918 4.8029785 -1.7839286 -17.093933 -0.6018615 -11.094304 23.927496 2.1741328 -16.486116 3.394303 -24.07607 -4.4839706 -26.961277 17.309574 -21.862211 4.6445055 15.63892 -13.244102 -21.493267 -10.0137 26.08294 12.694757 16.777536 -15.42464 -10.143833 -59.16687 -17.725122 18.523932 -9.9644 14.647321 10.0615 33.135303 18.655426 -1.1986382 0.018983971 1.8878645 3.8231964 14.14511 -12.825085 8.412846 -13.338011 23.894005 13.750463 1.3264378 -20.809315 12.647046 4.145408 -7.1444597 1.6865569 -2.899549 -8.464356 42.110867 -7.3381314 -9.304927 11.919821 -4.4418273 13.709758 3.3502758 37.845234 -7.5621777 12.667853 2.239497 33.241135 0.09726227 -8.238885 -6.4715514 -17.722439 8.59482 -40.002983 -38.94262 -35.10121 12.361691 1.370434 0.83353275 -10.773943 1.4628352 19.591303 -4.2919793 26.229689 -0.11018058 -0.9290767 1.0098486 -0.6631678 -12.111699 22.654356 19.449457 -17.586788 10.411232 -31.653706 -9.461612 -8.068429 -19.986788 -16.559128 -7.6829176 29.949495 -22.41784 -8.522124 -18.216818 -57.11991 -1.9977516 -3.391097 25.745594 -0.33484733 21.90941 1.1014235 8.087002 -8.942791 -15.961894 21.57352 -1.8064228 11.422721 -6.8098288 -7.515184 26.884727 5.487833 23.158413 35.1375 5.914593 -7.6379004 18.920792 -22.81675 -5.406131 -45.0375 -15.563854 2.5788941 -28.584574 37.4305 20.833044 -9.7118025 17.107405 -22.291903 19.295282 -16.822403 -2.1791945 -4.2029634 -1.7072427 28.190842 20.984503 14.768384 -18.773335 6.5352373 -18.364864 13.424156 14.125122 -3.7186596 14.801004 -5.6514745 -2.0248392 -17.986704 4.552726 27.729853 -22.380503 -25.839336 18.491556 8.93898 11.665635 19.286926 -1.2252219 -27.247002 2.9318674 -0.13585879 -16.804075 0.04251561 -1.1961639 1.5048369 -15.943903 12.174959 -14.789106 -13.960729 -5.093013 -11.151905 12.941572 21.105238 -3.7474473 -45.61316 -11.835229 16.700802 -6.6309094 -5.814704 -6.245392 -13.443586 3.6133895 31.86369 13.498093 -7.6533856 -5.777457 -22.009628 -8.770708 -3.7850935 12.208681 2.7317462 8.822479 -17.510723 4.4704113 -17.329424 5.533312
*dt_9 -44.180637 10.805347 -15.601286 -7.019809 -1.1881738 4.532242 5.3985233 -37.10653 -2.2965894 -20.681793 27.573853 -5.3354425 0.09099085 0.17098148 -19.432768 0.16679806 -30.682358 -8.521495 -23.076164 -3.710197 20.1679 -14.168885 -16.55463 -7.0430346 24.734863 20.009258 11.55955 -13.625373 -3.608806 -48.260056 -10.032877 16.379143 9.976837 7.7085395 8.361028 27.210754 1.1252406 -3.8781936 -10.254904 6.0477033 17.71019 3.1235785 -14.8247 7.9088035 -22.182066 18.024427 16.534468 1.0653255 -34.868523 -4.8278775 -6.5858345 -7.0666213 6.053349 -7.7210093 -3.0822785 48.56593 -21.686382 -4.4560003 2.423815 -16.309662 15.362177 14.621341 44.509777 -2.9982255 15.50724 -13.76022 35.556873 9.445716 -4.3252964 -13.654088 -10.199897 24.04383 -24.75555 -39.411926 -47.36796 13.570766 7.50698 2.1302812 -8.784512 -1.1196623 8.73878 -6.3992696 31.355556 -2.538466 -6.8440228 11.834031 -7.0533395 -9.372793 24.555521 22.679575 -22.038315 10.18211 -32.297127 -24.496286 -11.735925 -22.366024 -11.810522 -5.8351293 36.737747 -23.004599 -0.8632266 -23.506763 -65.561676 7.378943 -22.799822 4.8417716 -5.0835037 21.690182 -12.475823 6.4105473 -7.129094 -15.077577 17.864895 -11.529454 23.73638 -2.5084429 -15.545416 22.037909 -1.4404187 32.667515 22.739527 2.0132456 -20.896326 28.525675 -21.003536 -14.326823 -41.054077 -16.648264 8.818016 -36.36014 36.11938 22.328585 -7.912047 19.106201 -26.920397 8.908822 -13.077275 3.067099 14.069143 4.9317513 31.433153 23.90597 -0.22158346 -20.847054 -0.054242667 -17.869389 1.2093127 19.83214 -1.0497932 27.098543 4.25706 9.021176 -16.503742 11.809413 9.913471 -13.435686 -24.306564 19.096355 8.958621 13.806989 22.712002 -6.713892 -15.358645 5.5107045 12.102487 -12.627554 -3.0433912 -1.9577678 4.9184937 -22.28568 6.7766843 -8.40059 -5.7234583 5.2883344 -4.239034 7.2665267 23.747068 -0.9156952 -37.654865 -19.264519 7.2898293 7.026141 -10.805652 -1.0656002 -7.0633645 3.5321817 26.77524 12.815515 -9.347892 -10.608886 -20.874939 7.150531 -20.645233 8.778985 9.538812 11.330767 -19.909924 11.112641 -8.214838 2.8568227
*dt_10 -54.486023 17.765947 -24.176628 4.9738145 12.857452 -4.515914 -5.332972 -27.965391 -6.393403 -26.691778 37.38133 -16.156143 -3.6409612 5.145779 -20.437834 -6.3022294 -12.419587 -11.440505 -32.450356 5.011309 18.164114 3.8842123 -21.703918 -20.662867 22.297785 21.079649 29.448864 -6.018008 -1.5447873 -46.874302 -11.191863 15.257109 5.578116 7.179884 14.3369055 31.735804 13.552634 14.287124 -14.295266 5.0340786 15.978697 -1.8875843 -28.928108 22.810673 -17.894793 33.29205 12.905436 -3.1622787 -21.157429 14.428564 -11.458539 -18.015785 -4.040744 -9.86352 -11.284133 70.75916 -27.184113 -19.100113 -1.0924553 -26.512173 6.069076 14.98912 55.460987 0.65875447 5.657739 -9.373597 40.368214 -1.314543 -8.255757 -13.55951 -11.788261 17.135513 -60.461205 -52.400112 -57.63949 22.585842 16.167622 18.82625 -29.466549 0.12689051 14.658058 11.591986 27.214813 8.402808 -21.131655 -3.0478935 -5.4866266 -7.232366 19.504257 11.270192 -14.571412 10.082272 -44.99182 -18.20855 -12.457072 -29.157335 -14.7112465 -13.491693 32.591774 -28.325872 1.0280304 -30.111074 -69.42953 2.8697531 -22.018986 21.494978 -0.7289185 33.940212 0.5198518 3.3327985 4.9455566 -9.574557 24.090286 -13.302492 23.310972 -4.5513525 -6.067709 34.032993 7.8203144 41.810806 16.475468 6.093298 -18.129301 38.900215 -19.22514 -2.722661 -50.426304 -11.354267 8.595668 -23.185715 38.591595 21.010717 -7.0476804 16.747606 -29.876518 20.23795 -1.7821872 4.1204133 12.506384 -1.6644766 38.80377 37.979584 -3.053784 -36.871696 13.461289 -27.427313 -5.6848598 16.676355 9.875755 40.42291 -3.852892 -10.0659075 -13.435445 1.948132 13.682936 -31.478981 -6.6107225 6.238775 2.5303328 13.84639 26.276731 4.684367 -38.13684 5.899173 10.006179 -11.02216 -1.8030235 -5.5223947 2.7897565 -30.701666 9.364385 -9.467816 -4.6051183 -12.791779 -9.048164 29.438879 20.209019 -1.8692524 -45.88328 -30.126406 2.244532 2.456863 4.7524176 -2.064178 4.155822 15.474246 22.58716 5.468987 -12.406565 -0.30933723 -30.492434 12.316237 -9.580505 2.0661728 9.669081 9.237595 -20.701439 -10.053847 -20.729391 -9.008762
*dt_11 -39.66128 22.213291 -9.818487 4.867559 8.009255 -14.560661 4.057862 -20.232899 2.063209 -17.987097 27.787127 -5.711676 -30.502428 -5.388748 -3.5878863 -11.151366 -0.85919297 3.7903612 -12.397623 -3.4161866 13.450053 2.6946826 -25.231718 0.6021852 15.836942 6.0672197 12.045449 -25.399933 -34.087914 -48.27327 -7.458651 18.57527 -9.421437 21.830456 -2.839274 16.8818 15.41706 11.573579 -6.930501 14.356278 -10.145943 -10.513598 -7.786231 12.687389 -13.938658 23.225142 19.443472 8.315288 -24.241817 18.988863 5.869453 3.6587272 11.76203 -3.4268262 -23.995144 45.18147 -0.70726526 5.9963365 20.355007 -9.902991 6.0554976 12.407211 56.24268 -5.9090075 12.135228 -5.854214 18.911915 2.5339103 -1.9408941 -16.500357 -8.9419155 23.987535 -48.833717 -35.485104 -44.936386 10.701293 1.0136522 7.3644276 -31.586096 0.97857124 16.923662 15.523178 17.087992 -1.0503463 13.813821 15.576997 14.709052 -21.47109 29.514162 20.841627 -17.470093 25.954195 -49.733078 -20.797663 -9.730077 -33.61822 -2.3544164 -8.677701 35.40842 -17.394712 -8.018546 -18.290373 -60.94394 -12.3691 -14.6903105 30.09189 -7.3358793 23.403711 6.958215 3.3706667 -13.466123 -24.859188 24.347176 -14.870834 14.989136 -2.728436 -2.1245015 24.10383 10.451396 37.82516 32.894653 11.61638 -8.436526 13.274675 -19.92689 -8.785521 -38.624928 -16.943129 -4.964906 -36.20713 29.881514 28.752851 -3.1757429 34.16896 -10.892934 -0.018193189 -21.944567 0.54161066 4.5740204 9.093271 34.588387 40.996464 -3.623259 -28.120163 0.58875877 -24.153337 13.433665 14.449794 7.808211 27.292103 -20.640156 -11.237403 -26.489643 -0.55957603 16.458715 -15.938902 -17.403984 11.499077 11.366261 14.527387 16.61975 -5.2937984 -34.30198 -1.2903209 23.781157 -22.1661 -8.0330105 2.188586 -0.5771671 -24.562782 16.833324 -5.4833274 -11.051545 -9.104439 -3.6866164 29.06056 -2.159209 -4.7472267 -46.258137 -21.551422 17.453714 3.1896734 8.695038 1.0814202 -7.632389 -0.16036654 12.238081 26.283371 -10.093258 -4.886444 -24.50609 -4.373556 -10.30019 14.038306 7.676963 16.68552 -5.3889713 1.6623824 -31.669054 6.5376277
*dt_12 -51.621696 -0.31469688 -12.162958 -1.8829782 -2.4644775 5.5716977 -0.51485866 -22.024569 -4.173786 -10.531866 19.248901 -2.4235964 -3.4626653 -12.383676 -13.783892 -6.0959306 -32.05577 1.5183245 -17.777714 8.737907 11.023861 -12.322671 -12.997439 -6.148855 28.943182 3.7674398 12.906629 -18.733263 -2.19858 -55.40907 -17.652658 18.309793 3.62432 14.201034 17.17013 30.041193 14.6310835 12.138398 -1.42734 5.2862277 11.307751 5.0301213 -3.1865153 5.5523524 -13.644011 22.002836 12.333011 7.3940644 -24.5282 0.7984981 4.6764946 -3.8063006 7.262317 -7.7810335 -3.5086963 42.82649 -11.6730175 -6.268241 3.416295 -8.952391 13.335793 12.137766 40.86069 3.6053126 11.003732 -1.5022907 30.819021 0.30507126 0.9165959 -6.595774 -20.158941 24.012787 -38.89439 -28.92861 -38.38064 21.487185 4.787031 -3.7276068 -7.23491 2.5660777 13.780968 5.36776 27.24005 -9.468128 -2.7284951 7.229526 3.1443682 2.2299223 21.784632 22.406145 -17.497366 8.446291 -40.36828 -22.68771 -12.987425 -27.614265 -9.605039 -12.794349 34.96019 -23.209524 -3.2793531 -10.653466 -50.6931 3.1968749 -17.977991 22.551506 -7.6358466 20.495304 2.8209064 9.2410555 -8.705552 -13.42131 22.99952 -4.769438 17.321037 -14.278343 -5.2908945 30.454111 10.720478 33.90233 25.170208 -5.0994344 -7.352152 29.870731 -19.770414 1.28792 -40.029655 -7.8822103 12.615168 -28.874546 33.588905 16.004366 -6.916207 26.776018 -21.52762 12.064368 -13.724319 -4.6752205 1.3474815 1.7817028 27.169905 31.952412 3.4182649 -21.260296 1.6224053 -16.678495 7.049992 23.325777 -3.9840896 15.179488 -12.567773 -4.1841593 -20.355576 7.4531913 14.384172 -23.00915 -22.104052 23.599672 7.3475156 -0.75536776 29.8123 -10.663823 -20.836243 0.2184464 13.61058 -9.6168585 -3.9401195 -1.6866673 1.3566495 -24.079676 14.870838 -10.724246 -5.05046 5.6190886 -12.118694 10.89842 11.940165 4.728608 -42.542126 -20.27172 17.575289 1.7859528 -3.7335265 -7.3489885 -13.3322735 3.2034893 25.829548 5.6093936 -12.878349 0.49510914 -23.248158 0.68642706 -16.258057 5.051846 1.103737 14.724148 -13.595499 4.6513786 -12.519408 2.197377
*dt_13 -37.72497 12.328756 -8.108248 4.990704 3.9750047 5.6912494 -12.847913 -20.058277 10.255639 -8.18568 14.735849 -2.7904415 -16.307102 -17.576668 -11.206568 -7.411491 -41.123825 4.141139 -37.164524 22.7812 1.3740509 -16.620289 -2.642292 -13.322245 29.795332 11.646529 4.2762413 -29.574354 -5.850226 -64.596436 -33.532303 11.626001 -1.7600363 19.53365 24.386951 24.404778 27.05602 20.4406 -3.3506522 -1.8154699 12.988805 15.417226 -4.445371 0.7468316 -2.546166 18.14737 -1.5045003 17.781973 -17.86183 7.433854 -7.675795 -6.572547 5.2345266 0.5843589 -16.808561 51.046673 -4.626796 -10.083269 5.6452446 -1.2994812 16.157068 16.796568 48.92122 25.563873 14.28742 7.6538324 35.483074 -3.372348 5.742 -14.636319 -15.639371 19.531013 -46.53874 -35.943172 -24.846413 19.116858 -1.2112885 -5.5256324 -6.7317514 8.144215 14.130848 3.227622 30.372467 -7.878214 -10.021051 -0.80549234 -6.825611 9.683039 20.332733 21.888536 -10.730116 3.374692 -39.468517 -12.176112 -13.47085 -28.95533 -24.478718 -26.885006 28.179058 -34.09065 -6.021708 -3.0843105 -51.42506 3.4903822 -14.4722395 22.679777 -10.92385 30.938416 -2.2916493 20.238003 1.3496196 -8.105984 12.119044 -5.2201138 18.332457 -13.87678 -3.9338613 43.03825 22.594542 38.9158 38.33606 -3.1579208 -3.1909232 28.448753 -25.018406 -0.62342656 -56.910183 2.4880004 15.439879 -18.803879 35.491123 18.78754 -6.1388354 25.123138 -24.253672 4.0834546 -15.734411 -6.937114 -7.286937 0.30201378 13.210644 29.401466 9.361002 -23.067106 12.311429 -8.625216 11.229443 30.40182 -18.719492 12.065906 -16.178627 -21.402016 -5.4498315 11.386681 17.539652 -28.153816 -26.013977 24.164577 0.83898956 -5.2049713 30.001198 -10.0044155 -34.11181 -3.5132577 22.74091 -2.174759 -3.8020446 -2.1556337 3.4346702 -36.238377 16.03128 -20.816263 -3.6340914 15.197963 -19.44484 28.685125 14.696465 -12.447767 -37.896782 -13.712381 26.137728 3.5019717 -8.92843 -13.658909 -11.875763 4.0179667 39.321648 13.980882 1.1318487 17.144835 -39.71274 -5.8335295 -21.447775 14.640054 5.2707696 8.993712 -9.500523 -3.8911662 -27.890642 3.6320941
*dt_14 -42.164646 7.784103 -9.434616 3.492246 1.3219097 0.9389696 -7.8262806 -24.021494 2.480059 -14.780965 19.382875 -14.320278 1.1573111 -3.0525835 -1.8269126 1.198108 -28.499395 -6.196613 -27.150114 6.0565176 4.1356335 -1.5956588 -2.318298 -5.415646 26.138884 13.137824 14.896768 -12.667363 -14.007845 -43.088398 -18.002245 15.085679 5.286773 11.843693 20.827625 25.688757 17.069193 17.73531 -5.723078 0.8958454 7.857413 6.699873 -4.9847293 16.10207 -10.851192 22.77117 0.85242 19.265608 -18.938887 6.8629036 -6.7302237 -0.29372752 -0.816145 0.77709 -11.769623 38.073997 -9.376232 -12.117861 6.109458 -0.7988695 7.2822533 11.044975 35.5265 9.748274 0.57102346 -2.2235494 26.649277 -4.9705763 5.700354 -7.9772024 -17.324741 19.753567 -37.555435 -28.843056 -30.188986 19.212389 9.388557 -1.6961881 -13.169479 -2.7382257 17.067736 4.5304503 25.207766 -9.124651 -13.170486 -1.472825 -0.24962941 2.1134388 12.020205 8.2990465 -19.301445 7.2510166 -31.470888 -14.3915825 -22.387474 -13.27769 -18.229979 -19.190557 32.70543 -27.086569 7.599156 -3.0131397 -45.10678 0.30234206 -12.023936 20.179272 -9.184619 27.960503 10.41601 6.5664625 -11.654862 -13.260893 15.627425 -0.9218761 13.691761 -11.064966 -4.3863387 38.12476 26.441782 29.032883 20.141674 3.7883291 -0.48490798 23.787252 -11.233559 9.679965 -31.832333 -2.7849665 6.5473285 -24.396646 21.193861 10.603133 0.5470849 15.864454 -18.759962 19.11839 -0.5222466 2.8698907 10.96883 8.138674 21.773127 19.567791 -6.0616474 -23.671797 -1.7931544 -20.493366 10.124776 15.128741 -0.45493507 14.096798 -12.300419 -12.419312 -6.921887 5.8532057 13.921785 -24.978424 -18.294746 28.553549 3.4610324 7.9411697 21.710983 -3.6016054 -26.994202 -3.2192006 21.592794 -8.354657 3.4455864 -3.0234528 2.6631036 -30.397429 13.44356 -14.11992 -4.6177516 3.889011 -12.004266 18.891335 4.9765453 4.6241426 -40.89213 -5.828678 16.267317 -5.8574166 -10.354318 -1.2840463 -12.876908 8.463384 23.368675 -2.1600697 -15.232869 8.079578 -26.736818 -0.010174155 -14.802158 5.566494 3.6589382 11.743543 -2.6095183 1.1542386 -3.2303333 -0.9683526
*dt_15 -26.313372 25.791985 -39.80493 15.431997 22.693472 3.6340518 -16.23541 -4.352453 -7.5505476 -26.996801 22.933405 -10.578867 -4.4219694 -14.458092 -6.214355 -4.8138375 -17.939453 -10.810767 -10.277428 6.4079323 9.305743 -8.295085 -9.649338 -4.3337975 17.319958 11.801628 6.356224 4.081181 -5.831996 -30.794079 -9.7122 9.364524 5.073714 14.213678 6.708663 15.5096855 7.91714 14.857659 -0.6578664 9.783032 12.531415 8.5671215 -14.77335 20.521688 -14.948668 21.961721 1.1374166 7.3027935 -27.823656 9.162282 -6.487193 -9.451278 -5.737187 -12.52458 -0.10332733 46.911243 -10.762303 -26.928286 1.4692489 -13.5365095 7.1558247 18.207916 33.771603 6.2780967 11.6958685 -6.2413836 42.378105 11.71772 2.5285327 -15.910314 -23.665064 15.756833 -40.01395 -48.630013 -22.712881 11.133749 10.098284 3.1831195 -5.27906 6.564076 12.220036 2.0036435 25.516203 28.990082 1.3210963 -5.953984 -5.3784285 2.572323 7.53364 5.4521947 -15.641364 -0.5276254 -37.397354 -9.596294 -3.4994864 -26.756783 -14.488848 4.847208 36.26945 -30.17372 -13.731002 -6.0885954 -44.03534 9.752874 -15.988895 20.093208 -1.7739774 22.302338 14.953249 15.112752 14.990196 -18.490091 27.431948 0.82051337 20.092985 -10.4414215 -16.188755 37.792416 11.587355 20.250984 27.410936 -2.9805083 -16.964846 33.223278 -5.6812916 -10.829155 -38.902634 -12.124981 9.987047 -17.013918 30.461575 22.614328 -15.810615 -0.9194579 -26.22492 16.50843 -8.926724 5.4538655 7.171239 -5.1414924 14.79495 26.467987 3.6631346 -27.68867 14.675057 -9.881488 -10.970421 21.252548 6.352913 28.678646 3.459083 0.32479048 -7.740023 11.452835 -5.5838885 -24.345112 -6.7458506 15.736666 13.146521 -3.680733 16.649466 -2.1652138 -28.221338 16.99703 6.477286 -21.666248 -14.493092 -0.36252972 6.94102 -13.412273 -2.031783 -3.17487 -8.479422 -4.994612 -7.989873 19.507092 26.693462 -8.276481 -29.478504 -9.031206 16.959368 2.5256522 0.8070334 -2.305689 -1.4144095 6.823749 24.998312 -6.8857064 -0.15510544 -2.8717456 -30.505817 -4.265365 -7.368035 -3.4571078 -0.85420847 13.9184885 -1.0287175 -16.040518 -34.809505 3.017612
*dt_16 -45.746323 4.893949 -5.285477 5.1660295 -13.049397 4.4407725 -16.004202 -10.04191 7.4069753 -17.177322 14.729917 -3.474675 -11.240191 -1.9067531 -6.3259625 13.8899975 -30.724554 2.340343 -21.60926 21.98166 -8.226854 -8.988569 -3.9387236 -15.840448 17.859615 19.84186 9.767056 -3.9692519 -10.8742285 -42.344273 -22.627583 15.063007 10.019465 6.1535816 16.654804 23.051853 20.180124 16.665117 -9.753189 -5.2300215 -1.4944803 5.5042615 0.8500982 13.029112 -5.1842003 19.181774 -2.6443584 4.1562524 -12.870967 17.39403 -0.79408306 -12.945058 -4.438859 -3.1602376 -17.443031 30.555756 1.2287987 -9.464638 6.0458155 9.763331 4.6073866 13.984758 37.30763 9.072697 6.0856996 4.936983 27.506395 -21.538042 7.6257634 -9.323466 -20.106651 3.9196975 -56.294678 -24.815323 -23.030935 26.445406 5.587254 -5.8661118 -12.05865 1.3180978 8.638968 11.973017 24.933153 -7.3678756 -10.587106 -5.270911 5.9532595 -7.3516083 4.65924 13.341287 -9.387544 8.705802 -38.8285 -12.3996105 -6.851721 -14.556112 -11.47668 -23.458647 32.439568 -19.85258 -2.7803855 -5.0003443 -42.651028 -5.564901 -19.189579 32.933464 -1.2008855 26.11104 9.004643 -4.454824 6.266936 -3.2396982 19.916065 -3.764759 11.693759 -14.544083 -1.6534345 40.126938 31.853525 18.738495 29.9993 8.3958235 7.4382696 27.404566 -10.288102 15.144457 -27.228014 -1.76905 5.9137106 -20.468925 29.542902 17.842255 -2.462318 19.712555 -5.951008 20.636166 -10.573289 1.0727684 -11.291144 -8.096134 21.139559 26.249798 9.519492 -21.37249 6.7090178 -17.396883 8.861733 17.316992 -1.7805552 6.6111026 -24.770962 -12.85822 -13.019708 6.2572813 14.335251 -31.217022 -25.672552 14.753796 -1.4940257 3.283212 21.583477 -0.8198009 -37.458515 5.378622 7.7875533 -3.3382978 5.0653124 -1.6435078 0.5041507 -19.68144 12.144934 -26.106522 -13.61182 8.801342 -13.96911 31.17451 14.802934 1.3991768 -35.017426 6.4895763 25.115765 2.155736 -7.272698 1.7699322 -11.611841 8.51846 27.348743 23.634687 -15.468229 3.4774609 -33.23941 -11.3415985 -8.119104 13.193153 -3.808351 11.403323 -8.508341 -5.9900403 -7.821035 3.490137
*dt_17 -45.058674 13.502019 -18.55247 4.55777 10.7348 1.7206327 -4.2147584 -29.102686 -6.205093 -17.836134 23.84987 -6.775215 0.6326083 7.7498627 -11.081252 -4.5720654 -23.662256 -15.721268 -25.685442 -7.2290893 18.594654 -6.8779535 -10.607511 -7.69535 33.407513 18.228544 19.96558 -14.585066 6.947487 -46.558056 -2.2890232 7.0105762 3.665285 2.2690053 8.046451 20.649734 6.8454123 -9.403746 -0.66398704 1.6935933 26.529379 -10.896295 -15.4229355 12.137791 -23.403439 12.985798 10.678756 -4.6317077 -29.899275 0.71515715 -9.814039 -10.1911955 9.767466 -2.4534903 4.2863836 52.42015 -20.461662 -12.579229 0.10088897 -16.702087 18.024422 16.308088 30.618298 -1.0188682 13.087306 -22.58856 32.674026 12.704438 -0.80868244 -7.134632 -16.19222 29.725664 -20.487581 -41.650192 -40.31237 15.81454 2.5763392 2.9470506 0.26347542 -10.486187 7.835281 -3.0581622 31.005445 15.427252 -12.836424 5.354602 -7.090849 -5.4192634 18.827335 19.833763 -22.887413 16.369833 -41.14302 -26.649324 -6.6590204 -19.747746 -18.841547 10.754371 29.271242 -22.414778 0.54693437 -28.629194 -61.973114 11.539317 -14.00558 16.038843 5.9383426 26.230747 -6.576441 4.531871 6.9508286 -2.5305188 15.908731 -9.875337 21.929092 -3.9528692 -18.930439 29.362837 -10.254082 29.378801 19.084581 -7.057048 -7.8776665 28.604195 -3.5894365 -15.914311 -41.10513 -18.120146 7.480483 -34.97459 33.403732 23.33242 -17.6051 1.1009958 -29.009935 7.180563 -6.0608106 8.300974 37.85406 -3.1397061 30.077368 20.974771 0.54251105 -19.21146 3.8788767 -6.48137 -11.966289 20.924438 -0.48752683 25.669878 13.440942 7.4617167 -16.396107 3.80727 9.400043 -14.149531 -17.034273 24.27892 14.593865 8.324408 20.534605 6.6674147 -2.4011607 2.5336087 7.0312133 -21.161797 -7.6397324 -12.09359 7.9343605 -22.918304 -1.8408203 -17.75833 -4.5750937 6.639026 -2.0598814 13.720611 25.564856 13.414975 -24.841904 -11.003033 14.058134 3.7566516 -4.274159 3.9435782 -8.43328 1.9812775 22.716185 9.693732 1.1028929 -3.3356943 -22.55323 10.999155 -14.926955 -1.6163597 16.57863 16.61583 -1.4612322 0.25936532 -27.65185 1.5787339
*dt_18 -37.16808 17.596598 -31.224354 6.083116 5.928013 1.4864136 5.3835044 -9.167179 -9.672554 -11.808325 15.739766 4.1270013 -7.369674 -10.276186 -12.539539 -18.078224 -10.974436 -3.5193346 -27.495365 8.876655 14.741547 -6.1000686 -14.885647 0.48953882 27.256468 -3.5852757 3.425591 -11.06899 -6.0710516 -38.009277 -3.87592 13.238139 0.11730369 20.907433 14.377887 19.90461 -2.7063484 7.35378 1.4504105 -7.8800454 20.97708 -0.3266449 -10.712774 6.857336 -14.63966 25.66646 -10.631618 -6.0160446 -20.742176 -5.4794583 7.3419733 -6.1982527 9.468158 -11.644723 -3.5632534 46.13813 -9.83907 -13.454649 0.8275276 -9.417965 9.66449 10.670214 34.09536 -5.393928 12.982192 -3.5501657 34.802715 2.307633 -12.437169 -10.862534 -20.424883 13.554097 -35.898754 -46.389534 -31.215181 -0.4317677 10.191537 4.2606897 -22.568735 -0.9758173 8.012419 10.07086 18.469069 12.146119 -4.3885465 5.2003617 -2.18524 -4.5822873 15.738102 20.324398 -11.229996 -5.3065243 -34.140446 -18.831354 -3.7298439 -22.77228 -15.741571 -5.782232 37.868725 -17.38004 -4.7497983 -18.782993 -59.017025 7.759125 -10.674993 14.024384 4.4896283 18.479801 1.0990269 15.69966 -7.511289 -9.060858 23.309135 4.617314 11.413517 -2.1006265 -5.7859054 10.63422 -0.7080853 20.669117 36.16933 -5.912228 -15.117285 33.041477 -11.408224 -2.5984797 -34.20379 -12.853851 9.780412 -25.61461 26.2151 10.339689 -7.1970763 14.973355 -21.349722 3.141589 -10.740518 4.292869 14.863556 2.4411838 19.524673 33.27306 -1.6693876 -26.694443 -1.0861685 -7.147646 3.9015698 20.413866 -10.890828 7.906466 -6.6711717 -7.9576254 -17.04073 6.732117 13.570081 -17.066301 -5.3628106 17.060507 8.463516 12.28948 18.06166 -7.931894 -16.67052 -0.8865139 12.765974 -9.726963 -6.416547 -3.947409 12.359169 -20.442184 17.158646 -18.818878 -6.4558673 0.056566864 -19.952631 19.048714 21.178957 -6.271332 -29.556902 -24.37646 9.002351 5.619938 0.69076365 -3.9565737 0.93880343 -9.020404 20.843185 9.908191 -6.7372994 -10.380768 -12.980985 4.33387 -8.110149 2.708358 -1.5429145 1.577904 -12.328679 2.1570833 -21.249557 8.5451145
*dt_19 -29.75577 8.613048 -8.348569 3.2884314 -2.751798 10.01639 -5.896293 -20.10553 2.858038 4.235136 18.868338 -11.052263 -2.091003 7.6219177 -12.881606 -2.9342353 -22.233118 -3.8471882 -11.914652 -1.1688733 7.451497 -12.278002 -22.128448 4.351596 23.381466 4.726699 -2.974261 -10.289245 -19.825665 -61.118233 -13.749035 27.860323 1.1973697 10.29167 14.430226 28.460526 9.05368 9.7351675 3.0851746 -0.35125875 12.814449 4.6767244 -0.44766554 -1.9421737 -8.54172 19.749712 13.953323 14.094882 -25.783453 8.723999 -22.059658 1.1932222 -9.997849 4.60727 -5.5017343 33.913677 -2.478278 -20.34784 0.5843606 -8.028513 7.4963202 12.519386 17.44772 5.3545804 6.5501485 -13.745422 15.416473 19.468279 15.38933 -9.506097 -16.404987 27.49735 -25.929058 -9.901795 -25.186865 23.028063 -7.0860486 -1.3752207 -9.768471 -5.430042 21.22172 -4.3838444 22.54222 -10.463442 -0.07950796 12.621922 -4.911138 -5.5497026 11.85655 20.48916 -28.55577 22.001417 -27.518719 -17.35885 -17.770773 -17.687666 -9.246893 -7.007873 32.555454 -22.2236 2.4100616 -28.222242 -46.359646 8.138468 -12.881675 36.240734 -3.0993338 32.28298 9.290016 10.202163 -8.6703 -15.271965 15.516595 2.0122936 1.0264342 -20.012178 -14.42583 23.12593 9.776894 36.060486 25.274141 0.65422934 1.3063644 27.280012 -6.2154126 3.826651 -26.055944 -8.603044 13.006682 -27.415295 12.013529 4.1147885 -4.0531235 29.263992 -29.439407 14.004901 -0.3802801 -2.3798335 11.661057 3.3574603 44.651306 19.955511 -5.283765 -16.942125 -10.819593 -8.26546 9.996648 14.084824 9.433223 10.758543 -10.8457365 -7.1269283 -27.431303 4.9690733 9.983791 -9.802637 -26.561861 32.66883 7.19956 8.589269 24.636955 3.787533 -12.233313 -6.8211865 23.475542 -13.313095 -7.2377915 2.70428 -9.788627 -17.13818 10.306932 -25.686295 -1.1281493 10.028969 -10.532457 11.317117 14.915506 9.558295 -28.97001 -1.7198001 15.42218 2.8574357 1.6025518 3.7401633 -20.52413 7.4924345 21.208872 -5.368608 -11.239808 3.3738985 -33.160458 -9.318948 -5.588415 3.8044512 7.710956 23.094942 -3.024615 10.462828 -7.3273306 0.17083877
*dt_20 -40.609875 13.844022 -17.794868 1.6884917 8.559849 -2.520157 -1.2594159 -28.627052 -2.1272426 -20.899405 21.317646 -8.032534 -6.3090577 -3.2168605 -8.805734 -13.09657 -21.621038 1.5713956 -33.33847 4.152473 8.807364 -10.577762 -12.327866 -7.912915 34.818565 16.213322 16.885443 -18.717743 8.172795 -45.89 -11.914809 8.29828 1.5401043 7.2148714 16.469265 20.678837 18.992983 1.8511384 -0.13407567 1.7792375 23.980848 1.722113 -11.074659 8.258033 -11.953163 26.777817 1.3113282 0.6612939 -18.950495 0.9235181 -7.483976 -6.949158 13.8526 -8.893183 -5.7829013 48.74589 -12.282596 -11.880725 15.070373 -7.432736 13.165101 8.873396 45.169216 5.114067 8.692696 -8.937847 25.88669 4.0916963 -5.1024537 -2.831708 -12.3985 20.101616 -36.3415 -38.422897 -32.23949 8.8567705 10.09487 2.3854449 -6.848153 -2.2645926 9.759385 2.0934074 22.173897 2.1191087 -14.681836 1.7488296 -10.170482 -6.658889 18.82972 21.43041 -12.97193 -0.5027895 -35.06133 -14.0376625 -15.37953 -23.13165 -22.0129 -3.9254332 25.113022 -26.74261 -7.764153 -17.374008 -55.521046 -2.234985 -10.354132 19.991787 -1.9449482 22.20192 -4.979925 14.045116 -1.8017576 -5.547403 16.161366 -9.949205 19.935892 -3.256203 -3.5429904 25.674583 5.4206386 26.662624 32.161484 -1.2798358 -9.484937 28.040756 -12.567552 -1.6764075 -43.239883 -13.042005 13.991233 -25.260635 31.421217 14.0899725 -13.124417 13.4818535 -20.998814 6.103852 -7.509809 -1.0678891 13.284093 -1.1577626 17.112038 27.060389 4.0918274 -17.942442 12.800793 -10.587724 1.6507304 16.64868 -10.270867 18.192217 -3.7652578 -10.520668 -11.451097 2.9957376 11.501049 -19.909113 -16.740633 10.81966 13.127977 9.01609 16.52348 0.5690393 -24.85863 4.6400957 5.1875706 -5.082345 -0.6605176 -7.918034 7.4708505 -29.620955 13.595659 -11.130868 -7.2286386 5.814787 -12.13314 16.655687 23.519299 3.190228 -34.685146 -16.695772 10.352098 5.5112143 -2.4498353 -3.6339216 1.0384443 -9.479217 24.31924 12.025277 -1.0602103 3.0719247 -21.851067 5.058045 -15.622266 3.0415702 11.59667 4.0054674 -3.6071835 -7.3030925 -27.587547 -1.5388297
