5 200
*dt_0 -0.07998211 -2.0801654 0.43508196 -0.10040463 2.503731 2.976032 -1.2525904 -6.4572196 -1.4608036 -0.13602743 2.5284579 2.5250115 -2.0911648 -1.9206386 -3.4192822 -0.7708113 2.0904443 -0.32382756 -0.8773809 -2.0131545 2.869392 -0.58215696 -2.3849046 1.679991 3.5896862 -4.1165533 -0.18861215 -0.80413413 -0.3229115 -3.6051083 -0.007847799 -0.734607 -2.2818458 -2.2905612 -1.0270929 -1.214309 -1.3418753 -0.6614757 -0.08222071 -0.46642405 3.6120155 -1.3051661 1.3089478 1.4629122 2.865505 -2.5116045 -3.1267378 1.1488792 1.236542 -2.069195 -3.01774 1.0586951 -1.6228176 -2.5455534 2.043951 6.9463205 -2.6214488 0.83688825 -1.5627232 -0.63445795 1.2797834 5.383209 2.1027112 0.075071864 0.6121229 -2.9690418 0.44614488 -1.3405037 -1.8476422 -2.6662521 -5.046919 -0.15366635 -2.1459584 2.0084395 0.3648879 -1.1143492 0.27033857 -0.258297 2.1519225 3.761024 1.0411431 1.7812153 -0.17418602 2.4634104 -0.50289756 2.8812723 -0.14188409 0.010156606 1.3157084 -0.25455981 -1.9415514 5.038023 -3.493027 -1.2422966 2.1433277 -0.28401253 4.335792 -2.755165 2.6749563 2.7745135 1.0758958 2.1779428 -2.052291 -3.8173287 -3.6132247 -1.3663037 1.5127789 1.3721732 4.1478696 -2.4321222 3.2982628 -4.3298335 -4.9204154 1.7575171 2.371998 -3.5230546 0.41644335 -2.7355692 -0.17467229 -1.4449283 -1.2499987 2.9192722 2.453073 1.5312264 1.4597195 2.1896746 0.8204053 3.9639683 3.1044123 -3.5265317 -1.2146679 2.130657 -0.386083 2.1063466 -2.253227 -1.3261708 0.25260654 0.7027795 1.4770826 -2.0642028 3.5048444 3.2350318 0.62261283 0.17834046 -1.2057871 0.3234999 -1.5556096 4.945826 0.6722515 1.2729125 -1.7101626 0.55498713 -0.7477313 3.142134 -0.5229394 1.5627589 0.49471346 -1.676215 -2.446332 -0.4852131 -1.3880987 1.7134429 4.15578 -1.821103 -0.74376035 -1.1227102 -4.441946 1.216035 -2.4827538 -0.88673353 2.3539863 0.77136064 1.9188672 1.9194093 -3.4736156 3.9855227 3.7775762 1.319074 -0.11267648 -3.8261244 -0.5261396 2.719358 -1.4541538 -2.0378482 2.3401225 1.3245413 3.6054826 3.305922 1.4176466 -0.87435794 -2.3990471 2.5964565 -1.3552428 3.3444862 3.1878674 3.3950987 1.2766347 0.5906855 3.7151237 -0.027313508
*dt_1 -0.43545535 -1.9154905 0.6298959 -0.29659325 2.597352 1.6215512 -0.21330598 -5.753517 -1.5931461 0.4175143 2.0523162 2.0133154 -2.0493395 -1.3963594 -3.0800714 -0.54530114 2.4570167 -0.9905706 0.07287753 -1.3676383 2.4723675 -1.973739 -1.0465991 2.080918 2.3109462 -3.6166563 0.2011959 0.07505453 -1.2652152 -3.219014 -0.3516237 -0.8187791 -0.5869659 -2.5537317 -0.5533657 -1.5954893 -1.8017647 -0.43977115 -0.6003282 -0.9427692 3.27224 -0.01280897 2.1228476 2.6989515 2.829415 -0.8474157 -2.3468075 2.2822454 0.5176984 -1.1670334 -3.1744938 0.94107234 -2.3764942 -1.783854 1.8758576 5.863307 -2.0027354 0.95261794 -1.1577415 -1.3210709 1.6228195 4.732822 2.1755397 -0.3387777 0.2207514 -1.5533508 0.87077683 -0.8882625 -1.213055 -2.3099215 -4.888906 -0.038603798 -2.4059646 2.4545777 0.555182 -0.86176115 -1.2555109 -0.093417116 0.9658805 3.0597928 -0.41164437 2.0396602 0.09967941 2.01657 0.029018065 3.478175 0.57991624 1.4961655 0.10764535 -0.25581208 -1.9898795 3.7616568 -3.8236868 -0.061527524 2.345293 0.50985724 4.034405 -2.2319555 3.2148397 0.56338143 1.3108002 1.9106272 -1.7211052 -1.8634738 -3.2096224 -0.15532129 0.93559134 1.3044409 2.4602911 -1.276685 1.9429032 -3.3130965 -3.5231807 2.5854144 2.008682 -3.443631 0.98813426 -2.437191 -0.6700918 -0.8088645 -1.3793199 2.0843742 2.1303833 0.2858754 1.4549786 1.6570375 1.3869379 2.4608812 3.0867386 -2.6624665 -1.7052894 1.6396644 -0.2674502 1.6661675 -3.1531315 -0.76872855 -0.7116168 0.07121339 1.2615929 -2.1733139 2.8176727 2.536451 -0.07496743 0.8048421 -1.8969634 -0.2679264 -1.5722554 3.8880234 0.031682733 1.6189405 -1.6986089 -0.094028205 -1.5599003 3.3032565 -0.576638 1.1106343 -0.12117078 -1.3302292 -1.7641511 -0.24069329 -0.8215111 0.5928362 2.3598077 -1.9800196 -0.10448319 -0.24930322 -3.6776743 0.18342601 -2.1426818 -0.5423257 1.1367134 0.009638695 1.6154227 1.079234 -2.3580215 3.2702868 3.5170317 0.3548551 -0.07454318 -2.8335638 -0.87165076 1.8659471 -2.3729408 -1.5849004 1.8512517 0.081159934 2.6261625 2.6845868 0.07200888 -1.6832584 -1.407396 1.5661103 -1.7438838 2.5196838 2.0871708 2.3997226 0.80814534 1.8517411 1.9745289 -1.3288214
*dt_2 -1.4837456 -1.6824967 0.17498957 -0.21543825 1.5043843 1.7945923 -1.1405954 -3.946479 -1.144408 0.38946775 1.2992054 1.5323524 -1.183194 -1.5698043 -2.2438886 -0.26701266 2.0210528 -0.1621687 -0.28064543 -1.6175271 1.2683028 -1.3010738 -1.1663649 1.7103792 1.6205971 -2.6008036 -0.58221763 -0.53177446 -0.8926477 -2.9620085 -0.43519595 -0.51164436 -0.9465975 -1.4903054 -0.39837968 -0.5904405 -0.8331924 -0.47189933 -0.078632586 -0.5277563 2.1388903 -0.1744548 0.88121706 1.0686702 1.5741018 -1.0234715 -1.5670719 1.3851354 0.8417032 -1.2491595 -2.3982959 -0.20750625 -1.7649252 -2.151686 1.4376915 4.3211083 -1.584494 1.0671656 -0.9049973 0.443111 0.56545144 3.9245307 0.791763 0.070275 -0.25970393 -0.77346367 0.8268925 -0.62571424 -0.91408765 -1.4222201 -3.2252731 -0.39621565 -1.746746 1.7587231 0.2811447 0.035490017 -1.108238 -0.19500236 0.35719448 1.876878 0.29377553 1.4722215 0.21712832 1.8179625 -0.30316952 3.1854098 0.0642199 0.25525483 0.6433869 0.32240975 -1.9956743 3.225052 -3.1601274 -0.5084446 1.38066 0.35205108 2.8109298 -1.6459893 2.6695473 0.4844285 1.2083327 1.554838 -1.4597322 -0.95773154 -2.6815286 -0.561221 0.9741196 1.1535847 1.9761639 -1.2625979 1.5364805 -2.7161381 -2.8497221 0.9679799 1.6960636 -2.5563111 0.10230988 -1.4945849 -0.24192697 -0.19045207 -0.28014603 2.2731388 1.1634679 1.3385174 0.697436 1.082208 -0.17154293 1.6046932 2.571245 -2.7517107 -0.43914208 1.3053881 0.2631219 2.0512874 -1.8258667 -0.44162503 -0.34396008 -0.16284877 0.10949338 -2.1016939 2.1973083 1.8499554 0.014364197 0.27532163 -1.225529 0.04832394 -1.3960907 2.9348326 0.033092674 1.1605632 -1.472332 0.1121991 -1.2893251 1.7606186 -0.77674186 0.5407584 -0.1592816 -0.21643043 -2.1992612 -0.48971638 0.012672583 0.4066272 2.368984 -1.4089758 -0.4738154 -0.3330952 -2.0965018 0.34538913 -2.3274724 0.39195386 0.6664611 0.7441387 0.44610053 0.23923089 -0.92006904 2.3417091 3.1314056 0.8759627 -0.12085844 -1.6131881 -0.7726907 1.6579565 -1.6395564 -1.0220364 0.898605 1.666727 1.9656649 1.8602319 1.2655106 -1.0099535 -1.6329144 1.6151887 -0.578213 1.7560982 1.21808 1.9811046 1.1211118 0.64166874 1.7961366 0.11601098
*dt_3 -1.8084598 -3.0707655 1.297493 -1.65356 2.5366607 4.127526 -1.5988325 -8.30907 -2.0716152 0.9249856 3.5263941 1.3471054 -1.6430236 -1.2199197 -5.210999 -0.040614754 2.4950824 -0.2328742 0.31114882 -0.12226708 5.7389326 -1.8074669 -0.56691456 3.2974706 3.8481865 -3.973226 0.5194763 1.7670454 -2.2659016 -5.503892 -1.354876 -1.704578 -3.214298 -3.8233173 0.7470035 -2.4844034 -0.70233035 0.47895956 0.17578205 0.07185745 4.211408 -0.9125279 0.04939743 1.573779 1.1399455 -2.0980973 -2.7231119 1.8812878 3.1280732 -3.044825 -4.628066 1.9065176 -2.2323472 -2.8500056 3.6991763 8.232319 -2.3492942 0.19116484 -1.2012008 -0.04024191 0.37799054 7.399675 0.44002095 2.6347024 1.5790588 -3.1767516 0.6715287 -2.122898 -3.4477968 -3.9293966 -4.7483554 -1.3495957 -2.3601837 2.658492 -1.6048181 0.44441298 -0.7136953 0.03767936 2.3484926 4.383164 0.33124667 1.6490918 1.2822001 1.7910962 -1.5387852 5.2845993 -0.66671956 1.4491495 -0.46666992 0.470763 -2.615276 6.063459 -5.199942 -1.7419449 4.476012 -1.0232875 5.0925527 -2.6516376 4.2249665 3.0214632 3.201974 2.5923176 -3.127843 -4.255676 -4.1261535 -1.3137791 2.3342333 1.3460779 3.8312688 -1.9385401 3.8155925 -5.0965657 -5.0339684 2.7296875 2.5877707 -3.0954602 -0.012152532 -3.5833569 -0.8576629 -2.793693 -1.256541 3.583081 4.4677067 0.9387482 2.080537 2.3877306 1.6662692 4.0976887 4.223534 -3.9234219 -1.3508629 2.4669805 -0.9161331 4.634727 -4.796005 -0.37825376 0.87208146 -0.14072414 2.840856 -2.3542361 4.5959315 2.9365842 -0.0023746248 0.8077375 -1.2417246 -0.048541524 -2.0735724 4.9054394 -0.0064936397 0.40802383 -2.875361 -1.2418288 -1.321895 4.0010815 -0.75237596 0.7935483 0.02136051 -2.6908505 -3.1059952 -0.78877205 -0.5004873 0.29542664 3.3521788 -2.2702029 -1.0039316 -1.1285074 -5.296342 0.119033 -2.8335626 0.7297832 1.1823962 0.51953226 1.1708918 0.8904981 -3.8571405 4.1610103 3.8795424 1.3003725 0.012862655 -4.356341 -1.2284945 2.581044 -1.4253712 -2.0506432 3.8559864 0.48512563 4.1919923 3.5868778 1.3659356 -2.194774 -3.5515368 2.7703114 -2.0621223 2.63354 4.2117195 2.9540823 1.9455882 1.6682402 3.8001857 -0.46605504
*dt_4 -1.6930811 -2.3934839 1.2551209 0.057742603 1.6748291 4.08313 -1.4834358 -6.5944166 -1.4690171 -0.23880365 2.7921681 3.1720417 -1.1267232 -3.8671634 -4.217404 -1.0024575 2.9318373 -0.29749528 0.5985758 -2.441233 2.6774514 -1.5187 -3.852958 3.166099 2.7842135 -3.795726 -2.6598284 -0.7532016 -1.3150289 -5.862505 -1.0197955 0.48483917 -2.9536178 -1.1215671 -0.69800663 -0.4631988 -1.7058319 -0.685331 -0.38064212 -1.6403561 3.6681833 -2.2678201 2.0254917 3.5791075 3.5906098 -1.0726548 -2.3947365 1.2508453 0.18429409 -1.8112282 -4.0392113 -0.41567045 -3.175363 -3.3224096 1.3142563 7.174084 -4.18075 1.7199994 0.024303181 -0.91635406 2.212861 5.8376923 2.0025826 0.8270383 -0.03305695 -2.474648 1.1697168 -2.6851692 -1.2509698 -3.822002 -5.5838766 -1.3998977 -3.163813 4.36085 0.51005286 -0.54719764 -0.5765943 0.9122078 2.52619 3.0295963 0.97241634 2.5025537 1.3192202 2.7696855 0.33896282 5.2766423 0.8888711 -0.042334247 2.6684313 0.45761815 -2.877158 5.957062 -4.84573 -0.6818879 3.482351 0.12638953 6.1414638 -2.3764982 3.9562159 1.0877831 3.2263668 1.4765236 -2.0584188 -2.4097877 -4.53832 1.048523 2.1751206 0.964243 3.9910045 -1.8692814 3.5708468 -4.124583 -6.918781 2.7996595 3.1678615 -5.1853685 0.48019737 -3.6872861 -0.77938116 -2.8175828 -0.48933446 3.6376445 3.7736714 3.139939 2.762501 1.7270225 1.1708033 3.3090453 3.2453647 -3.4373689 -1.8505265 3.1573474 1.2285352 3.4299347 -3.015095 -1.2778707 0.016605737 0.26882482 1.1217873 -3.9226136 3.99641 3.7531056 0.15242437 2.371042 -2.3302548 1.6076488 -1.8337425 5.0411897 2.0716095 2.0435016 -2.8517785 0.4272334 -2.9723878 3.272429 -1.0720084 0.3531776 -0.46440232 -1.6390591 -2.801808 -2.0519328 -1.9751278 0.8955069 2.6274078 -2.6112938 -0.8468484 -0.68639636 -3.9751573 2.8773823 -3.7624693 -0.23850168 3.0318637 1.6751854 0.6220016 0.75246686 -4.088327 5.149711 4.8270297 1.7687812 -0.010655367 -4.120604 -1.0327054 3.6743813 -1.3115479 -2.2782698 3.4043477 3.0163872 4.879474 3.7575765 2.1593564 -0.8047403 -1.7258248 1.9020357 -0.17038722 4.2764564 4.255116 2.6497238 0.06627532 0.99553746 2.2093265 -0.57353127
*dt_0 -0.07998211 -2.0801654 0.43508196 -0.10040463 2.503731 2.976032 -1.2525904 -6.4572196 -1.4608036 -0.13602743 2.5284579 2.5250115 -2.0911648 -1.9206386 -3.4192822 -0.7708113 2.0904443 -0.32382756 -0.8773809 -2.0131545 2.869392 -0.58215696 -2.3849046 1.679991 3.5896862 -4.1165533 -0.18861215 -0.80413413 -0.3229115 -3.6051083 -0.007847799 -0.734607 -2.2818458 -2.2905612 -1.0270929 -1.214309 -1.3418753 -0.6614757 -0.08222071 -0.46642405 3.6120155 -1.3051661 1.3089478 1.4629122 2.865505 -2.5116045 -3.1267378 1.1488792 1.236542 -2.069195 -3.01774 1.0586951 -1.6228176 -2.5455534 2.043951 6.9463205 -2.6214488 0.83688825 -1.5627232 -0.63445795 1.2797834 5.383209 2.1027112 0.075071864 0.6121229 -2.9690418 0.44614488 -1.3405037 -1.8476422 -2.6662521 -5.046919 -0.15366635 -2.1459584 2.0084395 0.3648879 -1.1143492 0.27033857 -0.258297 2.1519225 3.761024 1.0411431 1.7812153 -0.17418602 2.4634104 -0.50289756 2.8812723 -0.14188409 0.010156606 1.3157084 -0.25455981 -1.9415514 5.038023 -3.493027 -1.2422966 2.1433277 -0.28401253 4.335792 -2.755165 2.6749563 2.7745135 1.0758958 2.1779428 -2.052291 -3.8173287 -3.6132247 -1.3663037 1.5127789 1.3721732 4.1478696 -2.4321222 3.2982628 -4.3298335 -4.9204154 1.7575171 2.371998 -3.5230546 0.41644335 -2.7355692 -0.17467229 -1.4449283 -1.2499987 2.9192722 2.453073 1.5312264 1.4597195 2.1896746 0.8204053 3.9639683 3.1044123 -3.5265317 -1.2146679 2.130657 -0.386083 2.1063466 -2.253227 -1.3261708 0.25260654 0.7027795 1.4770826 -2.0642028 3.5048444 3.2350318 0.62261283 0.17834046 -1.2057871 0.3234999 -1.5556096 4.945826 0.6722515 1.2729125 -1.7101626 0.55498713 -0.7477313 3.142134 -0.5229394 1.5627589 0.49471346 -1.676215 -2.446332 -0.4852131 -1.3880987 1.7134429 4.15578 -1.821103 -0.74376035 -1.1227102 -4.441946 1.216035 -2.4827538 -0.88673353 2.3539863 0.77136064 1.9188672 1.9194093 -3.4736156 3.9855227 3.7775762 1.319074 -0.11267648 -3.8261244 -0.5261396 2.719358 -1.4541538 -2.0378482 2.3401225 1.3245413 3.6054826 3.305922 1.4176466 -0.87435794 -2.3990471 2.5964565 -1.3552428 3.3444862 3.1878674 3.3950987 1.2766347 0.5906855 3.7151237 -0.027313508
*dt_1 -0.43545535 -1.9154905 0.6298959 -0.29659325 2.597352 1.6215512 -0.21330598 -5.753517 -1.5931461 0.4175143 2.0523162 2.0133154 -2.0493395 -1.3963594 -3.0800714 -0.54530114 2.4570167 -0.9905706 0.07287753 -1.3676383 2.4723675 -1.973739 -1.0465991 2.080918 2.3109462 -3.6166563 0.2011959 0.07505453 -1.2652152 -3.219014 -0.3516237 -0.8187791 -0.5869659 -2.5537317 -0.5533657 -1.5954893 -1.8017647 -0.43977115 -0.6003282 -0.9427692 3.27224 -0.01280897 2.1228476 2.6989515 2.829415 -0.8474157 -2.3468075 2.2822454 0.5176984 -1.1670334 -3.1744938 0.94107234 -2.3764942 -1.783854 1.8758576 5.863307 -2.0027354 0.95261794 -1.1577415 -1.3210709 1.6228195 4.732822 2.1755397 -0.3387777 0.2207514 -1.5533508 0.87077683 -0.8882625 -1.213055 -2.3099215 -4.888906 -0.038603798 -2.4059646 2.4545777 0.555182 -0.86176115 -1.2555109 -0.093417116 0.9658805 3.0597928 -0.41164437 2.0396602 0.09967941 2.01657 0.029018065 3.478175 0.57991624 1.4961655 0.10764535 -0.25581208 -1.9898795 3.7616568 -3.8236868 -0.061527524 2.345293 0.50985724 4.034405 -2.2319555 3.2148397 0.56338143 1.3108002 1.9106272 -1.7211052 -1.8634738 -3.2096224 -0.15532129 0.93559134 1.3044409 2.4602911 -1.276685 1.9429032 -3.3130965 -3.5231807 2.5854144 2.008682 -3.443631 0.98813426 -2.437191 -0.6700918 -0.8088645 -1.3793199 2.0843742 2.1303833 0.2858754 1.4549786 1.6570375 1.3869379 2.4608812 3.0867386 -2.6624665 -1.7052894 1.6396644 -0.2674502 1.6661675 -3.1531315 -0.76872855 -0.7116168 0.07121339 1.2615929 -2.1733139 2.8176727 2.536451 -0.07496743 0.8048421 -1.8969634 -0.2679264 -1.5722554 3.8880234 0.031682733 1.6189405 -1.6986089 -0.094028205 -1.5599003 3.3032565 -0.576638 1.1106343 -0.12117078 -1.3302292 -1.7641511 -0.24069329 -0.8215111 0.5928362 2.3598077 -1.9800196 -0.10448319 -0.24930322 -3.6776743 0.18342601 -2.1426818 -0.5423257 1.1367134 0.009638695 1.6154227 1.079234 -2.3580215 3.2702868 3.5170317 0.3548551 -0.07454318 -2.8335638 -0.87165076 1.8659471 -2.3729408 -1.5849004 1.8512517 0.081159934 2.6261625 2.6845868 0.07200888 -1.6832584 -1.407396 1.5661103 -1.7438838 2.5196838 2.0871708 2.3997226 0.80814534 1.8517411 1.9745289 -1.3288214
*dt_2 -1.4837456 -1.6824967 0.17498957 -0.21543825 1.5043843 1.7945923 -1.1405954 -3.946479 -1.144408 0.38946775 1.2992054 1.5323524 -1.183194 -1.5698043 -2.2438886 -0.26701266 2.0210528 -0.1621687 -0.28064543 -1.6175271 1.2683028 -1.3010738 -1.1663649 1.7103792 1.6205971 -2.6008036 -0.58221763 -0.53177446 -0.8926477 -2.9620085 -0.43519595 -0.51164436 -0.9465975 -1.4903054 -0.39837968 -0.5904405 -0.8331924 -0.47189933 -0.078632586 -0.5277563 2.1388903 -0.1744548 0.88121706 1.0686702 1.5741018 -1.0234715 -1.5670719 1.3851354 0.8417032 -1.2491595 -2.3982959 -0.20750625 -1.7649252 -2.151686 1.4376915 4.3211083 -1.584494 1.0671656 -0.9049973 0.443111 0.56545144 3.9245307 0.791763 0.070275 -0.25970393 -0.77346367 0.8268925 -0.62571424 -0.91408765 -1.4222201 -3.2252731 -0.39621565 -1.746746 1.7587231 0.2811447 0.035490017 -1.108238 -0.19500236 0.35719448 1.876878 0.29377553 1.4722215 0.21712832 1.8179625 -0.30316952 3.1854098 0.0642199 0.25525483 0.6433869 0.32240975 -1.9956743 3.225052 -3.1601274 -0.5084446 1.38066 0.35205108 2.8109298 -1.6459893 2.6695473 0.4844285 1.2083327 1.554838 -1.4597322 -0.95773154 -2.6815286 -0.561221 0.9741196 1.1535847 1.9761639 -1.2625979 1.5364805 -2.7161381 -2.8497221 0.9679799 1.6960636 -2.5563111 0.10230988 -1.4945849 -0.24192697 -0.19045207 -0.28014603 2.2731388 1.1634679 1.3385174 0.697436 1.082208 -0.17154293 1.6046932 2.571245 -2.7517107 -0.43914208 1.3053881 0.2631219 2.0512874 -1.8258667 -0.44162503 -0.34396008 -0.16284877 0.10949338 -2.1016939 2.1973083 1.8499554 0.014364197 0.27532163 -1.225529 0.04832394 -1.3960907 2.9348326 0.033092674 1.1605632 -1.472332 0.1121991 -1.2893251 1.7606186 -0.77674186 0.5407584 -0.1592816 -0.21643043 -2.1992612 -0.48971638 0.012672583 0.4066272 2.368984 -1.4089758 -0.4738154 -0.3330952 -2.0965018 0.34538913 -2.3274724 0.39195386 0.6664611 0.7441387 0.44610053 0.23923089 -0.92006904 2.3417091 3.1314056 0.8759627 -0.12085844 -1.6131881 -0.7726907 1.6579565 -1.6395564 -1.0220364 0.898605 1.666727 1.9656649 1.8602319 1.2655106 -1.0099535 -1.6329144 1.6151887 -0.578213 1.7560982 1.21808 1.9811046 1.1211118 0.64166874 1.7961366 0.11601098
*dt_3 -1.8084598 -3.0707655 1.297493 -1.65356 2.5366607 4.127526 -1.5988325 -8.30907 -2.0716152 0.9249856 3.5263941 1.3471054 -1.6430236 -1.2199197 -5.210999 -0.040614754 2.4950824 -0.2328742 0.31114882 -0.12226708 5.7389326 -1.8074669 -0.56691456 3.2974706 3.8481865 -3.973226 0.5194763 1.7670454 -2.2659016 -5.503892 -1.354876 -1.704578 -3.214298 -3.8233173 0.7470035 -2.4844034 -0.70233035 0.47895956 0.17578205 0.07185745 4.211408 -0.9125279 0.04939743 1.573779 1.1399455 -2.0980973 -2.7231119 1.8812878 3.1280732 -3.044825 -4.628066 1.9065176 -2.2323472 -2.8500056 3.6991763 8.232319 -2.3492942 0.19116484 -1.2012008 -0.04024191 0.37799054 7.399675 0.44002095 2.6347024 1.5790588 -3.1767516 0.6715287 -2.122898 -3.4477968 -3.9293966 -4.7483554 -1.3495957 -2.3601837 2.658492 -1.6048181 0.44441298 -0.7136953 0.03767936 2.3484926 4.383164 0.33124667 1.6490918 1.2822001 1.7910962 -1.5387852 5.2845993 -0.66671956 1.4491495 -0.46666992 0.470763 -2.615276 6.063459 -5.199942 -1.7419449 4.476012 -1.0232875 5.0925527 -2.6516376 4.2249665 3.0214632 3.201974 2.5923176 -3.127843 -4.255676 -4.1261535 -1.3137791 2.3342333 1.3460779 3.8312688 -1.9385401 3.8155925 -5.0965657 -5.0339684 2.7296875 2.5877707 -3.0954602 -0.012152532 -3.5833569 -0.8576629 -2.793693 -1.256541 3.583081 4.4677067 0.9387482 2.080537 2.3877306 1.6662692 4.0976887 4.223534 -3.9234219 -1.3508629 2.4669805 -0.9161331 4.634727 -4.796005 -0.37825376 0.87208146 -0.14072414 2.840856 -2.3542361 4.5959315 2.9365842 -0.0023746248 0.8077375 -1.2417246 -0.048541524 -2.0735724 4.9054394 -0.0064936397 0.40802383 -2.875361 -1.2418288 -1.321895 4.0010815 -0.75237596 0.7935483 0.02136051 -2.6908505 -3.1059952 -0.78877205 -0.5004873 0.29542664 3.3521788 -2.2702029 -1.0039316 -1.1285074 -5.296342 0.119033 -2.8335626 0.7297832 1.1823962 0.51953226 1.1708918 0.8904981 -3.8571405 4.1610103 3.8795424 1.3003725 0.012862655 -4.356341 -1.2284945 2.581044 -1.4253712 -2.0506432 3.8559864 0.48512563 4.1919923 3.5868778 1.3659356 -2.194774 -3.5515368 2.7703114 -2.0621223 2.63354 4.2117195 2.9540823 1.9455882 1.6682402 3.8001857 -0.46605504
*dt_4 -1.6930811 -2.3934839 1.2551209 0.057742603 1.6748291 4.08313 -1.4834358 -6.5944166 -1.4690171 -0.23880365 2.7921681 3.1720417 -1.1267232 -3.8671634 -4.217404 -1.0024575 2.9318373 -0.29749528 0.5985758 -2.441233 2.6774514 -1.5187 -3.852958 3.166099 2.7842135 -3.795726 -2.6598284 -0.7532016 -1.3150289 -5.862505 -1.0197955 0.48483917 -2.9536178 -1.1215671 -0.69800663 -0.4631988 -1.7058319 -0.685331 -0.38064212 -1.6403561 3.6681833 -2.2678201 2.0254917 3.5791075 3.5906098 -1.0726548 -2.3947365 1.2508453 0.18429409 -1.8112282 -4.0392113 -0.41567045 -3.175363 -3.3224096 1.3142563 7.174084 -4.18075 1.7199994 0.024303181 -0.91635406 2.212861 5.8376923 2.0025826 0.8270383 -0.03305695 -2.474648 1.1697168 -2.6851692 -1.2509698 -3.822002 -5.5838766 -1.3998977 -3.163813 4.36085 0.51005286 -0.54719764 -0.5765943 0.9122078 2.52619 3.0295963 0.97241634 2.5025537 1.3192202 2.7696855 0.33896282 5.2766423 0.8888711 -0.042334247 2.6684313 0.45761815 -2.877158 5.957062 -4.84573 -0.6818879 3.482351 0.12638953 6.1414638 -2.3764982 3.9562159 1.0877831 3.2263668 1.4765236 -2.0584188 -2.4097877 -4.53832 1.048523 2.1751206 0.964243 3.9910045 -1.8692814 3.5708468 -4.124583 -6.918781 2.7996595 3.1678615 -5.1853685 0.48019737 -3.6872861 -0.77938116 -2.8175828 -0.48933446 3.6376445 3.7736714 3.139939 2.762501 1.7270225 1.1708033 3.3090453 3.2453647 -3.4373689 -1.8505265 3.1573474 1.2285352 3.4299347 -3.015095 -1.2778707 0.016605737 0.26882482 1.1217873 -3.9226136 3.99641 3.7531056 0.15242437 2.371042 -2.3302548 1.6076488 -1.8337425 5.0411897 2.0716095 2.0435016 -2.8517785 0.4272334 -2.9723878 3.272429 -1.0720084 0.3531776 -0.46440232 -1.6390591 -2.801808 -2.0519328 -1.9751278 0.8955069 2.6274078 -2.6112938 -0.8468484 -0.68639636 -3.9751573 2.8773823 -3.7624693 -0.23850168 3.0318637 1.6751854 0.6220016 0.75246686 -4.088327 5.149711 4.8270297 1.7687812 -0.010655367 -4.120604 -1.0327054 3.6743813 -1.3115479 -2.2782698 3.4043477 3.0163872 4.879474 3.7575765 2.1593564 -0.8047403 -1.7258248 1.9020357 -0.17038722 4.2764564 4.255116 2.6497238 0.06627532 0.99553746 2.2093265 -0.57353127
