5 200
*dt_0 -0.4849861 -0.53094083 -0.48059967 0.34062362 0.25011075 -0.012957913 -0.5750617 -0.14117827 -0.5581918 0.31673068 0.11605942 0.17413785 -0.19098923 -0.09121778 -0.27323583 -0.33636102 0.04997793 0.4667075 -0.37848124 -0.29488826 -0.16541098 0.02016291 -0.2638603 0.20452087 0.31123674 -0.43415204 -0.47134024 -0.49681717 -0.0038558084 -0.48776603 0.3773219 0.39418787 -0.3730126 -0.22179218 -0.018713936 0.21064544 -0.08840708 -0.5649806 -0.11425566 -0.048212532 -0.14420812 -0.27053306 0.17569172 -0.3677443 0.18686032 -0.14789139 0.06865369 -0.06970015 0.2856211 -0.35493147 -0.24467498 -0.25177377 -0.57146025 -0.47196537 -0.0763312 0.5475442 0.027601272 0.110599004 -0.3654934 0.5424455 0.26205593 0.6666854 0.189747 -0.036052525 0.010452865 -0.09018428 0.46398893 0.34315673 -0.1339832 -0.22740136 -0.50003445 -0.11531902 -0.4737749 -0.39665607 -0.30043212 0.31858164 -0.3448794 -0.54122865 -0.11406877 0.017083552 0.27439955 0.35139495 -0.48595962 0.11370667 0.41657603 0.2766467 0.15017082 -0.2726223 0.2240024 0.27393684 -0.570595 0.5162936 -0.5745677 -0.3783235 0.07208764 0.55053246 0.19341998 -0.13696757 0.61721355 0.113161094 -0.39119852 0.03965928 -0.4041799 0.20288141 -0.5049302 -0.16563143 0.07563287 0.49700528 0.259354 -0.056654453 -0.08857748 -0.3413881 -0.13857387 -0.3019256 0.60661066 -0.57436967 -0.4786396 -0.1728157 0.29510432 0.43694147 0.515799 0.44580477 -0.2342483 0.5564572 -0.4668526 0.11377422 -0.52965254 -0.13765873 0.10314933 -0.57302105 0.364008 0.08769279 0.022664765 0.51149935 -0.21928471 0.09973332 -0.016178193 -0.1249635 -0.5144774 -0.5699976 0.52985066 -0.019950312 0.0802571 -0.49050242 -0.22301148 0.07625147 -0.038521253 0.610452 0.00019827689 -0.02930379 -0.18049988 0.52354413 0.28247538 -0.32912847 -0.35470253 0.18619035 -0.12877184 0.6627546 -0.4481847 -0.26017848 0.5885103 0.3582899 0.31407815 -0.16971578 0.12150483 -0.23184693 -0.2996697 -0.34569848 -0.527994 0.13050942 0.0030759347 -0.05715019 -0.011655798 0.060683016 0.53091085 0.32863063 0.55997205 -0.24042185 -0.18864581 0.033338133 0.28124085 0.3365142 -0.40824217 0.026197461 -0.47175732 0.7517297 -0.12268015 0.037719853 0.5126127 0.034943774 -0.44286236 0.3123459 0.19904636 0.34489915 -0.09915121 0.32010406 0.25511277 -0.28571504 0.0680708 0.3219805
*dt_1 -0.14939274 -0.16442235 -0.1373857 0.098521166 0.081946775 -0.006120185 -0.16439557 -0.04529982 -0.16325812 0.09728024 0.027934108 0.055169847 -0.061760057 -0.029189153 -0.07798077 -0.093444034 0.0122239115 0.1369086 -0.11253578 -0.08835949 -0.056011833 0.0001528384 -0.07471304 0.06549043 0.08957145 -0.127071 -0.14106338 -0.14579199 -0.005886375 -0.14267291 0.10941785 0.112473704 -0.10491775 -0.07056765 -0.0075459853 0.06575852 -0.031942897 -0.17193817 -0.03361415 -0.018768497 -0.036763072 -0.07370912 0.057454724 -0.10701307 0.0525747 -0.044511396 0.019039977 -0.015912283 0.079599194 -0.11113743 -0.07930097 -0.08080562 -0.17487648 -0.14249232 -0.024433805 0.16726993 0.011813258 0.036383726 -0.10718015 0.16280535 0.08126573 0.2048125 0.06029545 -0.009246448 0.0011056709 -0.023466565 0.1432092 0.108347334 -0.03594231 -0.06397618 -0.15552184 -0.031391334 -0.14253083 -0.11503585 -0.0849692 0.09377973 -0.10790361 -0.16301909 -0.03824109 0.0026220414 0.0777713 0.10759093 -0.1445486 0.035341743 0.120297216 0.08920234 0.044578586 -0.082906954 0.060517058 0.08356626 -0.17490052 0.15115698 -0.17730236 -0.11128803 0.028252259 0.16841102 0.05567592 -0.041543007 0.19065613 0.028937707 -0.119259305 0.017874379 -0.11834361 0.06630785 -0.15133914 -0.0534574 0.02358792 0.1544965 0.079612955 -0.020243706 -0.02667633 -0.108534254 -0.035859212 -0.08472129 0.18271942 -0.17465183 -0.13749884 -0.051120356 0.090185724 0.13441537 0.15032905 0.13764752 -0.069588594 0.17323756 -0.13872656 0.039808173 -0.15945329 -0.042955432 0.03239464 -0.1755358 0.10716847 0.026569376 0.007578767 0.1561927 -0.06670654 0.02888833 -0.010255932 -0.04150997 -0.15321934 -0.1716658 0.15609336 -0.0015973301 0.01943112 -0.14125864 -0.06969888 0.017565085 -0.017242255 0.18446046 -0.002284636 -0.002776456 -0.057809368 0.15926594 0.08328149 -0.09405888 -0.10642374 0.05276722 -0.04518176 0.20173198 -0.13854815 -0.0791023 0.17673321 0.113984756 0.091041856 -0.051654447 0.03956235 -0.06519865 -0.0911114 -0.10598366 -0.16018493 0.044248413 -0.0031619873 -0.021447677 -0.007245025 0.01587181 0.16317464 0.09649443 0.1725101 -0.07693439 -0.05454783 0.016748395 0.07650175 0.0989814 -0.12696856 0.013432335 -0.14198324 0.22846244 -0.039819997 0.01340453 0.1502427 0.004136512 -0.1340942 0.09193244 0.052582216 0.10299506 -0.03351246 0.09913945 0.07306997 -0.0788011 0.020602152 0.09408352
*dt_2 -0.0769174 -0.08456454 -0.074257106 0.049755964 0.033210583 -0.004524915 -0.087004915 -0.015618338 -0.08410198 0.050534282 0.015527668 0.02534666 -0.026066085 -0.009769521 -0.039970633 -0.04674613 0.0025360202 0.072735965 -0.057704035 -0.041485682 -0.027224265 0.0030388774 -0.036168024 0.026395999 0.04430462 -0.06261815 -0.07041384 -0.073651254 -0.0025538206 -0.06915321 0.061145015 0.06366523 -0.05672516 -0.028345535 -0.00079169084 0.035250936 -0.01513307 -0.087723754 -0.01424959 -0.0070856363 -0.026487406 -0.036527142 0.022759892 -0.059735503 0.022467392 -0.020277428 0.015057488 -0.013465058 0.04201879 -0.053259246 -0.036529962 -0.044031966 -0.08477669 -0.06713604 -0.012892784 0.079540834 0.009780474 0.014655985 -0.054211043 0.083491854 0.04330909 0.09731104 0.027784662 -0.0014396115 0.002035328 -0.010983861 0.07345936 0.056705132 -0.016891139 -0.035244033 -0.07134782 -0.0194689 -0.07172606 -0.059901085 -0.045276552 0.053284943 -0.051803183 -0.086458035 -0.018815286 -0.0029124836 0.03863247 0.053797297 -0.075308226 0.012931412 0.06390589 0.037541527 0.02201752 -0.044417214 0.02854707 0.046203688 -0.08459018 0.07343737 -0.08393231 -0.06061991 0.0110569205 0.08301199 0.023377346 -0.016489532 0.09111113 0.01578746 -0.06096669 0.0024789511 -0.060970627 0.035040967 -0.07202094 -0.022761345 0.0108265905 0.07552819 0.034002047 -0.009105661 -0.017066102 -0.047779795 -0.01628494 -0.048254635 0.09034251 -0.08468694 -0.07350615 -0.021085477 0.047080882 0.068388335 0.07942146 0.06254559 -0.03863665 0.0840576 -0.07229489 0.013824954 -0.08456227 -0.024135584 0.010887689 -0.08672163 0.05845271 0.00990023 0.005860294 0.0811193 -0.027864309 0.018513724 -0.0015293645 -0.021908887 -0.078380294 -0.08580619 0.077833235 -0.0076721683 0.012204423 -0.0775595 -0.032001663 0.012391867 -0.003174749 0.08753786 -0.00031137594 -0.0040052016 -0.02483342 0.081962466 0.04425628 -0.05340792 -0.054060563 0.022565454 -0.023745665 0.10492265 -0.06443516 -0.042575307 0.093882814 0.053232398 0.041990343 -0.02373276 0.020339604 -0.03375205 -0.041060954 -0.05287289 -0.07763259 0.022874974 -0.003928216 -0.010282854 -0.0058504497 0.006108048 0.08372021 0.048127055 0.08499952 -0.041442364 -0.02906023 0.009792043 0.044281065 0.05101957 -0.058054663 0.00842056 -0.07621001 0.11791964 -0.02397661 0.0017423574 0.07606428 0.0055812458 -0.06961074 0.046561006 0.029955631 0.04984012 -0.016210318 0.044790365 0.035205945 -0.045053218 0.0076406715 0.050575987
*dt_3 -0.083918706 -0.08984065 -0.078224935 0.048671164 0.036925185 0.002061235 -0.0944508 -0.025010033 -0.091068506 0.054601766 0.022560563 0.02571684 -0.027360246 -0.01024485 -0.048889395 -0.047975853 0.011986642 0.0748295 -0.058501236 -0.04972095 -0.02150373 -0.00350361 -0.03641724 0.030713988 0.052073825 -0.07270815 -0.06998089 -0.07427822 -0.00578492 -0.07977632 0.062142253 0.06203056 -0.060728356 -0.032357287 -0.00010305771 0.03046073 -0.013155364 -0.08618694 -0.012926006 -0.0063647386 -0.02016423 -0.041640095 0.023793072 -0.057578057 0.026837591 -0.02722092 0.0100062555 -0.011848092 0.04985823 -0.0564001 -0.04369829 -0.044573028 -0.088300064 -0.07654533 -0.007061671 0.09154646 0.0052375477 0.01698604 -0.06343126 0.08899507 0.04271473 0.11280756 0.029809661 -0.0022613986 -0.0005381518 -0.009985693 0.079022765 0.059356175 -0.022207445 -0.038163327 -0.07744742 -0.022530988 -0.07523603 -0.05753621 -0.0450391 0.05674604 -0.05409119 -0.08730618 -0.017343462 0.005715504 0.042010907 0.05618738 -0.07466512 0.019046469 0.061553467 0.048271284 0.02125293 -0.04088309 0.029047577 0.046013016 -0.09332149 0.08567209 -0.0953202 -0.06588455 0.01661474 0.08281423 0.03419273 -0.025380274 0.096001185 0.023402428 -0.058917094 0.010279579 -0.06749736 0.031396974 -0.08182231 -0.023840038 0.017814854 0.07740911 0.03970599 -0.014946117 -0.009459503 -0.055254035 -0.02565989 -0.051975504 0.09533594 -0.09030333 -0.07911459 -0.025147643 0.042916395 0.06823873 0.07778835 0.06991389 -0.033019602 0.08567173 -0.072946705 0.018549224 -0.08785609 -0.01780967 0.021305325 -0.09728858 0.06312086 0.016070416 0.0016748486 0.08801066 -0.030131444 0.018334223 -0.0032130869 -0.023954432 -0.0796104 -0.09513911 0.08847401 -0.006071748 0.014799123 -0.08179969 -0.036258105 0.012366651 -0.0068253037 0.10014959 -0.0026182411 0.00011038237 -0.025496604 0.08010026 0.041189257 -0.047044214 -0.05682028 0.026019914 -0.024061786 0.10262323 -0.0715908 -0.04150198 0.098661594 0.052544836 0.054396015 -0.022873532 0.019150725 -0.038046196 -0.04250263 -0.051978637 -0.08174593 0.025687322 -0.0061502503 -0.0063228607 -0.0046022413 0.0047059916 0.08327307 0.05678401 0.094823346 -0.035077054 -0.031620808 0.0049185804 0.045565248 0.057265375 -0.06073129 0.0036333718 -0.07479814 0.12291134 -0.018938512 0.009943676 0.08522852 0.0035674954 -0.07595163 0.055561725 0.027223086 0.0527154 -0.011152163 0.052110046 0.045379568 -0.04776344 0.016426006 0.054290105
*dt_4 -0.13047117 -0.14350465 -0.12189951 0.08592372 0.062334616 0.00051807525 -0.15331337 -0.036869172 -0.14707331 0.08435103 0.035071258 0.04415634 -0.045313835 -0.026302207 -0.07622267 -0.08415788 0.011843641 0.11766645 -0.09464329 -0.074564524 -0.03830011 0.004781771 -0.07286413 0.055863097 0.084139004 -0.11147355 -0.1277275 -0.123886324 -0.008884307 -0.13142179 0.10018115 0.10575363 -0.10097008 -0.053362068 -0.0064328234 0.056085773 -0.02352983 -0.1513959 -0.027758637 -0.014936845 -0.03942146 -0.068547435 0.039831728 -0.093303874 0.049385082 -0.033950463 0.02101307 -0.01567802 0.06855282 -0.087549 -0.06828787 -0.07429238 -0.15352556 -0.12653942 -0.018980317 0.14706852 0.0064952206 0.025398104 -0.09194431 0.14245805 0.07319161 0.17559433 0.04369583 -0.003673455 0.0032435544 -0.02211555 0.122727394 0.08719653 -0.03617058 -0.06499975 -0.13570577 -0.03401514 -0.1286658 -0.09833388 -0.07259278 0.08840178 -0.09060138 -0.13680702 -0.03330393 0.0007277792 0.066051535 0.09422046 -0.12029405 0.034395695 0.10997284 0.076484635 0.04058912 -0.0773531 0.05916293 0.07591767 -0.15210986 0.13907845 -0.15172678 -0.09491718 0.027515914 0.14118016 0.047918413 -0.03158379 0.16364853 0.02326623 -0.09933481 0.010308841 -0.11062053 0.051659513 -0.13469268 -0.038415577 0.022597373 0.12832046 0.06544186 -0.021634428 -0.026290763 -0.085422575 -0.040750824 -0.07286959 0.16182837 -0.15625559 -0.12218994 -0.050833073 0.07972037 0.109104924 0.13849868 0.11575269 -0.055395465 0.15031072 -0.11514098 0.027556727 -0.14106871 -0.03714402 0.024018023 -0.15065594 0.093848735 0.024211967 0.009786724 0.14065933 -0.05943206 0.03291396 -0.0002048377 -0.040437724 -0.13386597 -0.15542233 0.14185297 -0.0034951277 0.017085552 -0.12333557 -0.06391354 0.023828406 -0.015323066 0.1612802 0.0052883793 0.00011073259 -0.048506785 0.13724616 0.06671541 -0.08270402 -0.09458554 0.04054128 -0.039093602 0.17713471 -0.119131535 -0.07290753 0.15290174 0.092801176 0.07649694 -0.049565412 0.03146281 -0.058708716 -0.07721493 -0.086372726 -0.14132462 0.041503403 0.003236401 -0.014291009 -0.010998538 0.012052279 0.13461003 0.09105872 0.15295547 -0.065070756 -0.04473428 0.0076338705 0.07030434 0.09038968 -0.104732305 0.009152446 -0.12293286 0.20386726 -0.028208401 0.008171395 0.12985699 0.009133227 -0.114096746 0.07908928 0.0566556 0.095314406 -0.021743154 0.08337978 0.05894312 -0.073344804 0.012089687 0.081394546
*dt_0 -0.4849861 -0.53094083 -0.48059967 0.34062362 0.25011075 -0.012957913 -0.5750617 -0.14117827 -0.5581918 0.31673068 0.11605942 0.17413785 -0.19098923 -0.09121778 -0.27323583 -0.33636102 0.04997793 0.4667075 -0.37848124 -0.29488826 -0.16541098 0.02016291 -0.2638603 0.20452087 0.31123674 -0.43415204 -0.47134024 -0.49681717 -0.0038558084 -0.48776603 0.3773219 0.39418787 -0.3730126 -0.22179218 -0.018713936 0.21064544 -0.08840708 -0.5649806 -0.11425566 -0.048212532 -0.14420812 -0.27053306 0.17569172 -0.3677443 0.18686032 -0.14789139 0.06865369 -0.06970015 0.2856211 -0.35493147 -0.24467498 -0.25177377 -0.57146025 -0.47196537 -0.0763312 0.5475442 0.027601272 0.110599004 -0.3654934 0.5424455 0.26205593 0.6666854 0.189747 -0.036052525 0.010452865 -0.09018428 0.46398893 0.34315673 -0.1339832 -0.22740136 -0.50003445 -0.11531902 -0.4737749 -0.39665607 -0.30043212 0.31858164 -0.3448794 -0.54122865 -0.11406877 0.017083552 0.27439955 0.35139495 -0.48595962 0.11370667 0.41657603 0.2766467 0.15017082 -0.2726223 0.2240024 0.27393684 -0.570595 0.5162936 -0.5745677 -0.3783235 0.07208764 0.55053246 0.19341998 -0.13696757 0.61721355 0.113161094 -0.39119852 0.03965928 -0.4041799 0.20288141 -0.5049302 -0.16563143 0.07563287 0.49700528 0.259354 -0.056654453 -0.08857748 -0.3413881 -0.13857387 -0.3019256 0.60661066 -0.57436967 -0.4786396 -0.1728157 0.29510432 0.43694147 0.515799 0.44580477 -0.2342483 0.5564572 -0.4668526 0.11377422 -0.52965254 -0.13765873 0.10314933 -0.57302105 0.364008 0.08769279 0.022664765 0.51149935 -0.21928471 0.09973332 -0.016178193 -0.1249635 -0.5144774 -0.5699976 0.52985066 -0.019950312 0.0802571 -0.49050242 -0.22301148 0.07625147 -0.038521253 0.610452 0.00019827689 -0.02930379 -0.18049988 0.52354413 0.28247538 -0.32912847 -0.35470253 0.18619035 -0.12877184 0.6627546 -0.4481847 -0.26017848 0.5885103 0.3582899 0.31407815 -0.16971578 0.12150483 -0.23184693 -0.2996697 -0.34569848 -0.527994 0.13050942 0.0030759347 -0.05715019 -0.011655798 0.060683016 0.53091085 0.32863063 0.55997205 -0.24042185 -0.18864581 0.033338133 0.28124085 0.3365142 -0.40824217 0.026197461 -0.47175732 0.7517297 -0.12268015 0.037719853 0.5126127 0.034943774 -0.44286236 0.3123459 0.19904636 0.34489915 -0.09915121 0.32010406 0.25511277 -0.28571504 0.0680708 0.3219805
*dt_1 -0.14939274 -0.16442235 -0.1373857 0.098521166 0.081946775 -0.006120185 -0.16439557 -0.04529982 -0.16325812 0.09728024 0.027934108 0.055169847 -0.061760057 -0.029189153 -0.07798077 -0.093444034 0.0122239115 0.1369086 -0.11253578 -0.08835949 -0.056011833 0.0001528384 -0.07471304 0.06549043 0.08957145 -0.127071 -0.14106338 -0.14579199 -0.005886375 -0.14267291 0.10941785 0.112473704 -0.10491775 -0.07056765 -0.0075459853 0.06575852 -0.031942897 -0.17193817 -0.03361415 -0.018768497 -0.036763072 -0.07370912 0.057454724 -0.10701307 0.0525747 -0.044511396 0.019039977 -0.015912283 0.079599194 -0.11113743 -0.07930097 -0.08080562 -0.17487648 -0.14249232 -0.024433805 0.16726993 0.011813258 0.036383726 -0.10718015 0.16280535 0.08126573 0.2048125 0.06029545 -0.009246448 0.0011056709 -0.023466565 0.1432092 0.108347334 -0.03594231 -0.06397618 -0.15552184 -0.031391334 -0.14253083 -0.11503585 -0.0849692 0.09377973 -0.10790361 -0.16301909 -0.03824109 0.0026220414 0.0777713 0.10759093 -0.1445486 0.035341743 0.120297216 0.08920234 0.044578586 -0.082906954 0.060517058 0.08356626 -0.17490052 0.15115698 -0.17730236 -0.11128803 0.028252259 0.16841102 0.05567592 -0.041543007 0.19065613 0.028937707 -0.119259305 0.017874379 -0.11834361 0.06630785 -0.15133914 -0.0534574 0.02358792 0.1544965 0.079612955 -0.020243706 -0.02667633 -0.108534254 -0.035859212 -0.08472129 0.18271942 -0.17465183 -0.13749884 -0.051120356 0.090185724 0.13441537 0.15032905 0.13764752 -0.069588594 0.17323756 -0.13872656 0.039808173 -0.15945329 -0.042955432 0.03239464 -0.1755358 0.10716847 0.026569376 0.007578767 0.1561927 -0.06670654 0.02888833 -0.010255932 -0.04150997 -0.15321934 -0.1716658 0.15609336 -0.0015973301 0.01943112 -0.14125864 -0.06969888 0.017565085 -0.017242255 0.18446046 -0.002284636 -0.002776456 -0.057809368 0.15926594 0.08328149 -0.09405888 -0.10642374 0.05276722 -0.04518176 0.20173198 -0.13854815 -0.0791023 0.17673321 0.113984756 0.091041856 -0.051654447 0.03956235 -0.06519865 -0.0911114 -0.10598366 -0.16018493 0.044248413 -0.0031619873 -0.021447677 -0.007245025 0.01587181 0.16317464 0.09649443 0.1725101 -0.07693439 -0.05454783 0.016748395 0.07650175 0.0989814 -0.12696856 0.013432335 -0.14198324 0.22846244 -0.039819997 0.01340453 0.1502427 0.004136512 -0.1340942 0.09193244 0.052582216 0.10299506 -0.03351246 0.09913945 0.07306997 -0.0788011 0.020602152 0.09408352
*dt_2 -0.0769174 -0.08456454 -0.074257106 0.049755964 0.033210583 -0.004524915 -0.087004915 -0.015618338 -0.08410198 0.050534282 0.015527668 0.02534666 -0.026066085 -0.009769521 -0.039970633 -0.04674613 0.0025360202 0.072735965 -0.057704035 -0.041485682 -0.027224265 0.0030388774 -0.036168024 0.026395999 0.04430462 -0.06261815 -0.07041384 -0.073651254 -0.0025538206 -0.06915321 0.061145015 0.06366523 -0.05672516 -0.028345535 -0.00079169084 0.035250936 -0.01513307 -0.087723754 -0.01424959 -0.0070856363 -0.026487406 -0.036527142 0.022759892 -0.059735503 0.022467392 -0.020277428 0.015057488 -0.013465058 0.04201879 -0.053259246 -0.036529962 -0.044031966 -0.08477669 -0.06713604 -0.012892784 0.079540834 0.009780474 0.014655985 -0.054211043 0.083491854 0.04330909 0.09731104 0.027784662 -0.0014396115 0.002035328 -0.010983861 0.07345936 0.056705132 -0.016891139 -0.035244033 -0.07134782 -0.0194689 -0.07172606 -0.059901085 -0.045276552 0.053284943 -0.051803183 -0.086458035 -0.018815286 -0.0029124836 0.03863247 0.053797297 -0.075308226 0.012931412 0.06390589 0.037541527 0.02201752 -0.044417214 0.02854707 0.046203688 -0.08459018 0.07343737 -0.08393231 -0.06061991 0.0110569205 0.08301199 0.023377346 -0.016489532 0.09111113 0.01578746 -0.06096669 0.0024789511 -0.060970627 0.035040967 -0.07202094 -0.022761345 0.0108265905 0.07552819 0.034002047 -0.009105661 -0.017066102 -0.047779795 -0.01628494 -0.048254635 0.09034251 -0.08468694 -0.07350615 -0.021085477 0.047080882 0.068388335 0.07942146 0.06254559 -0.03863665 0.0840576 -0.07229489 0.013824954 -0.08456227 -0.024135584 0.010887689 -0.08672163 0.05845271 0.00990023 0.005860294 0.0811193 -0.027864309 0.018513724 -0.0015293645 -0.021908887 -0.078380294 -0.08580619 0.077833235 -0.0076721683 0.012204423 -0.0775595 -0.032001663 0.012391867 -0.003174749 0.08753786 -0.00031137594 -0.0040052016 -0.02483342 0.081962466 0.04425628 -0.05340792 -0.054060563 0.022565454 -0.023745665 0.10492265 -0.06443516 -0.042575307 0.093882814 0.053232398 0.041990343 -0.02373276 0.020339604 -0.03375205 -0.041060954 -0.05287289 -0.07763259 0.022874974 -0.003928216 -0.010282854 -0.0058504497 0.006108048 0.08372021 0.048127055 0.08499952 -0.041442364 -0.02906023 0.009792043 0.044281065 0.05101957 -0.058054663 0.00842056 -0.07621001 0.11791964 -0.02397661 0.0017423574 0.07606428 0.0055812458 -0.06961074 0.046561006 0.029955631 0.04984012 -0.016210318 0.044790365 0.035205945 -0.045053218 0.0076406715 0.050575987
*dt_3 -0.083918706 -0.08984065 -0.078224935 0.048671164 0.036925185 0.002061235 -0.0944508 -0.025010033 -0.091068506 0.054601766 0.022560563 0.02571684 -0.027360246 -0.01024485 -0.048889395 -0.047975853 0.011986642 0.0748295 -0.058501236 -0.04972095 -0.02150373 -0.00350361 -0.03641724 0.030713988 0.052073825 -0.07270815 -0.06998089 -0.07427822 -0.00578492 -0.07977632 0.062142253 0.06203056 -0.060728356 -0.032357287 -0.00010305771 0.03046073 -0.013155364 -0.08618694 -0.012926006 -0.0063647386 -0.02016423 -0.041640095 0.023793072 -0.057578057 0.026837591 -0.02722092 0.0100062555 -0.011848092 0.04985823 -0.0564001 -0.04369829 -0.044573028 -0.088300064 -0.07654533 -0.007061671 0.09154646 0.0052375477 0.01698604 -0.06343126 0.08899507 0.04271473 0.11280756 0.029809661 -0.0022613986 -0.0005381518 -0.009985693 0.079022765 0.059356175 -0.022207445 -0.038163327 -0.07744742 -0.022530988 -0.07523603 -0.05753621 -0.0450391 0.05674604 -0.05409119 -0.08730618 -0.017343462 0.005715504 0.042010907 0.05618738 -0.07466512 0.019046469 0.061553467 0.048271284 0.02125293 -0.04088309 0.029047577 0.046013016 -0.09332149 0.08567209 -0.0953202 -0.06588455 0.01661474 0.08281423 0.03419273 -0.025380274 0.096001185 0.023402428 -0.058917094 0.010279579 -0.06749736 0.031396974 -0.08182231 -0.023840038 0.017814854 0.07740911 0.03970599 -0.014946117 -0.009459503 -0.055254035 -0.02565989 -0.051975504 0.09533594 -0.09030333 -0.07911459 -0.025147643 0.042916395 0.06823873 0.07778835 0.06991389 -0.033019602 0.08567173 -0.072946705 0.018549224 -0.08785609 -0.01780967 0.021305325 -0.09728858 0.06312086 0.016070416 0.0016748486 0.08801066 -0.030131444 0.018334223 -0.0032130869 -0.023954432 -0.0796104 -0.09513911 0.08847401 -0.006071748 0.014799123 -0.08179969 -0.036258105 0.012366651 -0.0068253037 0.10014959 -0.0026182411 0.00011038237 -0.025496604 0.08010026 0.041189257 -0.047044214 -0.05682028 0.026019914 -0.024061786 0.10262323 -0.0715908 -0.04150198 0.098661594 0.052544836 0.054396015 -0.022873532 0.019150725 -0.038046196 -0.04250263 -0.051978637 -0.08174593 0.025687322 -0.0061502503 -0.0063228607 -0.0046022413 0.0047059916 0.08327307 0.05678401 0.094823346 -0.035077054 -0.031620808 0.0049185804 0.045565248 0.057265375 -0.06073129 0.0036333718 -0.07479814 0.12291134 -0.018938512 0.009943676 0.08522852 0.0035674954 -0.07595163 0.055561725 0.027223086 0.0527154 -0.011152163 0.052110046 0.045379568 -0.04776344 0.016426006 0.054290105
*dt_4 -0.13047117 -0.14350465 -0.12189951 0.08592372 0.062334616 0.00051807525 -0.15331337 -0.036869172 -0.14707331 0.08435103 0.035071258 0.04415634 -0.045313835 -0.026302207 -0.07622267 -0.08415788 0.011843641 0.11766645 -0.09464329 -0.074564524 -0.03830011 0.004781771 -0.07286413 0.055863097 0.084139004 -0.11147355 -0.1277275 -0.123886324 -0.008884307 -0.13142179 0.10018115 0.10575363 -0.10097008 -0.053362068 -0.0064328234 0.056085773 -0.02352983 -0.1513959 -0.027758637 -0.014936845 -0.03942146 -0.068547435 0.039831728 -0.093303874 0.049385082 -0.033950463 0.02101307 -0.01567802 0.06855282 -0.087549 -0.06828787 -0.07429238 -0.15352556 -0.12653942 -0.018980317 0.14706852 0.0064952206 0.025398104 -0.09194431 0.14245805 0.07319161 0.17559433 0.04369583 -0.003673455 0.0032435544 -0.02211555 0.122727394 0.08719653 -0.03617058 -0.06499975 -0.13570577 -0.03401514 -0.1286658 -0.09833388 -0.07259278 0.08840178 -0.09060138 -0.13680702 -0.03330393 0.0007277792 0.066051535 0.09422046 -0.12029405 0.034395695 0.10997284 0.076484635 0.04058912 -0.0773531 0.05916293 0.07591767 -0.15210986 0.13907845 -0.15172678 -0.09491718 0.027515914 0.14118016 0.047918413 -0.03158379 0.16364853 0.02326623 -0.09933481 0.010308841 -0.11062053 0.051659513 -0.13469268 -0.038415577 0.022597373 0.12832046 0.06544186 -0.021634428 -0.026290763 -0.085422575 -0.040750824 -0.07286959 0.16182837 -0.15625559 -0.12218994 -0.050833073 0.07972037 0.109104924 0.13849868 0.11575269 -0.055395465 0.15031072 -0.11514098 0.027556727 -0.14106871 -0.03714402 0.024018023 -0.15065594 0.093848735 0.024211967 0.009786724 0.14065933 -0.05943206 0.03291396 -0.0002048377 -0.040437724 -0.13386597 -0.15542233 0.14185297 -0.0034951277 0.017085552 -0.12333557 -0.06391354 0.023828406 -0.015323066 0.1612802 0.0052883793 0.00011073259 -0.048506785 0.13724616 0.06671541 -0.08270402 -0.09458554 0.04054128 -0.039093602 0.17713471 -0.119131535 -0.07290753 0.15290174 0.092801176 0.07649694 -0.049565412 0.03146281 -0.058708716 -0.07721493 -0.086372726 -0.14132462 0.041503403 0.003236401 -0.014291009 -0.010998538 0.012052279 0.13461003 0.09105872 0.15295547 -0.065070756 -0.04473428 0.0076338705 0.07030434 0.09038968 -0.104732305 0.009152446 -0.12293286 0.20386726 -0.028208401 0.008171395 0.12985699 0.009133227 -0.114096746 0.07908928 0.0566556 0.095314406 -0.021743154 0.08337978 0.05894312 -0.073344804 0.012089687 0.081394546
