21 200
*dt_0 5.184898 3.0661798 3.19159 -2.8385036 -2.764175 8.4604435 0.4819569 -1.5291318 1.9604794 -2.3934555 -1.8995838 -2.1949482 8.054871 -2.4437933 -2.8473585 5.6464167 -9.464067 -3.0458755 5.5532274 -2.9665139 3.3985517 -0.68027246 -5.012816 -6.503195 -3.0036652 5.683332 0.6939919 -1.8702009 2.670441 -3.9011714 0.6949923 -5.155782 -1.0120659 5.4111304 -6.956515 -3.1019065 2.3994162 1.0692977 2.1947908 6.648061 4.6204686 1.4148377 3.7158122 -5.121684 -1.1441429 -0.005064442 -7.530554 3.358652 -2.5248778 7.593696 1.3214648 6.575403 0.09412332 4.177023 1.2851651 -2.3336105 1.7360017 3.0610821 0.4981098 -0.3475549 -5.6365786 -8.615125 2.0263085 2.2918398 4.384454 2.6168644 1.0846294 -1.881813 2.637426 2.614563 6.5455527 1.2423408 7.5781245 4.015141 1.4892218 -1.0159388 8.862449 -1.4700348 6.2703404 -1.2104899 0.13846105 0.02482959 -0.3209363 -5.598062 -1.077864 -0.39979365 -7.9065332 -0.32704177 -0.77403724 -7.1174293 -1.1573864 1.0053251 4.2956414 1.3855884 -3.576816 -7.9674053 0.047541995 3.8471887 -4.869075 0.57904583 1.1758372 -0.8368403 2.8505297 0.46960792 2.583024 -0.85441226 10.201956 -6.698464 -4.022898 -0.786927 0.5262803 3.5379472 -5.053835 0.5573921 0.06019732 8.198649 -1.9287072 3.2718601 -2.459519 1.7166114 -2.2380733 -3.9256682 4.05408 -0.9501172 3.6994739 1.9295708 6.3934197 0.19205868 -0.78182787 4.4777055 -6.836696 -2.880984 -1.0535597 0.5339142 -2.3113227 -0.2298444 2.871402 -5.284457 9.039759 11.081265 -3.3821025 -1.1442068 -0.8672935 2.3311727 -0.27241844 -4.1793213 -5.360576 -0.96034884 2.2941973 2.7325082 -8.209132 -5.379207 -2.4197392 6.4436903 -1.2818007 1.1988627 0.770666 -2.8893878 -1.7308227 -0.6912789 -6.698504 2.4211955 0.93419504 4.7288947 -7.4577374 2.1936324 7.152531 1.9540167 -1.2625886 4.2222314 2.614161 3.7692685 4.204158 -1.3085903 -7.694557 1.652111 -9.490747 2.0427222 -0.47151715 -1.762026 -1.2371883 -1.7556581 2.7478752 2.0692272 5.6858935 4.4224825 -1.4249897 -0.34680948 -5.480978 -10.908939 5.1181645 -4.303766 -2.2980475 -2.1008537 2.4449396 -5.0125184 -5.9295464 -13.195261 -2.16776 -0.66973966
*dt_1 7.4702415 4.4644427 2.6610777 -4.951583 -0.9097106 7.577772 -0.73074025 -2.1506805 3.3845277 -3.6058064 -2.400737 -1.8211423 8.526169 -1.1249949 -5.367253 7.500464 -9.376697 -6.641722 4.976613 -4.0473876 4.1953955 1.5686775 -2.3745472 -6.883611 -1.0548918 2.488954 2.2207322 -2.756982 0.65448356 -5.800744 1.1768925 -5.4541783 4.6536813 2.3780115 -8.06116 -7.800386 0.9107759 -0.60474616 4.1831465 4.3703775 0.9026855 5.547398 1.851412 -4.5920286 -1.1366687 -0.46192873 -8.978655 3.0374475 -4.0006757 7.1861076 1.7018949 5.039602 -1.9777317 0.93716234 5.640648 -4.651618 0.21657382 1.8553272 2.145426 -2.8304589 -6.5222406 -8.73471 1.3912972 1.9281325 2.7281299 3.3225932 1.4533983 1.5634198 3.2844129 2.297771 6.665559 0.44103903 10.139483 6.208691 2.428996 -2.5415714 9.303872 -1.548252 2.9133136 -0.8644307 1.2100049 -2.8589032 -0.7237939 -2.5117824 2.5333622 0.36123967 -7.7827973 -1.1719866 -2.6516533 -10.282839 -2.5087116 2.2913387 3.806481 2.7993267 -2.192386 -8.1678505 1.4742484 3.7360437 -5.5179496 0.27387643 -0.9149836 0.17596619 6.012294 -1.434709 6.2734966 -0.47358266 10.850715 -4.6118617 -3.4475443 0.08534883 0.74757165 2.7455795 -6.1719484 -0.66202646 -1.3797427 6.1314883 1.9506247 1.788075 -3.9081714 0.0062515903 -0.89529914 -5.1969237 2.1504698 1.5810113 3.2623556 3.518135 6.753627 2.0208547 -2.0372925 4.6128407 -6.0255847 -3.5311174 -1.9430859 1.663939 -0.65451825 1.5507245 3.4753149 -7.865215 7.2643456 12.155872 -4.5671334 0.68872917 -3.6622984 3.9299698 -1.3402723 -2.1627119 -6.0514874 -0.5578511 1.8752574 2.4693074 -8.491228 -4.96134 -3.0068076 5.255936 -1.3615593 1.8488008 1.430089 -3.7008734 0.31256932 0.12770352 -9.130784 1.1596448 -2.7875152 6.072747 -9.814437 4.245092 10.588673 4.6791353 0.4755421 5.624116 0.63393974 2.0078993 3.5751579 -1.8235344 -8.313515 1.3878167 -9.797629 1.6578934 -0.75952315 -3.973902 -1.3620044 1.0266203 0.4513354 3.2364724 6.591441 5.696246 -2.8078322 0.06749259 -5.5222626 -11.610559 5.0019317 -2.2471967 -2.011314 -3.6073687 1.0732669 -3.0189638 -5.360302 -13.556009 -2.17536 -2.7771912
*dt_2 8.042766 3.8168669 2.3041842 -2.6227007 -2.3928428 7.436618 -1.1192572 -2.579625 3.9581757 -3.4055762 -0.7939219 0.0757727 9.021602 -0.72457194 -3.9043164 5.3878975 -10.683526 -6.838106 8.561034 -3.4059854 3.4647417 0.4372049 -4.1916323 -7.7866793 -6.2857294 7.4869823 2.9340968 -1.4145145 1.7671069 -3.029193 -0.64482313 -4.7788134 -0.9662517 5.3876348 -6.9317536 -6.8729343 1.6837127 0.6579907 3.8904743 8.466201 0.013255186 3.1768153 2.4922848 -7.2386785 -0.7938766 1.1852797 -9.97741 5.0068426 -4.3578343 11.733631 0.46814603 5.168642 -0.8152978 5.9143214 2.7074962 -5.095573 1.3033166 3.121318 0.6684306 0.21124578 -8.17135 -9.585857 -0.05255787 -0.5059962 4.9566164 2.8144786 3.160884 -2.0604336 4.8519545 4.2142887 5.892367 0.5706972 9.174955 5.419876 2.6922758 -0.365309 9.844026 -2.8706648 4.1495056 -1.4966981 3.2351444 2.2249107 0.014122474 -7.2084804 -1.289521 -2.097439 -9.385944 -1.7617562 -2.2094078 -6.7067432 -0.181665 0.6557589 3.9621277 -0.012333024 -2.8600852 -6.9194827 -1.0211247 2.7681565 -6.496707 -0.9854209 -2.0603893 0.06836508 3.155932 0.40422392 3.4998488 0.91955036 11.667877 -9.246259 -7.2274146 -1.5461074 -1.5246317 3.0797696 -4.568127 0.7588719 -0.33131012 9.290775 -1.0523632 3.9962084 -3.993018 3.138508 -0.39345148 -4.8076215 1.9782331 -0.7930243 4.250679 3.2100275 5.771282 0.15407248 -1.3832576 4.7322025 -6.2465644 -3.9405136 -1.9519663 0.5463828 -1.7158334 0.6073108 3.8556938 -3.9981093 8.387124 11.504679 -5.8340516 -1.8074185 -2.9163537 2.9669878 -0.2671211 -6.4209156 -6.498683 -2.750218 3.956143 -0.15851778 -7.5045824 -6.4110546 -3.4469078 6.102479 -1.768861 4.5530105 1.2409933 -1.0605502 1.0962987 -0.4783101 -9.883253 1.7013009 2.3133068 5.226896 -9.434796 4.4793935 11.501974 2.5922556 -1.4516543 7.061215 -0.32324666 4.967344 6.2593155 0.72171694 -5.4003983 3.463708 -9.823059 1.862788 0.7774564 -2.7944605 -2.0836966 -0.29998133 1.6377248 2.9282787 9.840168 5.648321 -0.7847699 0.9954722 -5.8288255 -11.863805 6.6772976 -4.6025057 -1.9944704 -2.2203112 4.5124784 -4.875632 -5.9641576 -17.255964 -2.012269 0.29286987
*dt_3 5.810731 6.6974273 2.8659759 -2.8154511 -5.1525083 11.661557 0.01960478 -2.9531329 1.5342848 -4.909034 -0.6304122 -1.210606 11.403659 0.33764926 -3.5975444 7.8771887 -12.075438 -6.625478 9.535699 -4.530919 3.6817524 -0.3414907 -5.1879263 -8.470259 -4.7845554 5.93003 2.0016627 -1.8106863 1.3872147 -5.288491 -0.09409958 -5.7589846 -1.2924782 6.065703 -8.016609 -6.6881614 2.3297298 1.1519899 3.9738367 6.9540324 3.044378 3.303131 2.8207493 -7.18294 -1.9540408 -0.910719 -7.5895123 5.200619 -1.7789735 8.450952 1.8737609 9.348112 2.9683099 3.4272566 4.6215425 -2.8188484 -0.076186605 2.089028 -0.1173813 -0.42557004 -8.833305 -8.134941 -0.7397864 -0.51379836 7.044651 3.0668125 1.6688131 -2.464276 5.564009 1.7019674 8.018391 -0.7853162 8.229055 6.05045 3.4292521 -1.5645566 9.256788 -2.0263145 6.4038444 -1.2832513 2.3871863 0.38640064 2.444917 -7.125671 -0.14358453 -3.4653752 -8.897742 -1.6264808 -2.633358 -7.684273 0.9037462 0.7861219 3.4113793 -0.30893967 -1.5283996 -9.687742 -1.2586888 4.3311157 -8.669329 -1.089293 -0.7920233 0.6547844 4.786401 1.2353567 5.0333467 -0.020301709 11.794616 -7.5371933 -3.8770556 0.07962132 1.3591866 1.3333082 -7.8272033 0.23694047 -0.37693596 9.497885 -1.3479491 5.158283 -2.3031309 3.3896875 -1.927568 -4.7481265 3.2655058 -1.4043809 6.33938 2.9991896 8.183676 0.67886823 -0.47774225 3.821433 -8.316863 -3.2874537 0.6054918 3.493426 -2.6274507 3.5185874 4.65325 -5.8831153 9.7513275 13.007135 -6.846852 0.67833257 -1.2587665 2.077586 -0.6500318 -5.9905777 -5.789978 -1.4607466 4.775618 2.210556 -11.551348 -5.149292 -4.4083834 5.9476533 -1.1701765 2.6505325 2.064031 -4.0828853 2.1664748 0.46402422 -8.821041 -0.41424862 0.9179131 5.6791515 -10.804164 2.125054 12.802857 6.6920485 -1.1661509 3.4734905 0.88444513 4.8713775 5.153664 0.051668577 -6.9678655 1.9945002 -9.503872 3.1526415 -1.4964577 -3.5837874 -2.6715517 -2.3209946 2.1728945 5.0916085 8.420142 7.0948367 -3.5455186 -0.28827298 -6.2731485 -11.614525 5.69521 -2.6935678 -0.90235543 -3.5000193 4.2324104 -7.0750065 -5.285951 -16.644806 -2.072592 -1.4073124
*dt_4 5.8715997 4.0366974 2.4183755 -2.8293417 -2.2092779 9.591168 0.38514435 -1.131538 1.6128322 -3.2114885 -2.6313329 -2.6247761 6.6770716 -1.7962875 -3.1456788 5.526355 -10.220121 -4.1482964 6.2692943 -3.1622283 1.5497711 0.2115431 -4.712666 -7.197328 -2.627782 3.4430287 0.95160973 0.39534515 2.0078766 -4.749093 -0.16937868 -5.187626 0.13645568 5.1476827 -8.5629635 -4.3503366 0.8432915 -0.26297298 2.1431205 4.967929 2.6589923 3.1891606 3.0691018 -4.785121 -0.2910434 -0.014125382 -5.6455173 4.133957 -1.6000515 6.3837748 0.84577477 6.865118 1.3225881 3.0794072 3.00237 -3.51488 0.14655548 1.9710075 0.9244816 -1.2501446 -4.398038 -6.601993 2.404834 1.5414081 3.377594 2.3276622 0.032810144 -1.4094133 3.38514 5.1958985 5.940443 0.86293393 6.421286 4.649661 3.9253244 -2.344998 9.191751 -0.2422961 4.469511 -0.132353 0.5844029 2.176688 -0.30396208 -4.8392296 -2.295119 -1.5594106 -8.137247 -0.20272094 -2.0364685 -7.8900294 -0.68757623 0.66826737 4.9453964 0.21588755 -2.7872312 -8.360984 -1.3606471 3.6665115 -5.570398 -0.844759 -1.3121729 -2.1931858 4.1743565 0.2934592 3.6347787 0.10764817 10.2845125 -7.1651416 -4.693871 -1.0777379 1.5169059 3.5744002 -4.284641 0.86784893 -0.30797294 8.319015 -1.2960936 3.119798 -4.371819 2.5255942 0.04626819 -4.702701 2.499356 -1.420327 4.7566724 1.4801544 7.1931844 0.33214074 -0.7244341 3.2741816 -7.7462335 -3.7061346 -0.39595893 1.7373655 -1.8739501 2.365953 3.953253 -4.9429655 8.754538 10.922273 -3.0299745 -1.4285336 -0.6664388 3.8204598 0.9680434 -3.5907302 -2.9475212 -1.1127971 1.4110045 -0.18743049 -9.924754 -4.3466716 -1.7923963 6.036917 -1.0591729 1.141778 1.1225554 -3.1338203 -0.032129753 -0.66292286 -9.151218 -0.8046305 0.7280337 5.289546 -9.270593 1.9187764 8.246609 3.529111 -2.0660944 1.9781021 2.3516905 5.2680697 3.425795 -0.60456824 -6.6393557 2.4718697 -8.202532 1.060148 -0.11840848 -2.8106802 -2.5050714 -2.0293536 3.5145276 4.3082576 6.6159554 5.474251 -0.8534863 -2.1762598 -5.52576 -11.070227 6.0611167 -3.0471268 -2.0697095 -1.8030243 2.9387772 -4.5499735 -7.1284924 -14.1934805 -1.742871 -2.2560124
*dt_5 7.791882 4.1181636 4.318109 -4.6157002 -5.313584 10.231409 0.5308859 -2.8205125 2.678584 -2.4992452 -3.3171191 -2.9754472 10.964104 -4.9380527 -0.7920332 7.6976247 -13.174694 -6.2594786 9.843089 -4.754218 3.1343007 -2.4187496 -5.4794893 -7.6967745 -3.8918486 6.459379 0.24987715 -2.4453936 0.33067837 -5.153425 -0.27741823 -4.16858 -2.0969958 5.559746 -8.01438 -5.739626 1.0090324 1.4355898 2.678998 7.2081966 2.407258 4.519629 4.4533877 -4.354978 1.2949796 -1.2643039 -9.297808 3.6713352 -3.730452 6.3131027 -0.5063065 9.209932 1.2043169 5.394759 5.132819 -6.005166 0.059149116 1.0107771 1.4890047 -1.7215773 -6.161425 -8.19922 3.0490594 3.8968318 4.4072604 -0.05186753 0.98924965 -1.6679617 2.8157291 5.886046 7.0618663 1.2057058 7.654696 5.412086 3.0939717 -2.837893 12.514356 -0.59692633 6.461444 0.302855 -0.07004896 2.9687843 -1.3833122 -7.9942613 0.3542262 -1.4266908 -11.907834 -0.063228555 0.2519029 -8.591094 0.86172867 0.47454667 5.5399094 2.512302 -2.853112 -11.213592 -3.9371061 5.859892 -7.7048635 -0.9433211 0.2738496 -3.9321055 4.180641 -0.8263674 3.5636165 -2.1438189 14.133104 -9.3397875 -5.8347406 -1.3510237 -1.4673374 4.6468334 -7.536565 -1.26025 -0.0011336505 9.5270605 -0.757835 4.0445185 -3.7053583 3.4137366 -2.2784085 -5.516473 0.76971143 -2.6408644 7.3022532 1.4930134 10.760386 0.7335931 -0.15243281 5.109464 -7.8814645 -4.167318 -0.42001396 2.4976587 -2.9016268 1.6497889 3.3740134 -6.2238173 11.951171 12.240151 -6.6555433 0.35982788 -2.2239478 3.6910415 -1.1485966 -6.8917694 -3.3083785 -0.94275963 3.5851927 1.9755492 -12.604552 -5.3778405 -2.856788 5.305213 -1.3908141 1.2272674 2.7195837 -4.792671 1.1605266 -1.5827674 -9.658377 -1.106199 0.5977429 7.193981 -12.752627 2.7249408 11.354418 4.9430614 1.2529252 3.9003258 2.4080937 7.580576 4.2243733 0.3057161 -8.815828 2.0393958 -10.922066 4.2900352 0.83367705 -5.0300484 -1.3027179 -2.2829819 2.7826405 4.801319 7.3086047 6.663979 -1.8295373 -0.9118643 -5.366055 -13.517756 7.362532 -4.0957203 -3.5338395 -2.1840265 3.6999722 -6.6592746 -9.23405 -16.543455 -2.3445995 -0.17221631
*dt_6 8.21395 3.9659863 3.2219608 -3.574788 -3.4582317 9.988622 -1.0401943 -2.8089046 2.1611104 -1.98721 -5.5178647 -3.7894604 10.069139 -6.5200596 -3.1433918 5.995875 -13.814525 -6.826169 9.518267 -6.6205683 3.309007 -1.9403298 -5.3247013 -8.25663 -3.121859 6.4844646 -0.02493769 -2.8919072 -0.45217377 -4.0477996 -0.3464889 -4.222331 -1.6756983 5.1731744 -8.981007 -4.5162973 0.30844778 1.1680331 3.083315 7.6150503 3.4778717 5.14014 4.1147494 -4.15091 1.0629958 -0.19158809 -9.438871 4.5110416 -2.2584102 5.968259 -0.5699833 8.390575 1.9315759 4.3929896 5.2435637 -5.143426 1.3411137 0.089083284 0.8215179 -2.5066643 -5.969241 -7.913102 2.405627 4.159746 3.4455261 -1.0997736 0.35229918 -2.1012743 3.644045 4.1122637 8.541977 1.718595 7.865046 4.418992 4.022212 -4.1356635 11.274531 0.54492015 7.2059565 -1.4470797 -0.01934002 2.6071417 -2.0332296 -8.954639 0.11681033 -0.87027687 -11.651013 -0.16328533 0.08575448 -10.384208 2.1016119 1.4532374 6.134821 2.6549182 -3.4498131 -11.748832 -3.6612542 5.190345 -8.874782 -1.838052 0.3741899 -3.540647 3.446232 -0.451347 4.37819 -1.4246802 15.149518 -8.886103 -5.0552826 -1.4761043 -0.24511606 3.0899768 -7.3169193 -1.1775235 1.2440065 9.021776 -1.8799362 3.7026727 -3.320272 4.142248 -2.6556242 -5.549644 2.197757 -2.7102685 7.0374684 1.7920325 9.967173 2.0070364 -0.7486643 4.876742 -7.5656137 -3.688105 -0.49686068 3.8545282 -3.4434755 3.2171674 4.186751 -5.7083616 10.841822 11.958564 -6.741812 -1.0094873 -1.9405527 3.544607 0.19396465 -6.674469 -3.038353 -0.70736563 4.3341923 0.94096404 -12.665086 -6.258684 -0.7716647 4.564965 -2.5821166 0.45241708 3.1728907 -4.9341846 0.57769525 -1.7177725 -8.4061365 -2.0555158 1.5103775 6.2243595 -11.147434 2.5901895 11.134712 4.2232523 -0.08983388 3.958904 2.7814302 6.3843565 4.935144 -0.877662 -9.106571 2.0391564 -10.64703 4.059386 -0.553734 -5.3277197 -2.2654881 -2.256043 4.2434626 5.5174284 6.704866 5.340425 -2.5212681 -1.7199848 -5.398548 -13.543051 6.0344048 -2.6495028 -3.4572277 -1.5992475 3.0557122 -6.901329 -8.841204 -15.782592 -2.8211312 0.047923483
*dt_7 8.675511 4.7298336 2.9496727 -4.504112 -5.1973157 10.347783 -1.786376 -3.3698733 3.606319 -1.5984899 -4.880756 -4.6673775 11.804044 -5.860447 -2.5421596 7.128544 -14.56198 -6.4676175 9.462492 -7.3902 4.3850884 -2.8122475 -6.692416 -8.1322 -3.302103 5.818077 -0.55340123 -2.5372825 0.07568148 -4.6125216 -0.64232767 -4.226879 -3.2576494 4.0895815 -9.539858 -3.67192 0.45160615 -0.29935434 2.8520157 7.209381 2.5146012 5.5054226 5.304118 -5.7204275 0.71617216 -0.7404928 -10.824175 5.2935896 -4.3055468 8.725785 0.48890707 10.32916 1.208068 5.8222327 6.0106277 -6.03189 -0.7815791 2.0158887 1.4911648 -3.831478 -6.7329316 -8.985965 3.2405674 5.283015 5.0860057 -1.9269383 -0.7360158 -1.7577149 2.669116 5.854592 9.003279 2.7198975 7.812185 5.5091352 4.9816165 -2.8956938 12.46384 -0.40940946 6.991696 0.6947393 0.20079997 3.299973 -2.2421918 -7.8133903 0.34136087 -1.6783206 -12.947051 0.5254499 0.47649187 -10.320531 2.2554238 1.5839617 6.6182914 2.3267803 -4.540821 -12.910897 -5.096459 5.8832054 -9.061743 -1.1104271 0.4979015 -4.458881 4.6732173 -1.6768638 4.5490937 0.69188845 16.278778 -8.631144 -6.698824 -0.82545924 -0.8508809 4.8695583 -8.586936 -2.5782597 0.4713401 9.744311 -2.0648885 3.6900382 -3.0846355 4.350887 -2.1626723 -6.2667866 1.2742184 -3.403441 7.594234 0.23200215 11.050781 0.5213432 -2.253797 4.4223003 -9.394237 -4.9805307 -0.040262036 2.581529 -2.7188022 2.1982625 4.323768 -6.477619 12.166685 12.656742 -7.714805 -0.5307002 -1.2620633 3.8340964 -1.167189 -6.5384903 -3.1404538 -0.20190416 4.439485 2.2905176 -13.837585 -5.929903 -1.3199387 6.2312646 -1.2867386 0.3912207 2.7391024 -5.8741426 1.9460258 -3.2855604 -10.466932 -2.7514973 0.41694057 6.4187574 -13.238328 4.022964 12.490365 4.527367 0.6286401 3.815468 3.5222988 7.8380976 4.587658 -1.6308266 -10.685437 2.7376962 -12.075475 4.2306604 -1.0914078 -5.655229 -1.1642535 -1.9009575 3.4648056 5.9641514 7.3733172 6.3629217 -3.3829324 -2.0388641 -7.400198 -14.815765 7.582878 -4.0434036 -4.3871665 -1.7091036 2.8801074 -9.760339 -10.333675 -16.311806 -3.6104426 -0.16916794
*dt_8 9.111505 3.7605948 4.086966 -4.0536575 -3.4092712 10.079405 -1.4778118 -3.8657444 3.8371725 -2.0382416 -3.8227057 -3.2812874 9.743702 -6.679986 -4.3535447 5.2746973 -12.659243 -7.5605807 7.949307 -5.487227 3.1608384 -1.0586209 -4.687838 -7.7298646 -2.236942 6.9777274 1.4136837 -2.21234 1.4000111 -4.835594 -1.5535576 -3.8031175 -2.5508454 5.111254 -8.461421 -5.341609 0.26940528 0.4794858 3.7128196 7.473913 4.552498 3.6887705 3.3370326 -3.5586524 0.45130172 -0.45391026 -8.411459 3.6873813 -2.85368 8.144309 -0.46498197 7.175401 0.7588459 5.853207 3.8504045 -5.2569966 0.0041196942 2.2230911 0.17530107 -1.767095 -4.611725 -6.4396133 2.814608 3.9599762 3.8390326 -0.5232856 -0.08193731 -0.9358959 2.4469292 5.2379923 9.585147 0.6259337 8.563531 6.514351 3.8197021 -3.8604283 11.832132 1.258234 6.5452724 -0.42423385 0.959855 1.3048444 -2.4916499 -8.187507 -0.7456307 -1.8686612 -11.712212 0.05769655 -0.024494112 -8.421263 2.3844218 0.69249994 5.895531 2.2279727 -4.1698465 -10.62692 -3.656562 4.8231163 -7.864411 -0.7781514 1.1699104 -3.0876231 4.3619714 -2.138302 3.6119637 -2.3363357 15.994759 -9.027621 -5.9961047 -0.73641026 -1.4268655 4.00871 -7.036601 -3.013254 0.6566244 8.556047 -2.0372574 3.307579 -2.3385873 2.6332986 -2.0894578 -4.454333 2.0708442 -3.2873325 5.8928165 1.3746928 9.200335 2.8429737 -0.81512165 3.2732017 -8.22229 -3.0415387 0.2782298 3.501554 -3.2488139 2.953822 4.007512 -6.1973495 10.499787 12.035489 -5.9711037 -2.5853424 -2.89504 4.056076 -0.41494167 -6.8274703 -3.3754861 0.22788958 2.761581 1.3944207 -12.833748 -7.181846 -2.8095043 5.4179125 -2.3039937 1.7965004 2.3634865 -6.044437 3.1433337 -2.6581256 -9.014869 -1.0355359 1.3221526 5.7277493 -13.002859 3.1631055 9.532616 4.075169 -0.17238954 3.8501198 3.9373832 6.1515985 5.0474567 -1.7057017 -10.34579 2.837166 -8.517452 3.0524592 -1.1650808 -4.0012426 -0.11738148 -1.815116 3.384995 4.4897647 7.508266 3.3204346 -2.1496577 -1.6303496 -6.4416456 -12.747189 5.6595564 -3.8365638 -3.6293864 -1.781158 4.689061 -7.1283784 -7.89466 -14.763692 -1.4630256 -1.1048263
*dt_9 6.6511245 3.8587053 4.5436373 -2.8486378 -1.70153 9.1984825 -0.42328835 -3.07547 3.7927535 -1.7745639 -3.7353163 -1.39535 9.5868025 -4.6532125 -4.016849 5.500052 -11.494884 -6.82828 7.609729 -3.8534122 2.2628334 0.6847285 -4.4884725 -7.428757 -2.4489777 5.4801583 0.5051385 -0.93157834 -0.11468801 -4.5583534 -0.28849488 -5.4564824 0.00722827 5.8193483 -9.021021 -7.346501 1.1742135 1.3973968 2.1474106 7.666931 3.101977 5.218862 3.2078555 -3.0857308 -1.524439 0.47310317 -8.835357 2.8311298 -3.7067394 8.840857 2.2308943 7.4492097 -0.9923397 4.166259 3.6565676 -4.4674563 -1.6935308 2.7255669 2.5766428 0.38563877 -6.6720796 -8.435183 1.9804782 2.7560363 4.716402 0.5477751 -0.86774504 -1.239173 2.680694 3.0534325 8.359665 0.30101046 8.913729 5.689328 1.4326165 -2.1288936 10.797461 0.05765629 5.5545955 -0.27510965 2.371715 -0.12539025 -1.2417686 -6.5079226 0.10558007 -2.7021646 -9.565004 0.64958596 -1.4483323 -8.058334 -1.6967864 0.36576787 5.663117 2.8407655 -1.1727043 -10.922207 -0.37293977 5.6798935 -8.824786 -1.0294248 -0.15201947 -4.2060976 4.81748 -1.5131407 3.899931 -3.1089532 12.45348 -8.648233 -4.973271 -1.385184 0.8983784 3.6314492 -7.6059685 -1.218219 -1.700166 7.9318233 -0.405423 4.0033712 -5.0579104 2.245236 -2.9818728 -5.083988 1.8376029 -0.04001914 4.7684784 3.118954 9.909453 2.692237 -0.3264197 5.495175 -7.393532 -3.0599802 -0.26212284 1.0036037 -1.789356 3.150457 3.059772 -5.3413234 10.202614 11.386836 -5.60417 0.27944377 -3.1929698 3.0311668 -0.94226253 -5.9487925 -4.4871054 -0.4562177 3.0952988 1.3571159 -9.749404 -7.124372 -3.9863684 6.3340187 -2.9117172 4.135273 2.194853 -5.1938853 0.15785493 -1.046601 -9.7005625 0.8773191 0.5153255 5.4865875 -11.003591 3.7417495 9.892249 4.883138 -1.3017786 3.8913794 1.4608756 5.722845 5.1601434 -1.457433 -9.401487 2.8725119 -8.990557 3.0978508 1.4314848 -5.0447674 -0.058672592 -1.0163912 1.2178818 2.758812 7.47969 5.9734945 -0.91293013 -0.8294538 -4.861706 -11.55146 6.189409 -3.985963 -2.423687 -1.9019135 3.8912542 -5.598108 -6.538762 -16.647305 -1.5805904 -0.9163521
*dt_10 11.257965 5.986851 2.6490347 -5.139143 -6.8383293 12.712462 -1.0432221 -3.5433064 5.064138 -2.814693 -6.506358 -4.831941 14.075549 -7.279096 -2.6488047 9.4451685 -18.360394 -8.327261 11.816485 -7.4419866 5.7916555 -5.1167 -6.069436 -10.539732 -5.5286455 7.1739 -0.28895047 -4.9759974 -0.76226014 -7.165202 0.33973032 -4.0735397 -4.027857 7.141345 -10.4637785 -4.9921303 1.5479463 0.44722664 5.241176 9.816695 3.0235322 6.326893 5.533132 -8.349358 0.435972 -0.1593784 -12.349219 5.2521324 -4.910573 8.287238 -1.5499618 13.7074 2.1586561 6.6946263 8.051993 -6.4912887 0.964923 1.1113837 1.7942286 -4.3216753 -7.0858164 -8.660413 3.1553464 6.1011124 5.9792786 -0.81405985 0.11508332 -2.211948 3.292826 4.956968 8.501161 2.8031824 10.02878 5.5851874 5.0179915 -4.496952 14.399918 -2.1990826 8.428574 0.22082366 1.655276 3.151973 -3.103336 -10.484908 2.7295299 -1.639215 -14.5386715 0.67296606 0.73417145 -13.347637 1.8460128 0.475584 6.413363 2.7622573 -6.5519333 -14.510127 -6.0717697 7.530886 -9.331938 -0.91118723 2.5431712 -6.756942 5.8452907 -2.319143 5.7007046 0.015399236 18.601469 -12.202179 -7.965657 -0.33238512 -2.504412 5.0944214 -9.142926 -3.8265555 -0.34794304 11.279634 -1.3800311 4.5787444 -3.647413 4.2936106 -1.9568183 -7.119256 1.0550021 -4.1542077 8.61306 2.1055236 12.713104 1.4499712 -1.7950695 6.666155 -11.494394 -3.3962805 -1.2734314 3.2041383 -5.0701194 2.1981316 5.877214 -7.3390045 16.048208 16.416603 -9.468776 0.2590865 -0.9786289 4.5910935 -0.99595994 -8.266476 -3.4593627 0.14202073 4.193552 4.0392284 -15.850016 -6.237554 -0.4159048 5.7421975 -1.8878804 -1.0137095 3.0835512 -7.14255 1.4928 -2.8766484 -11.270849 -3.2450743 0.29762655 9.075957 -15.626942 3.900091 13.141046 6.1214485 0.18227592 4.1503425 3.3479757 9.576643 3.0545974 -0.66980475 -10.5908985 4.6103663 -13.964498 5.575214 0.33547872 -5.4100947 -2.3198848 -3.3531592 4.923983 8.779611 8.934566 7.566959 -6.3201904 -3.6108172 -8.151989 -17.338795 9.16785 -5.353851 -6.7455597 -2.9104283 3.2911935 -9.885787 -12.336041 -19.838017 -1.8387661 1.571439
*dt_11 10.022264 4.554508 4.5088854 -4.414503 -3.7508717 9.862391 -0.7560852 -2.9591036 1.3270521 -3.0378304 -4.135409 -1.1887872 11.952332 -4.259696 -2.313726 5.9735074 -16.564629 -8.600142 8.917242 -5.6197543 5.9160213 -1.2982205 -5.604906 -9.756278 -4.1921487 5.5426474 0.41669568 -3.1927817 1.1593947 -4.93358 -0.31421953 -5.8054256 -1.8944477 7.0404897 -9.89061 -7.333522 1.1215974 0.8526591 4.1646047 9.135272 3.213743 5.145867 4.768944 -6.347586 -1.1557907 0.8792053 -12.847034 4.969528 -5.5019755 9.505496 0.45301962 10.764132 1.5428208 5.9829674 4.476347 -4.919234 0.14521988 0.78809965 0.803306 -1.9220878 -8.363808 -8.038932 3.6850855 2.4868476 7.5188184 1.0531846 -0.010267913 -1.7239488 5.108215 5.871886 7.4553714 1.5508637 9.058254 5.7782893 3.7445083 -2.1670778 12.66078 -1.4407623 7.5519476 0.39244264 1.794214 3.13557 -1.2969446 -8.211707 -0.34740314 -2.449727 -12.987356 -0.4255089 -0.4063557 -10.627276 1.321863 0.5069862 5.846719 2.9539337 -5.5729904 -11.045161 -3.8005579 6.339315 -8.910697 -0.95189404 1.3130256 -4.4979725 5.917025 -0.36266583 4.9441657 -1.2040178 15.990915 -11.479745 -5.851126 -2.4003341 -0.24671763 3.8920605 -8.1091175 -0.63141215 -0.09619316 10.150056 -0.44841242 5.0683665 -5.7983723 3.170155 -2.6879573 -6.812298 1.0874017 -3.7126312 6.6724224 2.2666912 11.285942 2.7986376 -1.327795 4.9403133 -9.028409 -2.2547958 -1.6440217 2.3178458 -2.4031355 3.0964048 3.644216 -6.07218 12.790801 13.142361 -6.0683327 0.7523746 -0.78126216 4.791063 -1.5874925 -7.3721776 -3.7248476 -0.37278593 4.6170964 2.6714568 -13.331729 -5.7681637 -1.8638009 8.626318 -3.1071587 0.975033 1.2604575 -3.4697824 1.5882493 -1.8940406 -11.608702 -0.40070626 0.76225096 8.932727 -12.740538 5.192161 10.632593 5.034695 -0.7099494 4.287066 4.172392 8.447155 5.405207 -2.0773804 -9.91011 2.8925185 -13.9706955 2.7035868 -0.44791234 -5.6767154 -0.34083375 -1.3250606 2.4788907 4.808713 8.724655 7.365536 -4.561828 -0.94382095 -7.1059613 -15.951822 7.4698396 -5.871279 -5.5821342 -2.7576106 3.3634841 -8.434461 -9.038277 -18.973497 -3.469745 -0.2898625
*dt_12 7.9303985 2.8739412 4.1472306 -3.4339013 -3.0623043 8.864496 -0.50632226 -2.1034954 2.7073882 -1.6753097 -3.4021564 -1.5149059 10.314754 -4.619618 -2.9978306 5.968588 -12.877134 -7.185627 8.300153 -5.389869 3.7595353 -0.48879865 -3.8177273 -8.645969 -3.2257771 6.31515 0.06546596 -1.7425506 1.5236388 -4.555447 0.1611009 -4.9527063 -0.8263638 6.270128 -9.859611 -6.1452117 1.3264251 0.4965753 4.1433625 7.782963 2.044195 3.7407737 4.8566413 -6.102559 -0.33595708 1.6842909 -10.464944 4.7065234 -4.1760283 7.124455 -1.0596722 9.876644 0.3500854 4.525313 3.8135338 -4.3319917 0.22963955 1.4892476 1.7079589 -1.1892064 -6.8142223 -8.494591 2.231516 3.1646845 5.5435095 1.9213822 -0.45299128 -1.0256754 2.6430674 5.8848534 6.352175 1.2427232 8.220384 5.551086 4.119724 -3.51359 11.484772 -1.3257512 7.2964735 -0.9843719 0.37004453 2.506032 -2.1840572 -6.9932737 -0.61674595 -1.9723953 -10.393383 -0.8301239 -0.06697732 -8.763868 0.7779972 0.8475179 5.1013727 1.6349857 -3.7588768 -10.865335 -2.3332663 4.652463 -8.049949 0.46374872 -0.752336 -3.5232275 4.1502347 0.44478196 4.398831 -1.4273316 12.747778 -8.337766 -5.1938124 -1.9096805 1.286127 4.2313037 -6.5276594 0.5256536 -1.2404869 9.73882 -0.6951748 3.9988387 -4.809521 4.611677 -2.3065338 -6.10949 0.9172955 -3.6726227 8.085489 3.192405 8.937349 1.4065782 -1.6816568 4.541275 -7.2512765 -2.555773 -2.038248 1.1879401 -1.6092871 3.548761 2.392508 -5.0693135 10.451648 12.333094 -5.379237 0.4096155 -2.2934425 5.344584 -2.0072207 -6.0777907 -3.5270157 -0.5761135 2.521137 0.8511258 -11.516196 -5.8466263 -1.5052278 6.753884 -2.8710728 2.0148218 1.3237313 -4.720284 1.8639504 -0.6989125 -10.141404 -0.58657724 1.0893531 6.160793 -11.738858 4.650767 10.382282 4.213934 -0.31962845 4.6605053 1.9299102 7.095455 4.7605457 -2.0683987 -8.848303 3.3577216 -10.794963 1.9018714 -1.1461716 -4.3842063 -1.2998164 -1.2023938 2.1439679 3.5356202 8.565913 6.270957 -2.419959 -2.4356022 -5.735695 -13.919816 6.825147 -4.0794444 -4.309782 -3.494895 4.7654047 -7.474746 -9.04104 -16.536205 -2.717398 -0.62388766
*dt_13 8.936192 3.8421464 2.2496424 -3.6382618 -4.5607343 8.959484 -0.99809813 -3.8341606 3.3517847 -2.3466556 -4.47855 -3.1888902 11.926003 -6.2231708 -2.6986742 6.215598 -14.721187 -7.9675756 8.934728 -5.2756796 5.333503 -3.570082 -4.4715867 -7.539739 -3.9810205 6.379614 0.004651852 -2.582485 1.2479755 -5.1855865 0.7107858 -3.252811 -3.2565897 5.2290874 -10.624267 -3.669784 1.7265208 0.012352578 4.2382164 8.785662 1.6197304 5.2627897 4.659342 -6.3032236 1.5658926 0.19898686 -9.326812 5.5550027 -5.137077 6.9702973 -1.0408933 9.9859295 0.8397918 5.0592184 5.1549106 -4.805249 -0.15763631 0.91337067 0.61514163 -3.1283813 -5.8810296 -6.2262754 2.5729823 5.1218834 5.634114 -0.3780572 0.26980546 -1.0456038 2.1425223 5.7884507 7.046099 1.1705128 8.950643 4.2263365 4.0198984 -2.8875613 10.853903 -2.203066 6.9477973 0.3974273 -0.3602572 3.162753 -1.9056346 -7.7231812 1.1971966 -1.3267866 -11.295086 -0.2460786 -0.08669366 -9.387423 1.3601495 0.828328 5.691832 1.7420332 -3.2037847 -11.900978 -4.309861 5.4054966 -7.066859 -1.5441927 2.3914778 -5.6319685 4.957044 -0.64295757 3.7731466 -1.5019821 15.121718 -9.408145 -5.988464 -0.3110821 -0.7330737 5.7927527 -5.751851 -1.8833051 -0.414064 10.200996 -2.1778932 3.7516277 -3.5747516 3.9079704 -1.3388379 -6.1341567 1.0826981 -2.9448562 6.3307457 2.4094198 10.395499 2.3038068 -0.80835164 4.6779666 -8.511939 -3.3486626 -1.2743114 2.7111495 -2.7154527 3.0322456 4.176931 -4.8362327 12.596927 11.592992 -6.105146 0.16822195 -2.0522485 3.8491056 -0.85774887 -6.530135 -3.5078206 -0.11079197 2.965812 1.4255654 -13.0170145 -6.041931 -0.81863326 5.9571905 -1.2682264 0.46127015 2.5708168 -5.6842017 2.0604339 -2.4639692 -10.106941 -2.3467078 1.43701 7.1589875 -12.112902 3.3475635 11.035654 3.8923569 -0.017074954 4.1332717 2.9796312 6.872899 4.465765 -0.11710489 -9.16142 3.3343546 -11.444646 3.5135102 -0.11227926 -4.7278395 -0.55326045 -2.4443219 3.0776937 5.33402 7.4046917 5.52482 -3.2607236 -2.9442205 -6.9546475 -14.727258 7.8257504 -4.5296674 -3.919817 -1.5828764 3.4592474 -7.3843617 -9.254768 -16.303547 -2.6006258 -0.17842005
*dt_14 8.624699 4.3837447 2.2430975 -4.079818 -5.9029446 8.666382 -1.5849433 -1.8583726 2.451229 -3.1138546 -4.246157 -3.8744838 9.920803 -5.9979057 -0.9563021 8.22568 -15.249122 -7.100678 9.902626 -5.070908 6.7588778 -3.9308755 -4.6357136 -8.655624 -4.0372643 5.891222 -0.4540304 -3.5765848 0.63875943 -7.125825 -1.7081748 -4.550729 -2.055198 4.0238395 -8.996431 -2.5410771 1.2700651 0.46200308 3.7110643 7.4980464 -0.31825113 5.90948 3.950663 -6.5542417 2.8667805 0.83956456 -10.011158 5.016305 -5.502468 5.489076 -0.44868842 9.228775 1.2024108 5.067269 6.8682923 -4.473233 0.20425528 1.4187354 0.06506645 -3.6463547 -6.601894 -6.380307 4.3979115 4.3439264 3.8484707 0.5224607 0.57237166 -0.63632894 0.86066496 5.0327506 5.4599166 2.646774 7.0073752 2.7408626 3.7981412 -3.7449796 11.626299 -1.6769321 7.192103 0.5812961 0.46402434 2.9370344 -3.825129 -7.3209143 1.1826988 -0.6828294 -11.683351 -0.46746004 0.7646421 -10.080693 0.95491654 -0.024059696 4.8115244 1.843181 -4.219631 -11.921856 -4.9165 5.8633394 -6.714973 -1.723562 0.20833375 -6.3386245 3.6993005 -2.1681476 4.563014 -0.66005707 14.126158 -7.5325584 -5.289463 -1.9366559 -0.35238907 5.1217155 -5.4399676 -0.52464855 0.44255313 8.521989 -1.7792046 4.223392 -1.4727217 5.406998 -1.0668786 -6.0744605 0.55279636 -3.9344466 7.1656466 2.7903066 11.102887 1.182672 -0.2741102 3.9396067 -7.460444 -3.3981733 -1.8774979 2.4733849 -5.244203 1.4071172 3.1360474 -3.8251703 12.314591 12.592405 -6.311893 0.065393135 -1.1987065 3.4612246 -2.0228086 -7.5593715 -2.1919596 -1.3247513 2.2614627 2.0089674 -14.150839 -5.0262456 0.045334905 3.2417736 -0.3446824 -0.6594457 1.9565393 -4.4042397 0.8888336 -1.3019801 -8.845482 -2.4388974 0.8094112 7.2259574 -12.666376 3.1435318 11.52347 5.6032057 0.6924187 2.627382 3.1074903 8.645159 4.238918 -0.37215024 -7.246847 4.0727305 -9.958501 4.5603213 0.5150013 -4.0761414 -1.5142449 -1.7869503 2.4041433 6.7536197 7.4120865 7.2977376 -3.822717 -3.5661798 -5.5686784 -12.581885 7.2144995 -4.31509 -4.1450973 -1.228798 3.941024 -6.698913 -9.731526 -16.164597 -2.394617 0.34215316
*dt_15 8.799813 3.9146702 1.7537547 -4.7962213 -7.5116386 9.671685 -0.9838915 -3.4800043 3.187676 -2.9065285 -5.9846063 -3.0258968 12.732889 -5.732129 -0.07284035 8.8773775 -14.879244 -6.267974 8.833037 -5.3821826 5.8865542 -3.4684677 -4.431968 -8.95689 -4.4118996 6.0957055 0.58540845 -3.4826572 0.24239057 -6.379856 -1.3098271 -4.4469852 -2.7509143 5.588192 -8.89584 -4.463066 1.5891114 1.4416412 3.8856673 9.380594 1.0585532 7.6694775 3.979828 -5.6843824 1.4986498 -1.4441667 -10.817325 4.8837743 -4.5610194 5.600939 -0.43713906 10.08424 1.2678847 5.964923 7.7254434 -4.9168296 0.5683632 1.1161207 1.85823 -4.5172253 -5.877323 -7.513633 3.3697183 3.743493 2.73681 -1.3200024 1.7305721 -2.0489907 2.5959692 4.8482194 5.495814 4.1926317 7.3108106 4.8000846 4.881116 -2.073661 12.140768 -2.5594752 7.2914977 -0.41493177 -0.10864392 5.3150744 -3.4691658 -7.922534 0.92347753 -0.57591206 -12.787233 -0.47748077 -0.19646394 -9.200947 1.0275323 0.198937 5.3483014 1.6223536 -4.289521 -11.960945 -5.126576 5.8114367 -8.276211 -0.61575943 0.8365449 -5.2637243 4.3482413 -0.93117976 4.8358383 -1.1582788 13.865343 -8.1029005 -4.710346 -1.7486305 -1.8511361 5.13136 -5.807822 -1.2347589 0.06759548 9.33693 -0.6789266 5.483199 -2.607562 5.2649193 -1.2683443 -5.7058907 -0.28493655 -3.2966182 7.562689 2.7076073 11.942528 0.97055584 -0.5327506 5.60763 -7.4226527 -3.9183083 -1.0127147 2.2144635 -4.1766133 2.787007 4.125709 -4.383944 12.757163 13.484867 -5.6649523 0.22305204 -0.802328 3.7282243 0.10811514 -6.2268405 -3.153158 -1.9794697 3.0631006 3.2710793 -13.451308 -4.332274 0.09362131 4.588811 -1.48075 0.40779954 2.3586023 -5.665561 -0.48976263 -1.4649462 -8.798806 -1.088288 0.22690222 7.7938814 -13.098436 2.7335486 12.403393 5.5532985 0.41404217 3.2995121 3.3067365 7.784509 3.2913225 0.65271723 -7.399692 2.5085738 -11.143128 4.1626678 0.32455194 -4.7371726 -1.2709749 -1.9416635 2.7766848 7.03948 7.1977124 7.1425858 -2.697906 -2.0915341 -5.658715 -13.886201 7.388144 -5.5586843 -3.7017624 -3.0388558 4.1917086 -6.3814616 -9.358418 -16.114971 -2.6525486 -0.48471957
*dt_16 8.6534605 3.348458 5.320125 -3.2217216 -3.2475672 11.902316 -0.9662155 -4.0771604 3.5222142 -2.2738502 -4.47329 -3.2068512 12.4518585 -6.706853 -3.797823 5.9235797 -13.822077 -7.574609 8.900554 -6.5352726 3.7851515 0.036077 -5.9296594 -8.045118 -3.145348 6.940082 0.5769384 -2.183626 1.0686731 -4.9397306 -1.7639078 -5.7072835 -2.474705 7.123454 -9.714644 -6.692246 -1.5946416 1.3790894 4.4777284 8.035423 4.266574 3.5143075 5.8482943 -5.54185 -0.720713 0.0176989 -8.946999 4.658655 -5.3284416 10.049035 0.97335196 10.384818 0.7202772 5.4645534 6.379205 -6.1875486 -1.7865728 2.272571 2.4095986 -0.16861573 -7.6288414 -8.815347 4.3577776 4.4825873 6.6944094 0.70624816 -1.0202825 -1.5126703 2.2610803 6.853353 9.783263 2.13309 7.7846556 6.255749 4.5898967 -3.1338801 14.932208 -0.29573464 7.7902203 0.30264795 -0.28358412 2.417093 -2.4621308 -9.390111 0.088195235 -1.7434194 -12.6081915 0.3622662 -0.8971003 -10.199563 1.1409358 0.97841173 6.9280367 2.3573024 -4.6879473 -12.332381 -4.3185043 4.9991727 -9.59685 0.16379525 0.01628171 -4.8289337 5.015114 -1.4092877 3.7552326 -0.55684984 17.784899 -10.044699 -7.517935 -1.5049132 1.0307959 6.1764345 -7.972061 -0.2664511 0.05768962 10.410332 -1.5213337 5.1444054 -3.913218 5.5226383 -3.5913694 -6.0702257 1.3488594 -3.846331 8.027369 1.2152748 12.27618 2.2046392 -1.7884113 4.8210216 -8.174868 -2.869183 -0.19315925 1.1575339 -2.7220078 3.7264569 5.2412376 -7.4886503 13.362956 12.965395 -7.1828337 -2.3910263 -2.0349472 5.363381 -1.2957479 -6.7545767 -5.141824 -0.1562148 3.4852903 0.7782337 -13.217099 -6.4111505 -3.497247 7.187043 -4.2052546 1.5551046 2.6435564 -5.4078784 1.8863808 -0.9041559 -11.930867 -0.7838225 0.46679053 7.0656214 -14.060039 3.6848311 10.034295 5.1482525 0.8387199 3.7963872 3.0480626 6.810893 5.282958 -2.5025647 -10.964621 2.8454542 -12.213612 2.716281 -0.34643492 -5.016557 -0.28096405 -1.3914818 2.587029 4.2424073 8.946022 5.972481 -1.1109159 -1.5060589 -6.5302134 -16.858526 7.5771484 -4.140684 -4.3305793 -1.0895747 5.206436 -8.619283 -10.42885 -18.918911 -2.534072 -1.7295673
*dt_17 8.506801 4.2889476 4.6814017 -4.479292 -1.9001583 9.824419 0.20056015 -2.894097 1.9175695 -3.2373896 -3.8278158 -2.47968 10.144734 -6.090969 -2.3382962 5.363264 -12.219834 -7.61423 7.307714 -5.7148724 0.8309498 -2.8577833 -5.122344 -8.116529 -4.1926064 6.215266 0.91238976 -2.032238 2.1747656 -1.9270555 -0.7498426 -5.007641 -2.2200906 8.213558 -8.85624 -7.4848833 0.42907202 2.7343915 3.078987 7.9710703 4.4790783 4.790569 3.6317353 -3.986119 1.2136891 2.6965473 -8.2899685 6.261405 -3.9444814 7.3412876 1.8849946 10.155458 -1.2326287 4.7193327 3.3496943 -4.0074234 -4.030709 3.2496417 2.194535 -1.0991077 -6.2170153 -8.377045 3.157045 4.9847856 5.4485717 1.1532723 -1.3896333 -1.3987383 2.6167932 6.338976 9.414544 -0.29776302 6.662835 5.5638237 3.3811572 -2.717932 13.085671 2.1079123 5.2305884 1.1412666 -0.28245646 1.5124575 -3.4604142 -5.801511 1.4487269 -0.77920556 -12.025367 1.3151903 0.6572939 -6.573949 0.26848507 0.01999896 4.8958683 2.279008 -2.4975936 -11.117697 -2.1229088 4.8083024 -6.07113 -0.64528275 -0.02796571 -3.7275612 3.923453 -0.3501884 1.5847256 -1.2852951 14.639555 -7.6032157 -5.840308 -1.4293292 -1.07915 7.662836 -5.550344 0.2666681 0.15334845 7.753709 0.45318362 6.20839 -5.03448 3.253882 -2.8862073 -6.5133433 0.2387899 -0.76771647 6.7655597 3.4896545 9.963453 4.419937 0.94224125 5.722048 -5.765607 -3.2316914 0.5258486 1.2082757 -4.569884 2.0879831 5.339381 -6.1362953 11.68004 10.97453 -5.4932127 0.3123059 -2.3304164 5.729015 0.16557975 -5.397836 -4.254916 -0.87384653 3.7520034 -0.0011991113 -11.450103 -4.1861315 -3.3642497 4.532037 -2.5930839 2.0318325 4.4710684 -5.0908737 3.8247454 -2.4557447 -10.934385 -3.2965934 0.63079774 5.2117133 -11.035422 4.69708 9.304847 4.4692507 0.9041058 3.9569674 5.7580576 7.3602 4.498539 1.126427 -10.996252 0.3510052 -10.113618 1.8996798 0.09860185 -4.1442075 0.5139176 1.6048205 1.0114162 3.110857 9.949348 4.71513 -0.2825252 -0.81839 -4.714405 -13.327895 7.366976 -2.770935 -1.8146797 -2.1087635 3.234572 -5.45343 -6.4665527 -16.409246 -1.289504 -2.3057852
*dt_18 7.3690805 3.8158703 3.7020526 -4.5148387 -0.8122543 7.6214485 1.3948109 -4.963122 1.7815452 -1.3545372 -3.1217062 -0.6914849 7.8210692 -4.834728 -3.5704265 4.9670887 -7.704047 -7.005303 6.036928 -5.5330606 3.736898 -0.3300353 -3.2338598 -6.952841 -2.0384762 6.004878 1.8728489 -0.20653039 0.41440278 -2.4849813 -1.7437662 -4.6371584 -0.040979587 6.457969 -8.048425 -8.115391 -0.5981858 0.14899446 2.8849442 5.200213 3.7643478 2.7659004 3.2445838 -5.582141 -0.26176065 0.6490355 -8.269169 2.8917246 -3.2807746 7.279256 1.2533679 6.404554 0.2615868 4.6492453 3.969629 -4.8970904 -1.8727559 2.6867154 2.1822815 0.21052021 -7.1071773 -7.605844 2.2846928 3.6833248 4.2082715 1.6754174 -0.32621744 0.7261699 2.0199642 5.421919 6.759914 -0.62845945 6.971587 6.210244 2.2643404 -2.9453895 11.160242 -0.6376458 3.7083957 -1.4685696 1.3455555 -1.6145989 -1.0778108 -5.297827 0.057295777 -2.9890835 -8.265399 -1.080229 -0.52446645 -6.755255 -2.0602317 1.3925663 3.3083022 2.5831957 -2.1732411 -11.280756 0.32948327 6.3214765 -5.406369 -0.42926127 1.3207085 -3.0512385 4.694908 -0.6158722 3.5385265 -1.8305324 11.585454 -7.2406707 -3.738276 -0.6204783 0.51153654 3.569824 -4.12776 0.6384422 -1.2868835 8.28753 0.6787788 4.3778687 -4.926858 3.0758421 -2.447987 -3.6176298 1.3912958 -0.2639956 5.193741 2.156195 8.552793 1.3567458 -0.6529428 4.880034 -6.5004764 -3.213317 -0.9969748 -0.10849301 -1.852613 2.6317685 2.673691 -5.0726857 8.562652 10.929211 -4.5829144 -0.32965556 -2.0472937 5.7291408 0.5659052 -3.159937 -5.5575275 -0.00901328 2.192979 2.6521168 -9.891505 -5.4296794 -2.8859987 6.0052285 -2.1841402 2.8551812 1.7803333 -5.7470174 0.12140039 -0.49077332 -10.659319 1.0893371 -0.017596707 5.568342 -9.556766 4.035734 9.218702 5.459601 -1.1701945 4.5801635 3.284638 5.6716747 3.5518472 -1.2246177 -8.235383 2.5798674 -9.779284 3.9979167 1.0508214 -2.257277 -1.4077058 -0.25376934 -0.7057952 3.1560884 7.308653 4.7857194 -0.3698001 1.3896254 -5.119107 -12.529931 4.936191 -1.7727892 -0.95213425 -1.8943187 3.1094494 -3.8634596 -5.9861465 -15.615387 -0.89959186 -2.771438
*dt_19 7.2825193 2.1406035 5.0293913 -3.6980934 -1.9126676 8.046881 1.5779082 -3.9067905 0.61988974 -2.7685246 -4.1074595 -2.1153421 7.6536164 -3.3503044 -2.699653 4.9570756 -9.643589 -7.9205337 3.982164 -6.532028 3.186918 -0.22259718 -4.209213 -7.98835 -0.8852565 4.7004266 2.2939708 -1.0026022 0.38219875 -4.422742 -1.5263268 -5.2613826 -1.8772467 5.570005 -7.8032684 -9.27374 -1.7778705 -0.26252404 3.7492194 6.1247787 4.250284 1.7744175 2.5931883 -3.0528693 1.4114559 -0.010011494 -9.645264 2.2730398 -1.7488805 8.354503 -1.229882 7.372199 1.4413146 4.064691 3.8831806 -6.039982 -0.71582985 2.247039 2.705964 0.12615043 -7.7385163 -5.351394 1.8048849 3.261595 5.7340126 1.1756706 -0.4372981 -0.2802955 3.8169742 5.236712 6.764627 0.42182615 7.18426 5.711143 3.6053276 -0.5930931 11.639134 0.04864505 3.9920816 -0.009305298 2.2824638 -1.2787983 0.3741368 -4.055163 0.9089653 -3.0371823 -9.412986 -0.14210734 -0.52881724 -6.384837 -0.82905203 0.31731912 3.1705375 -0.1528206 -2.6816804 -9.584423 0.08434039 4.2643733 -6.212688 0.49119633 1.400568 -2.7586198 2.4851484 -1.3254735 3.3263578 -4.16076 13.990421 -6.742608 -5.242988 -1.7183727 -1.5983661 5.463722 -5.575795 -0.07480087 0.0035788193 7.725962 1.695894 3.0079806 -3.782644 0.80430055 -1.765883 -2.939126 0.43965262 -0.14627662 6.0987477 2.6006346 9.9814825 0.87188494 -0.6554953 3.2508466 -7.8719463 -2.1977253 0.48659748 -1.2143509 -2.9518151 3.361913 3.8645692 -4.2411137 9.735083 9.898029 -4.8015513 0.5068121 0.46830505 5.353641 -0.17014092 -4.2682915 -4.8883734 -2.3356493 2.0475755 1.0299911 -9.375709 -3.9026601 -3.1941972 5.296087 -2.3981006 3.8321614 2.239417 -5.111289 0.5186845 -0.012899607 -10.862597 0.5348162 2.2289453 5.6120625 -10.423194 4.256317 7.8414154 7.4361587 -2.1450384 2.1708481 4.371649 5.5542507 5.2212977 -1.4717252 -9.363916 3.7119792 -10.876564 1.4491584 -0.39891475 -2.666884 -0.88663316 0.11829697 0.90949494 1.18722 7.981093 5.3238206 -1.6238484 2.9074464 -5.26429 -12.817345 6.624301 -2.48805 -2.2784586 -1.5024078 4.127288 -4.493489 -6.7025275 -15.6366005 -3.3033388 -1.9227272
*dt_20 7.457417 3.2525501 5.2897334 -3.606595 -1.0137526 8.728163 0.67579716 -2.1198325 2.7843614 -2.1078286 -6.022595 -2.3633962 10.478005 -4.8517623 -4.1620173 7.2182755 -11.604768 -7.755178 6.327701 -5.7418604 3.6378837 -1.068947 -5.0936203 -7.6541038 -0.8461644 5.865689 2.0675375 -1.1531237 0.51022077 -4.5246415 -1.7028575 -4.5364294 -0.4982584 7.1399927 -8.593003 -6.3896008 -0.6827716 2.4222229 2.747758 6.892235 3.5574963 4.5854225 3.5329528 -3.6216486 0.658115 0.04744659 -8.1855955 3.6375947 -3.3298967 6.390864 0.5702691 8.515831 2.023289 5.437533 4.5801034 -3.954054 -2.5654209 1.2680249 2.4539497 0.08789552 -6.3948026 -9.282063 2.9670396 5.0163584 4.39748 2.073987 -2.2747204 -1.9011656 2.928517 4.48328 8.252693 0.89831656 7.9289217 5.6148047 2.7727237 -2.4735572 10.489627 1.0909652 6.6539116 1.1596018 0.032938316 -0.15946698 -2.58307 -7.321777 1.2650795 -2.57034 -11.518885 0.392161 0.03319572 -6.503145 -0.6301544 -0.014970119 4.7709374 3.2420442 -1.3877829 -9.617204 -1.1724073 3.0183976 -6.1564655 0.78120613 -0.90418977 -4.471204 2.318102 -0.070753634 4.198522 -0.2491039 12.743026 -7.1519904 -6.467607 -2.8507879 -1.8271852 6.152222 -5.6191916 -0.7563402 -1.0374836 8.961045 -0.43825024 4.1399393 -4.7161636 3.3457732 -1.5669076 -4.8176475 2.9781957 -3.089424 6.5819077 2.0336115 9.109936 1.3195269 -0.01964859 4.102376 -7.635493 -3.8393772 -1.1850506 0.9049144 -3.1030097 2.3245869 2.7235868 -6.409616 9.219007 10.869708 -5.5165033 -0.59734416 -0.79764605 4.7708755 -0.74410987 -5.4994125 -4.2134 -1.094477 1.9753566 1.5407075 -10.785385 -6.6367445 -3.0208666 5.7998605 -2.2288914 3.887507 1.2684834 -5.340181 1.4718759 -0.72888035 -10.626464 -0.9014557 1.3360122 6.8732243 -12.053753 3.11457 9.843599 6.0054307 -1.938384 3.3345451 3.9164138 5.5613627 4.8649364 -0.94318116 -10.396401 2.9285798 -9.917648 2.3644764 1.0356339 -3.1744955 -0.88122004 -0.03603574 0.4931661 3.465615 9.650389 4.4440026 -1.238041 -0.51236093 -4.028389 -13.469582 7.441821 -2.8352702 -2.504579 -1.1640322 2.9979515 -4.837421 -8.21912 -16.060223 -1.2749017 -2.0138218
*dt_0 5.184898 3.0661798 3.19159 -2.8385036 -2.764175 8.4604435 0.4819569 -1.5291318 1.9604794 -2.3934555 -1.8995838 -2.1949482 8.054871 -2.4437933 -2.8473585 5.6464167 -9.464067 -3.0458755 5.5532274 -2.9665139 3.3985517 -0.68027246 -5.012816 -6.503195 -3.0036652 5.683332 0.6939919 -1.8702009 2.670441 -3.9011714 0.6949923 -5.155782 -1.0120659 5.4111304 -6.956515 -3.1019065 2.3994162 1.0692977 2.1947908 6.648061 4.6204686 1.4148377 3.7158122 -5.121684 -1.1441429 -0.005064442 -7.530554 3.358652 -2.5248778 7.593696 1.3214648 6.575403 0.09412332 4.177023 1.2851651 -2.3336105 1.7360017 3.0610821 0.4981098 -0.3475549 -5.6365786 -8.615125 2.0263085 2.2918398 4.384454 2.6168644 1.0846294 -1.881813 2.637426 2.614563 6.5455527 1.2423408 7.5781245 4.015141 1.4892218 -1.0159388 8.862449 -1.4700348 6.2703404 -1.2104899 0.13846105 0.02482959 -0.3209363 -5.598062 -1.077864 -0.39979365 -7.9065332 -0.32704177 -0.77403724 -7.1174293 -1.1573864 1.0053251 4.2956414 1.3855884 -3.576816 -7.9674053 0.047541995 3.8471887 -4.869075 0.57904583 1.1758372 -0.8368403 2.8505297 0.46960792 2.583024 -0.85441226 10.201956 -6.698464 -4.022898 -0.786927 0.5262803 3.5379472 -5.053835 0.5573921 0.06019732 8.198649 -1.9287072 3.2718601 -2.459519 1.7166114 -2.2380733 -3.9256682 4.05408 -0.9501172 3.6994739 1.9295708 6.3934197 0.19205868 -0.78182787 4.4777055 -6.836696 -2.880984 -1.0535597 0.5339142 -2.3113227 -0.2298444 2.871402 -5.284457 9.039759 11.081265 -3.3821025 -1.1442068 -0.8672935 2.3311727 -0.27241844 -4.1793213 -5.360576 -0.96034884 2.2941973 2.7325082 -8.209132 -5.379207 -2.4197392 6.4436903 -1.2818007 1.1988627 0.770666 -2.8893878 -1.7308227 -0.6912789 -6.698504 2.4211955 0.93419504 4.7288947 -7.4577374 2.1936324 7.152531 1.9540167 -1.2625886 4.2222314 2.614161 3.7692685 4.204158 -1.3085903 -7.694557 1.652111 -9.490747 2.0427222 -0.47151715 -1.762026 -1.2371883 -1.7556581 2.7478752 2.0692272 5.6858935 4.4224825 -1.4249897 -0.34680948 -5.480978 -10.908939 5.1181645 -4.303766 -2.2980475 -2.1008537 2.4449396 -5.0125184 -5.9295464 -13.195261 -2.16776 -0.66973966
*dt_1 7.4702415 4.4644427 2.6610777 -4.951583 -0.9097106 7.577772 -0.73074025 -2.1506805 3.3845277 -3.6058064 -2.400737 -1.8211423 8.526169 -1.1249949 -5.367253 7.500464 -9.376697 -6.641722 4.976613 -4.0473876 4.1953955 1.5686775 -2.3745472 -6.883611 -1.0548918 2.488954 2.2207322 -2.756982 0.65448356 -5.800744 1.1768925 -5.4541783 4.6536813 2.3780115 -8.06116 -7.800386 0.9107759 -0.60474616 4.1831465 4.3703775 0.9026855 5.547398 1.851412 -4.5920286 -1.1366687 -0.46192873 -8.978655 3.0374475 -4.0006757 7.1861076 1.7018949 5.039602 -1.9777317 0.93716234 5.640648 -4.651618 0.21657382 1.8553272 2.145426 -2.8304589 -6.5222406 -8.73471 1.3912972 1.9281325 2.7281299 3.3225932 1.4533983 1.5634198 3.2844129 2.297771 6.665559 0.44103903 10.139483 6.208691 2.428996 -2.5415714 9.303872 -1.548252 2.9133136 -0.8644307 1.2100049 -2.8589032 -0.7237939 -2.5117824 2.5333622 0.36123967 -7.7827973 -1.1719866 -2.6516533 -10.282839 -2.5087116 2.2913387 3.806481 2.7993267 -2.192386 -8.1678505 1.4742484 3.7360437 -5.5179496 0.27387643 -0.9149836 0.17596619 6.012294 -1.434709 6.2734966 -0.47358266 10.850715 -4.6118617 -3.4475443 0.08534883 0.74757165 2.7455795 -6.1719484 -0.66202646 -1.3797427 6.1314883 1.9506247 1.788075 -3.9081714 0.0062515903 -0.89529914 -5.1969237 2.1504698 1.5810113 3.2623556 3.518135 6.753627 2.0208547 -2.0372925 4.6128407 -6.0255847 -3.5311174 -1.9430859 1.663939 -0.65451825 1.5507245 3.4753149 -7.865215 7.2643456 12.155872 -4.5671334 0.68872917 -3.6622984 3.9299698 -1.3402723 -2.1627119 -6.0514874 -0.5578511 1.8752574 2.4693074 -8.491228 -4.96134 -3.0068076 5.255936 -1.3615593 1.8488008 1.430089 -3.7008734 0.31256932 0.12770352 -9.130784 1.1596448 -2.7875152 6.072747 -9.814437 4.245092 10.588673 4.6791353 0.4755421 5.624116 0.63393974 2.0078993 3.5751579 -1.8235344 -8.313515 1.3878167 -9.797629 1.6578934 -0.75952315 -3.973902 -1.3620044 1.0266203 0.4513354 3.2364724 6.591441 5.696246 -2.8078322 0.06749259 -5.5222626 -11.610559 5.0019317 -2.2471967 -2.011314 -3.6073687 1.0732669 -3.0189638 -5.360302 -13.556009 -2.17536 -2.7771912
*dt_2 8.042766 3.8168669 2.3041842 -2.6227007 -2.3928428 7.436618 -1.1192572 -2.579625 3.9581757 -3.4055762 -0.7939219 0.0757727 9.021602 -0.72457194 -3.9043164 5.3878975 -10.683526 -6.838106 8.561034 -3.4059854 3.4647417 0.4372049 -4.1916323 -7.7866793 -6.2857294 7.4869823 2.9340968 -1.4145145 1.7671069 -3.029193 -0.64482313 -4.7788134 -0.9662517 5.3876348 -6.9317536 -6.8729343 1.6837127 0.6579907 3.8904743 8.466201 0.013255186 3.1768153 2.4922848 -7.2386785 -0.7938766 1.1852797 -9.97741 5.0068426 -4.3578343 11.733631 0.46814603 5.168642 -0.8152978 5.9143214 2.7074962 -5.095573 1.3033166 3.121318 0.6684306 0.21124578 -8.17135 -9.585857 -0.05255787 -0.5059962 4.9566164 2.8144786 3.160884 -2.0604336 4.8519545 4.2142887 5.892367 0.5706972 9.174955 5.419876 2.6922758 -0.365309 9.844026 -2.8706648 4.1495056 -1.4966981 3.2351444 2.2249107 0.014122474 -7.2084804 -1.289521 -2.097439 -9.385944 -1.7617562 -2.2094078 -6.7067432 -0.181665 0.6557589 3.9621277 -0.012333024 -2.8600852 -6.9194827 -1.0211247 2.7681565 -6.496707 -0.9854209 -2.0603893 0.06836508 3.155932 0.40422392 3.4998488 0.91955036 11.667877 -9.246259 -7.2274146 -1.5461074 -1.5246317 3.0797696 -4.568127 0.7588719 -0.33131012 9.290775 -1.0523632 3.9962084 -3.993018 3.138508 -0.39345148 -4.8076215 1.9782331 -0.7930243 4.250679 3.2100275 5.771282 0.15407248 -1.3832576 4.7322025 -6.2465644 -3.9405136 -1.9519663 0.5463828 -1.7158334 0.6073108 3.8556938 -3.9981093 8.387124 11.504679 -5.8340516 -1.8074185 -2.9163537 2.9669878 -0.2671211 -6.4209156 -6.498683 -2.750218 3.956143 -0.15851778 -7.5045824 -6.4110546 -3.4469078 6.102479 -1.768861 4.5530105 1.2409933 -1.0605502 1.0962987 -0.4783101 -9.883253 1.7013009 2.3133068 5.226896 -9.434796 4.4793935 11.501974 2.5922556 -1.4516543 7.061215 -0.32324666 4.967344 6.2593155 0.72171694 -5.4003983 3.463708 -9.823059 1.862788 0.7774564 -2.7944605 -2.0836966 -0.29998133 1.6377248 2.9282787 9.840168 5.648321 -0.7847699 0.9954722 -5.8288255 -11.863805 6.6772976 -4.6025057 -1.9944704 -2.2203112 4.5124784 -4.875632 -5.9641576 -17.255964 -2.012269 0.29286987
*dt_3 5.810731 6.6974273 2.8659759 -2.8154511 -5.1525083 11.661557 0.01960478 -2.9531329 1.5342848 -4.909034 -0.6304122 -1.210606 11.403659 0.33764926 -3.5975444 7.8771887 -12.075438 -6.625478 9.535699 -4.530919 3.6817524 -0.3414907 -5.1879263 -8.470259 -4.7845554 5.93003 2.0016627 -1.8106863 1.3872147 -5.288491 -0.09409958 -5.7589846 -1.2924782 6.065703 -8.016609 -6.6881614 2.3297298 1.1519899 3.9738367 6.9540324 3.044378 3.303131 2.8207493 -7.18294 -1.9540408 -0.910719 -7.5895123 5.200619 -1.7789735 8.450952 1.8737609 9.348112 2.9683099 3.4272566 4.6215425 -2.8188484 -0.076186605 2.089028 -0.1173813 -0.42557004 -8.833305 -8.134941 -0.7397864 -0.51379836 7.044651 3.0668125 1.6688131 -2.464276 5.564009 1.7019674 8.018391 -0.7853162 8.229055 6.05045 3.4292521 -1.5645566 9.256788 -2.0263145 6.4038444 -1.2832513 2.3871863 0.38640064 2.444917 -7.125671 -0.14358453 -3.4653752 -8.897742 -1.6264808 -2.633358 -7.684273 0.9037462 0.7861219 3.4113793 -0.30893967 -1.5283996 -9.687742 -1.2586888 4.3311157 -8.669329 -1.089293 -0.7920233 0.6547844 4.786401 1.2353567 5.0333467 -0.020301709 11.794616 -7.5371933 -3.8770556 0.07962132 1.3591866 1.3333082 -7.8272033 0.23694047 -0.37693596 9.497885 -1.3479491 5.158283 -2.3031309 3.3896875 -1.927568 -4.7481265 3.2655058 -1.4043809 6.33938 2.9991896 8.183676 0.67886823 -0.47774225 3.821433 -8.316863 -3.2874537 0.6054918 3.493426 -2.6274507 3.5185874 4.65325 -5.8831153 9.7513275 13.007135 -6.846852 0.67833257 -1.2587665 2.077586 -0.6500318 -5.9905777 -5.789978 -1.4607466 4.775618 2.210556 -11.551348 -5.149292 -4.4083834 5.9476533 -1.1701765 2.6505325 2.064031 -4.0828853 2.1664748 0.46402422 -8.821041 -0.41424862 0.9179131 5.6791515 -10.804164 2.125054 12.802857 6.6920485 -1.1661509 3.4734905 0.88444513 4.8713775 5.153664 0.051668577 -6.9678655 1.9945002 -9.503872 3.1526415 -1.4964577 -3.5837874 -2.6715517 -2.3209946 2.1728945 5.0916085 8.420142 7.0948367 -3.5455186 -0.28827298 -6.2731485 -11.614525 5.69521 -2.6935678 -0.90235543 -3.5000193 4.2324104 -7.0750065 -5.285951 -16.644806 -2.072592 -1.4073124
*dt_4 5.8715997 4.0366974 2.4183755 -2.8293417 -2.2092779 9.591168 0.38514435 -1.131538 1.6128322 -3.2114885 -2.6313329 -2.6247761 6.6770716 -1.7962875 -3.1456788 5.526355 -10.220121 -4.1482964 6.2692943 -3.1622283 1.5497711 0.2115431 -4.712666 -7.197328 -2.627782 3.4430287 0.95160973 0.39534515 2.0078766 -4.749093 -0.16937868 -5.187626 0.13645568 5.1476827 -8.5629635 -4.3503366 0.8432915 -0.26297298 2.1431205 4.967929 2.6589923 3.1891606 3.0691018 -4.785121 -0.2910434 -0.014125382 -5.6455173 4.133957 -1.6000515 6.3837748 0.84577477 6.865118 1.3225881 3.0794072 3.00237 -3.51488 0.14655548 1.9710075 0.9244816 -1.2501446 -4.398038 -6.601993 2.404834 1.5414081 3.377594 2.3276622 0.032810144 -1.4094133 3.38514 5.1958985 5.940443 0.86293393 6.421286 4.649661 3.9253244 -2.344998 9.191751 -0.2422961 4.469511 -0.132353 0.5844029 2.176688 -0.30396208 -4.8392296 -2.295119 -1.5594106 -8.137247 -0.20272094 -2.0364685 -7.8900294 -0.68757623 0.66826737 4.9453964 0.21588755 -2.7872312 -8.360984 -1.3606471 3.6665115 -5.570398 -0.844759 -1.3121729 -2.1931858 4.1743565 0.2934592 3.6347787 0.10764817 10.2845125 -7.1651416 -4.693871 -1.0777379 1.5169059 3.5744002 -4.284641 0.86784893 -0.30797294 8.319015 -1.2960936 3.119798 -4.371819 2.5255942 0.04626819 -4.702701 2.499356 -1.420327 4.7566724 1.4801544 7.1931844 0.33214074 -0.7244341 3.2741816 -7.7462335 -3.7061346 -0.39595893 1.7373655 -1.8739501 2.365953 3.953253 -4.9429655 8.754538 10.922273 -3.0299745 -1.4285336 -0.6664388 3.8204598 0.9680434 -3.5907302 -2.9475212 -1.1127971 1.4110045 -0.18743049 -9.924754 -4.3466716 -1.7923963 6.036917 -1.0591729 1.141778 1.1225554 -3.1338203 -0.032129753 -0.66292286 -9.151218 -0.8046305 0.7280337 5.289546 -9.270593 1.9187764 8.246609 3.529111 -2.0660944 1.9781021 2.3516905 5.2680697 3.425795 -0.60456824 -6.6393557 2.4718697 -8.202532 1.060148 -0.11840848 -2.8106802 -2.5050714 -2.0293536 3.5145276 4.3082576 6.6159554 5.474251 -0.8534863 -2.1762598 -5.52576 -11.070227 6.0611167 -3.0471268 -2.0697095 -1.8030243 2.9387772 -4.5499735 -7.1284924 -14.1934805 -1.742871 -2.2560124
*dt_5 7.791882 4.1181636 4.318109 -4.6157002 -5.313584 10.231409 0.5308859 -2.8205125 2.678584 -2.4992452 -3.3171191 -2.9754472 10.964104 -4.9380527 -0.7920332 7.6976247 -13.174694 -6.2594786 9.843089 -4.754218 3.1343007 -2.4187496 -5.4794893 -7.6967745 -3.8918486 6.459379 0.24987715 -2.4453936 0.33067837 -5.153425 -0.27741823 -4.16858 -2.0969958 5.559746 -8.01438 -5.739626 1.0090324 1.4355898 2.678998 7.2081966 2.407258 4.519629 4.4533877 -4.354978 1.2949796 -1.2643039 -9.297808 3.6713352 -3.730452 6.3131027 -0.5063065 9.209932 1.2043169 5.394759 5.132819 -6.005166 0.059149116 1.0107771 1.4890047 -1.7215773 -6.161425 -8.19922 3.0490594 3.8968318 4.4072604 -0.05186753 0.98924965 -1.6679617 2.8157291 5.886046 7.0618663 1.2057058 7.654696 5.412086 3.0939717 -2.837893 12.514356 -0.59692633 6.461444 0.302855 -0.07004896 2.9687843 -1.3833122 -7.9942613 0.3542262 -1.4266908 -11.907834 -0.063228555 0.2519029 -8.591094 0.86172867 0.47454667 5.5399094 2.512302 -2.853112 -11.213592 -3.9371061 5.859892 -7.7048635 -0.9433211 0.2738496 -3.9321055 4.180641 -0.8263674 3.5636165 -2.1438189 14.133104 -9.3397875 -5.8347406 -1.3510237 -1.4673374 4.6468334 -7.536565 -1.26025 -0.0011336505 9.5270605 -0.757835 4.0445185 -3.7053583 3.4137366 -2.2784085 -5.516473 0.76971143 -2.6408644 7.3022532 1.4930134 10.760386 0.7335931 -0.15243281 5.109464 -7.8814645 -4.167318 -0.42001396 2.4976587 -2.9016268 1.6497889 3.3740134 -6.2238173 11.951171 12.240151 -6.6555433 0.35982788 -2.2239478 3.6910415 -1.1485966 -6.8917694 -3.3083785 -0.94275963 3.5851927 1.9755492 -12.604552 -5.3778405 -2.856788 5.305213 -1.3908141 1.2272674 2.7195837 -4.792671 1.1605266 -1.5827674 -9.658377 -1.106199 0.5977429 7.193981 -12.752627 2.7249408 11.354418 4.9430614 1.2529252 3.9003258 2.4080937 7.580576 4.2243733 0.3057161 -8.815828 2.0393958 -10.922066 4.2900352 0.83367705 -5.0300484 -1.3027179 -2.2829819 2.7826405 4.801319 7.3086047 6.663979 -1.8295373 -0.9118643 -5.366055 -13.517756 7.362532 -4.0957203 -3.5338395 -2.1840265 3.6999722 -6.6592746 -9.23405 -16.543455 -2.3445995 -0.17221631
*dt_6 8.21395 3.9659863 3.2219608 -3.574788 -3.4582317 9.988622 -1.0401943 -2.8089046 2.1611104 -1.98721 -5.5178647 -3.7894604 10.069139 -6.5200596 -3.1433918 5.995875 -13.814525 -6.826169 9.518267 -6.6205683 3.309007 -1.9403298 -5.3247013 -8.25663 -3.121859 6.4844646 -0.02493769 -2.8919072 -0.45217377 -4.0477996 -0.3464889 -4.222331 -1.6756983 5.1731744 -8.981007 -4.5162973 0.30844778 1.1680331 3.083315 7.6150503 3.4778717 5.14014 4.1147494 -4.15091 1.0629958 -0.19158809 -9.438871 4.5110416 -2.2584102 5.968259 -0.5699833 8.390575 1.9315759 4.3929896 5.2435637 -5.143426 1.3411137 0.089083284 0.8215179 -2.5066643 -5.969241 -7.913102 2.405627 4.159746 3.4455261 -1.0997736 0.35229918 -2.1012743 3.644045 4.1122637 8.541977 1.718595 7.865046 4.418992 4.022212 -4.1356635 11.274531 0.54492015 7.2059565 -1.4470797 -0.01934002 2.6071417 -2.0332296 -8.954639 0.11681033 -0.87027687 -11.651013 -0.16328533 0.08575448 -10.384208 2.1016119 1.4532374 6.134821 2.6549182 -3.4498131 -11.748832 -3.6612542 5.190345 -8.874782 -1.838052 0.3741899 -3.540647 3.446232 -0.451347 4.37819 -1.4246802 15.149518 -8.886103 -5.0552826 -1.4761043 -0.24511606 3.0899768 -7.3169193 -1.1775235 1.2440065 9.021776 -1.8799362 3.7026727 -3.320272 4.142248 -2.6556242 -5.549644 2.197757 -2.7102685 7.0374684 1.7920325 9.967173 2.0070364 -0.7486643 4.876742 -7.5656137 -3.688105 -0.49686068 3.8545282 -3.4434755 3.2171674 4.186751 -5.7083616 10.841822 11.958564 -6.741812 -1.0094873 -1.9405527 3.544607 0.19396465 -6.674469 -3.038353 -0.70736563 4.3341923 0.94096404 -12.665086 -6.258684 -0.7716647 4.564965 -2.5821166 0.45241708 3.1728907 -4.9341846 0.57769525 -1.7177725 -8.4061365 -2.0555158 1.5103775 6.2243595 -11.147434 2.5901895 11.134712 4.2232523 -0.08983388 3.958904 2.7814302 6.3843565 4.935144 -0.877662 -9.106571 2.0391564 -10.64703 4.059386 -0.553734 -5.3277197 -2.2654881 -2.256043 4.2434626 5.5174284 6.704866 5.340425 -2.5212681 -1.7199848 -5.398548 -13.543051 6.0344048 -2.6495028 -3.4572277 -1.5992475 3.0557122 -6.901329 -8.841204 -15.782592 -2.8211312 0.047923483
*dt_7 8.675511 4.7298336 2.9496727 -4.504112 -5.1973157 10.347783 -1.786376 -3.3698733 3.606319 -1.5984899 -4.880756 -4.6673775 11.804044 -5.860447 -2.5421596 7.128544 -14.56198 -6.4676175 9.462492 -7.3902 4.3850884 -2.8122475 -6.692416 -8.1322 -3.302103 5.818077 -0.55340123 -2.5372825 0.07568148 -4.6125216 -0.64232767 -4.226879 -3.2576494 4.0895815 -9.539858 -3.67192 0.45160615 -0.29935434 2.8520157 7.209381 2.5146012 5.5054226 5.304118 -5.7204275 0.71617216 -0.7404928 -10.824175 5.2935896 -4.3055468 8.725785 0.48890707 10.32916 1.208068 5.8222327 6.0106277 -6.03189 -0.7815791 2.0158887 1.4911648 -3.831478 -6.7329316 -8.985965 3.2405674 5.283015 5.0860057 -1.9269383 -0.7360158 -1.7577149 2.669116 5.854592 9.003279 2.7198975 7.812185 5.5091352 4.9816165 -2.8956938 12.46384 -0.40940946 6.991696 0.6947393 0.20079997 3.299973 -2.2421918 -7.8133903 0.34136087 -1.6783206 -12.947051 0.5254499 0.47649187 -10.320531 2.2554238 1.5839617 6.6182914 2.3267803 -4.540821 -12.910897 -5.096459 5.8832054 -9.061743 -1.1104271 0.4979015 -4.458881 4.6732173 -1.6768638 4.5490937 0.69188845 16.278778 -8.631144 -6.698824 -0.82545924 -0.8508809 4.8695583 -8.586936 -2.5782597 0.4713401 9.744311 -2.0648885 3.6900382 -3.0846355 4.350887 -2.1626723 -6.2667866 1.2742184 -3.403441 7.594234 0.23200215 11.050781 0.5213432 -2.253797 4.4223003 -9.394237 -4.9805307 -0.040262036 2.581529 -2.7188022 2.1982625 4.323768 -6.477619 12.166685 12.656742 -7.714805 -0.5307002 -1.2620633 3.8340964 -1.167189 -6.5384903 -3.1404538 -0.20190416 4.439485 2.2905176 -13.837585 -5.929903 -1.3199387 6.2312646 -1.2867386 0.3912207 2.7391024 -5.8741426 1.9460258 -3.2855604 -10.466932 -2.7514973 0.41694057 6.4187574 -13.238328 4.022964 12.490365 4.527367 0.6286401 3.815468 3.5222988 7.8380976 4.587658 -1.6308266 -10.685437 2.7376962 -12.075475 4.2306604 -1.0914078 -5.655229 -1.1642535 -1.9009575 3.4648056 5.9641514 7.3733172 6.3629217 -3.3829324 -2.0388641 -7.400198 -14.815765 7.582878 -4.0434036 -4.3871665 -1.7091036 2.8801074 -9.760339 -10.333675 -16.311806 -3.6104426 -0.16916794
*dt_8 9.111505 3.7605948 4.086966 -4.0536575 -3.4092712 10.079405 -1.4778118 -3.8657444 3.8371725 -2.0382416 -3.8227057 -3.2812874 9.743702 -6.679986 -4.3535447 5.2746973 -12.659243 -7.5605807 7.949307 -5.487227 3.1608384 -1.0586209 -4.687838 -7.7298646 -2.236942 6.9777274 1.4136837 -2.21234 1.4000111 -4.835594 -1.5535576 -3.8031175 -2.5508454 5.111254 -8.461421 -5.341609 0.26940528 0.4794858 3.7128196 7.473913 4.552498 3.6887705 3.3370326 -3.5586524 0.45130172 -0.45391026 -8.411459 3.6873813 -2.85368 8.144309 -0.46498197 7.175401 0.7588459 5.853207 3.8504045 -5.2569966 0.0041196942 2.2230911 0.17530107 -1.767095 -4.611725 -6.4396133 2.814608 3.9599762 3.8390326 -0.5232856 -0.08193731 -0.9358959 2.4469292 5.2379923 9.585147 0.6259337 8.563531 6.514351 3.8197021 -3.8604283 11.832132 1.258234 6.5452724 -0.42423385 0.959855 1.3048444 -2.4916499 -8.187507 -0.7456307 -1.8686612 -11.712212 0.05769655 -0.024494112 -8.421263 2.3844218 0.69249994 5.895531 2.2279727 -4.1698465 -10.62692 -3.656562 4.8231163 -7.864411 -0.7781514 1.1699104 -3.0876231 4.3619714 -2.138302 3.6119637 -2.3363357 15.994759 -9.027621 -5.9961047 -0.73641026 -1.4268655 4.00871 -7.036601 -3.013254 0.6566244 8.556047 -2.0372574 3.307579 -2.3385873 2.6332986 -2.0894578 -4.454333 2.0708442 -3.2873325 5.8928165 1.3746928 9.200335 2.8429737 -0.81512165 3.2732017 -8.22229 -3.0415387 0.2782298 3.501554 -3.2488139 2.953822 4.007512 -6.1973495 10.499787 12.035489 -5.9711037 -2.5853424 -2.89504 4.056076 -0.41494167 -6.8274703 -3.3754861 0.22788958 2.761581 1.3944207 -12.833748 -7.181846 -2.8095043 5.4179125 -2.3039937 1.7965004 2.3634865 -6.044437 3.1433337 -2.6581256 -9.014869 -1.0355359 1.3221526 5.7277493 -13.002859 3.1631055 9.532616 4.075169 -0.17238954 3.8501198 3.9373832 6.1515985 5.0474567 -1.7057017 -10.34579 2.837166 -8.517452 3.0524592 -1.1650808 -4.0012426 -0.11738148 -1.815116 3.384995 4.4897647 7.508266 3.3204346 -2.1496577 -1.6303496 -6.4416456 -12.747189 5.6595564 -3.8365638 -3.6293864 -1.781158 4.689061 -7.1283784 -7.89466 -14.763692 -1.4630256 -1.1048263
*dt_9 6.6511245 3.8587053 4.5436373 -2.8486378 -1.70153 9.1984825 -0.42328835 -3.07547 3.7927535 -1.7745639 -3.7353163 -1.39535 9.5868025 -4.6532125 -4.016849 5.500052 -11.494884 -6.82828 7.609729 -3.8534122 2.2628334 0.6847285 -4.4884725 -7.428757 -2.4489777 5.4801583 0.5051385 -0.93157834 -0.11468801 -4.5583534 -0.28849488 -5.4564824 0.00722827 5.8193483 -9.021021 -7.346501 1.1742135 1.3973968 2.1474106 7.666931 3.101977 5.218862 3.2078555 -3.0857308 -1.524439 0.47310317 -8.835357 2.8311298 -3.7067394 8.840857 2.2308943 7.4492097 -0.9923397 4.166259 3.6565676 -4.4674563 -1.6935308 2.7255669 2.5766428 0.38563877 -6.6720796 -8.435183 1.9804782 2.7560363 4.716402 0.5477751 -0.86774504 -1.239173 2.680694 3.0534325 8.359665 0.30101046 8.913729 5.689328 1.4326165 -2.1288936 10.797461 0.05765629 5.5545955 -0.27510965 2.371715 -0.12539025 -1.2417686 -6.5079226 0.10558007 -2.7021646 -9.565004 0.64958596 -1.4483323 -8.058334 -1.6967864 0.36576787 5.663117 2.8407655 -1.1727043 -10.922207 -0.37293977 5.6798935 -8.824786 -1.0294248 -0.15201947 -4.2060976 4.81748 -1.5131407 3.899931 -3.1089532 12.45348 -8.648233 -4.973271 -1.385184 0.8983784 3.6314492 -7.6059685 -1.218219 -1.700166 7.9318233 -0.405423 4.0033712 -5.0579104 2.245236 -2.9818728 -5.083988 1.8376029 -0.04001914 4.7684784 3.118954 9.909453 2.692237 -0.3264197 5.495175 -7.393532 -3.0599802 -0.26212284 1.0036037 -1.789356 3.150457 3.059772 -5.3413234 10.202614 11.386836 -5.60417 0.27944377 -3.1929698 3.0311668 -0.94226253 -5.9487925 -4.4871054 -0.4562177 3.0952988 1.3571159 -9.749404 -7.124372 -3.9863684 6.3340187 -2.9117172 4.135273 2.194853 -5.1938853 0.15785493 -1.046601 -9.7005625 0.8773191 0.5153255 5.4865875 -11.003591 3.7417495 9.892249 4.883138 -1.3017786 3.8913794 1.4608756 5.722845 5.1601434 -1.457433 -9.401487 2.8725119 -8.990557 3.0978508 1.4314848 -5.0447674 -0.058672592 -1.0163912 1.2178818 2.758812 7.47969 5.9734945 -0.91293013 -0.8294538 -4.861706 -11.55146 6.189409 -3.985963 -2.423687 -1.9019135 3.8912542 -5.598108 -6.538762 -16.647305 -1.5805904 -0.9163521
*dt_10 11.257965 5.986851 2.6490347 -5.139143 -6.8383293 12.712462 -1.0432221 -3.5433064 5.064138 -2.814693 -6.506358 -4.831941 14.075549 -7.279096 -2.6488047 9.4451685 -18.360394 -8.327261 11.816485 -7.4419866 5.7916555 -5.1167 -6.069436 -10.539732 -5.5286455 7.1739 -0.28895047 -4.9759974 -0.76226014 -7.165202 0.33973032 -4.0735397 -4.027857 7.141345 -10.4637785 -4.9921303 1.5479463 0.44722664 5.241176 9.816695 3.0235322 6.326893 5.533132 -8.349358 0.435972 -0.1593784 -12.349219 5.2521324 -4.910573 8.287238 -1.5499618 13.7074 2.1586561 6.6946263 8.051993 -6.4912887 0.964923 1.1113837 1.7942286 -4.3216753 -7.0858164 -8.660413 3.1553464 6.1011124 5.9792786 -0.81405985 0.11508332 -2.211948 3.292826 4.956968 8.501161 2.8031824 10.02878 5.5851874 5.0179915 -4.496952 14.399918 -2.1990826 8.428574 0.22082366 1.655276 3.151973 -3.103336 -10.484908 2.7295299 -1.639215 -14.5386715 0.67296606 0.73417145 -13.347637 1.8460128 0.475584 6.413363 2.7622573 -6.5519333 -14.510127 -6.0717697 7.530886 -9.331938 -0.91118723 2.5431712 -6.756942 5.8452907 -2.319143 5.7007046 0.015399236 18.601469 -12.202179 -7.965657 -0.33238512 -2.504412 5.0944214 -9.142926 -3.8265555 -0.34794304 11.279634 -1.3800311 4.5787444 -3.647413 4.2936106 -1.9568183 -7.119256 1.0550021 -4.1542077 8.61306 2.1055236 12.713104 1.4499712 -1.7950695 6.666155 -11.494394 -3.3962805 -1.2734314 3.2041383 -5.0701194 2.1981316 5.877214 -7.3390045 16.048208 16.416603 -9.468776 0.2590865 -0.9786289 4.5910935 -0.99595994 -8.266476 -3.4593627 0.14202073 4.193552 4.0392284 -15.850016 -6.237554 -0.4159048 5.7421975 -1.8878804 -1.0137095 3.0835512 -7.14255 1.4928 -2.8766484 -11.270849 -3.2450743 0.29762655 9.075957 -15.626942 3.900091 13.141046 6.1214485 0.18227592 4.1503425 3.3479757 9.576643 3.0545974 -0.66980475 -10.5908985 4.6103663 -13.964498 5.575214 0.33547872 -5.4100947 -2.3198848 -3.3531592 4.923983 8.779611 8.934566 7.566959 -6.3201904 -3.6108172 -8.151989 -17.338795 9.16785 -5.353851 -6.7455597 -2.9104283 3.2911935 -9.885787 -12.336041 -19.838017 -1.8387661 1.571439
*dt_11 10.022264 4.554508 4.5088854 -4.414503 -3.7508717 9.862391 -0.7560852 -2.9591036 1.3270521 -3.0378304 -4.135409 -1.1887872 11.952332 -4.259696 -2.313726 5.9735074 -16.564629 -8.600142 8.917242 -5.6197543 5.9160213 -1.2982205 -5.604906 -9.756278 -4.1921487 5.5426474 0.41669568 -3.1927817 1.1593947 -4.93358 -0.31421953 -5.8054256 -1.8944477 7.0404897 -9.89061 -7.333522 1.1215974 0.8526591 4.1646047 9.135272 3.213743 5.145867 4.768944 -6.347586 -1.1557907 0.8792053 -12.847034 4.969528 -5.5019755 9.505496 0.45301962 10.764132 1.5428208 5.9829674 4.476347 -4.919234 0.14521988 0.78809965 0.803306 -1.9220878 -8.363808 -8.038932 3.6850855 2.4868476 7.5188184 1.0531846 -0.010267913 -1.7239488 5.108215 5.871886 7.4553714 1.5508637 9.058254 5.7782893 3.7445083 -2.1670778 12.66078 -1.4407623 7.5519476 0.39244264 1.794214 3.13557 -1.2969446 -8.211707 -0.34740314 -2.449727 -12.987356 -0.4255089 -0.4063557 -10.627276 1.321863 0.5069862 5.846719 2.9539337 -5.5729904 -11.045161 -3.8005579 6.339315 -8.910697 -0.95189404 1.3130256 -4.4979725 5.917025 -0.36266583 4.9441657 -1.2040178 15.990915 -11.479745 -5.851126 -2.4003341 -0.24671763 3.8920605 -8.1091175 -0.63141215 -0.09619316 10.150056 -0.44841242 5.0683665 -5.7983723 3.170155 -2.6879573 -6.812298 1.0874017 -3.7126312 6.6724224 2.2666912 11.285942 2.7986376 -1.327795 4.9403133 -9.028409 -2.2547958 -1.6440217 2.3178458 -2.4031355 3.0964048 3.644216 -6.07218 12.790801 13.142361 -6.0683327 0.7523746 -0.78126216 4.791063 -1.5874925 -7.3721776 -3.7248476 -0.37278593 4.6170964 2.6714568 -13.331729 -5.7681637 -1.8638009 8.626318 -3.1071587 0.975033 1.2604575 -3.4697824 1.5882493 -1.8940406 -11.608702 -0.40070626 0.76225096 8.932727 -12.740538 5.192161 10.632593 5.034695 -0.7099494 4.287066 4.172392 8.447155 5.405207 -2.0773804 -9.91011 2.8925185 -13.9706955 2.7035868 -0.44791234 -5.6767154 -0.34083375 -1.3250606 2.4788907 4.808713 8.724655 7.365536 -4.561828 -0.94382095 -7.1059613 -15.951822 7.4698396 -5.871279 -5.5821342 -2.7576106 3.3634841 -8.434461 -9.038277 -18.973497 -3.469745 -0.2898625
*dt_12 7.9303985 2.8739412 4.1472306 -3.4339013 -3.0623043 8.864496 -0.50632226 -2.1034954 2.7073882 -1.6753097 -3.4021564 -1.5149059 10.314754 -4.619618 -2.9978306 5.968588 -12.877134 -7.185627 8.300153 -5.389869 3.7595353 -0.48879865 -3.8177273 -8.645969 -3.2257771 6.31515 0.06546596 -1.7425506 1.5236388 -4.555447 0.1611009 -4.9527063 -0.8263638 6.270128 -9.859611 -6.1452117 1.3264251 0.4965753 4.1433625 7.782963 2.044195 3.7407737 4.8566413 -6.102559 -0.33595708 1.6842909 -10.464944 4.7065234 -4.1760283 7.124455 -1.0596722 9.876644 0.3500854 4.525313 3.8135338 -4.3319917 0.22963955 1.4892476 1.7079589 -1.1892064 -6.8142223 -8.494591 2.231516 3.1646845 5.5435095 1.9213822 -0.45299128 -1.0256754 2.6430674 5.8848534 6.352175 1.2427232 8.220384 5.551086 4.119724 -3.51359 11.484772 -1.3257512 7.2964735 -0.9843719 0.37004453 2.506032 -2.1840572 -6.9932737 -0.61674595 -1.9723953 -10.393383 -0.8301239 -0.06697732 -8.763868 0.7779972 0.8475179 5.1013727 1.6349857 -3.7588768 -10.865335 -2.3332663 4.652463 -8.049949 0.46374872 -0.752336 -3.5232275 4.1502347 0.44478196 4.398831 -1.4273316 12.747778 -8.337766 -5.1938124 -1.9096805 1.286127 4.2313037 -6.5276594 0.5256536 -1.2404869 9.73882 -0.6951748 3.9988387 -4.809521 4.611677 -2.3065338 -6.10949 0.9172955 -3.6726227 8.085489 3.192405 8.937349 1.4065782 -1.6816568 4.541275 -7.2512765 -2.555773 -2.038248 1.1879401 -1.6092871 3.548761 2.392508 -5.0693135 10.451648 12.333094 -5.379237 0.4096155 -2.2934425 5.344584 -2.0072207 -6.0777907 -3.5270157 -0.5761135 2.521137 0.8511258 -11.516196 -5.8466263 -1.5052278 6.753884 -2.8710728 2.0148218 1.3237313 -4.720284 1.8639504 -0.6989125 -10.141404 -0.58657724 1.0893531 6.160793 -11.738858 4.650767 10.382282 4.213934 -0.31962845 4.6605053 1.9299102 7.095455 4.7605457 -2.0683987 -8.848303 3.3577216 -10.794963 1.9018714 -1.1461716 -4.3842063 -1.2998164 -1.2023938 2.1439679 3.5356202 8.565913 6.270957 -2.419959 -2.4356022 -5.735695 -13.919816 6.825147 -4.0794444 -4.309782 -3.494895 4.7654047 -7.474746 -9.04104 -16.536205 -2.717398 -0.62388766
*dt_13 8.936192 3.8421464 2.2496424 -3.6382618 -4.5607343 8.959484 -0.99809813 -3.8341606 3.3517847 -2.3466556 -4.47855 -3.1888902 11.926003 -6.2231708 -2.6986742 6.215598 -14.721187 -7.9675756 8.934728 -5.2756796 5.333503 -3.570082 -4.4715867 -7.539739 -3.9810205 6.379614 0.004651852 -2.582485 1.2479755 -5.1855865 0.7107858 -3.252811 -3.2565897 5.2290874 -10.624267 -3.669784 1.7265208 0.012352578 4.2382164 8.785662 1.6197304 5.2627897 4.659342 -6.3032236 1.5658926 0.19898686 -9.326812 5.5550027 -5.137077 6.9702973 -1.0408933 9.9859295 0.8397918 5.0592184 5.1549106 -4.805249 -0.15763631 0.91337067 0.61514163 -3.1283813 -5.8810296 -6.2262754 2.5729823 5.1218834 5.634114 -0.3780572 0.26980546 -1.0456038 2.1425223 5.7884507 7.046099 1.1705128 8.950643 4.2263365 4.0198984 -2.8875613 10.853903 -2.203066 6.9477973 0.3974273 -0.3602572 3.162753 -1.9056346 -7.7231812 1.1971966 -1.3267866 -11.295086 -0.2460786 -0.08669366 -9.387423 1.3601495 0.828328 5.691832 1.7420332 -3.2037847 -11.900978 -4.309861 5.4054966 -7.066859 -1.5441927 2.3914778 -5.6319685 4.957044 -0.64295757 3.7731466 -1.5019821 15.121718 -9.408145 -5.988464 -0.3110821 -0.7330737 5.7927527 -5.751851 -1.8833051 -0.414064 10.200996 -2.1778932 3.7516277 -3.5747516 3.9079704 -1.3388379 -6.1341567 1.0826981 -2.9448562 6.3307457 2.4094198 10.395499 2.3038068 -0.80835164 4.6779666 -8.511939 -3.3486626 -1.2743114 2.7111495 -2.7154527 3.0322456 4.176931 -4.8362327 12.596927 11.592992 -6.105146 0.16822195 -2.0522485 3.8491056 -0.85774887 -6.530135 -3.5078206 -0.11079197 2.965812 1.4255654 -13.0170145 -6.041931 -0.81863326 5.9571905 -1.2682264 0.46127015 2.5708168 -5.6842017 2.0604339 -2.4639692 -10.106941 -2.3467078 1.43701 7.1589875 -12.112902 3.3475635 11.035654 3.8923569 -0.017074954 4.1332717 2.9796312 6.872899 4.465765 -0.11710489 -9.16142 3.3343546 -11.444646 3.5135102 -0.11227926 -4.7278395 -0.55326045 -2.4443219 3.0776937 5.33402 7.4046917 5.52482 -3.2607236 -2.9442205 -6.9546475 -14.727258 7.8257504 -4.5296674 -3.919817 -1.5828764 3.4592474 -7.3843617 -9.254768 -16.303547 -2.6006258 -0.17842005
*dt_14 8.624699 4.3837447 2.2430975 -4.079818 -5.9029446 8.666382 -1.5849433 -1.8583726 2.451229 -3.1138546 -4.246157 -3.8744838 9.920803 -5.9979057 -0.9563021 8.22568 -15.249122 -7.100678 9.902626 -5.070908 6.7588778 -3.9308755 -4.6357136 -8.655624 -4.0372643 5.891222 -0.4540304 -3.5765848 0.63875943 -7.125825 -1.7081748 -4.550729 -2.055198 4.0238395 -8.996431 -2.5410771 1.2700651 0.46200308 3.7110643 7.4980464 -0.31825113 5.90948 3.950663 -6.5542417 2.8667805 0.83956456 -10.011158 5.016305 -5.502468 5.489076 -0.44868842 9.228775 1.2024108 5.067269 6.8682923 -4.473233 0.20425528 1.4187354 0.06506645 -3.6463547 -6.601894 -6.380307 4.3979115 4.3439264 3.8484707 0.5224607 0.57237166 -0.63632894 0.86066496 5.0327506 5.4599166 2.646774 7.0073752 2.7408626 3.7981412 -3.7449796 11.626299 -1.6769321 7.192103 0.5812961 0.46402434 2.9370344 -3.825129 -7.3209143 1.1826988 -0.6828294 -11.683351 -0.46746004 0.7646421 -10.080693 0.95491654 -0.024059696 4.8115244 1.843181 -4.219631 -11.921856 -4.9165 5.8633394 -6.714973 -1.723562 0.20833375 -6.3386245 3.6993005 -2.1681476 4.563014 -0.66005707 14.126158 -7.5325584 -5.289463 -1.9366559 -0.35238907 5.1217155 -5.4399676 -0.52464855 0.44255313 8.521989 -1.7792046 4.223392 -1.4727217 5.406998 -1.0668786 -6.0744605 0.55279636 -3.9344466 7.1656466 2.7903066 11.102887 1.182672 -0.2741102 3.9396067 -7.460444 -3.3981733 -1.8774979 2.4733849 -5.244203 1.4071172 3.1360474 -3.8251703 12.314591 12.592405 -6.311893 0.065393135 -1.1987065 3.4612246 -2.0228086 -7.5593715 -2.1919596 -1.3247513 2.2614627 2.0089674 -14.150839 -5.0262456 0.045334905 3.2417736 -0.3446824 -0.6594457 1.9565393 -4.4042397 0.8888336 -1.3019801 -8.845482 -2.4388974 0.8094112 7.2259574 -12.666376 3.1435318 11.52347 5.6032057 0.6924187 2.627382 3.1074903 8.645159 4.238918 -0.37215024 -7.246847 4.0727305 -9.958501 4.5603213 0.5150013 -4.0761414 -1.5142449 -1.7869503 2.4041433 6.7536197 7.4120865 7.2977376 -3.822717 -3.5661798 -5.5686784 -12.581885 7.2144995 -4.31509 -4.1450973 -1.228798 3.941024 -6.698913 -9.731526 -16.164597 -2.394617 0.34215316
*dt_15 8.799813 3.9146702 1.7537547 -4.7962213 -7.5116386 9.671685 -0.9838915 -3.4800043 3.187676 -2.9065285 -5.9846063 -3.0258968 12.732889 -5.732129 -0.07284035 8.8773775 -14.879244 -6.267974 8.833037 -5.3821826 5.8865542 -3.4684677 -4.431968 -8.95689 -4.4118996 6.0957055 0.58540845 -3.4826572 0.24239057 -6.379856 -1.3098271 -4.4469852 -2.7509143 5.588192 -8.89584 -4.463066 1.5891114 1.4416412 3.8856673 9.380594 1.0585532 7.6694775 3.979828 -5.6843824 1.4986498 -1.4441667 -10.817325 4.8837743 -4.5610194 5.600939 -0.43713906 10.08424 1.2678847 5.964923 7.7254434 -4.9168296 0.5683632 1.1161207 1.85823 -4.5172253 -5.877323 -7.513633 3.3697183 3.743493 2.73681 -1.3200024 1.7305721 -2.0489907 2.5959692 4.8482194 5.495814 4.1926317 7.3108106 4.8000846 4.881116 -2.073661 12.140768 -2.5594752 7.2914977 -0.41493177 -0.10864392 5.3150744 -3.4691658 -7.922534 0.92347753 -0.57591206 -12.787233 -0.47748077 -0.19646394 -9.200947 1.0275323 0.198937 5.3483014 1.6223536 -4.289521 -11.960945 -5.126576 5.8114367 -8.276211 -0.61575943 0.8365449 -5.2637243 4.3482413 -0.93117976 4.8358383 -1.1582788 13.865343 -8.1029005 -4.710346 -1.7486305 -1.8511361 5.13136 -5.807822 -1.2347589 0.06759548 9.33693 -0.6789266 5.483199 -2.607562 5.2649193 -1.2683443 -5.7058907 -0.28493655 -3.2966182 7.562689 2.7076073 11.942528 0.97055584 -0.5327506 5.60763 -7.4226527 -3.9183083 -1.0127147 2.2144635 -4.1766133 2.787007 4.125709 -4.383944 12.757163 13.484867 -5.6649523 0.22305204 -0.802328 3.7282243 0.10811514 -6.2268405 -3.153158 -1.9794697 3.0631006 3.2710793 -13.451308 -4.332274 0.09362131 4.588811 -1.48075 0.40779954 2.3586023 -5.665561 -0.48976263 -1.4649462 -8.798806 -1.088288 0.22690222 7.7938814 -13.098436 2.7335486 12.403393 5.5532985 0.41404217 3.2995121 3.3067365 7.784509 3.2913225 0.65271723 -7.399692 2.5085738 -11.143128 4.1626678 0.32455194 -4.7371726 -1.2709749 -1.9416635 2.7766848 7.03948 7.1977124 7.1425858 -2.697906 -2.0915341 -5.658715 -13.886201 7.388144 -5.5586843 -3.7017624 -3.0388558 4.1917086 -6.3814616 -9.358418 -16.114971 -2.6525486 -0.48471957
*dt_16 8.6534605 3.348458 5.320125 -3.2217216 -3.2475672 11.902316 -0.9662155 -4.0771604 3.5222142 -2.2738502 -4.47329 -3.2068512 12.4518585 -6.706853 -3.797823 5.9235797 -13.822077 -7.574609 8.900554 -6.5352726 3.7851515 0.036077 -5.9296594 -8.045118 -3.145348 6.940082 0.5769384 -2.183626 1.0686731 -4.9397306 -1.7639078 -5.7072835 -2.474705 7.123454 -9.714644 -6.692246 -1.5946416 1.3790894 4.4777284 8.035423 4.266574 3.5143075 5.8482943 -5.54185 -0.720713 0.0176989 -8.946999 4.658655 -5.3284416 10.049035 0.97335196 10.384818 0.7202772 5.4645534 6.379205 -6.1875486 -1.7865728 2.272571 2.4095986 -0.16861573 -7.6288414 -8.815347 4.3577776 4.4825873 6.6944094 0.70624816 -1.0202825 -1.5126703 2.2610803 6.853353 9.783263 2.13309 7.7846556 6.255749 4.5898967 -3.1338801 14.932208 -0.29573464 7.7902203 0.30264795 -0.28358412 2.417093 -2.4621308 -9.390111 0.088195235 -1.7434194 -12.6081915 0.3622662 -0.8971003 -10.199563 1.1409358 0.97841173 6.9280367 2.3573024 -4.6879473 -12.332381 -4.3185043 4.9991727 -9.59685 0.16379525 0.01628171 -4.8289337 5.015114 -1.4092877 3.7552326 -0.55684984 17.784899 -10.044699 -7.517935 -1.5049132 1.0307959 6.1764345 -7.972061 -0.2664511 0.05768962 10.410332 -1.5213337 5.1444054 -3.913218 5.5226383 -3.5913694 -6.0702257 1.3488594 -3.846331 8.027369 1.2152748 12.27618 2.2046392 -1.7884113 4.8210216 -8.174868 -2.869183 -0.19315925 1.1575339 -2.7220078 3.7264569 5.2412376 -7.4886503 13.362956 12.965395 -7.1828337 -2.3910263 -2.0349472 5.363381 -1.2957479 -6.7545767 -5.141824 -0.1562148 3.4852903 0.7782337 -13.217099 -6.4111505 -3.497247 7.187043 -4.2052546 1.5551046 2.6435564 -5.4078784 1.8863808 -0.9041559 -11.930867 -0.7838225 0.46679053 7.0656214 -14.060039 3.6848311 10.034295 5.1482525 0.8387199 3.7963872 3.0480626 6.810893 5.282958 -2.5025647 -10.964621 2.8454542 -12.213612 2.716281 -0.34643492 -5.016557 -0.28096405 -1.3914818 2.587029 4.2424073 8.946022 5.972481 -1.1109159 -1.5060589 -6.5302134 -16.858526 7.5771484 -4.140684 -4.3305793 -1.0895747 5.206436 -8.619283 -10.42885 -18.918911 -2.534072 -1.7295673
*dt_17 8.506801 4.2889476 4.6814017 -4.479292 -1.9001583 9.824419 0.20056015 -2.894097 1.9175695 -3.2373896 -3.8278158 -2.47968 10.144734 -6.090969 -2.3382962 5.363264 -12.219834 -7.61423 7.307714 -5.7148724 0.8309498 -2.8577833 -5.122344 -8.116529 -4.1926064 6.215266 0.91238976 -2.032238 2.1747656 -1.9270555 -0.7498426 -5.007641 -2.2200906 8.213558 -8.85624 -7.4848833 0.42907202 2.7343915 3.078987 7.9710703 4.4790783 4.790569 3.6317353 -3.986119 1.2136891 2.6965473 -8.2899685 6.261405 -3.9444814 7.3412876 1.8849946 10.155458 -1.2326287 4.7193327 3.3496943 -4.0074234 -4.030709 3.2496417 2.194535 -1.0991077 -6.2170153 -8.377045 3.157045 4.9847856 5.4485717 1.1532723 -1.3896333 -1.3987383 2.6167932 6.338976 9.414544 -0.29776302 6.662835 5.5638237 3.3811572 -2.717932 13.085671 2.1079123 5.2305884 1.1412666 -0.28245646 1.5124575 -3.4604142 -5.801511 1.4487269 -0.77920556 -12.025367 1.3151903 0.6572939 -6.573949 0.26848507 0.01999896 4.8958683 2.279008 -2.4975936 -11.117697 -2.1229088 4.8083024 -6.07113 -0.64528275 -0.02796571 -3.7275612 3.923453 -0.3501884 1.5847256 -1.2852951 14.639555 -7.6032157 -5.840308 -1.4293292 -1.07915 7.662836 -5.550344 0.2666681 0.15334845 7.753709 0.45318362 6.20839 -5.03448 3.253882 -2.8862073 -6.5133433 0.2387899 -0.76771647 6.7655597 3.4896545 9.963453 4.419937 0.94224125 5.722048 -5.765607 -3.2316914 0.5258486 1.2082757 -4.569884 2.0879831 5.339381 -6.1362953 11.68004 10.97453 -5.4932127 0.3123059 -2.3304164 5.729015 0.16557975 -5.397836 -4.254916 -0.87384653 3.7520034 -0.0011991113 -11.450103 -4.1861315 -3.3642497 4.532037 -2.5930839 2.0318325 4.4710684 -5.0908737 3.8247454 -2.4557447 -10.934385 -3.2965934 0.63079774 5.2117133 -11.035422 4.69708 9.304847 4.4692507 0.9041058 3.9569674 5.7580576 7.3602 4.498539 1.126427 -10.996252 0.3510052 -10.113618 1.8996798 0.09860185 -4.1442075 0.5139176 1.6048205 1.0114162 3.110857 9.949348 4.71513 -0.2825252 -0.81839 -4.714405 -13.327895 7.366976 -2.770935 -1.8146797 -2.1087635 3.234572 -5.45343 -6.4665527 -16.409246 -1.289504 -2.3057852
*dt_18 7.3690805 3.8158703 3.7020526 -4.5148387 -0.8122543 7.6214485 1.3948109 -4.963122 1.7815452 -1.3545372 -3.1217062 -0.6914849 7.8210692 -4.834728 -3.5704265 4.9670887 -7.704047 -7.005303 6.036928 -5.5330606 3.736898 -0.3300353 -3.2338598 -6.952841 -2.0384762 6.004878 1.8728489 -0.20653039 0.41440278 -2.4849813 -1.7437662 -4.6371584 -0.040979587 6.457969 -8.048425 -8.115391 -0.5981858 0.14899446 2.8849442 5.200213 3.7643478 2.7659004 3.2445838 -5.582141 -0.26176065 0.6490355 -8.269169 2.8917246 -3.2807746 7.279256 1.2533679 6.404554 0.2615868 4.6492453 3.969629 -4.8970904 -1.8727559 2.6867154 2.1822815 0.21052021 -7.1071773 -7.605844 2.2846928 3.6833248 4.2082715 1.6754174 -0.32621744 0.7261699 2.0199642 5.421919 6.759914 -0.62845945 6.971587 6.210244 2.2643404 -2.9453895 11.160242 -0.6376458 3.7083957 -1.4685696 1.3455555 -1.6145989 -1.0778108 -5.297827 0.057295777 -2.9890835 -8.265399 -1.080229 -0.52446645 -6.755255 -2.0602317 1.3925663 3.3083022 2.5831957 -2.1732411 -11.280756 0.32948327 6.3214765 -5.406369 -0.42926127 1.3207085 -3.0512385 4.694908 -0.6158722 3.5385265 -1.8305324 11.585454 -7.2406707 -3.738276 -0.6204783 0.51153654 3.569824 -4.12776 0.6384422 -1.2868835 8.28753 0.6787788 4.3778687 -4.926858 3.0758421 -2.447987 -3.6176298 1.3912958 -0.2639956 5.193741 2.156195 8.552793 1.3567458 -0.6529428 4.880034 -6.5004764 -3.213317 -0.9969748 -0.10849301 -1.852613 2.6317685 2.673691 -5.0726857 8.562652 10.929211 -4.5829144 -0.32965556 -2.0472937 5.7291408 0.5659052 -3.159937 -5.5575275 -0.00901328 2.192979 2.6521168 -9.891505 -5.4296794 -2.8859987 6.0052285 -2.1841402 2.8551812 1.7803333 -5.7470174 0.12140039 -0.49077332 -10.659319 1.0893371 -0.017596707 5.568342 -9.556766 4.035734 9.218702 5.459601 -1.1701945 4.5801635 3.284638 5.6716747 3.5518472 -1.2246177 -8.235383 2.5798674 -9.779284 3.9979167 1.0508214 -2.257277 -1.4077058 -0.25376934 -0.7057952 3.1560884 7.308653 4.7857194 -0.3698001 1.3896254 -5.119107 -12.529931 4.936191 -1.7727892 -0.95213425 -1.8943187 3.1094494 -3.8634596 -5.9861465 -15.615387 -0.89959186 -2.771438
*dt_19 7.2825193 2.1406035 5.0293913 -3.6980934 -1.9126676 8.046881 1.5779082 -3.9067905 0.61988974 -2.7685246 -4.1074595 -2.1153421 7.6536164 -3.3503044 -2.699653 4.9570756 -9.643589 -7.9205337 3.982164 -6.532028 3.186918 -0.22259718 -4.209213 -7.98835 -0.8852565 4.7004266 2.2939708 -1.0026022 0.38219875 -4.422742 -1.5263268 -5.2613826 -1.8772467 5.570005 -7.8032684 -9.27374 -1.7778705 -0.26252404 3.7492194 6.1247787 4.250284 1.7744175 2.5931883 -3.0528693 1.4114559 -0.010011494 -9.645264 2.2730398 -1.7488805 8.354503 -1.229882 7.372199 1.4413146 4.064691 3.8831806 -6.039982 -0.71582985 2.247039 2.705964 0.12615043 -7.7385163 -5.351394 1.8048849 3.261595 5.7340126 1.1756706 -0.4372981 -0.2802955 3.8169742 5.236712 6.764627 0.42182615 7.18426 5.711143 3.6053276 -0.5930931 11.639134 0.04864505 3.9920816 -0.009305298 2.2824638 -1.2787983 0.3741368 -4.055163 0.9089653 -3.0371823 -9.412986 -0.14210734 -0.52881724 -6.384837 -0.82905203 0.31731912 3.1705375 -0.1528206 -2.6816804 -9.584423 0.08434039 4.2643733 -6.212688 0.49119633 1.400568 -2.7586198 2.4851484 -1.3254735 3.3263578 -4.16076 13.990421 -6.742608 -5.242988 -1.7183727 -1.5983661 5.463722 -5.575795 -0.07480087 0.0035788193 7.725962 1.695894 3.0079806 -3.782644 0.80430055 -1.765883 -2.939126 0.43965262 -0.14627662 6.0987477 2.6006346 9.9814825 0.87188494 -0.6554953 3.2508466 -7.8719463 -2.1977253 0.48659748 -1.2143509 -2.9518151 3.361913 3.8645692 -4.2411137 9.735083 9.898029 -4.8015513 0.5068121 0.46830505 5.353641 -0.17014092 -4.2682915 -4.8883734 -2.3356493 2.0475755 1.0299911 -9.375709 -3.9026601 -3.1941972 5.296087 -2.3981006 3.8321614 2.239417 -5.111289 0.5186845 -0.012899607 -10.862597 0.5348162 2.2289453 5.6120625 -10.423194 4.256317 7.8414154 7.4361587 -2.1450384 2.1708481 4.371649 5.5542507 5.2212977 -1.4717252 -9.363916 3.7119792 -10.876564 1.4491584 -0.39891475 -2.666884 -0.88663316 0.11829697 0.90949494 1.18722 7.981093 5.3238206 -1.6238484 2.9074464 -5.26429 -12.817345 6.624301 -2.48805 -2.2784586 -1.5024078 4.127288 -4.493489 -6.7025275 -15.6366005 -3.3033388 -1.9227272
*dt_20 7.457417 3.2525501 5.2897334 -3.606595 -1.0137526 8.728163 0.67579716 -2.1198325 2.7843614 -2.1078286 -6.022595 -2.3633962 10.478005 -4.8517623 -4.1620173 7.2182755 -11.604768 -7.755178 6.327701 -5.7418604 3.6378837 -1.068947 -5.0936203 -7.6541038 -0.8461644 5.865689 2.0675375 -1.1531237 0.51022077 -4.5246415 -1.7028575 -4.5364294 -0.4982584 7.1399927 -8.593003 -6.3896008 -0.6827716 2.4222229 2.747758 6.892235 3.5574963 4.5854225 3.5329528 -3.6216486 0.658115 0.04744659 -8.1855955 3.6375947 -3.3298967 6.390864 0.5702691 8.515831 2.023289 5.437533 4.5801034 -3.954054 -2.5654209 1.2680249 2.4539497 0.08789552 -6.3948026 -9.282063 2.9670396 5.0163584 4.39748 2.073987 -2.2747204 -1.9011656 2.928517 4.48328 8.252693 0.89831656 7.9289217 5.6148047 2.7727237 -2.4735572 10.489627 1.0909652 6.6539116 1.1596018 0.032938316 -0.15946698 -2.58307 -7.321777 1.2650795 -2.57034 -11.518885 0.392161 0.03319572 -6.503145 -0.6301544 -0.014970119 4.7709374 3.2420442 -1.3877829 -9.617204 -1.1724073 3.0183976 -6.1564655 0.78120613 -0.90418977 -4.471204 2.318102 -0.070753634 4.198522 -0.2491039 12.743026 -7.1519904 -6.467607 -2.8507879 -1.8271852 6.152222 -5.6191916 -0.7563402 -1.0374836 8.961045 -0.43825024 4.1399393 -4.7161636 3.3457732 -1.5669076 -4.8176475 2.9781957 -3.089424 6.5819077 2.0336115 9.109936 1.3195269 -0.01964859 4.102376 -7.635493 -3.8393772 -1.1850506 0.9049144 -3.1030097 2.3245869 2.7235868 -6.409616 9.219007 10.869708 -5.5165033 -0.59734416 -0.79764605 4.7708755 -0.74410987 -5.4994125 -4.2134 -1.094477 1.9753566 1.5407075 -10.785385 -6.6367445 -3.0208666 5.7998605 -2.2288914 3.887507 1.2684834 -5.340181 1.4718759 -0.72888035 -10.626464 -0.9014557 1.3360122 6.8732243 -12.053753 3.11457 9.843599 6.0054307 -1.938384 3.3345451 3.9164138 5.5613627 4.8649364 -0.94318116 -10.396401 2.9285798 -9.917648 2.3644764 1.0356339 -3.1744955 -0.88122004 -0.03603574 0.4931661 3.465615 9.650389 4.4440026 -1.238041 -0.51236093 -4.028389 -13.469582 7.441821 -2.8352702 -2.504579 -1.1640322 2.9979515 -4.837421 -8.21912 -16.060223 -1.2749017 -2.0138218
