5 200
*dt_0 -1.0440328 -1.2270488 -0.723769 0.38167652 -0.016723191 -0.26769543 -0.6212623 0.054107923 -0.7405556 0.61971366 -0.08367082 0.27527943 -0.078057826 0.15875095 -0.19856149 -0.042987593 -0.3389847 0.8800208 -0.71152955 -0.1378789 -0.5605315 -0.0355911 0.075741105 -0.05736568 0.12761886 -0.33286026 -0.60224366 -0.5586406 -0.13127445 -0.28598776 0.83141816 0.8882245 -0.409609 0.041107737 0.066941865 0.56998175 -0.44043365 -0.9917989 0.074492656 0.018421764 -0.4729033 0.031010987 -0.04599445 -0.951435 -0.33804438 -0.1754228 0.42939034 -0.34845454 0.27123526 -0.6934558 -0.41572958 -0.9162021 -0.580587 -0.3094521 -0.24976283 0.50304556 0.57463807 0.14749342 -0.38783947 0.92018807 0.70682347 0.6682303 0.33486328 0.20808806 0.090460554 0.1186432 0.9864283 0.9587063 0.18482707 -0.44636396 -0.4279294 -0.28205958 -0.7036986 -0.5218265 -0.39859244 0.75753903 -0.6394884 -1.1953743 -0.22029042 -0.44731522 0.18803412 0.56694645 -0.8796762 -0.3151675 0.561494 0.078823835 0.19922344 -0.76225996 -0.27270567 0.7114516 -0.6672959 0.14688344 -0.672822 -0.9118216 0.0114574265 0.880397 -0.29931262 0.12449035 0.745495 -0.008452562 -0.7575756 -0.266418 -0.48254922 0.82872605 -0.2681469 -0.08717016 -0.05780655 0.8255637 0.06254151 -0.13451935 -0.39644563 -0.27788976 0.30211303 -0.520247 0.68375355 -0.6813769 -0.7850498 0.30278686 0.6703056 0.96375716 0.78659433 0.20200288 -0.69105303 0.8400559 -0.89248544 -0.10833915 -1.1141361 -0.41316032 -0.1557877 -0.88206536 0.7296175 -0.16217107 0.19282754 1.1092644 0.08596054 0.35011747 -0.04461671 -0.4109439 -0.7860832 -0.6428704 0.52003884 -0.30198917 0.16197383 -0.98494285 -0.11582418 0.14503276 0.21105978 0.43209335 -0.085222006 0.009232651 -0.13607313 1.00697 0.58500355 -0.83850944 -0.4632484 -0.21377276 -0.5795549 1.3659214 -0.33625892 -0.625447 1.3302491 0.530691 0.078877084 -0.06530911 0.43541178 -0.28279415 -0.0785362 -0.60890704 -0.5291296 0.44140542 -0.42863008 -0.3430517 -0.30465582 -0.14041908 1.1286765 0.18123983 0.86996406 -0.92603576 -0.30953214 0.5464147 0.46792516 0.44660676 -0.5124838 0.36264944 -1.1499251 1.4266881 -0.74991673 -0.26888204 0.5480453 0.023095168 -0.91597086 0.4548578 0.114453964 0.3267965 -0.33756125 0.18923524 0.028190725 -0.38290083 -0.06299307 0.5672872
*dt_1 -0.5085169 -0.59806603 -0.33944353 0.1785706 -0.0014439774 -0.13163221 -0.2891348 0.022473585 -0.35148188 0.30218 -0.047713067 0.13588488 -0.042107288 0.07463773 -0.09125482 -0.01058516 -0.16678247 0.41897076 -0.340201 -0.066161074 -0.27711535 -0.02465481 0.0426173 -0.022354806 0.05607699 -0.15622175 -0.28958938 -0.26445517 -0.06970632 -0.13256206 0.3957585 0.4211524 -0.18892065 0.014550834 0.030400304 0.27774405 -0.21904737 -0.4794616 0.037666474 0.0032554297 -0.2199478 0.023787664 -0.016649263 -0.45341465 -0.16768377 -0.08305619 0.2047525 -0.16219646 0.12422087 -0.338641 -0.20764948 -0.44816348 -0.2836578 -0.1498664 -0.122139186 0.2458784 0.28062585 0.07474486 -0.18311305 0.4429897 0.34395173 0.32741487 0.16444069 0.10334718 0.04105315 0.062068794 0.47993422 0.46923748 0.09558861 -0.20960744 -0.21218726 -0.13296878 -0.33862403 -0.24673223 -0.18459375 0.3629178 -0.313647 -0.57656723 -0.11119177 -0.21906455 0.08347822 0.27643907 -0.4214436 -0.15090089 0.2649835 0.045602933 0.09575076 -0.36792755 -0.14045773 0.34469497 -0.32601872 0.06535132 -0.32937673 -0.43649197 0.013594914 0.42636624 -0.14730084 0.058999512 0.3655768 -0.0100056445 -0.3670096 -0.121130034 -0.22915255 0.40494666 -0.12843914 -0.046284534 -0.026990507 0.40336147 0.03022196 -0.069746494 -0.19176109 -0.14104225 0.15217878 -0.24265136 0.3305601 -0.3306028 -0.37076372 0.1470562 0.32466522 0.46809313 0.37349647 0.10137218 -0.33182666 0.4109934 -0.42842326 -0.045657113 -0.5368388 -0.20191081 -0.07352262 -0.4290951 0.3492931 -0.07860987 0.09415526 0.53766006 0.040700816 0.16885243 -0.02797505 -0.20412229 -0.37657982 -0.3109157 0.24707949 -0.14086597 0.07234699 -0.46693143 -0.05972455 0.06353191 0.09443062 0.20960632 -0.04347255 0.012627639 -0.06980823 0.4869517 0.28008553 -0.3974749 -0.22309197 -0.108147874 -0.2870711 0.66036177 -0.16729581 -0.30245888 0.6411706 0.26254177 0.032636367 -0.03170481 0.21312657 -0.13048762 -0.039072778 -0.29547235 -0.25610876 0.21866892 -0.21198076 -0.17057085 -0.15235554 -0.07160414 0.5488848 0.08638764 0.4246188 -0.45152438 -0.14599453 0.27096334 0.21629931 0.21311395 -0.25202686 0.18123148 -0.5540331 0.69001347 -0.364966 -0.12650819 0.2590584 0.0036552257 -0.4416896 0.21681322 0.046336804 0.15558031 -0.16605054 0.094820924 0.008738705 -0.17602205 -0.029983874 0.26978484
*dt_2 -1.6714336 -1.9669241 -1.1426555 0.5956841 -0.035253014 -0.43924704 -0.9756829 0.106466025 -1.1664625 0.99694866 -0.14775752 0.43518618 -0.11795758 0.265068 -0.30436483 -0.04578317 -0.55945647 1.3974732 -1.1250309 -0.20825881 -0.90424764 -0.062010013 0.13912828 -0.10040402 0.18540536 -0.5112832 -0.9531291 -0.8773988 -0.22052963 -0.42929366 1.3277951 1.4165957 -0.64098334 0.07730356 0.112405345 0.918768 -0.7102831 -1.5823051 0.12871094 0.024318315 -0.7604044 0.06897447 -0.081078984 -1.5173311 -0.55997854 -0.26757672 0.69497913 -0.55821013 0.42145434 -1.1006479 -0.6608023 -1.4797213 -0.91846055 -0.4770186 -0.4043398 0.7859371 0.9341428 0.23067477 -0.60792905 1.4641979 1.1355681 1.0523695 0.53048706 0.345178 0.1422839 0.20375836 1.5798383 1.5465945 0.3103911 -0.70149183 -0.6688442 -0.45023945 -1.1145335 -0.82749504 -0.6228949 1.2158161 -1.0182912 -1.9119085 -0.36049923 -0.73364365 0.28129312 0.9031701 -1.3994514 -0.5132353 0.89028955 0.11685729 0.31490433 -1.2192258 -0.45844486 1.1435986 -1.0559334 0.20942707 -1.0593162 -1.4519159 0.024616208 1.3979341 -0.49876338 0.20930807 1.1803665 -0.0238261 -1.2130764 -0.4248784 -0.7595747 1.3353587 -0.4106807 -0.13612306 -0.09350938 1.314175 0.080316104 -0.21971366 -0.643864 -0.4348436 0.503278 -0.82605135 1.0804265 -1.0762197 -1.2446976 0.49642295 1.0737445 1.5413048 1.2486551 0.30773026 -1.1069752 1.3377746 -1.4230847 -0.1762437 -1.7809181 -0.6726825 -0.2623545 -1.3996353 1.1688048 -0.26978025 0.31331947 1.7712562 0.15244181 0.5688306 -0.074384265 -0.66939646 -1.2481283 -1.020218 0.81320894 -0.49176413 0.2511141 -1.5668566 -0.1825951 0.22583151 0.3365767 0.6708057 -0.13804322 0.023490807 -0.21159287 1.6072294 0.93422294 -1.3381114 -0.7358926 -0.3603151 -0.939905 2.1852489 -0.52689385 -1.0017815 2.126995 0.84616244 0.09855018 -0.09696104 0.7008956 -0.43785164 -0.10979738 -0.9702894 -0.8303085 0.7156285 -0.70123655 -0.55610037 -0.501539 -0.23579726 1.8092171 0.2824524 1.3807771 -1.4932768 -0.48923203 0.8911957 0.74136144 0.70489436 -0.80596656 0.5953776 -1.8409443 2.2783694 -1.2123955 -0.43640548 0.8606677 0.03214964 -1.4567271 0.7138474 0.17124991 0.5042747 -0.54318976 0.2899143 0.029533144 -0.60690075 -0.11008263 0.9020216
*dt_3 -0.5011209 -0.5863433 -0.3400145 0.17057015 -0.013697782 -0.12438978 -0.29215038 0.026938455 -0.34798548 0.29874927 -0.038279425 0.12668438 -0.031069031 0.08246805 -0.09648723 -0.008688758 -0.15987906 0.41381115 -0.33103177 -0.065010376 -0.2613603 -0.02470244 0.046364278 -0.031062795 0.058185335 -0.156058 -0.27597985 -0.2549004 -0.07059821 -0.13089834 0.39478892 0.41799605 -0.19179475 0.025600858 0.035426237 0.2676138 -0.20907733 -0.46357313 0.043347463 0.008859338 -0.22137728 0.020654546 -0.028365929 -0.44814858 -0.16803958 -0.08339788 0.20382532 -0.16591106 0.13039933 -0.3255508 -0.20082115 -0.4410608 -0.2688831 -0.14381115 -0.11333495 0.2382082 0.2757684 0.0680912 -0.18555991 0.4359699 0.33662882 0.3192313 0.15649728 0.10532796 0.03990701 0.063946255 0.47242743 0.46142313 0.09019364 -0.21052618 -0.19598015 -0.13771638 -0.3297498 -0.23883931 -0.18180545 0.3660801 -0.29988927 -0.5660316 -0.10454185 -0.21268137 0.081982814 0.26742586 -0.41088772 -0.15049335 0.25856185 0.040042147 0.09084047 -0.3573612 -0.14127678 0.33994773 -0.3156221 0.06717985 -0.31829333 -0.43585828 0.012404955 0.40812317 -0.14210294 0.057417434 0.34686315 -0.0008785957 -0.35432625 -0.12107197 -0.2284612 0.3930482 -0.12414534 -0.03736949 -0.021384137 0.38737664 0.022922475 -0.07074362 -0.18467063 -0.12983534 0.14364114 -0.24846454 0.31862074 -0.31749204 -0.3716062 0.14834106 0.312689 0.4538841 0.3652078 0.09060924 -0.3225628 0.39188087 -0.4193331 -0.0515491 -0.52955043 -0.19308884 -0.07152008 -0.42099154 0.35122153 -0.076864876 0.09085248 0.5307877 0.04926711 0.17029057 -0.02208645 -0.20159374 -0.36697027 -0.30615455 0.24571306 -0.14749178 0.07690869 -0.46768892 -0.054889113 0.068070866 0.09897759 0.20240584 -0.043406643 0.011665381 -0.059766937 0.47116914 0.27224356 -0.3895044 -0.21770935 -0.10962286 -0.28074822 0.64282995 -0.15669651 -0.29624844 0.6336872 0.24481584 0.03563545 -0.024843384 0.20668145 -0.13170984 -0.027929172 -0.2834429 -0.24399412 0.21635081 -0.2133547 -0.16067858 -0.1506023 -0.07493897 0.53238654 0.08903092 0.41467953 -0.43689921 -0.14660601 0.2616679 0.22018303 0.2126482 -0.23448418 0.17409424 -0.54345465 0.6771297 -0.35694692 -0.12446049 0.25959608 0.00788065 -0.43695262 0.21817724 0.0466145 0.14714345 -0.15495886 0.0873471 0.014689381 -0.1820273 -0.025978653 0.27047047
*dt_4 -0.36358252 -0.428284 -0.24453305 0.1273247 -0.010473052 -0.09090423 -0.21574476 0.021662958 -0.25418863 0.21585216 -0.025787119 0.09342446 -0.021459352 0.053851165 -0.07132868 -0.008670427 -0.12015973 0.29881272 -0.2399129 -0.043417223 -0.18947731 -0.012050795 0.024663461 -0.018763404 0.043438096 -0.110123165 -0.21095344 -0.18626718 -0.053030137 -0.09843269 0.28740418 0.30888677 -0.14327702 0.01996688 0.022676665 0.19908842 -0.15336621 -0.3450557 0.028789883 0.004352495 -0.16572705 0.014544769 -0.022873273 -0.32583126 -0.1191637 -0.053790182 0.15219519 -0.11817656 0.08721938 -0.23326431 -0.14617461 -0.3253526 -0.20296966 -0.10698998 -0.085875295 0.1743283 0.19927125 0.04722799 -0.12867163 0.3169106 0.24887885 0.22879134 0.10918266 0.07879013 0.032026693 0.043588817 0.34193945 0.3299001 0.06504176 -0.15755843 -0.14952794 -0.101325184 -0.24612005 -0.1748624 -0.13114686 0.2666037 -0.22015259 -0.4086354 -0.07991119 -0.16035596 0.05779814 0.19784966 -0.2969678 -0.106291234 0.1955757 0.029299933 0.06976785 -0.26888573 -0.09580691 0.25067583 -0.23162363 0.051065046 -0.23102257 -0.310441 0.011545822 0.29951158 -0.107921705 0.04801106 0.25736287 -0.009643287 -0.2589755 -0.09232484 -0.16971084 0.28576687 -0.0926337 -0.024649052 -0.017923845 0.28284878 0.01667852 -0.052143723 -0.14100452 -0.09082145 0.10235422 -0.17371795 0.23713799 -0.23841678 -0.26739615 0.10123696 0.23380843 0.32828057 0.2743409 0.066470884 -0.23383602 0.2926841 -0.3018643 -0.04018492 -0.3863202 -0.14542466 -0.058544006 -0.3039655 0.25141427 -0.057142306 0.07165495 0.38864926 0.030249296 0.12804808 -0.011537732 -0.1494119 -0.26974362 -0.2260649 0.17977002 -0.10381645 0.051857125 -0.3344942 -0.044056367 0.053429876 0.068924904 0.14731897 -0.024453804 0.010731572 -0.047205575 0.3469607 0.1956366 -0.28660986 -0.1609404 -0.08350249 -0.20586519 0.47543755 -0.11639875 -0.22049257 0.4579025 0.18155476 0.018635234 -0.025644964 0.15031469 -0.09395708 -0.02393426 -0.20570347 -0.1834321 0.15959623 -0.14747347 -0.11918997 -0.11389357 -0.053462554 0.38653946 0.06656062 0.30417567 -0.32304108 -0.10278829 0.18929039 0.15806325 0.15565248 -0.17283191 0.12879068 -0.39678174 0.4985004 -0.25663167 -0.09543454 0.18349811 0.00825764 -0.3133271 0.15294059 0.042305883 0.11445941 -0.11325888 0.06316097 0.0017704513 -0.13086163 -0.028297912 0.19293834
*dt_0 -1.0440328 -1.2270488 -0.723769 0.38167652 -0.016723191 -0.26769543 -0.6212623 0.054107923 -0.7405556 0.61971366 -0.08367082 0.27527943 -0.078057826 0.15875095 -0.19856149 -0.042987593 -0.3389847 0.8800208 -0.71152955 -0.1378789 -0.5605315 -0.0355911 0.075741105 -0.05736568 0.12761886 -0.33286026 -0.60224366 -0.5586406 -0.13127445 -0.28598776 0.83141816 0.8882245 -0.409609 0.041107737 0.066941865 0.56998175 -0.44043365 -0.9917989 0.074492656 0.018421764 -0.4729033 0.031010987 -0.04599445 -0.951435 -0.33804438 -0.1754228 0.42939034 -0.34845454 0.27123526 -0.6934558 -0.41572958 -0.9162021 -0.580587 -0.3094521 -0.24976283 0.50304556 0.57463807 0.14749342 -0.38783947 0.92018807 0.70682347 0.6682303 0.33486328 0.20808806 0.090460554 0.1186432 0.9864283 0.9587063 0.18482707 -0.44636396 -0.4279294 -0.28205958 -0.7036986 -0.5218265 -0.39859244 0.75753903 -0.6394884 -1.1953743 -0.22029042 -0.44731522 0.18803412 0.56694645 -0.8796762 -0.3151675 0.561494 0.078823835 0.19922344 -0.76225996 -0.27270567 0.7114516 -0.6672959 0.14688344 -0.672822 -0.9118216 0.0114574265 0.880397 -0.29931262 0.12449035 0.745495 -0.008452562 -0.7575756 -0.266418 -0.48254922 0.82872605 -0.2681469 -0.08717016 -0.05780655 0.8255637 0.06254151 -0.13451935 -0.39644563 -0.27788976 0.30211303 -0.520247 0.68375355 -0.6813769 -0.7850498 0.30278686 0.6703056 0.96375716 0.78659433 0.20200288 -0.69105303 0.8400559 -0.89248544 -0.10833915 -1.1141361 -0.41316032 -0.1557877 -0.88206536 0.7296175 -0.16217107 0.19282754 1.1092644 0.08596054 0.35011747 -0.04461671 -0.4109439 -0.7860832 -0.6428704 0.52003884 -0.30198917 0.16197383 -0.98494285 -0.11582418 0.14503276 0.21105978 0.43209335 -0.085222006 0.009232651 -0.13607313 1.00697 0.58500355 -0.83850944 -0.4632484 -0.21377276 -0.5795549 1.3659214 -0.33625892 -0.625447 1.3302491 0.530691 0.078877084 -0.06530911 0.43541178 -0.28279415 -0.0785362 -0.60890704 -0.5291296 0.44140542 -0.42863008 -0.3430517 -0.30465582 -0.14041908 1.1286765 0.18123983 0.86996406 -0.92603576 -0.30953214 0.5464147 0.46792516 0.44660676 -0.5124838 0.36264944 -1.1499251 1.4266881 -0.74991673 -0.26888204 0.5480453 0.023095168 -0.91597086 0.4548578 0.114453964 0.3267965 -0.33756125 0.18923524 0.028190725 -0.38290083 -0.06299307 0.5672872
*dt_1 -0.5085169 -0.59806603 -0.33944353 0.1785706 -0.0014439774 -0.13163221 -0.2891348 0.022473585 -0.35148188 0.30218 -0.047713067 0.13588488 -0.042107288 0.07463773 -0.09125482 -0.01058516 -0.16678247 0.41897076 -0.340201 -0.066161074 -0.27711535 -0.02465481 0.0426173 -0.022354806 0.05607699 -0.15622175 -0.28958938 -0.26445517 -0.06970632 -0.13256206 0.3957585 0.4211524 -0.18892065 0.014550834 0.030400304 0.27774405 -0.21904737 -0.4794616 0.037666474 0.0032554297 -0.2199478 0.023787664 -0.016649263 -0.45341465 -0.16768377 -0.08305619 0.2047525 -0.16219646 0.12422087 -0.338641 -0.20764948 -0.44816348 -0.2836578 -0.1498664 -0.122139186 0.2458784 0.28062585 0.07474486 -0.18311305 0.4429897 0.34395173 0.32741487 0.16444069 0.10334718 0.04105315 0.062068794 0.47993422 0.46923748 0.09558861 -0.20960744 -0.21218726 -0.13296878 -0.33862403 -0.24673223 -0.18459375 0.3629178 -0.313647 -0.57656723 -0.11119177 -0.21906455 0.08347822 0.27643907 -0.4214436 -0.15090089 0.2649835 0.045602933 0.09575076 -0.36792755 -0.14045773 0.34469497 -0.32601872 0.06535132 -0.32937673 -0.43649197 0.013594914 0.42636624 -0.14730084 0.058999512 0.3655768 -0.0100056445 -0.3670096 -0.121130034 -0.22915255 0.40494666 -0.12843914 -0.046284534 -0.026990507 0.40336147 0.03022196 -0.069746494 -0.19176109 -0.14104225 0.15217878 -0.24265136 0.3305601 -0.3306028 -0.37076372 0.1470562 0.32466522 0.46809313 0.37349647 0.10137218 -0.33182666 0.4109934 -0.42842326 -0.045657113 -0.5368388 -0.20191081 -0.07352262 -0.4290951 0.3492931 -0.07860987 0.09415526 0.53766006 0.040700816 0.16885243 -0.02797505 -0.20412229 -0.37657982 -0.3109157 0.24707949 -0.14086597 0.07234699 -0.46693143 -0.05972455 0.06353191 0.09443062 0.20960632 -0.04347255 0.012627639 -0.06980823 0.4869517 0.28008553 -0.3974749 -0.22309197 -0.108147874 -0.2870711 0.66036177 -0.16729581 -0.30245888 0.6411706 0.26254177 0.032636367 -0.03170481 0.21312657 -0.13048762 -0.039072778 -0.29547235 -0.25610876 0.21866892 -0.21198076 -0.17057085 -0.15235554 -0.07160414 0.5488848 0.08638764 0.4246188 -0.45152438 -0.14599453 0.27096334 0.21629931 0.21311395 -0.25202686 0.18123148 -0.5540331 0.69001347 -0.364966 -0.12650819 0.2590584 0.0036552257 -0.4416896 0.21681322 0.046336804 0.15558031 -0.16605054 0.094820924 0.008738705 -0.17602205 -0.029983874 0.26978484
*dt_2 -1.6714336 -1.9669241 -1.1426555 0.5956841 -0.035253014 -0.43924704 -0.9756829 0.106466025 -1.1664625 0.99694866 -0.14775752 0.43518618 -0.11795758 0.265068 -0.30436483 -0.04578317 -0.55945647 1.3974732 -1.1250309 -0.20825881 -0.90424764 -0.062010013 0.13912828 -0.10040402 0.18540536 -0.5112832 -0.9531291 -0.8773988 -0.22052963 -0.42929366 1.3277951 1.4165957 -0.64098334 0.07730356 0.112405345 0.918768 -0.7102831 -1.5823051 0.12871094 0.024318315 -0.7604044 0.06897447 -0.081078984 -1.5173311 -0.55997854 -0.26757672 0.69497913 -0.55821013 0.42145434 -1.1006479 -0.6608023 -1.4797213 -0.91846055 -0.4770186 -0.4043398 0.7859371 0.9341428 0.23067477 -0.60792905 1.4641979 1.1355681 1.0523695 0.53048706 0.345178 0.1422839 0.20375836 1.5798383 1.5465945 0.3103911 -0.70149183 -0.6688442 -0.45023945 -1.1145335 -0.82749504 -0.6228949 1.2158161 -1.0182912 -1.9119085 -0.36049923 -0.73364365 0.28129312 0.9031701 -1.3994514 -0.5132353 0.89028955 0.11685729 0.31490433 -1.2192258 -0.45844486 1.1435986 -1.0559334 0.20942707 -1.0593162 -1.4519159 0.024616208 1.3979341 -0.49876338 0.20930807 1.1803665 -0.0238261 -1.2130764 -0.4248784 -0.7595747 1.3353587 -0.4106807 -0.13612306 -0.09350938 1.314175 0.080316104 -0.21971366 -0.643864 -0.4348436 0.503278 -0.82605135 1.0804265 -1.0762197 -1.2446976 0.49642295 1.0737445 1.5413048 1.2486551 0.30773026 -1.1069752 1.3377746 -1.4230847 -0.1762437 -1.7809181 -0.6726825 -0.2623545 -1.3996353 1.1688048 -0.26978025 0.31331947 1.7712562 0.15244181 0.5688306 -0.074384265 -0.66939646 -1.2481283 -1.020218 0.81320894 -0.49176413 0.2511141 -1.5668566 -0.1825951 0.22583151 0.3365767 0.6708057 -0.13804322 0.023490807 -0.21159287 1.6072294 0.93422294 -1.3381114 -0.7358926 -0.3603151 -0.939905 2.1852489 -0.52689385 -1.0017815 2.126995 0.84616244 0.09855018 -0.09696104 0.7008956 -0.43785164 -0.10979738 -0.9702894 -0.8303085 0.7156285 -0.70123655 -0.55610037 -0.501539 -0.23579726 1.8092171 0.2824524 1.3807771 -1.4932768 -0.48923203 0.8911957 0.74136144 0.70489436 -0.80596656 0.5953776 -1.8409443 2.2783694 -1.2123955 -0.43640548 0.8606677 0.03214964 -1.4567271 0.7138474 0.17124991 0.5042747 -0.54318976 0.2899143 0.029533144 -0.60690075 -0.11008263 0.9020216
*dt_3 -0.5011209 -0.5863433 -0.3400145 0.17057015 -0.013697782 -0.12438978 -0.29215038 0.026938455 -0.34798548 0.29874927 -0.038279425 0.12668438 -0.031069031 0.08246805 -0.09648723 -0.008688758 -0.15987906 0.41381115 -0.33103177 -0.065010376 -0.2613603 -0.02470244 0.046364278 -0.031062795 0.058185335 -0.156058 -0.27597985 -0.2549004 -0.07059821 -0.13089834 0.39478892 0.41799605 -0.19179475 0.025600858 0.035426237 0.2676138 -0.20907733 -0.46357313 0.043347463 0.008859338 -0.22137728 0.020654546 -0.028365929 -0.44814858 -0.16803958 -0.08339788 0.20382532 -0.16591106 0.13039933 -0.3255508 -0.20082115 -0.4410608 -0.2688831 -0.14381115 -0.11333495 0.2382082 0.2757684 0.0680912 -0.18555991 0.4359699 0.33662882 0.3192313 0.15649728 0.10532796 0.03990701 0.063946255 0.47242743 0.46142313 0.09019364 -0.21052618 -0.19598015 -0.13771638 -0.3297498 -0.23883931 -0.18180545 0.3660801 -0.29988927 -0.5660316 -0.10454185 -0.21268137 0.081982814 0.26742586 -0.41088772 -0.15049335 0.25856185 0.040042147 0.09084047 -0.3573612 -0.14127678 0.33994773 -0.3156221 0.06717985 -0.31829333 -0.43585828 0.012404955 0.40812317 -0.14210294 0.057417434 0.34686315 -0.0008785957 -0.35432625 -0.12107197 -0.2284612 0.3930482 -0.12414534 -0.03736949 -0.021384137 0.38737664 0.022922475 -0.07074362 -0.18467063 -0.12983534 0.14364114 -0.24846454 0.31862074 -0.31749204 -0.3716062 0.14834106 0.312689 0.4538841 0.3652078 0.09060924 -0.3225628 0.39188087 -0.4193331 -0.0515491 -0.52955043 -0.19308884 -0.07152008 -0.42099154 0.35122153 -0.076864876 0.09085248 0.5307877 0.04926711 0.17029057 -0.02208645 -0.20159374 -0.36697027 -0.30615455 0.24571306 -0.14749178 0.07690869 -0.46768892 -0.054889113 0.068070866 0.09897759 0.20240584 -0.043406643 0.011665381 -0.059766937 0.47116914 0.27224356 -0.3895044 -0.21770935 -0.10962286 -0.28074822 0.64282995 -0.15669651 -0.29624844 0.6336872 0.24481584 0.03563545 -0.024843384 0.20668145 -0.13170984 -0.027929172 -0.2834429 -0.24399412 0.21635081 -0.2133547 -0.16067858 -0.1506023 -0.07493897 0.53238654 0.08903092 0.41467953 -0.43689921 -0.14660601 0.2616679 0.22018303 0.2126482 -0.23448418 0.17409424 -0.54345465 0.6771297 -0.35694692 -0.12446049 0.25959608 0.00788065 -0.43695262 0.21817724 0.0466145 0.14714345 -0.15495886 0.0873471 0.014689381 -0.1820273 -0.025978653 0.27047047
*dt_4 -0.36358252 -0.428284 -0.24453305 0.1273247 -0.010473052 -0.09090423 -0.21574476 0.021662958 -0.25418863 0.21585216 -0.025787119 0.09342446 -0.021459352 0.053851165 -0.07132868 -0.008670427 -0.12015973 0.29881272 -0.2399129 -0.043417223 -0.18947731 -0.012050795 0.024663461 -0.018763404 0.043438096 -0.110123165 -0.21095344 -0.18626718 -0.053030137 -0.09843269 0.28740418 0.30888677 -0.14327702 0.01996688 0.022676665 0.19908842 -0.15336621 -0.3450557 0.028789883 0.004352495 -0.16572705 0.014544769 -0.022873273 -0.32583126 -0.1191637 -0.053790182 0.15219519 -0.11817656 0.08721938 -0.23326431 -0.14617461 -0.3253526 -0.20296966 -0.10698998 -0.085875295 0.1743283 0.19927125 0.04722799 -0.12867163 0.3169106 0.24887885 0.22879134 0.10918266 0.07879013 0.032026693 0.043588817 0.34193945 0.3299001 0.06504176 -0.15755843 -0.14952794 -0.101325184 -0.24612005 -0.1748624 -0.13114686 0.2666037 -0.22015259 -0.4086354 -0.07991119 -0.16035596 0.05779814 0.19784966 -0.2969678 -0.106291234 0.1955757 0.029299933 0.06976785 -0.26888573 -0.09580691 0.25067583 -0.23162363 0.051065046 -0.23102257 -0.310441 0.011545822 0.29951158 -0.107921705 0.04801106 0.25736287 -0.009643287 -0.2589755 -0.09232484 -0.16971084 0.28576687 -0.0926337 -0.024649052 -0.017923845 0.28284878 0.01667852 -0.052143723 -0.14100452 -0.09082145 0.10235422 -0.17371795 0.23713799 -0.23841678 -0.26739615 0.10123696 0.23380843 0.32828057 0.2743409 0.066470884 -0.23383602 0.2926841 -0.3018643 -0.04018492 -0.3863202 -0.14542466 -0.058544006 -0.3039655 0.25141427 -0.057142306 0.07165495 0.38864926 0.030249296 0.12804808 -0.011537732 -0.1494119 -0.26974362 -0.2260649 0.17977002 -0.10381645 0.051857125 -0.3344942 -0.044056367 0.053429876 0.068924904 0.14731897 -0.024453804 0.010731572 -0.047205575 0.3469607 0.1956366 -0.28660986 -0.1609404 -0.08350249 -0.20586519 0.47543755 -0.11639875 -0.22049257 0.4579025 0.18155476 0.018635234 -0.025644964 0.15031469 -0.09395708 -0.02393426 -0.20570347 -0.1834321 0.15959623 -0.14747347 -0.11918997 -0.11389357 -0.053462554 0.38653946 0.06656062 0.30417567 -0.32304108 -0.10278829 0.18929039 0.15806325 0.15565248 -0.17283191 0.12879068 -0.39678174 0.4985004 -0.25663167 -0.09543454 0.18349811 0.00825764 -0.3133271 0.15294059 0.042305883 0.11445941 -0.11325888 0.06316097 0.0017704513 -0.13086163 -0.028297912 0.19293834
