5 200
*dt_0 -0.56662047 1.080221 -3.8117025 2.3207612 4.3479743 6.577658 -8.650982 -8.573366 -10.568149 -0.092666596 6.393165 -1.1735904 -0.85437214 -3.9244347 -7.3774996 -6.7013555 8.028486 2.5208316 -4.110531 -4.36554 7.397475 -0.92310613 -5.003158 2.3302572 7.646276 -7.081721 -4.097264 -2.531281 1.070808 -11.058105 -0.17448002 -0.60479677 -3.1760502 -5.319377 -1.9292246 -6.0068526 5.0227466 -0.3579155 -3.6899335 1.5430963 3.7615504 -8.42188 -2.05482 -0.47014266 5.2369456 -6.5450277 -3.7424943 1.3042701 4.8155885 -0.17821859 -2.9918623 3.3324735 -2.3112822 -6.6788898 7.9816666 6.3294067 -8.911395 3.2068331 -6.2942886 3.87946 0.017959082 6.660133 1.2953343 -3.5099175 2.6256847 -4.548166 2.0178366 -5.0124316 -5.0774612 -4.329859 -6.003903 1.7157979 -3.0858424 0.7401257 -0.096986294 1.5264044 0.63826007 3.827575 2.8661535 5.8376737 7.389692 0.6477533 1.2461163 8.194672 -0.6138174 8.675115 -0.97869116 4.8596406 8.185413 -1.4372346 -6.9917307 10.436822 -8.591055 -1.342019 -0.60943675 0.3284132 7.682675 -4.27638 1.4199753 4.6496415 4.29428 3.2553027 -6.9929795 -6.704662 -9.339626 1.5843048 3.66269 3.7951646 5.0059776 -1.5027432 6.335742 -3.5163913 -11.22874 -1.3812447 5.517792 -4.9987283 -3.4877765 -7.031918 -3.1945941 -5.0669956 -0.2004009 5.68607 8.023571 1.1214017 0.71473444 6.005353 -0.6658738 7.597531 8.64728 -3.8425412 -0.5323527 3.947996 -4.1386433 2.6298335 -6.1649957 -0.69991463 6.0600824 0.25822258 -0.66705394 -6.2610188 7.0987005 -1.0834043 5.032004 -1.5625503 -3.2909284 3.9502945 -1.4539404 11.956363 -1.8461373 -2.5889554 -2.649402 -1.7501665 -0.44503906 1.270687 2.363365 3.9028337 3.3399 -2.7008066 -7.7917957 -0.46954462 2.3061733 2.331665 9.462611 -2.9781945 -2.8539772 -0.3100934 -1.7667738 1.6614074 -4.7736716 2.083329 3.4612203 3.641974 2.1745293 3.079795 -6.7774196 4.8100266 4.738041 6.910791 0.12507144 -8.8958 4.2092657 4.226319 -3.9870856 -6.982006 6.526471 3.7418578 9.524784 3.645577 7.372142 1.0085086 -2.3125148 7.639938 3.344299 6.5457263 5.0087914 5.527223 6.2399607 -4.969416 2.2128062 0.7245248
*dt_1 0.6634606 0.5837368 -2.240251 0.09786463 6.2981086 4.9567704 -6.6263075 -9.767399 -7.9998746 -0.5147491 7.7247486 -0.5943996 -2.765446 -4.497485 -7.4096956 -3.8410082 7.605437 -0.63480365 -3.759813 -5.1599426 3.0571122 -1.0398253 -4.905756 3.823122 6.672091 -6.5157866 -3.597719 -2.0399363 0.85693395 -10.389445 -0.8267295 -4.1447477 -2.763343 -5.020541 -1.9761661 -5.7469435 3.678011 1.5264317 -0.92719483 -1.5660949 2.7426867 -8.073007 -0.72016597 -0.22854969 5.955674 -6.189565 -4.4435387 1.4270352 1.9701906 -0.7057487 -4.488488 1.7031075 -1.948241 -8.082445 7.8364644 7.980165 -7.9864845 3.7592018 -6.0093236 1.931912 -0.24632421 7.74644 1.4351169 -4.6451077 0.78694683 -1.5291567 4.591135 -5.567091 -5.4476457 -3.2539525 -6.913839 0.54622835 -3.0039246 2.9126596 1.8226688 -1.5716996 0.087165564 3.1093102 3.5063007 6.5564857 7.2999544 0.21854463 3.1370971 9.161824 -1.5369797 10.335733 0.82475203 4.1264486 6.475622 -1.819984 -8.179845 9.818397 -7.9328084 -1.5107188 1.0201901 0.54372233 7.7125535 -4.180593 3.8189783 3.788481 4.306195 5.294359 -6.342584 -6.1648164 -8.6526375 -0.22072297 3.7436345 6.1912603 5.468589 -1.343124 6.751954 -3.8906355 -10.013281 -0.57818073 4.884495 -5.0650167 -2.4076464 -7.545572 -3.13602 -4.916423 -1.4488786 8.712271 6.13879 4.0247083 2.5229943 6.15465 -0.40634745 7.52462 9.202949 -4.565028 -1.220471 3.986319 -1.6112316 2.36555 -5.4243937 -0.7660082 4.825022 -1.6426669 -0.76957655 -6.1563416 7.0743675 -0.5674379 4.045567 0.14679219 -1.4692072 5.7079816 -2.0708218 13.160128 -3.2076347 -0.039438915 -2.803542 -0.63038737 -1.1735294 4.350455 0.9534008 3.840694 1.9088827 -2.34891 -7.067185 0.06267944 1.90842 3.7403905 9.363705 -1.4662591 -0.762625 -0.70440763 -0.037574425 3.0263028 -6.5556917 2.9208403 2.998951 3.6958096 3.652597 1.7071611 -4.071051 4.4458785 3.3572974 7.636157 -0.5223105 -6.8675327 4.4856963 3.7605464 -4.62311 -5.0523314 6.0028 3.9877167 8.961342 5.0923977 5.709691 -0.033560455 -2.1853406 8.509834 1.6434355 6.967437 5.180574 5.44834 5.3517833 -4.328792 2.2945676 2.5909443
*dt_2 -1.7393248 -1.0320613 -3.2507236 0.69580394 2.3799598 4.268923 -5.957185 -6.023292 -7.0360026 0.83879703 4.126025 0.052856296 -0.7704651 -2.771149 -4.440363 -2.979142 4.7564573 0.9938428 -2.8550522 -2.9010262 3.2297332 -1.0589312 -2.4853354 2.275621 5.5298667 -5.5815 -2.7737675 -1.8340145 0.21124463 -7.1182737 0.41939944 -0.7978589 -2.3824134 -2.9707534 -0.89346284 -2.620414 1.5454181 -0.46850967 -1.2188228 -0.39186436 3.0634296 -4.5120196 -0.4608448 -0.6177929 3.1543715 -4.322507 -2.4118636 0.99276066 2.9486153 -1.3486408 -2.7508044 0.74743825 -1.5949553 -5.0853114 4.5727673 5.7368975 -5.292462 2.3350291 -3.6152973 2.95768 0.050018054 6.25572 0.6466132 -2.7295866 1.6106852 -1.7983822 2.5197885 -2.336652 -4.086504 -3.2039242 -5.135239 -0.14180961 -2.854894 0.7895088 -0.33366787 1.0385956 -0.8768969 0.96096516 1.67731 3.9465609 4.195278 0.71060187 0.79905444 5.57211 0.2019798 6.8247256 -0.88274163 2.3182034 4.976911 -0.50054866 -5.5546594 6.7032332 -6.6496687 -1.7886208 0.91828567 0.6398917 5.352999 -3.1000326 3.1593778 2.9961424 1.5379069 3.3092434 -5.2399354 -3.1356115 -6.1442704 0.85010463 2.6051157 3.6103323 3.431735 -1.3510984 4.4756355 -2.8737428 -7.0321727 -0.6616214 3.946681 -4.1303754 -3.057469 -4.53183 -1.5903773 -2.3164945 0.35748604 4.558342 3.893616 1.9932238 0.004911615 4.3078394 -0.40542915 4.0466447 5.392025 -4.3104672 0.083478786 2.6218808 -2.1240542 3.722305 -3.740154 -0.8308269 3.0022998 -0.9933719 -1.7657189 -4.295028 5.095072 0.00488873 2.6870995 -1.2153598 -2.3173082 2.0646663 -0.76857084 7.8686175 -1.5562187 -0.17411388 -1.9341381 -0.40383926 -0.4009794 1.6024921 0.54439825 1.6481996 1.3902563 -0.6569097 -5.3612843 -0.50509536 2.5675402 1.7171342 7.0566583 -1.6709658 -1.0738091 -1.290295 -1.4817158 0.68488175 -3.8270757 1.2010082 1.8363913 1.4646106 1.3562669 1.4514241 -2.1870174 3.5756414 3.6046298 3.5310035 -0.85952735 -4.855094 2.6618414 3.2688987 -3.2091002 -3.1860304 2.6772847 2.7841227 4.93585 2.8226936 4.422202 0.39382264 -3.5292616 5.531999 1.8790826 4.295238 3.2678907 3.7297313 3.8424528 -3.3828945 1.8545465 1.5890658
*dt_3 -0.49280596 -2.2765274 -4.7653418 1.5219973 3.1706228 6.2354198 -8.291947 -8.4450445 -9.424558 0.8538475 7.3782144 -0.9491241 -1.6350161 -0.80333287 -5.8349934 -3.7580016 7.399775 1.2865745 -1.8504707 -3.9856267 5.5208383 -2.7231781 -0.706329 1.047634 6.5992393 -6.1296577 -4.461323 -1.7460575 0.210362 -11.309528 1.5852712 -0.2331212 -4.092736 -2.7970965 -2.9049823 -1.9105463 2.364991 1.0415622 -0.71991694 -0.8117399 1.6386762 -7.0238767 -4.0485325 0.37196484 2.99347 -7.721079 -3.3274238 0.5617216 5.906552 -0.40354952 -4.465084 1.3211632 0.32895705 -6.25051 7.713267 6.761377 -5.823514 2.2540169 -5.6151357 3.2163975 -0.070999354 7.385646 0.641448 -2.3157446 1.6162217 -1.9072282 2.6203442 -3.0640485 -4.0205474 -4.7134223 -5.952698 -2.2574317 -2.592076 4.029646 -0.050690435 1.8994921 -0.5216214 4.5001187 2.0253637 5.1591964 6.865011 1.4448618 0.77960837 8.468168 -1.1752433 8.869417 -0.5332046 4.407278 4.8209095 -0.8840051 -6.924239 9.806535 -9.900199 -2.9816816 0.96487194 -1.6143005 5.679075 -6.649551 3.415908 4.987002 3.4076104 5.3094983 -6.1447577 -4.011559 -7.6237044 1.7990469 4.537722 4.2697525 3.6723666 -1.7339234 7.5438547 -2.8888862 -10.867394 -2.4464436 3.4772563 -5.629343 -3.205094 -6.5408406 -4.908162 -5.1286902 -1.6283307 5.5479817 6.014067 1.1970178 2.4831078 5.1171436 -0.2939672 6.799028 8.193074 -5.908761 0.018758338 3.5746002 -3.4984765 4.9749484 -5.168177 1.1826617 4.588283 -0.6836045 -2.5427039 -6.3025017 6.646112 -1.2030864 3.0525637 -1.5934186 -2.7128406 4.4274354 -1.2018532 10.370825 -4.639616 1.3449967 -1.2602574 -3.1845098 -0.45850074 3.36861 0.07107337 3.6328297 1.9729531 -3.1481128 -6.7173433 -0.041351836 4.531035 2.7066345 9.642648 -2.5941038 -2.0880852 -2.7397346 -0.98964113 1.8413904 -3.5898454 2.6454701 0.2060188 4.030276 1.6536702 4.6073804 -5.1868553 6.2954545 4.7724833 6.3113103 -1.1629287 -7.574005 3.4394016 4.492061 -1.2729273 -4.6897655 5.979879 4.319713 7.9958706 2.4325523 6.8109903 0.8834911 -3.385073 8.534505 1.2559981 6.9345374 5.9830585 4.431227 6.4783897 -5.5511327 2.6067638 3.5470634
*dt_4 -1.65332 -0.527626 -3.4419653 1.8443677 0.76844513 6.1682825 -8.307773 -6.673205 -8.287409 -0.72001547 5.398239 -1.5391794 -0.66234595 -3.6459503 -6.3823442 -4.1169896 5.8692007 0.6327032 -2.933021 -1.059662 6.6023393 -0.5375483 -3.363255 3.4167917 6.8817887 -5.117267 -4.337101 -0.901882 -0.27757987 -10.262643 1.0195918 -1.2436042 -3.7671852 -3.1581492 -0.89411366 -4.5808187 1.5914816 -0.94370806 -2.7695107 -0.92120636 3.3544579 -6.7971215 -1.5062836 0.07290313 3.8173501 -4.438549 -2.86549 0.8249074 2.8222337 -0.6094992 -4.357067 -0.5852997 -2.0682874 -6.0784206 6.0563912 7.165899 -7.5641456 1.8105438 -3.4513502 4.382229 1.8027697 7.087646 -0.86963344 -2.9234533 3.5589333 -1.5922353 3.6243489 -4.88638 -5.279184 -5.5745068 -7.1486416 -0.4290886 -4.3901286 1.7568079 0.061929755 1.8692803 -0.47905874 3.127662 1.4006674 3.1107733 3.589661 1.6713004 2.2974737 6.7502856 0.14098208 7.560028 -0.008243868 1.6583326 5.8234835 -1.9151096 -6.0077395 7.6405835 -7.6580706 -0.8574714 2.5021498 -1.3088983 5.3713746 -1.866052 2.8099113 2.5809355 2.803139 4.3835607 -6.1328955 -3.616949 -8.247506 2.3704004 2.7816784 3.0659926 3.9254105 -3.437511 5.8979445 -2.9061332 -9.512773 0.5238461 5.763352 -4.183854 -2.3684003 -6.456871 -1.7075585 -4.1783314 0.40136123 4.5952663 5.740209 1.6753131 2.4845717 4.455981 0.9852122 6.018845 6.5413074 -4.5261803 -0.46345034 4.0367594 -2.5170038 4.8451962 -6.3784723 0.1012646 4.668211 -1.9593724 -0.92907876 -6.5073686 7.3259187 0.5232132 3.6333134 0.7618246 -4.0365725 3.7522943 -1.833181 10.47847 -1.5416722 0.16597116 -2.1085482 -1.5534084 -3.0636585 3.3086233 2.1822278 1.9286269 1.9357191 -1.4825857 -5.632939 -1.551386 2.6294994 1.5698261 7.8811398 -3.2919397 -1.0001925 -1.7690709 -0.5750981 2.1783316 -4.9782486 1.2023315 3.36719 3.5041099 2.1671116 3.9872844 -3.9845815 4.8469415 4.5905485 4.4612637 0.11634679 -6.9401326 3.5902941 3.7088716 -2.6203654 -4.524306 4.7164273 3.5328796 7.8905444 2.1924102 5.29337 1.8322787 -2.2636678 6.041157 3.1211588 5.8549147 5.283814 3.0506945 3.262165 -3.7616496 1.4091417 0.76369894
*dt_0 -0.56662047 1.080221 -3.8117025 2.3207612 4.3479743 6.577658 -8.650982 -8.573366 -10.568149 -0.092666596 6.393165 -1.1735904 -0.85437214 -3.9244347 -7.3774996 -6.7013555 8.028486 2.5208316 -4.110531 -4.36554 7.397475 -0.92310613 -5.003158 2.3302572 7.646276 -7.081721 -4.097264 -2.531281 1.070808 -11.058105 -0.17448002 -0.60479677 -3.1760502 -5.319377 -1.9292246 -6.0068526 5.0227466 -0.3579155 -3.6899335 1.5430963 3.7615504 -8.42188 -2.05482 -0.47014266 5.2369456 -6.5450277 -3.7424943 1.3042701 4.8155885 -0.17821859 -2.9918623 3.3324735 -2.3112822 -6.6788898 7.9816666 6.3294067 -8.911395 3.2068331 -6.2942886 3.87946 0.017959082 6.660133 1.2953343 -3.5099175 2.6256847 -4.548166 2.0178366 -5.0124316 -5.0774612 -4.329859 -6.003903 1.7157979 -3.0858424 0.7401257 -0.096986294 1.5264044 0.63826007 3.827575 2.8661535 5.8376737 7.389692 0.6477533 1.2461163 8.194672 -0.6138174 8.675115 -0.97869116 4.8596406 8.185413 -1.4372346 -6.9917307 10.436822 -8.591055 -1.342019 -0.60943675 0.3284132 7.682675 -4.27638 1.4199753 4.6496415 4.29428 3.2553027 -6.9929795 -6.704662 -9.339626 1.5843048 3.66269 3.7951646 5.0059776 -1.5027432 6.335742 -3.5163913 -11.22874 -1.3812447 5.517792 -4.9987283 -3.4877765 -7.031918 -3.1945941 -5.0669956 -0.2004009 5.68607 8.023571 1.1214017 0.71473444 6.005353 -0.6658738 7.597531 8.64728 -3.8425412 -0.5323527 3.947996 -4.1386433 2.6298335 -6.1649957 -0.69991463 6.0600824 0.25822258 -0.66705394 -6.2610188 7.0987005 -1.0834043 5.032004 -1.5625503 -3.2909284 3.9502945 -1.4539404 11.956363 -1.8461373 -2.5889554 -2.649402 -1.7501665 -0.44503906 1.270687 2.363365 3.9028337 3.3399 -2.7008066 -7.7917957 -0.46954462 2.3061733 2.331665 9.462611 -2.9781945 -2.8539772 -0.3100934 -1.7667738 1.6614074 -4.7736716 2.083329 3.4612203 3.641974 2.1745293 3.079795 -6.7774196 4.8100266 4.738041 6.910791 0.12507144 -8.8958 4.2092657 4.226319 -3.9870856 -6.982006 6.526471 3.7418578 9.524784 3.645577 7.372142 1.0085086 -2.3125148 7.639938 3.344299 6.5457263 5.0087914 5.527223 6.2399607 -4.969416 2.2128062 0.7245248
*dt_1 0.6634606 0.5837368 -2.240251 0.09786463 6.2981086 4.9567704 -6.6263075 -9.767399 -7.9998746 -0.5147491 7.7247486 -0.5943996 -2.765446 -4.497485 -7.4096956 -3.8410082 7.605437 -0.63480365 -3.759813 -5.1599426 3.0571122 -1.0398253 -4.905756 3.823122 6.672091 -6.5157866 -3.597719 -2.0399363 0.85693395 -10.389445 -0.8267295 -4.1447477 -2.763343 -5.020541 -1.9761661 -5.7469435 3.678011 1.5264317 -0.92719483 -1.5660949 2.7426867 -8.073007 -0.72016597 -0.22854969 5.955674 -6.189565 -4.4435387 1.4270352 1.9701906 -0.7057487 -4.488488 1.7031075 -1.948241 -8.082445 7.8364644 7.980165 -7.9864845 3.7592018 -6.0093236 1.931912 -0.24632421 7.74644 1.4351169 -4.6451077 0.78694683 -1.5291567 4.591135 -5.567091 -5.4476457 -3.2539525 -6.913839 0.54622835 -3.0039246 2.9126596 1.8226688 -1.5716996 0.087165564 3.1093102 3.5063007 6.5564857 7.2999544 0.21854463 3.1370971 9.161824 -1.5369797 10.335733 0.82475203 4.1264486 6.475622 -1.819984 -8.179845 9.818397 -7.9328084 -1.5107188 1.0201901 0.54372233 7.7125535 -4.180593 3.8189783 3.788481 4.306195 5.294359 -6.342584 -6.1648164 -8.6526375 -0.22072297 3.7436345 6.1912603 5.468589 -1.343124 6.751954 -3.8906355 -10.013281 -0.57818073 4.884495 -5.0650167 -2.4076464 -7.545572 -3.13602 -4.916423 -1.4488786 8.712271 6.13879 4.0247083 2.5229943 6.15465 -0.40634745 7.52462 9.202949 -4.565028 -1.220471 3.986319 -1.6112316 2.36555 -5.4243937 -0.7660082 4.825022 -1.6426669 -0.76957655 -6.1563416 7.0743675 -0.5674379 4.045567 0.14679219 -1.4692072 5.7079816 -2.0708218 13.160128 -3.2076347 -0.039438915 -2.803542 -0.63038737 -1.1735294 4.350455 0.9534008 3.840694 1.9088827 -2.34891 -7.067185 0.06267944 1.90842 3.7403905 9.363705 -1.4662591 -0.762625 -0.70440763 -0.037574425 3.0263028 -6.5556917 2.9208403 2.998951 3.6958096 3.652597 1.7071611 -4.071051 4.4458785 3.3572974 7.636157 -0.5223105 -6.8675327 4.4856963 3.7605464 -4.62311 -5.0523314 6.0028 3.9877167 8.961342 5.0923977 5.709691 -0.033560455 -2.1853406 8.509834 1.6434355 6.967437 5.180574 5.44834 5.3517833 -4.328792 2.2945676 2.5909443
*dt_2 -1.7393248 -1.0320613 -3.2507236 0.69580394 2.3799598 4.268923 -5.957185 -6.023292 -7.0360026 0.83879703 4.126025 0.052856296 -0.7704651 -2.771149 -4.440363 -2.979142 4.7564573 0.9938428 -2.8550522 -2.9010262 3.2297332 -1.0589312 -2.4853354 2.275621 5.5298667 -5.5815 -2.7737675 -1.8340145 0.21124463 -7.1182737 0.41939944 -0.7978589 -2.3824134 -2.9707534 -0.89346284 -2.620414 1.5454181 -0.46850967 -1.2188228 -0.39186436 3.0634296 -4.5120196 -0.4608448 -0.6177929 3.1543715 -4.322507 -2.4118636 0.99276066 2.9486153 -1.3486408 -2.7508044 0.74743825 -1.5949553 -5.0853114 4.5727673 5.7368975 -5.292462 2.3350291 -3.6152973 2.95768 0.050018054 6.25572 0.6466132 -2.7295866 1.6106852 -1.7983822 2.5197885 -2.336652 -4.086504 -3.2039242 -5.135239 -0.14180961 -2.854894 0.7895088 -0.33366787 1.0385956 -0.8768969 0.96096516 1.67731 3.9465609 4.195278 0.71060187 0.79905444 5.57211 0.2019798 6.8247256 -0.88274163 2.3182034 4.976911 -0.50054866 -5.5546594 6.7032332 -6.6496687 -1.7886208 0.91828567 0.6398917 5.352999 -3.1000326 3.1593778 2.9961424 1.5379069 3.3092434 -5.2399354 -3.1356115 -6.1442704 0.85010463 2.6051157 3.6103323 3.431735 -1.3510984 4.4756355 -2.8737428 -7.0321727 -0.6616214 3.946681 -4.1303754 -3.057469 -4.53183 -1.5903773 -2.3164945 0.35748604 4.558342 3.893616 1.9932238 0.004911615 4.3078394 -0.40542915 4.0466447 5.392025 -4.3104672 0.083478786 2.6218808 -2.1240542 3.722305 -3.740154 -0.8308269 3.0022998 -0.9933719 -1.7657189 -4.295028 5.095072 0.00488873 2.6870995 -1.2153598 -2.3173082 2.0646663 -0.76857084 7.8686175 -1.5562187 -0.17411388 -1.9341381 -0.40383926 -0.4009794 1.6024921 0.54439825 1.6481996 1.3902563 -0.6569097 -5.3612843 -0.50509536 2.5675402 1.7171342 7.0566583 -1.6709658 -1.0738091 -1.290295 -1.4817158 0.68488175 -3.8270757 1.2010082 1.8363913 1.4646106 1.3562669 1.4514241 -2.1870174 3.5756414 3.6046298 3.5310035 -0.85952735 -4.855094 2.6618414 3.2688987 -3.2091002 -3.1860304 2.6772847 2.7841227 4.93585 2.8226936 4.422202 0.39382264 -3.5292616 5.531999 1.8790826 4.295238 3.2678907 3.7297313 3.8424528 -3.3828945 1.8545465 1.5890658
*dt_3 -0.49280596 -2.2765274 -4.7653418 1.5219973 3.1706228 6.2354198 -8.291947 -8.4450445 -9.424558 0.8538475 7.3782144 -0.9491241 -1.6350161 -0.80333287 -5.8349934 -3.7580016 7.399775 1.2865745 -1.8504707 -3.9856267 5.5208383 -2.7231781 -0.706329 1.047634 6.5992393 -6.1296577 -4.461323 -1.7460575 0.210362 -11.309528 1.5852712 -0.2331212 -4.092736 -2.7970965 -2.9049823 -1.9105463 2.364991 1.0415622 -0.71991694 -0.8117399 1.6386762 -7.0238767 -4.0485325 0.37196484 2.99347 -7.721079 -3.3274238 0.5617216 5.906552 -0.40354952 -4.465084 1.3211632 0.32895705 -6.25051 7.713267 6.761377 -5.823514 2.2540169 -5.6151357 3.2163975 -0.070999354 7.385646 0.641448 -2.3157446 1.6162217 -1.9072282 2.6203442 -3.0640485 -4.0205474 -4.7134223 -5.952698 -2.2574317 -2.592076 4.029646 -0.050690435 1.8994921 -0.5216214 4.5001187 2.0253637 5.1591964 6.865011 1.4448618 0.77960837 8.468168 -1.1752433 8.869417 -0.5332046 4.407278 4.8209095 -0.8840051 -6.924239 9.806535 -9.900199 -2.9816816 0.96487194 -1.6143005 5.679075 -6.649551 3.415908 4.987002 3.4076104 5.3094983 -6.1447577 -4.011559 -7.6237044 1.7990469 4.537722 4.2697525 3.6723666 -1.7339234 7.5438547 -2.8888862 -10.867394 -2.4464436 3.4772563 -5.629343 -3.205094 -6.5408406 -4.908162 -5.1286902 -1.6283307 5.5479817 6.014067 1.1970178 2.4831078 5.1171436 -0.2939672 6.799028 8.193074 -5.908761 0.018758338 3.5746002 -3.4984765 4.9749484 -5.168177 1.1826617 4.588283 -0.6836045 -2.5427039 -6.3025017 6.646112 -1.2030864 3.0525637 -1.5934186 -2.7128406 4.4274354 -1.2018532 10.370825 -4.639616 1.3449967 -1.2602574 -3.1845098 -0.45850074 3.36861 0.07107337 3.6328297 1.9729531 -3.1481128 -6.7173433 -0.041351836 4.531035 2.7066345 9.642648 -2.5941038 -2.0880852 -2.7397346 -0.98964113 1.8413904 -3.5898454 2.6454701 0.2060188 4.030276 1.6536702 4.6073804 -5.1868553 6.2954545 4.7724833 6.3113103 -1.1629287 -7.574005 3.4394016 4.492061 -1.2729273 -4.6897655 5.979879 4.319713 7.9958706 2.4325523 6.8109903 0.8834911 -3.385073 8.534505 1.2559981 6.9345374 5.9830585 4.431227 6.4783897 -5.5511327 2.6067638 3.5470634
*dt_4 -1.65332 -0.527626 -3.4419653 1.8443677 0.76844513 6.1682825 -8.307773 -6.673205 -8.287409 -0.72001547 5.398239 -1.5391794 -0.66234595 -3.6459503 -6.3823442 -4.1169896 5.8692007 0.6327032 -2.933021 -1.059662 6.6023393 -0.5375483 -3.363255 3.4167917 6.8817887 -5.117267 -4.337101 -0.901882 -0.27757987 -10.262643 1.0195918 -1.2436042 -3.7671852 -3.1581492 -0.89411366 -4.5808187 1.5914816 -0.94370806 -2.7695107 -0.92120636 3.3544579 -6.7971215 -1.5062836 0.07290313 3.8173501 -4.438549 -2.86549 0.8249074 2.8222337 -0.6094992 -4.357067 -0.5852997 -2.0682874 -6.0784206 6.0563912 7.165899 -7.5641456 1.8105438 -3.4513502 4.382229 1.8027697 7.087646 -0.86963344 -2.9234533 3.5589333 -1.5922353 3.6243489 -4.88638 -5.279184 -5.5745068 -7.1486416 -0.4290886 -4.3901286 1.7568079 0.061929755 1.8692803 -0.47905874 3.127662 1.4006674 3.1107733 3.589661 1.6713004 2.2974737 6.7502856 0.14098208 7.560028 -0.008243868 1.6583326 5.8234835 -1.9151096 -6.0077395 7.6405835 -7.6580706 -0.8574714 2.5021498 -1.3088983 5.3713746 -1.866052 2.8099113 2.5809355 2.803139 4.3835607 -6.1328955 -3.616949 -8.247506 2.3704004 2.7816784 3.0659926 3.9254105 -3.437511 5.8979445 -2.9061332 -9.512773 0.5238461 5.763352 -4.183854 -2.3684003 -6.456871 -1.7075585 -4.1783314 0.40136123 4.5952663 5.740209 1.6753131 2.4845717 4.455981 0.9852122 6.018845 6.5413074 -4.5261803 -0.46345034 4.0367594 -2.5170038 4.8451962 -6.3784723 0.1012646 4.668211 -1.9593724 -0.92907876 -6.5073686 7.3259187 0.5232132 3.6333134 0.7618246 -4.0365725 3.7522943 -1.833181 10.47847 -1.5416722 0.16597116 -2.1085482 -1.5534084 -3.0636585 3.3086233 2.1822278 1.9286269 1.9357191 -1.4825857 -5.632939 -1.551386 2.6294994 1.5698261 7.8811398 -3.2919397 -1.0001925 -1.7690709 -0.5750981 2.1783316 -4.9782486 1.2023315 3.36719 3.5041099 2.1671116 3.9872844 -3.9845815 4.8469415 4.5905485 4.4612637 0.11634679 -6.9401326 3.5902941 3.7088716 -2.6203654 -4.524306 4.7164273 3.5328796 7.8905444 2.1924102 5.29337 1.8322787 -2.2636678 6.041157 3.1211588 5.8549147 5.283814 3.0506945 3.262165 -3.7616496 1.4091417 0.76369894
