5 300
*dt_0 -0.80501634 0.035880517 -1.842555 0.9545856 0.10132922 0.067070715 -1.2346491 -0.6276406 -1.2309748 -0.14994985 1.4500293 -0.44737267 -0.22706194 0.53823274 -0.001405977 -0.5793134 1.4792124 0.78853995 -0.24220647 -0.39545575 -0.25840223 -0.19860399 0.12749569 0.79021025 1.7076161 -0.7508736 -1.4283569 -0.003861335 -0.038692534 -1.7217188 0.645537 1.1142642 -0.34846476 0.39963052 -0.36125472 0.5708216 0.3812127 -0.94073695 0.28543752 -0.0053314017 -0.80102944 -0.7609419 -0.3926765 -0.71764874 -0.3387634 -1.263669 -0.75999635 -0.11896014 1.3250455 0.03626175 -1.1205642 0.09082503 -1.4916309 -0.44123366 0.015289199 1.2506304 -0.6741732 -0.013162155 -1.7968123 0.66705465 0.73493224 2.1277504 0.43500337 -0.36922166 0.86194986 0.15450028 0.70159554 0.59723866 -0.40478897 -0.4455733 -1.159211 -0.49210164 -1.1379415 -0.59007144 0.11557638 0.8718161 -0.37956485 -1.418302 0.45513627 0.98866606 0.87862545 0.8296748 -1.274284 0.75841296 0.37036437 2.0622776 -0.50487626 -0.14504732 -0.4547408 -0.5590581 -1.8650715 0.5993175 -2.144337 -1.3411734 0.20226541 1.0067084 0.42743537 0.31901178 0.27083334 0.3404764 -0.03902671 -0.8784296 -0.82029194 -0.82367194 -1.6950318 -0.04410328 0.56354624 1.7656242 0.3497482 0.18552773 -0.31282306 -0.6809633 -0.13548066 -0.31287846 0.5731665 -0.32336265 -1.929539 0.16918516 0.58321095 1.4734498 0.63874525 0.5488818 0.18256418 0.36470738 -1.3979876 0.3691695 -0.5483959 -0.18067516 0.60803723 -1.2753462 1.6876885 1.2642924 -0.41179115 1.2641976 0.5937903 0.6916808 -0.5209242 -0.90750575 -0.7534811 -0.6610678 1.0258232 0.17555353 -0.3438824 -2.184346 -0.60789955 -0.63011295 0.9948182 0.7728217 0.364344 0.50377035 -0.18318892 -0.67875856 0.5293675 -0.08811809 -0.729217 0.2199629 -0.3960067 0.3882921 -0.156336 -0.2551107 1.3530653 0.364074 1.5335568 1.0407511 0.35701254 -0.49511746 0.41141132 -0.52749866 -0.2731741 0.75745004 0.21361017 -0.30518225 0.43573588 -0.21899381 -0.034874074 1.728754 2.1630523 -0.86367357 -1.0789404 -0.26878783 0.20903984 1.259424 -0.8799959 -1.2677586 -0.667364 1.4475493 -0.032318134 0.41276357 1.7481471 0.5653706 -1.4479167 2.2100747 0.1509585 0.28788316 0.15638536 0.13030756 1.4246897 -0.97525203 0.4941121 1.318618 -1.5309018 -1.5088215 1.2568375 -0.16633314 1.8991108 0.0474369 0.74283934 -1.3452754 -0.4165314 0.99203396 -0.5117511 -0.261719 0.01999641 -1.3249804 -0.012541192 1.0570687 -0.92346954 -1.4055775 -0.07020681 -0.089925066 -0.42183805 -1.6604548 -0.71814495 1.2861426 -0.043412823 0.28228676 -1.1969199 0.4801454 -1.9753138 -0.025955876 0.3237405 -0.22382557 0.7469573 -0.6663357 -0.3718913 0.30341092 -1.309446 -1.5215018 0.25310346 -0.8911284 1.2632915 0.84760964 0.7976515 0.11070593 -0.12275739 1.1995016 0.29413858 0.52817297 -2.144798 0.050309636 -1.5314164 -1.1607887 -0.3653277 -1.1380332 -0.979626 0.8124506 -0.3726623 0.22202013 1.1688819 -0.9051337 1.184811 0.97587365 -0.82509476 0.37716 0.048665553 0.932759 0.8704041 0.17646559 0.36143196 -0.15569806 -2.5034473 0.90032804 -1.4992613 0.16601591 2.2654514 0.15589409 -0.66205496 -0.40553743 -0.25442332 -0.9680655 -0.8685935 0.6889303 0.6762858 1.2532244 -1.3066901 2.1120317 -0.6392563 -1.4582491 -1.1167052 1.6992421 -1.5686165 0.86059827 -1.4318097 0.12379074 1.2926384 0.3918655 -1.7546157 -0.096709035 0.9287767 -1.7099626
*dt_1 -0.6205397 0.4927589 -1.7119856 0.43110287 -0.96544856 0.13433248 -0.6362371 0.01673102 -0.38717943 -0.9074675 0.9597969 -0.798846 0.17783588 1.2120863 0.18987243 -1.347022 1.384958 -0.2234474 -0.3389298 -0.6458133 0.21660335 0.48853642 0.37101528 1.5470682 1.8431152 -0.062005974 -1.2598964 -0.01654113 -0.5834758 -1.3590982 0.04608307 0.5337373 -0.08533643 0.7159101 -0.86052716 0.5702861 -0.12538126 -1.4673457 0.3484129 -0.46943566 0.3489858 0.08586619 -1.2340299 0.4030315 -0.92542106 -0.8402918 -1.2716635 0.8910923 1.1236256 0.871635 -1.7903057 0.690752 -0.7003592 0.4933525 -0.42804605 -0.44060698 -1.2989551 0.36370844 -1.8960851 0.044997852 0.34614924 1.7276652 -0.14740574 -0.49463242 0.606012 0.31481436 0.39829868 0.45011494 -0.59004456 0.67115927 -1.1383547 -0.28793502 -0.94516087 -1.0232552 0.38481158 0.54981554 0.9954446 -1.3754565 0.66234833 1.6019399 -0.6878744 0.5706429 -1.0265538 1.7115234 -0.40702042 2.5194855 -0.4373255 0.44290313 -1.2021441 -0.97053933 -0.991457 0.12707119 -1.3465064 -0.6654817 -0.39071923 1.4756697 -0.34201002 1.2775247 -0.11365742 -0.338626 -0.5715477 -1.4668016 -0.4307525 -1.0701691 -1.7110736 0.13597567 0.47596213 1.7377101 0.007047587 0.34515774 -0.42644593 -0.7416147 0.1283195 0.7308348 -0.04885014 -0.5896937 -2.2427766 0.73894715 0.41467413 1.5358937 0.056106716 -0.05724449 0.094123885 -0.62491506 -1.0557369 0.23709238 -0.8648402 0.32214922 0.37183976 -0.83208376 1.7025927 1.6107763 -0.3084149 1.0147387 0.3580204 1.7391288 -0.8435501 -1.5087367 0.26588625 -0.027702374 0.41363582 0.61938715 -0.8840379 -2.115409 -0.80025315 -0.22248252 1.4499121 -0.28101748 0.659839 0.5269168 0.49973345 -2.0029938 1.261516 0.28588143 -0.14420907 0.26150048 0.65615815 -0.4856709 0.32392484 -0.05839276 1.3642623 0.09580431 0.99896 0.6434095 0.7830732 0.055735264 0.882553 -0.027730579 0.48704645 0.97606564 0.7685417 0.0042768056 0.7688613 0.06315972 -0.16273259 1.3238913 0.90826267 -0.89666206 -1.188142 -1.342279 -0.37705973 1.5240219 -1.051954 -1.722519 0.23595816 0.73109865 -0.06037937 -0.34828395 1.2870072 1.3641324 -0.30633977 1.1722516 0.5890864 -0.78264165 0.20763339 -0.10018276 0.48503757 -0.55748427 -0.3114182 0.42265528 -1.1664038 -1.3903805 1.1964374 0.5662473 1.4748527 0.3614587 -0.07791596 -0.5858415 -1.1306386 0.31804198 -1.0707178 -0.09508235 0.51658 -1.8851352 -0.12117979 0.41021845 -0.97671 -1.0326536 0.08624693 0.48638818 0.3389722 -1.5832741 -1.0993375 0.8911278 -0.71234137 -0.19478494 -0.97535294 -0.11098857 -2.0573404 -0.04739771 0.6602043 -0.15537114 0.59845495 0.78252083 0.39173657 0.062036023 -1.2388262 -1.947981 -0.9026741 -1.1386119 0.71427345 0.25518522 0.5313375 -0.5736212 0.43553764 1.5934483 0.8829214 -0.10131679 -0.9590865 0.5498049 -0.5992994 0.01998736 0.17760973 -1.9942058 -0.710462 -0.20923932 -1.3180406 0.960443 1.6789823 -0.74734896 1.3740588 0.50030535 -1.3244698 0.6138015 0.20389062 0.7463392 1.0269442 0.54682946 0.6257679 0.30406675 -1.5978624 0.2859683 -1.2640754 0.10561086 2.162176 0.096706726 0.13927598 -0.96672213 -0.10166833 -0.5626299 -0.91312224 0.32081315 1.3165808 1.0691544 -1.3763707 1.8136178 -0.6619036 -1.550533 -0.7880206 1.5870105 -1.234033 1.1942867 -0.7708364 0.07320412 0.5069038 -0.22464234 -1.3560857 -0.13826275 -0.44521108 -0.997728
*dt_2 -1.5426544 -0.6370579 -1.7542359 -0.013430058 -0.9994131 0.44879615 -0.88400465 -0.8781558 -0.4756579 -0.3475659 1.3534188 -0.9949506 0.42652023 0.6705505 -0.81828344 0.08572263 1.6305977 0.016331099 -0.53368306 -0.65228176 0.78973955 -0.7384718 0.97942084 0.58146954 1.7910664 -0.7271457 -0.73700094 0.522895 -1.1393073 -1.2158283 0.9212663 0.4198049 -0.30614153 0.58146065 -0.22703607 -0.012707308 0.6092679 -0.9013863 0.96912694 0.19370191 0.5648126 -0.3928449 -1.4370893 0.35105225 -0.7173256 -1.3462785 -0.8174467 -0.02154096 1.5253087 0.28230107 -1.3875742 -0.3136055 0.00698233 -0.13941172 0.036597006 1.1217792 -0.7919994 0.1645213 -1.3944646 0.7066846 0.30045637 2.1284347 0.36764693 0.069592215 0.03314695 0.6021561 1.0192871 0.5850284 -0.26002556 -0.81189924 -0.97818136 -0.7088371 -0.34581304 -0.5655055 0.08789465 0.98656565 0.515668 -1.0178181 0.5288908 1.7837248 -0.36203477 0.13195188 -0.07941047 0.8547992 -0.6741354 1.7479217 -0.3705077 0.9992159 -1.2908256 -0.39871794 -1.2716576 0.6130946 -0.86944205 -1.3894384 0.49491253 0.3900348 0.9033693 0.034752775 -0.3722751 0.703377 0.07509945 -0.51937383 -1.2450467 -0.443901 -0.8820785 0.3503049 0.7001391 0.28916618 -0.19916491 -0.18023394 0.18136226 -0.82243145 -0.38185835 -0.10995347 -0.17054434 -0.5666161 -1.6945064 0.33084726 -0.123657025 0.87863344 -0.5971743 -0.5170778 0.20790745 -0.5170933 -1.0778035 -0.020054769 -0.51216775 0.83428437 1.0570003 -1.3018326 2.211145 1.2373333 -0.18433806 1.4438804 0.6215585 0.9298878 -0.5409854 -1.0059342 0.14873897 -1.051478 1.5312328 -0.053920116 0.7115381 -1.8693074 -0.35519886 -0.464448 0.771617 -0.12066897 0.27428934 0.8411154 0.029456172 -1.1948996 -0.011628819 0.033932887 0.21805538 -0.5397453 -0.43490154 -0.507707 0.25839722 0.2186788 1.7699518 -0.5610354 1.8940315 0.99092215 0.63180643 -0.6784544 1.1745723 0.25552985 -0.07178937 1.5156568 -0.49922124 0.5107633 0.14593978 -0.5447622 -0.6228823 1.4179968 1.5379697 0.17144528 -0.95431894 -1.3532962 0.07872401 1.5857409 0.31383336 -1.3578955 2.828332e-05 0.5342969 -0.35389403 0.82481575 1.9184146 0.7334707 -1.2593949 1.8736589 -0.72859627 -0.44196266 0.5540416 0.058149792 1.633869 -1.2310803 1.2221028 1.3635874 -1.3628371 -0.8779918 1.1689894 -0.49147764 0.8900816 0.69186044 -0.2538001 0.16473545 -0.13767657 0.3703973 -0.11384413 0.22429019 0.75397754 -1.9031159 -0.9198082 -0.097566545 -0.39444172 -1.1636736 0.28920358 0.06510764 0.92336273 -1.1729572 -0.9160116 0.86468154 -0.26977375 0.30537328 -1.6889107 0.47487983 -2.6684866 0.04566883 0.491916 0.40197787 -0.21754728 0.7326124 0.12543716 0.5008334 -0.86573046 -1.9432249 -0.22170173 -0.55439705 0.318964 0.32117936 0.2252338 -0.37770978 0.36685142 1.5240102 0.6217676 0.4429631 -1.855946 1.3357204 -0.9245152 -0.9340805 -0.4533652 -1.6615494 -0.6185588 0.91706026 -0.79745996 0.12975973 1.6732725 -0.7582562 1.594257 0.6320591 -2.283298 0.8002983 0.08413004 0.25974748 0.9344988 -0.19880241 -0.040460706 -0.63012564 -1.8927532 -0.14725573 -1.3499738 0.32064196 1.5389043 0.7889264 -0.13547115 0.19885056 -0.04476861 -1.6015226 -1.3094294 0.9528511 1.7811112 0.9393875 -0.42138925 1.8338262 -0.2199122 -2.1318197 -0.5984435 1.7329874 -0.9681865 1.5970004 -0.7697698 0.6996531 0.84757596 -0.54876286 -1.0855695 0.68586546 0.74125814 -2.2396286
*dt_3 -0.32832274 0.014088783 -1.5076442 0.22790954 -1.1946021 0.17074704 -0.4194384 -0.4945606 -0.38335517 -0.748424 0.30504736 -0.19223346 -1.0838928 1.4171753 0.15990525 -0.8604889 1.37358 -0.35010958 -0.24983685 -1.2598511 0.7006568 0.31087562 1.182992 1.1196421 1.9537933 -0.7126801 -0.86596256 -0.17522769 -0.9031173 -1.0859889 -0.22275583 0.5864632 0.45943233 1.1941334 -0.704112 0.6121913 0.83386403 -1.5158403 0.4489648 -0.4342752 0.43663362 -0.6005663 -0.3771868 0.70907474 -1.1623901 -0.40963057 -0.61827433 0.6112301 1.8793244 1.1429986 -1.4455924 0.88416874 -1.2523543 0.013964771 -0.12047258 -0.1784926 -0.47371602 0.22738616 -1.4823159 -0.40914306 -0.09726364 1.5365449 -0.16913562 -0.64636815 0.41206893 0.05060899 0.34522775 0.9027956 -0.3856524 1.1406218 0.13575748 -0.30917346 -1.1885939 -0.8036044 -0.16649844 0.8037165 1.3485427 -0.65989965 0.62292403 0.83530176 0.15654787 0.749201 -0.26596132 0.9621522 -0.35798627 1.7158396 0.78096664 -0.16130975 -0.58758545 -0.38401583 -0.4764533 0.13134322 -0.2368348 -0.1439275 0.22004156 0.8532757 -0.35173014 0.9648304 -0.40018696 -0.28854427 -0.364258 -0.8773428 0.25814947 -0.8532148 -1.548111 0.39179787 0.8587838 0.4762668 0.52317613 -0.48713428 -0.9999826 -1.1733361 -0.2120931 0.2616024 0.2209793 -0.91481674 -1.563124 0.66689926 -0.122572884 1.1951327 0.026223077 -0.026831519 -0.8145115 -0.34085837 -1.1858971 -0.38840437 -1.2590741 0.004096763 0.101597145 -1.5740644 0.90918297 1.2319479 -1.2841868 0.47215188 -0.46324494 1.4445567 -0.61659294 -1.6811335 0.07799219 0.24751009 0.68374497 -0.49668086 -0.2597456 -1.4124236 0.45361248 -0.42376137 1.1811063 -0.41392264 0.46516716 0.3044154 0.30962658 -0.9174826 1.3893052 0.26805097 -0.028042743 0.51689327 0.2115313 -0.39273334 -0.3341023 -0.69170487 0.5526883 1.0072001 0.4361301 0.354628 0.80162334 0.07625973 0.23890053 -0.5289525 -0.10917343 1.0391808 -0.12899743 0.3928199 0.8316581 0.5407833 -0.3384791 0.9267281 0.38941133 -0.028209474 -1.2351753 -0.27281862 0.48241016 2.0280187 -0.68799675 -1.4774671 -0.41234607 1.2174727 0.15777124 -0.43475524 1.4291837 0.660341 0.1150212 1.5538195 0.8486137 0.1434484 0.35278484 -0.23715363 1.1267377 -0.82992107 -0.81270015 0.13276087 -0.5250204 -1.1874729 1.4592466 0.19535011 1.0583882 0.2029617 -0.0064076 -0.038286474 -0.9080471 -0.044179182 -0.044595193 0.12893677 -0.015651051 -1.4219412 0.055906713 -0.026907807 -0.5657817 -1.5321085 -0.6531671 0.7835031 -0.44582775 -1.3620642 -0.5245195 0.49874425 -0.79755163 0.028621363 -0.4080796 0.7070972 -1.7294565 0.98714715 0.27517462 1.1697581 -0.38320386 0.22055197 0.33451304 -0.6230987 -1.8202513 -1.7366792 -0.58078796 -1.8190391 0.9979988 0.56672746 0.51129407 0.34792897 -0.13207383 1.403786 -0.0989165 0.06843184 -0.43812916 0.37050098 -1.0825899 -0.7515597 -0.4784902 -1.8767279 -0.8693718 0.91544116 -1.1994001 -0.12702605 1.8254696 -0.95312095 0.7643146 1.3412825 -0.5182707 0.14283924 -0.198542 1.3603917 0.82486814 0.7481745 0.7698926 0.43687627 -0.9270555 -0.62771034 0.060740598 0.53439015 1.02691 0.54803836 0.866755 -0.4484786 0.03553781 -0.43954942 -1.1724136 0.45979425 1.404494 1.0151917 -0.7144468 0.7116002 0.20889144 -0.5282194 -0.71232015 0.9240395 -0.8283841 1.2533149 -0.30614212 -0.30116883 0.23003396 0.65700084 -0.25845864 -0.06549714 -0.0788313 -0.637405
*dt_4 -0.55557454 -0.041879296 -2.2978451 0.28860176 -0.49416032 0.43425274 -0.55644804 -1.1454146 -0.10050549 -0.1175503 1.2145135 -1.5581576 -1.0397143 0.8138554 0.5523762 -0.029433457 1.6966848 -0.43864325 -0.81323296 -0.59911704 0.03813064 -0.8982266 0.6306283 0.7378369 1.5892369 -0.15877031 -1.512131 -0.13696153 -0.95890903 -0.922031 1.0274761 1.0309656 -0.44841117 1.0079064 -0.10138421 -0.07242088 1.2929842 -1.5010694 1.8101642 -0.103927724 -0.23206559 -1.8483169 -1.5086392 0.3303176 -0.3342382 -1.200342 0.12601842 0.82857 1.9521214 0.7115895 -1.7908415 1.3651289 -0.9513025 0.45054814 -1.3007488 0.6526979 -0.74392784 -0.6593411 -1.2132925 -0.030415026 0.26497775 1.8191934 0.55561197 -0.040643115 0.6759877 -0.17364454 0.759274 1.1589785 0.2795208 -0.16817525 -1.4732697 0.18893167 0.06420492 -1.2899635 -0.2661617 0.39798588 0.71451813 -0.07438401 -0.1088676 0.5191735 1.5585362 0.7757945 -0.5011722 0.6985154 -0.2767667 2.3309422 0.30935133 0.035614118 -0.77690184 -1.0500555 -1.688472 -0.4750381 -0.30662274 -0.8272587 0.4471496 1.073396 0.8701425 0.91234106 0.1266256 -0.25969645 -0.010437885 -0.46756682 -0.87248886 -0.89583606 -1.1129487 0.23670168 0.4561732 0.2434323 -0.6649255 -0.85392886 -1.4636217 -0.9696878 0.13704771 0.8625027 0.6204865 -0.956918 -1.7863734 -0.31607357 0.1429099 1.4591509 0.58249587 -0.90531266 -1.0035557 0.943483 -1.3169879 -0.14053763 0.15022367 0.20147872 0.40341634 -1.8853663 2.0157177 1.2121466 -0.44652653 -0.44528615 -0.33883938 0.5921787 -0.950724 -2.0135968 0.10093318 -0.76037645 1.743043 -0.16082005 0.9212096 -2.250426 0.17015223 -1.3740144 1.5445839 -0.61368614 0.9587897 1.466679 -0.12176237 -0.42906466 1.0707495 -0.30986494 -0.6750775 -0.2556747 -0.7803727 0.56195545 0.3266561 -0.21510702 0.96867645 0.99772334 1.3977482 0.6530891 0.87867785 -0.8606895 0.9285044 -0.68237424 -0.62464976 1.2747574 0.5856735 0.9975962 1.0519502 -1.2181274 -0.67174083 1.4271944 1.9402473 0.31391868 -1.4345415 -0.7217037 0.43880543 1.9543726 0.43119976 -0.6780272 0.6715164 1.5370746 0.18761751 1.2693038 2.6485028 0.48507625 -1.0339605 2.346984 -1.0174183 0.58834845 0.16041027 0.2854801 2.445437 -0.76406395 -0.12591168 0.7273827 -1.2649904 -0.5963588 0.6163066 -0.5272005 1.0131748 0.366465 0.7660333 0.12546961 0.6805784 0.90720975 0.22436525 -0.074954346 -0.33696303 -1.7800039 -0.5766268 -0.33745733 -0.8942004 -1.6515697 -0.38413307 -1.1430638 -0.5324111 -1.9922711 -0.28637546 0.64026785 -0.21278599 1.2542926 -0.24171601 0.8495626 -2.306652 0.1271093 0.26851523 1.1865933 0.93414545 -0.35457313 -0.11102767 -0.017795587 -1.8534328 -1.4571435 -0.33802998 -0.59464157 0.599729 0.33382094 0.8531139 -1.1282648 0.33032018 1.6053739 0.03334086 0.16656744 -2.0289495 0.36749613 -1.302033 -0.22866364 -0.8772878 -1.6969353 -0.97270954 1.9418328 -0.6046115 -0.18619916 1.725613 -1.4737734 1.1708184 0.7338222 -1.5496608 0.17333035 0.58474547 0.914788 0.33850393 0.16988236 0.71922445 -0.049460772 -1.5387685 1.0862386 -1.386871 0.20617516 1.97123 0.90631086 0.5158017 -0.5044743 0.6039325 -1.6318841 -0.938197 0.07535683 0.66667587 1.3110155 -0.51116294 1.5606593 -0.07610756 -1.2813178 -1.5046667 2.1194413 -1.1278685 1.514456 -0.7068704 -0.32521972 1.038455 0.7702725 -1.0617174 1.1456347 0.47449097 -2.110164
*dt_0 -0.80501634 0.035880517 -1.842555 0.9545856 0.10132922 0.067070715 -1.2346491 -0.6276406 -1.2309748 -0.14994985 1.4500293 -0.44737267 -0.22706194 0.53823274 -0.001405977 -0.5793134 1.4792124 0.78853995 -0.24220647 -0.39545575 -0.25840223 -0.19860399 0.12749569 0.79021025 1.7076161 -0.7508736 -1.4283569 -0.003861335 -0.038692534 -1.7217188 0.645537 1.1142642 -0.34846476 0.39963052 -0.36125472 0.5708216 0.3812127 -0.94073695 0.28543752 -0.0053314017 -0.80102944 -0.7609419 -0.3926765 -0.71764874 -0.3387634 -1.263669 -0.75999635 -0.11896014 1.3250455 0.03626175 -1.1205642 0.09082503 -1.4916309 -0.44123366 0.015289199 1.2506304 -0.6741732 -0.013162155 -1.7968123 0.66705465 0.73493224 2.1277504 0.43500337 -0.36922166 0.86194986 0.15450028 0.70159554 0.59723866 -0.40478897 -0.4455733 -1.159211 -0.49210164 -1.1379415 -0.59007144 0.11557638 0.8718161 -0.37956485 -1.418302 0.45513627 0.98866606 0.87862545 0.8296748 -1.274284 0.75841296 0.37036437 2.0622776 -0.50487626 -0.14504732 -0.4547408 -0.5590581 -1.8650715 0.5993175 -2.144337 -1.3411734 0.20226541 1.0067084 0.42743537 0.31901178 0.27083334 0.3404764 -0.03902671 -0.8784296 -0.82029194 -0.82367194 -1.6950318 -0.04410328 0.56354624 1.7656242 0.3497482 0.18552773 -0.31282306 -0.6809633 -0.13548066 -0.31287846 0.5731665 -0.32336265 -1.929539 0.16918516 0.58321095 1.4734498 0.63874525 0.5488818 0.18256418 0.36470738 -1.3979876 0.3691695 -0.5483959 -0.18067516 0.60803723 -1.2753462 1.6876885 1.2642924 -0.41179115 1.2641976 0.5937903 0.6916808 -0.5209242 -0.90750575 -0.7534811 -0.6610678 1.0258232 0.17555353 -0.3438824 -2.184346 -0.60789955 -0.63011295 0.9948182 0.7728217 0.364344 0.50377035 -0.18318892 -0.67875856 0.5293675 -0.08811809 -0.729217 0.2199629 -0.3960067 0.3882921 -0.156336 -0.2551107 1.3530653 0.364074 1.5335568 1.0407511 0.35701254 -0.49511746 0.41141132 -0.52749866 -0.2731741 0.75745004 0.21361017 -0.30518225 0.43573588 -0.21899381 -0.034874074 1.728754 2.1630523 -0.86367357 -1.0789404 -0.26878783 0.20903984 1.259424 -0.8799959 -1.2677586 -0.667364 1.4475493 -0.032318134 0.41276357 1.7481471 0.5653706 -1.4479167 2.2100747 0.1509585 0.28788316 0.15638536 0.13030756 1.4246897 -0.97525203 0.4941121 1.318618 -1.5309018 -1.5088215 1.2568375 -0.16633314 1.8991108 0.0474369 0.74283934 -1.3452754 -0.4165314 0.99203396 -0.5117511 -0.261719 0.01999641 -1.3249804 -0.012541192 1.0570687 -0.92346954 -1.4055775 -0.07020681 -0.089925066 -0.42183805 -1.6604548 -0.71814495 1.2861426 -0.043412823 0.28228676 -1.1969199 0.4801454 -1.9753138 -0.025955876 0.3237405 -0.22382557 0.7469573 -0.6663357 -0.3718913 0.30341092 -1.309446 -1.5215018 0.25310346 -0.8911284 1.2632915 0.84760964 0.7976515 0.11070593 -0.12275739 1.1995016 0.29413858 0.52817297 -2.144798 0.050309636 -1.5314164 -1.1607887 -0.3653277 -1.1380332 -0.979626 0.8124506 -0.3726623 0.22202013 1.1688819 -0.9051337 1.184811 0.97587365 -0.82509476 0.37716 0.048665553 0.932759 0.8704041 0.17646559 0.36143196 -0.15569806 -2.5034473 0.90032804 -1.4992613 0.16601591 2.2654514 0.15589409 -0.66205496 -0.40553743 -0.25442332 -0.9680655 -0.8685935 0.6889303 0.6762858 1.2532244 -1.3066901 2.1120317 -0.6392563 -1.4582491 -1.1167052 1.6992421 -1.5686165 0.86059827 -1.4318097 0.12379074 1.2926384 0.3918655 -1.7546157 -0.096709035 0.9287767 -1.7099626
*dt_1 -0.6205397 0.4927589 -1.7119856 0.43110287 -0.96544856 0.13433248 -0.6362371 0.01673102 -0.38717943 -0.9074675 0.9597969 -0.798846 0.17783588 1.2120863 0.18987243 -1.347022 1.384958 -0.2234474 -0.3389298 -0.6458133 0.21660335 0.48853642 0.37101528 1.5470682 1.8431152 -0.062005974 -1.2598964 -0.01654113 -0.5834758 -1.3590982 0.04608307 0.5337373 -0.08533643 0.7159101 -0.86052716 0.5702861 -0.12538126 -1.4673457 0.3484129 -0.46943566 0.3489858 0.08586619 -1.2340299 0.4030315 -0.92542106 -0.8402918 -1.2716635 0.8910923 1.1236256 0.871635 -1.7903057 0.690752 -0.7003592 0.4933525 -0.42804605 -0.44060698 -1.2989551 0.36370844 -1.8960851 0.044997852 0.34614924 1.7276652 -0.14740574 -0.49463242 0.606012 0.31481436 0.39829868 0.45011494 -0.59004456 0.67115927 -1.1383547 -0.28793502 -0.94516087 -1.0232552 0.38481158 0.54981554 0.9954446 -1.3754565 0.66234833 1.6019399 -0.6878744 0.5706429 -1.0265538 1.7115234 -0.40702042 2.5194855 -0.4373255 0.44290313 -1.2021441 -0.97053933 -0.991457 0.12707119 -1.3465064 -0.6654817 -0.39071923 1.4756697 -0.34201002 1.2775247 -0.11365742 -0.338626 -0.5715477 -1.4668016 -0.4307525 -1.0701691 -1.7110736 0.13597567 0.47596213 1.7377101 0.007047587 0.34515774 -0.42644593 -0.7416147 0.1283195 0.7308348 -0.04885014 -0.5896937 -2.2427766 0.73894715 0.41467413 1.5358937 0.056106716 -0.05724449 0.094123885 -0.62491506 -1.0557369 0.23709238 -0.8648402 0.32214922 0.37183976 -0.83208376 1.7025927 1.6107763 -0.3084149 1.0147387 0.3580204 1.7391288 -0.8435501 -1.5087367 0.26588625 -0.027702374 0.41363582 0.61938715 -0.8840379 -2.115409 -0.80025315 -0.22248252 1.4499121 -0.28101748 0.659839 0.5269168 0.49973345 -2.0029938 1.261516 0.28588143 -0.14420907 0.26150048 0.65615815 -0.4856709 0.32392484 -0.05839276 1.3642623 0.09580431 0.99896 0.6434095 0.7830732 0.055735264 0.882553 -0.027730579 0.48704645 0.97606564 0.7685417 0.0042768056 0.7688613 0.06315972 -0.16273259 1.3238913 0.90826267 -0.89666206 -1.188142 -1.342279 -0.37705973 1.5240219 -1.051954 -1.722519 0.23595816 0.73109865 -0.06037937 -0.34828395 1.2870072 1.3641324 -0.30633977 1.1722516 0.5890864 -0.78264165 0.20763339 -0.10018276 0.48503757 -0.55748427 -0.3114182 0.42265528 -1.1664038 -1.3903805 1.1964374 0.5662473 1.4748527 0.3614587 -0.07791596 -0.5858415 -1.1306386 0.31804198 -1.0707178 -0.09508235 0.51658 -1.8851352 -0.12117979 0.41021845 -0.97671 -1.0326536 0.08624693 0.48638818 0.3389722 -1.5832741 -1.0993375 0.8911278 -0.71234137 -0.19478494 -0.97535294 -0.11098857 -2.0573404 -0.04739771 0.6602043 -0.15537114 0.59845495 0.78252083 0.39173657 0.062036023 -1.2388262 -1.947981 -0.9026741 -1.1386119 0.71427345 0.25518522 0.5313375 -0.5736212 0.43553764 1.5934483 0.8829214 -0.10131679 -0.9590865 0.5498049 -0.5992994 0.01998736 0.17760973 -1.9942058 -0.710462 -0.20923932 -1.3180406 0.960443 1.6789823 -0.74734896 1.3740588 0.50030535 -1.3244698 0.6138015 0.20389062 0.7463392 1.0269442 0.54682946 0.6257679 0.30406675 -1.5978624 0.2859683 -1.2640754 0.10561086 2.162176 0.096706726 0.13927598 -0.96672213 -0.10166833 -0.5626299 -0.91312224 0.32081315 1.3165808 1.0691544 -1.3763707 1.8136178 -0.6619036 -1.550533 -0.7880206 1.5870105 -1.234033 1.1942867 -0.7708364 0.07320412 0.5069038 -0.22464234 -1.3560857 -0.13826275 -0.44521108 -0.997728
*dt_2 -1.5426544 -0.6370579 -1.7542359 -0.013430058 -0.9994131 0.44879615 -0.88400465 -0.8781558 -0.4756579 -0.3475659 1.3534188 -0.9949506 0.42652023 0.6705505 -0.81828344 0.08572263 1.6305977 0.016331099 -0.53368306 -0.65228176 0.78973955 -0.7384718 0.97942084 0.58146954 1.7910664 -0.7271457 -0.73700094 0.522895 -1.1393073 -1.2158283 0.9212663 0.4198049 -0.30614153 0.58146065 -0.22703607 -0.012707308 0.6092679 -0.9013863 0.96912694 0.19370191 0.5648126 -0.3928449 -1.4370893 0.35105225 -0.7173256 -1.3462785 -0.8174467 -0.02154096 1.5253087 0.28230107 -1.3875742 -0.3136055 0.00698233 -0.13941172 0.036597006 1.1217792 -0.7919994 0.1645213 -1.3944646 0.7066846 0.30045637 2.1284347 0.36764693 0.069592215 0.03314695 0.6021561 1.0192871 0.5850284 -0.26002556 -0.81189924 -0.97818136 -0.7088371 -0.34581304 -0.5655055 0.08789465 0.98656565 0.515668 -1.0178181 0.5288908 1.7837248 -0.36203477 0.13195188 -0.07941047 0.8547992 -0.6741354 1.7479217 -0.3705077 0.9992159 -1.2908256 -0.39871794 -1.2716576 0.6130946 -0.86944205 -1.3894384 0.49491253 0.3900348 0.9033693 0.034752775 -0.3722751 0.703377 0.07509945 -0.51937383 -1.2450467 -0.443901 -0.8820785 0.3503049 0.7001391 0.28916618 -0.19916491 -0.18023394 0.18136226 -0.82243145 -0.38185835 -0.10995347 -0.17054434 -0.5666161 -1.6945064 0.33084726 -0.123657025 0.87863344 -0.5971743 -0.5170778 0.20790745 -0.5170933 -1.0778035 -0.020054769 -0.51216775 0.83428437 1.0570003 -1.3018326 2.211145 1.2373333 -0.18433806 1.4438804 0.6215585 0.9298878 -0.5409854 -1.0059342 0.14873897 -1.051478 1.5312328 -0.053920116 0.7115381 -1.8693074 -0.35519886 -0.464448 0.771617 -0.12066897 0.27428934 0.8411154 0.029456172 -1.1948996 -0.011628819 0.033932887 0.21805538 -0.5397453 -0.43490154 -0.507707 0.25839722 0.2186788 1.7699518 -0.5610354 1.8940315 0.99092215 0.63180643 -0.6784544 1.1745723 0.25552985 -0.07178937 1.5156568 -0.49922124 0.5107633 0.14593978 -0.5447622 -0.6228823 1.4179968 1.5379697 0.17144528 -0.95431894 -1.3532962 0.07872401 1.5857409 0.31383336 -1.3578955 2.828332e-05 0.5342969 -0.35389403 0.82481575 1.9184146 0.7334707 -1.2593949 1.8736589 -0.72859627 -0.44196266 0.5540416 0.058149792 1.633869 -1.2310803 1.2221028 1.3635874 -1.3628371 -0.8779918 1.1689894 -0.49147764 0.8900816 0.69186044 -0.2538001 0.16473545 -0.13767657 0.3703973 -0.11384413 0.22429019 0.75397754 -1.9031159 -0.9198082 -0.097566545 -0.39444172 -1.1636736 0.28920358 0.06510764 0.92336273 -1.1729572 -0.9160116 0.86468154 -0.26977375 0.30537328 -1.6889107 0.47487983 -2.6684866 0.04566883 0.491916 0.40197787 -0.21754728 0.7326124 0.12543716 0.5008334 -0.86573046 -1.9432249 -0.22170173 -0.55439705 0.318964 0.32117936 0.2252338 -0.37770978 0.36685142 1.5240102 0.6217676 0.4429631 -1.855946 1.3357204 -0.9245152 -0.9340805 -0.4533652 -1.6615494 -0.6185588 0.91706026 -0.79745996 0.12975973 1.6732725 -0.7582562 1.594257 0.6320591 -2.283298 0.8002983 0.08413004 0.25974748 0.9344988 -0.19880241 -0.040460706 -0.63012564 -1.8927532 -0.14725573 -1.3499738 0.32064196 1.5389043 0.7889264 -0.13547115 0.19885056 -0.04476861 -1.6015226 -1.3094294 0.9528511 1.7811112 0.9393875 -0.42138925 1.8338262 -0.2199122 -2.1318197 -0.5984435 1.7329874 -0.9681865 1.5970004 -0.7697698 0.6996531 0.84757596 -0.54876286 -1.0855695 0.68586546 0.74125814 -2.2396286
*dt_3 -0.32832274 0.014088783 -1.5076442 0.22790954 -1.1946021 0.17074704 -0.4194384 -0.4945606 -0.38335517 -0.748424 0.30504736 -0.19223346 -1.0838928 1.4171753 0.15990525 -0.8604889 1.37358 -0.35010958 -0.24983685 -1.2598511 0.7006568 0.31087562 1.182992 1.1196421 1.9537933 -0.7126801 -0.86596256 -0.17522769 -0.9031173 -1.0859889 -0.22275583 0.5864632 0.45943233 1.1941334 -0.704112 0.6121913 0.83386403 -1.5158403 0.4489648 -0.4342752 0.43663362 -0.6005663 -0.3771868 0.70907474 -1.1623901 -0.40963057 -0.61827433 0.6112301 1.8793244 1.1429986 -1.4455924 0.88416874 -1.2523543 0.013964771 -0.12047258 -0.1784926 -0.47371602 0.22738616 -1.4823159 -0.40914306 -0.09726364 1.5365449 -0.16913562 -0.64636815 0.41206893 0.05060899 0.34522775 0.9027956 -0.3856524 1.1406218 0.13575748 -0.30917346 -1.1885939 -0.8036044 -0.16649844 0.8037165 1.3485427 -0.65989965 0.62292403 0.83530176 0.15654787 0.749201 -0.26596132 0.9621522 -0.35798627 1.7158396 0.78096664 -0.16130975 -0.58758545 -0.38401583 -0.4764533 0.13134322 -0.2368348 -0.1439275 0.22004156 0.8532757 -0.35173014 0.9648304 -0.40018696 -0.28854427 -0.364258 -0.8773428 0.25814947 -0.8532148 -1.548111 0.39179787 0.8587838 0.4762668 0.52317613 -0.48713428 -0.9999826 -1.1733361 -0.2120931 0.2616024 0.2209793 -0.91481674 -1.563124 0.66689926 -0.122572884 1.1951327 0.026223077 -0.026831519 -0.8145115 -0.34085837 -1.1858971 -0.38840437 -1.2590741 0.004096763 0.101597145 -1.5740644 0.90918297 1.2319479 -1.2841868 0.47215188 -0.46324494 1.4445567 -0.61659294 -1.6811335 0.07799219 0.24751009 0.68374497 -0.49668086 -0.2597456 -1.4124236 0.45361248 -0.42376137 1.1811063 -0.41392264 0.46516716 0.3044154 0.30962658 -0.9174826 1.3893052 0.26805097 -0.028042743 0.51689327 0.2115313 -0.39273334 -0.3341023 -0.69170487 0.5526883 1.0072001 0.4361301 0.354628 0.80162334 0.07625973 0.23890053 -0.5289525 -0.10917343 1.0391808 -0.12899743 0.3928199 0.8316581 0.5407833 -0.3384791 0.9267281 0.38941133 -0.028209474 -1.2351753 -0.27281862 0.48241016 2.0280187 -0.68799675 -1.4774671 -0.41234607 1.2174727 0.15777124 -0.43475524 1.4291837 0.660341 0.1150212 1.5538195 0.8486137 0.1434484 0.35278484 -0.23715363 1.1267377 -0.82992107 -0.81270015 0.13276087 -0.5250204 -1.1874729 1.4592466 0.19535011 1.0583882 0.2029617 -0.0064076 -0.038286474 -0.9080471 -0.044179182 -0.044595193 0.12893677 -0.015651051 -1.4219412 0.055906713 -0.026907807 -0.5657817 -1.5321085 -0.6531671 0.7835031 -0.44582775 -1.3620642 -0.5245195 0.49874425 -0.79755163 0.028621363 -0.4080796 0.7070972 -1.7294565 0.98714715 0.27517462 1.1697581 -0.38320386 0.22055197 0.33451304 -0.6230987 -1.8202513 -1.7366792 -0.58078796 -1.8190391 0.9979988 0.56672746 0.51129407 0.34792897 -0.13207383 1.403786 -0.0989165 0.06843184 -0.43812916 0.37050098 -1.0825899 -0.7515597 -0.4784902 -1.8767279 -0.8693718 0.91544116 -1.1994001 -0.12702605 1.8254696 -0.95312095 0.7643146 1.3412825 -0.5182707 0.14283924 -0.198542 1.3603917 0.82486814 0.7481745 0.7698926 0.43687627 -0.9270555 -0.62771034 0.060740598 0.53439015 1.02691 0.54803836 0.866755 -0.4484786 0.03553781 -0.43954942 -1.1724136 0.45979425 1.404494 1.0151917 -0.7144468 0.7116002 0.20889144 -0.5282194 -0.71232015 0.9240395 -0.8283841 1.2533149 -0.30614212 -0.30116883 0.23003396 0.65700084 -0.25845864 -0.06549714 -0.0788313 -0.637405
*dt_4 -0.55557454 -0.041879296 -2.2978451 0.28860176 -0.49416032 0.43425274 -0.55644804 -1.1454146 -0.10050549 -0.1175503 1.2145135 -1.5581576 -1.0397143 0.8138554 0.5523762 -0.029433457 1.6966848 -0.43864325 -0.81323296 -0.59911704 0.03813064 -0.8982266 0.6306283 0.7378369 1.5892369 -0.15877031 -1.512131 -0.13696153 -0.95890903 -0.922031 1.0274761 1.0309656 -0.44841117 1.0079064 -0.10138421 -0.07242088 1.2929842 -1.5010694 1.8101642 -0.103927724 -0.23206559 -1.8483169 -1.5086392 0.3303176 -0.3342382 -1.200342 0.12601842 0.82857 1.9521214 0.7115895 -1.7908415 1.3651289 -0.9513025 0.45054814 -1.3007488 0.6526979 -0.74392784 -0.6593411 -1.2132925 -0.030415026 0.26497775 1.8191934 0.55561197 -0.040643115 0.6759877 -0.17364454 0.759274 1.1589785 0.2795208 -0.16817525 -1.4732697 0.18893167 0.06420492 -1.2899635 -0.2661617 0.39798588 0.71451813 -0.07438401 -0.1088676 0.5191735 1.5585362 0.7757945 -0.5011722 0.6985154 -0.2767667 2.3309422 0.30935133 0.035614118 -0.77690184 -1.0500555 -1.688472 -0.4750381 -0.30662274 -0.8272587 0.4471496 1.073396 0.8701425 0.91234106 0.1266256 -0.25969645 -0.010437885 -0.46756682 -0.87248886 -0.89583606 -1.1129487 0.23670168 0.4561732 0.2434323 -0.6649255 -0.85392886 -1.4636217 -0.9696878 0.13704771 0.8625027 0.6204865 -0.956918 -1.7863734 -0.31607357 0.1429099 1.4591509 0.58249587 -0.90531266 -1.0035557 0.943483 -1.3169879 -0.14053763 0.15022367 0.20147872 0.40341634 -1.8853663 2.0157177 1.2121466 -0.44652653 -0.44528615 -0.33883938 0.5921787 -0.950724 -2.0135968 0.10093318 -0.76037645 1.743043 -0.16082005 0.9212096 -2.250426 0.17015223 -1.3740144 1.5445839 -0.61368614 0.9587897 1.466679 -0.12176237 -0.42906466 1.0707495 -0.30986494 -0.6750775 -0.2556747 -0.7803727 0.56195545 0.3266561 -0.21510702 0.96867645 0.99772334 1.3977482 0.6530891 0.87867785 -0.8606895 0.9285044 -0.68237424 -0.62464976 1.2747574 0.5856735 0.9975962 1.0519502 -1.2181274 -0.67174083 1.4271944 1.9402473 0.31391868 -1.4345415 -0.7217037 0.43880543 1.9543726 0.43119976 -0.6780272 0.6715164 1.5370746 0.18761751 1.2693038 2.6485028 0.48507625 -1.0339605 2.346984 -1.0174183 0.58834845 0.16041027 0.2854801 2.445437 -0.76406395 -0.12591168 0.7273827 -1.2649904 -0.5963588 0.6163066 -0.5272005 1.0131748 0.366465 0.7660333 0.12546961 0.6805784 0.90720975 0.22436525 -0.074954346 -0.33696303 -1.7800039 -0.5766268 -0.33745733 -0.8942004 -1.6515697 -0.38413307 -1.1430638 -0.5324111 -1.9922711 -0.28637546 0.64026785 -0.21278599 1.2542926 -0.24171601 0.8495626 -2.306652 0.1271093 0.26851523 1.1865933 0.93414545 -0.35457313 -0.11102767 -0.017795587 -1.8534328 -1.4571435 -0.33802998 -0.59464157 0.599729 0.33382094 0.8531139 -1.1282648 0.33032018 1.6053739 0.03334086 0.16656744 -2.0289495 0.36749613 -1.302033 -0.22866364 -0.8772878 -1.6969353 -0.97270954 1.9418328 -0.6046115 -0.18619916 1.725613 -1.4737734 1.1708184 0.7338222 -1.5496608 0.17333035 0.58474547 0.914788 0.33850393 0.16988236 0.71922445 -0.049460772 -1.5387685 1.0862386 -1.386871 0.20617516 1.97123 0.90631086 0.5158017 -0.5044743 0.6039325 -1.6318841 -0.938197 0.07535683 0.66667587 1.3110155 -0.51116294 1.5606593 -0.07610756 -1.2813178 -1.5046667 2.1194413 -1.1278685 1.514456 -0.7068704 -0.32521972 1.038455 0.7702725 -1.0617174 1.1456347 0.47449097 -2.110164
