5 200
*dt_0 -0.40427536 1.8456991 1.8477111 -1.2132375 0.65581465 0.33542874 -1.4845303 -3.2330213 -0.3286917 -0.59751874 3.483078 -0.74058473 1.9425299 -2.5166297 -2.7370188 0.8666949 3.120586 -2.0307157 0.20105822 -0.37627065 3.9364662 -1.9755173 -0.3921568 2.0260558 1.8373749 1.6700246 -2.0415518 -0.0107498225 0.43682054 -3.2906616 -1.4284863 -0.5778568 0.536329 0.1840017 0.83277684 -3.4546077 1.7252887 0.47618034 -0.09339355 -1.7497097 2.4075663 -2.406788 2.2613044 1.9388306 0.7311436 0.1824428 -0.03476027 1.9041538 0.8909806 -1.3166239 -1.5845863 -3.8896375 -0.25796226 0.28539714 2.2030268 5.5661426 -0.14498389 -0.6898785 2.3590708 5.3294435 0.46315438 4.8785186 -2.7909443 1.1083612 1.1677825 -0.89585596 3.3672457 -0.58145785 -2.2647932 -2.7247565 -3.3314693 -4.769293 -1.8879511 0.030175427 -0.8153644 4.6884165 -2.8594413 -4.4941034 0.10484467 -0.18890737 -0.66011834 2.9464717 0.7786928 3.0601332 2.200582 1.7267108 -1.2104739 -0.74345684 -1.4053869 1.0201362 -1.0437729 3.9497688 -4.964422 -1.6899972 0.41415745 0.18137272 -2.1522381 -1.2473357 -1.9835232 2.5200365 1.556108 -1.8551677 -3.4141293 1.6568553 -3.2468028 1.8910197 1.8713709 0.48569378 -2.079969 -1.1092862 -3.314242 2.114364 -2.9727676 -2.5437586 0.4478454 0.486966 -4.392033 0.8149096 3.1882691 0.39161342 2.2864885 1.4410748 0.6575363 -1.1045861 0.14719795 -0.0048261704 -5.841802 -1.8512632 0.3990648 -3.3487124 5.193917 1.6923358 0.45503503 3.4104428 2.09536 1.9622961 -2.651626 -1.3068459 -0.2739112 -5.449897 1.4483018 0.23621854 0.61150616 -5.4531107 -1.6811026 3.639961 -1.0837953 2.1128426 -1.5329523 3.6307616 1.2079648 3.0188344 2.6433282 0.56143296 -0.058692794 -2.7294626 -4.252226 2.6842911 0.09812639 -2.2064714 3.511473 -0.24983653 -0.105545565 1.5330577 -1.0527966 -0.8796607 2.6939888 -3.8094344 0.1567938 3.8199246 -3.1808307 1.9187471 -2.3684392 -4.983048 3.0384114 2.4724224 3.5755053 -4.0500026 0.97500134 1.2855015 3.1266677 -1.762374 -0.3374538 0.7798018 -3.4548564 6.3078175 -4.7764654 -1.2921749 4.037427 0.81701887 -1.091186 0.0047468636 0.95784336 1.5447446 0.7974462 -1.7714276 1.0077188 -1.2496173 -0.23836105 3.92692
*dt_1 -2.766156 2.785178 2.7844863 -1.0930568 -0.28483137 -1.3790586 -0.67936975 -2.5170794 -1.9246974 0.7072902 1.8018805 -1.6149033 1.5509862 -4.301362 -1.9215162 4.4668627 3.9844015 -3.0268035 -0.72581834 0.76887494 5.029224 -2.470085 0.02868827 2.8247404 1.948931 0.7410192 -2.501707 1.1716627 -0.055629604 -2.1397371 -0.8239027 -0.8190368 1.7028052 0.18050362 0.6174679 -3.4503598 1.0435512 0.9405095 -0.16181791 -1.3139088 3.0973003 -0.03327802 1.6201128 0.8052387 -0.9095459 0.9400168 -0.718458 2.3300107 0.15569007 -0.34889683 -1.936997 -6.2948046 0.18228501 1.7916784 3.7034495 5.010739 1.4145707 -0.7978773 1.841005 5.8767614 1.4163619 4.7031236 -2.198294 3.7629418 0.73191506 -1.2349944 1.9873005 1.0955548 -1.594509 -2.8278294 -2.9896739 -3.0424364 -1.3933434 -0.43837243 0.63092065 5.913909 -4.666458 -4.323196 -0.9042004 0.6733467 -2.249289 5.5496073 2.2381582 3.5685515 2.2016885 1.6959741 0.19490902 -0.43200022 -3.8027658 3.2501185 -0.8816161 2.9259136 -4.4857774 0.0043652044 2.6338415 -0.5035328 -2.6584938 -1.0607358 -1.9855454 3.268965 0.5463535 -0.6072078 -0.75559336 3.2330747 -1.9990792 3.064688 0.64168674 1.4495463 -1.5013243 -1.6274406 -2.333537 1.7888405 -0.8367762 -0.97296804 -0.9751181 -0.59913117 -2.9687567 0.8387264 2.9942553 1.2713695 1.594267 1.8804967 0.3521364 -0.43208322 1.8760917 0.82168984 -5.345054 -2.2044504 1.7868809 -3.6830432 5.667659 0.35432923 1.5388225 3.532001 1.614243 1.9190439 -2.482835 -0.3900648 -0.5686825 -5.4907827 2.1122456 0.619896 -0.13899064 -5.423759 -2.4845593 3.58734 -2.5727537 2.6851764 -1.7845583 5.6268287 0.99732345 1.909225 2.187872 2.2136877 0.055843014 -3.6147225 -1.6732186 5.5012765 1.885007 -1.5913726 3.0319602 -1.2126073 -0.37190214 2.4102843 -1.396792 2.0694354 2.435561 -3.7369156 1.3533268 4.6358986 -4.349252 0.8242812 -4.3156767 -6.759194 3.173093 1.9317205 3.4667056 -3.8977182 0.93154424 1.2397696 0.7996756 -0.6888181 0.3416805 0.57570684 -5.0448184 7.0399175 -5.4593744 -2.624925 2.1750822 1.4801443 0.024565283 -0.7610864 -0.29774427 1.2857069 1.8044461 0.9439342 -0.6748764 -0.0659211 -0.59071183 3.7049751
*dt_2 -0.9632388 1.7758667 2.473041 -2.3699932 -1.7742442 0.29498622 -1.6147879 -1.7069167 -0.7004282 -1.250769 3.254026 -1.8736222 2.246829 -2.530943 -2.4792151 1.4816872 3.0644581 -2.3393533 0.42261228 0.34975618 4.8241277 -1.1300199 -0.13356435 1.92333 1.2718506 2.1124434 -1.3596053 0.94125026 -0.019586826 -2.2813876 -1.5051876 -0.6493389 0.9487027 0.7014836 1.2903557 -3.0692053 0.92353207 1.114615 0.832471 -1.3350121 1.6885233 -0.83595574 1.9043056 1.5930423 -0.22073191 0.26361325 0.47901958 0.76894367 0.06971524 0.42032102 -1.2336394 -4.082035 0.47202298 1.3216454 2.7086122 4.469895 0.5255629 -1.8836222 2.232131 5.218672 1.0880198 2.9061506 -3.1854873 1.474077 1.4298221 -0.19556725 2.7127125 0.18287311 -1.6040497 -2.4072986 -1.3043969 -4.573934 -1.3157711 0.41478306 -0.6179854 5.5812044 -2.1501284 -4.0287395 -1.1735412 -1.0310143 -1.4717015 2.6740239 1.5107789 2.031339 2.9329722 1.1956791 -0.33907315 -0.7635904 -2.6223817 2.5938787 0.51871175 2.2677946 -2.8631723 -0.67188895 1.0566475 -1.1108998 -2.8093586 0.07060124 -3.0542068 2.5261295 0.3332156 -1.9627849 -1.1451887 2.1930687 -2.043484 2.3011491 1.4872745 -0.65360683 -2.9127476 -1.4088633 -3.072612 3.5250232 -1.9070348 -2.9994655 -0.98854584 1.6103541 -2.7543297 1.6535257 2.2980669 0.8070287 1.8952637 0.2680975 -0.20271602 -1.4902589 1.6559353 -0.44626465 -5.4152393 -1.9430913 -0.08411561 -2.0600111 5.240292 0.60492384 0.4152397 3.1309166 2.6499054 2.7426913 -2.0504436 -0.6951942 -0.3293007 -4.8092155 1.2966008 -0.07076379 -0.20301782 -4.285639 -1.4786527 3.3650897 -0.65026003 1.849399 -0.8677018 4.0342836 1.5951775 2.2235048 2.4193635 0.6583269 0.18822092 -3.1942906 -3.290227 3.7828372 1.470251 -1.5445795 3.4024642 -1.240253 -1.3666828 3.408719 -1.5743775 0.42340288 2.894308 -1.9852364 1.4936444 2.9266274 -3.889528 1.0618281 -2.7115812 -5.6897335 2.0827737 1.1253215 2.34249 -3.8257728 0.92745703 1.1544102 2.340501 -1.4055706 0.528166 1.4026271 -4.2221427 4.966891 -4.6346383 -2.2300496 2.3152478 0.9472174 -1.1080068 -0.47768366 1.215584 1.0208051 1.7844901 -1.7123846 -0.39141703 -0.28710374 -0.73315334 4.5216007
*dt_3 -3.2214396 1.1918277 3.5428557 -3.9073694 -1.3895903 -0.17580104 -3.7400382 -2.797146 -2.9969645 1.136407 2.765057 -1.7269542 1.5730238 -2.1341863 -3.064461 3.9983864 2.2726946 -0.7448131 -1.1180091 -0.102813356 6.220227 -4.7595296 -0.5689787 -0.6212269 0.71493316 -0.40133938 0.15940566 1.3820012 -0.5694688 -1.5061315 1.011337 -0.59470224 0.51858103 0.6623422 0.4751624 -3.6994288 1.1056782 2.5822606 -0.35285512 -1.1176922 4.3316736 -1.700892 -0.29874322 2.5172184 0.06014395 1.7081646 2.9340649 1.6035682 1.0071487 -1.1739231 -1.7018853 -6.086794 -1.459524 0.071112566 3.2184887 5.329169 2.4989426 -1.2038691 0.64752305 5.4879646 0.7563519 5.716377 -1.5632849 2.445504 0.6314377 1.20719 4.566568 1.9363467 -0.22003914 -2.8607848 -1.1826415 -3.04353 -1.0399612 2.79831 1.9148148 6.6025987 -2.2778764 -2.0776937 0.43238392 2.4666467 -1.47235 2.0972881 1.958449 3.9257877 3.4812737 1.5171843 -1.6367818 -0.9810922 -3.9011774 1.8037436 -0.99911505 2.6692045 -3.5882537 -1.4090465 0.59946656 -1.4691702 -2.2048383 -1.1874882 -2.78552 4.7633395 0.14640412 0.39972556 -1.1212302 1.8693084 -2.4266663 2.342132 1.9405477 0.49975896 -2.7871234 -2.4805756 -1.5855789 1.90318 -2.262989 -2.4161513 -1.0061514 0.85379237 -3.4212909 2.4019835 1.4629011 1.8083063 -0.7324011 2.3020484 0.9395767 0.21640043 1.6045152 0.747198 -6.780353 -1.6504093 1.4167886 -4.830096 5.9087195 1.162715 -1.4491999 4.850484 3.5215354 3.303651 -1.0686352 -1.4503363 -1.1565241 -5.6361995 0.35795227 0.207709 1.0508853 -6.514031 -0.20913553 4.1850343 0.014246504 3.5229862 -1.0018128 5.739035 2.3601503 1.4453933 -0.85493666 0.19651495 0.8862853 -5.0599627 -5.3029094 2.7569466 -0.3944257 -1.9380257 3.0766418 -3.5497484 2.7459035 4.29491 -0.68074423 -0.49662676 4.1864195 -1.4745902 2.580076 3.1346757 -5.3608394 1.7700027 -2.2074695 -5.8472233 2.5542128 0.83775735 4.909106 -2.8993804 0.95732945 2.0887754 2.8105884 -0.22234182 3.5229788 2.4333072 -2.6093423 4.7436175 -4.4144893 0.1830135 4.4068522 -0.27144024 -2.3795867 -0.23292258 -2.2068727 -0.56959605 2.472755 -1.0061382 0.648032 -0.6896918 -0.39199224 5.4364986
*dt_4 -2.858677 1.0617073 1.5477006 -3.156892 -1.3750204 1.5633687 -3.8420775 -3.6382067 -3.0126557 0.8280485 4.2661834 -2.0105662 4.1517115 -2.8208566 -3.204208 2.0881617 1.9184635 -2.253817 0.8348397 1.3796748 6.418953 -2.6491532 -2.4452374 3.5292416 3.3648355 1.8201038 -3.976025 1.2866315 -0.68944794 -3.0641189 -1.4470205 0.54449105 -1.1762663 -1.4319551 0.42455405 -4.4030237 0.27670613 1.125677 1.3358257 -2.1260571 1.9064468 -2.9696245 1.918206 3.5005033 -1.5747291 2.462931 1.9350809 2.2563765 -1.1742159 -0.5362394 -2.0464988 -7.5221415 -3.7679703 0.7386293 2.0394242 5.6347003 0.2221722 -2.4395096 2.7856138 6.655825 2.2753105 5.507836 -4.292995 3.4610486 2.0403535 -0.67650396 4.3123035 -3.470605 -0.50823313 -3.2805734 -3.6868095 -5.000456 -3.7531705 0.02912753 -0.35595107 6.5097365 -1.3271896 -1.3843219 -1.6358715 -0.8361377 -2.5037525 2.3433886 1.7019426 1.4728533 4.211769 2.6911452 -0.36357152 -2.7019038 -1.0892596 1.0601567 -0.65848273 3.4698794 -5.4187617 0.31256205 2.7822707 -1.7034408 -4.765954 -1.4771587 -2.1098592 2.675369 2.5367842 -1.5063685 -2.1470368 0.80092525 -3.0337946 5.9901175 2.4163058 0.04157607 -0.86538917 -2.6585503 -3.5220523 3.8267074 -3.501291 -2.8421385 0.5585189 -0.82332003 -1.9339712 0.58526397 2.2950366 0.32013723 4.3873596 2.4378555 1.9758102 -0.101431645 1.6749119 0.2353393 -6.2537503 -2.3950465 1.5407008 -2.645018 5.366576 2.0793672 1.2853805 5.0454564 1.1795542 4.441604 -0.501194 -2.1029918 -0.6228473 -5.733506 1.6354522 2.5570881 -0.048623804 -5.547219 -3.8134336 5.7973123 -2.6859417 3.0180051 0.16679378 6.2025747 1.0597405 5.138986 1.0015122 1.0040383 -1.3564548 -6.4061227 -5.9130163 6.00716 0.9915617 -3.7746317 2.1571186 -0.6896887 -1.8182539 2.4798193 -0.17282498 0.0004613524 1.6606376 -1.273153 0.68914527 4.362881 -3.2327888 1.8780987 -3.9416728 -5.0117974 -0.27338377 1.4685559 3.4742699 -3.4149551 0.7603826 0.61374944 1.1729972 -0.14182624 0.5764564 1.2462804 -3.491876 8.547629 -3.568975 -1.5630754 0.8126406 -0.8586082 -2.241693 -0.69868654 4.6503997 2.3013415 2.6048133 -1.78169 -2.1557891 -1.2068971 -2.93509 3.6274564
*dt_0 -0.40427536 1.8456991 1.8477111 -1.2132375 0.65581465 0.33542874 -1.4845303 -3.2330213 -0.3286917 -0.59751874 3.483078 -0.74058473 1.9425299 -2.5166297 -2.7370188 0.8666949 3.120586 -2.0307157 0.20105822 -0.37627065 3.9364662 -1.9755173 -0.3921568 2.0260558 1.8373749 1.6700246 -2.0415518 -0.0107498225 0.43682054 -3.2906616 -1.4284863 -0.5778568 0.536329 0.1840017 0.83277684 -3.4546077 1.7252887 0.47618034 -0.09339355 -1.7497097 2.4075663 -2.406788 2.2613044 1.9388306 0.7311436 0.1824428 -0.03476027 1.9041538 0.8909806 -1.3166239 -1.5845863 -3.8896375 -0.25796226 0.28539714 2.2030268 5.5661426 -0.14498389 -0.6898785 2.3590708 5.3294435 0.46315438 4.8785186 -2.7909443 1.1083612 1.1677825 -0.89585596 3.3672457 -0.58145785 -2.2647932 -2.7247565 -3.3314693 -4.769293 -1.8879511 0.030175427 -0.8153644 4.6884165 -2.8594413 -4.4941034 0.10484467 -0.18890737 -0.66011834 2.9464717 0.7786928 3.0601332 2.200582 1.7267108 -1.2104739 -0.74345684 -1.4053869 1.0201362 -1.0437729 3.9497688 -4.964422 -1.6899972 0.41415745 0.18137272 -2.1522381 -1.2473357 -1.9835232 2.5200365 1.556108 -1.8551677 -3.4141293 1.6568553 -3.2468028 1.8910197 1.8713709 0.48569378 -2.079969 -1.1092862 -3.314242 2.114364 -2.9727676 -2.5437586 0.4478454 0.486966 -4.392033 0.8149096 3.1882691 0.39161342 2.2864885 1.4410748 0.6575363 -1.1045861 0.14719795 -0.0048261704 -5.841802 -1.8512632 0.3990648 -3.3487124 5.193917 1.6923358 0.45503503 3.4104428 2.09536 1.9622961 -2.651626 -1.3068459 -0.2739112 -5.449897 1.4483018 0.23621854 0.61150616 -5.4531107 -1.6811026 3.639961 -1.0837953 2.1128426 -1.5329523 3.6307616 1.2079648 3.0188344 2.6433282 0.56143296 -0.058692794 -2.7294626 -4.252226 2.6842911 0.09812639 -2.2064714 3.511473 -0.24983653 -0.105545565 1.5330577 -1.0527966 -0.8796607 2.6939888 -3.8094344 0.1567938 3.8199246 -3.1808307 1.9187471 -2.3684392 -4.983048 3.0384114 2.4724224 3.5755053 -4.0500026 0.97500134 1.2855015 3.1266677 -1.762374 -0.3374538 0.7798018 -3.4548564 6.3078175 -4.7764654 -1.2921749 4.037427 0.81701887 -1.091186 0.0047468636 0.95784336 1.5447446 0.7974462 -1.7714276 1.0077188 -1.2496173 -0.23836105 3.92692
*dt_1 -2.766156 2.785178 2.7844863 -1.0930568 -0.28483137 -1.3790586 -0.67936975 -2.5170794 -1.9246974 0.7072902 1.8018805 -1.6149033 1.5509862 -4.301362 -1.9215162 4.4668627 3.9844015 -3.0268035 -0.72581834 0.76887494 5.029224 -2.470085 0.02868827 2.8247404 1.948931 0.7410192 -2.501707 1.1716627 -0.055629604 -2.1397371 -0.8239027 -0.8190368 1.7028052 0.18050362 0.6174679 -3.4503598 1.0435512 0.9405095 -0.16181791 -1.3139088 3.0973003 -0.03327802 1.6201128 0.8052387 -0.9095459 0.9400168 -0.718458 2.3300107 0.15569007 -0.34889683 -1.936997 -6.2948046 0.18228501 1.7916784 3.7034495 5.010739 1.4145707 -0.7978773 1.841005 5.8767614 1.4163619 4.7031236 -2.198294 3.7629418 0.73191506 -1.2349944 1.9873005 1.0955548 -1.594509 -2.8278294 -2.9896739 -3.0424364 -1.3933434 -0.43837243 0.63092065 5.913909 -4.666458 -4.323196 -0.9042004 0.6733467 -2.249289 5.5496073 2.2381582 3.5685515 2.2016885 1.6959741 0.19490902 -0.43200022 -3.8027658 3.2501185 -0.8816161 2.9259136 -4.4857774 0.0043652044 2.6338415 -0.5035328 -2.6584938 -1.0607358 -1.9855454 3.268965 0.5463535 -0.6072078 -0.75559336 3.2330747 -1.9990792 3.064688 0.64168674 1.4495463 -1.5013243 -1.6274406 -2.333537 1.7888405 -0.8367762 -0.97296804 -0.9751181 -0.59913117 -2.9687567 0.8387264 2.9942553 1.2713695 1.594267 1.8804967 0.3521364 -0.43208322 1.8760917 0.82168984 -5.345054 -2.2044504 1.7868809 -3.6830432 5.667659 0.35432923 1.5388225 3.532001 1.614243 1.9190439 -2.482835 -0.3900648 -0.5686825 -5.4907827 2.1122456 0.619896 -0.13899064 -5.423759 -2.4845593 3.58734 -2.5727537 2.6851764 -1.7845583 5.6268287 0.99732345 1.909225 2.187872 2.2136877 0.055843014 -3.6147225 -1.6732186 5.5012765 1.885007 -1.5913726 3.0319602 -1.2126073 -0.37190214 2.4102843 -1.396792 2.0694354 2.435561 -3.7369156 1.3533268 4.6358986 -4.349252 0.8242812 -4.3156767 -6.759194 3.173093 1.9317205 3.4667056 -3.8977182 0.93154424 1.2397696 0.7996756 -0.6888181 0.3416805 0.57570684 -5.0448184 7.0399175 -5.4593744 -2.624925 2.1750822 1.4801443 0.024565283 -0.7610864 -0.29774427 1.2857069 1.8044461 0.9439342 -0.6748764 -0.0659211 -0.59071183 3.7049751
*dt_2 -0.9632388 1.7758667 2.473041 -2.3699932 -1.7742442 0.29498622 -1.6147879 -1.7069167 -0.7004282 -1.250769 3.254026 -1.8736222 2.246829 -2.530943 -2.4792151 1.4816872 3.0644581 -2.3393533 0.42261228 0.34975618 4.8241277 -1.1300199 -0.13356435 1.92333 1.2718506 2.1124434 -1.3596053 0.94125026 -0.019586826 -2.2813876 -1.5051876 -0.6493389 0.9487027 0.7014836 1.2903557 -3.0692053 0.92353207 1.114615 0.832471 -1.3350121 1.6885233 -0.83595574 1.9043056 1.5930423 -0.22073191 0.26361325 0.47901958 0.76894367 0.06971524 0.42032102 -1.2336394 -4.082035 0.47202298 1.3216454 2.7086122 4.469895 0.5255629 -1.8836222 2.232131 5.218672 1.0880198 2.9061506 -3.1854873 1.474077 1.4298221 -0.19556725 2.7127125 0.18287311 -1.6040497 -2.4072986 -1.3043969 -4.573934 -1.3157711 0.41478306 -0.6179854 5.5812044 -2.1501284 -4.0287395 -1.1735412 -1.0310143 -1.4717015 2.6740239 1.5107789 2.031339 2.9329722 1.1956791 -0.33907315 -0.7635904 -2.6223817 2.5938787 0.51871175 2.2677946 -2.8631723 -0.67188895 1.0566475 -1.1108998 -2.8093586 0.07060124 -3.0542068 2.5261295 0.3332156 -1.9627849 -1.1451887 2.1930687 -2.043484 2.3011491 1.4872745 -0.65360683 -2.9127476 -1.4088633 -3.072612 3.5250232 -1.9070348 -2.9994655 -0.98854584 1.6103541 -2.7543297 1.6535257 2.2980669 0.8070287 1.8952637 0.2680975 -0.20271602 -1.4902589 1.6559353 -0.44626465 -5.4152393 -1.9430913 -0.08411561 -2.0600111 5.240292 0.60492384 0.4152397 3.1309166 2.6499054 2.7426913 -2.0504436 -0.6951942 -0.3293007 -4.8092155 1.2966008 -0.07076379 -0.20301782 -4.285639 -1.4786527 3.3650897 -0.65026003 1.849399 -0.8677018 4.0342836 1.5951775 2.2235048 2.4193635 0.6583269 0.18822092 -3.1942906 -3.290227 3.7828372 1.470251 -1.5445795 3.4024642 -1.240253 -1.3666828 3.408719 -1.5743775 0.42340288 2.894308 -1.9852364 1.4936444 2.9266274 -3.889528 1.0618281 -2.7115812 -5.6897335 2.0827737 1.1253215 2.34249 -3.8257728 0.92745703 1.1544102 2.340501 -1.4055706 0.528166 1.4026271 -4.2221427 4.966891 -4.6346383 -2.2300496 2.3152478 0.9472174 -1.1080068 -0.47768366 1.215584 1.0208051 1.7844901 -1.7123846 -0.39141703 -0.28710374 -0.73315334 4.5216007
*dt_3 -3.2214396 1.1918277 3.5428557 -3.9073694 -1.3895903 -0.17580104 -3.7400382 -2.797146 -2.9969645 1.136407 2.765057 -1.7269542 1.5730238 -2.1341863 -3.064461 3.9983864 2.2726946 -0.7448131 -1.1180091 -0.102813356 6.220227 -4.7595296 -0.5689787 -0.6212269 0.71493316 -0.40133938 0.15940566 1.3820012 -0.5694688 -1.5061315 1.011337 -0.59470224 0.51858103 0.6623422 0.4751624 -3.6994288 1.1056782 2.5822606 -0.35285512 -1.1176922 4.3316736 -1.700892 -0.29874322 2.5172184 0.06014395 1.7081646 2.9340649 1.6035682 1.0071487 -1.1739231 -1.7018853 -6.086794 -1.459524 0.071112566 3.2184887 5.329169 2.4989426 -1.2038691 0.64752305 5.4879646 0.7563519 5.716377 -1.5632849 2.445504 0.6314377 1.20719 4.566568 1.9363467 -0.22003914 -2.8607848 -1.1826415 -3.04353 -1.0399612 2.79831 1.9148148 6.6025987 -2.2778764 -2.0776937 0.43238392 2.4666467 -1.47235 2.0972881 1.958449 3.9257877 3.4812737 1.5171843 -1.6367818 -0.9810922 -3.9011774 1.8037436 -0.99911505 2.6692045 -3.5882537 -1.4090465 0.59946656 -1.4691702 -2.2048383 -1.1874882 -2.78552 4.7633395 0.14640412 0.39972556 -1.1212302 1.8693084 -2.4266663 2.342132 1.9405477 0.49975896 -2.7871234 -2.4805756 -1.5855789 1.90318 -2.262989 -2.4161513 -1.0061514 0.85379237 -3.4212909 2.4019835 1.4629011 1.8083063 -0.7324011 2.3020484 0.9395767 0.21640043 1.6045152 0.747198 -6.780353 -1.6504093 1.4167886 -4.830096 5.9087195 1.162715 -1.4491999 4.850484 3.5215354 3.303651 -1.0686352 -1.4503363 -1.1565241 -5.6361995 0.35795227 0.207709 1.0508853 -6.514031 -0.20913553 4.1850343 0.014246504 3.5229862 -1.0018128 5.739035 2.3601503 1.4453933 -0.85493666 0.19651495 0.8862853 -5.0599627 -5.3029094 2.7569466 -0.3944257 -1.9380257 3.0766418 -3.5497484 2.7459035 4.29491 -0.68074423 -0.49662676 4.1864195 -1.4745902 2.580076 3.1346757 -5.3608394 1.7700027 -2.2074695 -5.8472233 2.5542128 0.83775735 4.909106 -2.8993804 0.95732945 2.0887754 2.8105884 -0.22234182 3.5229788 2.4333072 -2.6093423 4.7436175 -4.4144893 0.1830135 4.4068522 -0.27144024 -2.3795867 -0.23292258 -2.2068727 -0.56959605 2.472755 -1.0061382 0.648032 -0.6896918 -0.39199224 5.4364986
*dt_4 -2.858677 1.0617073 1.5477006 -3.156892 -1.3750204 1.5633687 -3.8420775 -3.6382067 -3.0126557 0.8280485 4.2661834 -2.0105662 4.1517115 -2.8208566 -3.204208 2.0881617 1.9184635 -2.253817 0.8348397 1.3796748 6.418953 -2.6491532 -2.4452374 3.5292416 3.3648355 1.8201038 -3.976025 1.2866315 -0.68944794 -3.0641189 -1.4470205 0.54449105 -1.1762663 -1.4319551 0.42455405 -4.4030237 0.27670613 1.125677 1.3358257 -2.1260571 1.9064468 -2.9696245 1.918206 3.5005033 -1.5747291 2.462931 1.9350809 2.2563765 -1.1742159 -0.5362394 -2.0464988 -7.5221415 -3.7679703 0.7386293 2.0394242 5.6347003 0.2221722 -2.4395096 2.7856138 6.655825 2.2753105 5.507836 -4.292995 3.4610486 2.0403535 -0.67650396 4.3123035 -3.470605 -0.50823313 -3.2805734 -3.6868095 -5.000456 -3.7531705 0.02912753 -0.35595107 6.5097365 -1.3271896 -1.3843219 -1.6358715 -0.8361377 -2.5037525 2.3433886 1.7019426 1.4728533 4.211769 2.6911452 -0.36357152 -2.7019038 -1.0892596 1.0601567 -0.65848273 3.4698794 -5.4187617 0.31256205 2.7822707 -1.7034408 -4.765954 -1.4771587 -2.1098592 2.675369 2.5367842 -1.5063685 -2.1470368 0.80092525 -3.0337946 5.9901175 2.4163058 0.04157607 -0.86538917 -2.6585503 -3.5220523 3.8267074 -3.501291 -2.8421385 0.5585189 -0.82332003 -1.9339712 0.58526397 2.2950366 0.32013723 4.3873596 2.4378555 1.9758102 -0.101431645 1.6749119 0.2353393 -6.2537503 -2.3950465 1.5407008 -2.645018 5.366576 2.0793672 1.2853805 5.0454564 1.1795542 4.441604 -0.501194 -2.1029918 -0.6228473 -5.733506 1.6354522 2.5570881 -0.048623804 -5.547219 -3.8134336 5.7973123 -2.6859417 3.0180051 0.16679378 6.2025747 1.0597405 5.138986 1.0015122 1.0040383 -1.3564548 -6.4061227 -5.9130163 6.00716 0.9915617 -3.7746317 2.1571186 -0.6896887 -1.8182539 2.4798193 -0.17282498 0.0004613524 1.6606376 -1.273153 0.68914527 4.362881 -3.2327888 1.8780987 -3.9416728 -5.0117974 -0.27338377 1.4685559 3.4742699 -3.4149551 0.7603826 0.61374944 1.1729972 -0.14182624 0.5764564 1.2462804 -3.491876 8.547629 -3.568975 -1.5630754 0.8126406 -0.8586082 -2.241693 -0.69868654 4.6503997 2.3013415 2.6048133 -1.78169 -2.1557891 -1.2068971 -2.93509 3.6274564
