5 100
*dt_0 2.6922283 -1.7827924 4.9400077 -2.9461746 1.1643897 1.6166373 1.115764 -3.386549 2.7431016 2.2551758 0.26209816 5.8684225 1.8491812 -1.3892745 -5.0262933 8.741363 0.30604783 2.362718 0.053846426 3.8523374 -5.1022887 -1.7560889 2.022169 -5.227116 0.7894165 2.5895288 3.3804698 -1.4567413 -1.1749123 2.1293495 -1.9132826 1.4514543 -1.2996739 2.0314562 -0.45428914 0.8298293 -4.9945226 -1.2485209 2.065846 1.8687775 -1.6457533 -2.5727909 -1.3755082 6.352563 0.39206743 -1.6349176 0.8234861 -2.0398037 -1.7832761 -3.409848 4.7266316 -4.2592845 -1.9545332 2.466485 -1.8430986 0.8246531 -0.88204664 -0.19720596 -1.594744 -1.7842402 -1.5505992 5.395187 -1.5288861 0.9819202 -0.3474155 -1.7496471 0.84472674 2.4437585 9.821744 -1.825884 1.5875193 -1.0258385 -3.699504 -0.0346837 -2.380297 6.1746387 -5.6469464 -2.9022534 4.5505514 0.20525792 -1.2669802 -2.1824012 0.27616984 1.784187 4.7523437 -1.7052419 -0.123247 -0.075229175 -0.7382815 -0.60309595 2.0309217 -2.5029383 4.1533203 0.57394475 0.68758804 -1.1521113 0.53231794 6.9633393 1.0439094 -1.7429539
*dt_1 1.7422376 -0.079657204 4.4293013 -4.0217013 1.6220149 0.9382523 -0.89052 -2.4717631 3.0958652 1.9604392 0.7587339 5.417681 3.338136 -2.1901276 -2.6372433 7.016927 -1.261052 1.1743193 2.6440532 4.2284484 -3.7523546 -1.4164995 -1.2271272 -3.5446477 -1.0891433 2.4206414 4.923221 -1.5157605 -1.3061821 3.1964529 -4.205641 1.9913868 -0.3181744 3.9709444 -1.0849354 0.78263724 -5.09564 -0.012668041 0.74537784 2.2814205 -0.40711638 -2.7024384 1.3429233 5.7821264 0.33338594 -1.8743405 0.581112 -2.0148718 -2.0494437 -3.3692396 3.8958836 -3.4582934 -1.7767025 2.4591572 -1.5481001 1.1057698 -1.0295204 0.58400446 -0.24219215 -1.5109819 -1.8160043 2.8386257 0.1849423 2.858434 -0.78128505 -3.4270585 -1.0963863 0.9143523 6.949023 -3.2068567 1.166009 -1.5621461 -4.276892 1.7172072 -1.4495105 5.502057 -3.363481 -1.1636323 4.9248095 2.265038 0.9686078 -1.5781957 -0.5143538 2.742647 4.094486 -0.123915955 0.3272097 0.10345342 -0.7701864 -0.17407162 0.67244786 -2.8815405 2.5081375 1.8132254 -0.30839914 -1.6438253 1.7125221 6.9908338 1.2344368 -3.68409
*dt_2 3.4691288 -1.2370704 9.20588 -6.0369506 2.073719 1.1900989 1.5157837 -3.942105 4.3153744 4.4100814 3.9612267 7.8940644 3.2224991 -2.8889263 -6.522849 10.196637 1.4063855 1.0820093 0.9576913 5.8753495 -4.469071 -1.3752483 -0.03894291 -5.6006055 -0.0292289 2.4312866 6.0516033 -0.88935685 -1.2244507 3.244104 -5.639781 2.266057 0.41565043 3.4869606 0.22521646 0.76398045 -5.2861614 1.684737 0.4780557 2.730437 -1.041765 -1.9857434 -1.0632921 7.3138843 2.0409324 -1.7904845 0.030156255 0.5719867 -2.8136413 -4.626067 6.890869 -4.1745253 -3.081284 4.118889 -1.2329963 1.4946735 -1.1484895 0.24013554 -0.5595231 -2.3799295 -3.2663038 5.3995976 0.83633965 1.0133803 -2.4604244 -3.9070463 -1.9753817 1.3558474 12.511084 -3.2796764 2.041984 0.12254153 -6.2173877 1.3450066 -1.9860127 6.7809005 -5.1994267 -2.1022985 5.534825 1.4092399 0.37768608 -2.851412 -0.38598394 3.2448943 4.519441 1.2780192 1.2441146 0.2554913 -0.5562216 0.48584503 0.6949131 -3.3386817 5.3626356 1.2827863 0.4062167 -2.9263344 1.2111688 9.742979 4.728892 -2.0314748
*dt_3 3.055223 -0.394563 6.684834 -3.7800484 0.7741954 -0.15649432 -0.3134308 -2.3466368 1.997377 2.3838556 2.1372278 6.9181814 3.1540167 0.023482397 -4.031981 9.101345 1.0545006 2.8115134 0.492768 4.9513903 -5.7125316 -0.21883608 -0.7967355 -6.128871 -0.009436273 1.8327703 6.0749483 -1.7321723 0.11186502 1.4801036 -5.159029 2.4385881 -0.62051105 3.9305172 -0.10501598 1.0820411 -5.8034015 -0.83743095 0.25082576 1.2400591 -1.5341275 -2.7740211 -1.4536339 6.621275 0.4195597 -3.5787473 -1.1379453 -1.4975499 -3.4537745 -4.772023 6.317075 -4.4020815 -1.7940671 4.9048386 -1.0926468 1.7405318 -2.2193067 0.9328064 -1.9734885 -2.2871177 -2.171353 7.4129615 -0.32587615 0.9132159 -0.7056571 -1.4131384 -0.6397585 1.9429642 9.215749 -1.658733 2.124574 -1.7428287 -6.5584126 0.53140277 -1.4988841 7.2094426 -5.391136 -4.0723367 5.583554 2.5295398 -1.2984662 -1.5026792 -1.0563402 4.7172112 5.4327664 0.07631833 0.6949676 0.83048314 0.52780145 -2.4666996 1.2633086 -3.5349329 3.5206497 1.1727592 -0.22284955 -0.254705 2.2874346 10.556962 3.6917758 -2.9131544
*dt_4 2.4999158 -1.8090533 6.2209587 -5.844695 1.57338 1.211799 0.53401864 -2.7263732 3.878503 2.843013 2.5345702 7.7366753 4.0293193 -1.9599138 -6.0232506 9.638961 1.0546361 2.399097 0.771805 5.076403 -5.918397 -0.9060341 0.0074398103 -6.7634583 -1.548006 2.209358 6.071176 -2.118907 -1.1423172 3.9676204 -2.8867562 3.594318 -1.6402345 4.688909 0.15160218 1.320115 -4.639301 0.01161769 0.72807664 1.6853813 -0.9990091 -2.713658 -2.1588907 6.3446503 1.5442616 -2.1719382 1.8263955 -2.9457943 -2.5135434 -5.2330384 6.381929 -5.5192337 -2.2632265 5.126521 -1.744783 1.0523492 -0.9694072 0.14622712 0.11364391 -1.2368177 -0.27694923 5.137129 -0.1160428 2.221514 -1.7094021 -3.4973066 -0.091931686 2.2100048 10.619112 -3.69215 3.3294408 -0.31426075 -5.1126976 1.0516036 -0.9974987 8.762552 -6.5914965 -4.0801783 4.8360076 0.8904656 -0.55344075 -1.4461708 -1.7749417 3.0961993 6.7133875 -0.05649622 0.26914686 -0.84503967 1.8253495 0.96572334 0.117014065 -3.2994795 6.1105237 1.2878126 -0.4294877 -1.5674905 1.8868252 10.903276 2.8229752 -3.1038728
*dt_0 2.6922283 -1.7827924 4.9400077 -2.9461746 1.1643897 1.6166373 1.115764 -3.386549 2.7431016 2.2551758 0.26209816 5.8684225 1.8491812 -1.3892745 -5.0262933 8.741363 0.30604783 2.362718 0.053846426 3.8523374 -5.1022887 -1.7560889 2.022169 -5.227116 0.7894165 2.5895288 3.3804698 -1.4567413 -1.1749123 2.1293495 -1.9132826 1.4514543 -1.2996739 2.0314562 -0.45428914 0.8298293 -4.9945226 -1.2485209 2.065846 1.8687775 -1.6457533 -2.5727909 -1.3755082 6.352563 0.39206743 -1.6349176 0.8234861 -2.0398037 -1.7832761 -3.409848 4.7266316 -4.2592845 -1.9545332 2.466485 -1.8430986 0.8246531 -0.88204664 -0.19720596 -1.594744 -1.7842402 -1.5505992 5.395187 -1.5288861 0.9819202 -0.3474155 -1.7496471 0.84472674 2.4437585 9.821744 -1.825884 1.5875193 -1.0258385 -3.699504 -0.0346837 -2.380297 6.1746387 -5.6469464 -2.9022534 4.5505514 0.20525792 -1.2669802 -2.1824012 0.27616984 1.784187 4.7523437 -1.7052419 -0.123247 -0.075229175 -0.7382815 -0.60309595 2.0309217 -2.5029383 4.1533203 0.57394475 0.68758804 -1.1521113 0.53231794 6.9633393 1.0439094 -1.7429539
*dt_1 1.7422376 -0.079657204 4.4293013 -4.0217013 1.6220149 0.9382523 -0.89052 -2.4717631 3.0958652 1.9604392 0.7587339 5.417681 3.338136 -2.1901276 -2.6372433 7.016927 -1.261052 1.1743193 2.6440532 4.2284484 -3.7523546 -1.4164995 -1.2271272 -3.5446477 -1.0891433 2.4206414 4.923221 -1.5157605 -1.3061821 3.1964529 -4.205641 1.9913868 -0.3181744 3.9709444 -1.0849354 0.78263724 -5.09564 -0.012668041 0.74537784 2.2814205 -0.40711638 -2.7024384 1.3429233 5.7821264 0.33338594 -1.8743405 0.581112 -2.0148718 -2.0494437 -3.3692396 3.8958836 -3.4582934 -1.7767025 2.4591572 -1.5481001 1.1057698 -1.0295204 0.58400446 -0.24219215 -1.5109819 -1.8160043 2.8386257 0.1849423 2.858434 -0.78128505 -3.4270585 -1.0963863 0.9143523 6.949023 -3.2068567 1.166009 -1.5621461 -4.276892 1.7172072 -1.4495105 5.502057 -3.363481 -1.1636323 4.9248095 2.265038 0.9686078 -1.5781957 -0.5143538 2.742647 4.094486 -0.123915955 0.3272097 0.10345342 -0.7701864 -0.17407162 0.67244786 -2.8815405 2.5081375 1.8132254 -0.30839914 -1.6438253 1.7125221 6.9908338 1.2344368 -3.68409
*dt_2 3.4691288 -1.2370704 9.20588 -6.0369506 2.073719 1.1900989 1.5157837 -3.942105 4.3153744 4.4100814 3.9612267 7.8940644 3.2224991 -2.8889263 -6.522849 10.196637 1.4063855 1.0820093 0.9576913 5.8753495 -4.469071 -1.3752483 -0.03894291 -5.6006055 -0.0292289 2.4312866 6.0516033 -0.88935685 -1.2244507 3.244104 -5.639781 2.266057 0.41565043 3.4869606 0.22521646 0.76398045 -5.2861614 1.684737 0.4780557 2.730437 -1.041765 -1.9857434 -1.0632921 7.3138843 2.0409324 -1.7904845 0.030156255 0.5719867 -2.8136413 -4.626067 6.890869 -4.1745253 -3.081284 4.118889 -1.2329963 1.4946735 -1.1484895 0.24013554 -0.5595231 -2.3799295 -3.2663038 5.3995976 0.83633965 1.0133803 -2.4604244 -3.9070463 -1.9753817 1.3558474 12.511084 -3.2796764 2.041984 0.12254153 -6.2173877 1.3450066 -1.9860127 6.7809005 -5.1994267 -2.1022985 5.534825 1.4092399 0.37768608 -2.851412 -0.38598394 3.2448943 4.519441 1.2780192 1.2441146 0.2554913 -0.5562216 0.48584503 0.6949131 -3.3386817 5.3626356 1.2827863 0.4062167 -2.9263344 1.2111688 9.742979 4.728892 -2.0314748
*dt_3 3.055223 -0.394563 6.684834 -3.7800484 0.7741954 -0.15649432 -0.3134308 -2.3466368 1.997377 2.3838556 2.1372278 6.9181814 3.1540167 0.023482397 -4.031981 9.101345 1.0545006 2.8115134 0.492768 4.9513903 -5.7125316 -0.21883608 -0.7967355 -6.128871 -0.009436273 1.8327703 6.0749483 -1.7321723 0.11186502 1.4801036 -5.159029 2.4385881 -0.62051105 3.9305172 -0.10501598 1.0820411 -5.8034015 -0.83743095 0.25082576 1.2400591 -1.5341275 -2.7740211 -1.4536339 6.621275 0.4195597 -3.5787473 -1.1379453 -1.4975499 -3.4537745 -4.772023 6.317075 -4.4020815 -1.7940671 4.9048386 -1.0926468 1.7405318 -2.2193067 0.9328064 -1.9734885 -2.2871177 -2.171353 7.4129615 -0.32587615 0.9132159 -0.7056571 -1.4131384 -0.6397585 1.9429642 9.215749 -1.658733 2.124574 -1.7428287 -6.5584126 0.53140277 -1.4988841 7.2094426 -5.391136 -4.0723367 5.583554 2.5295398 -1.2984662 -1.5026792 -1.0563402 4.7172112 5.4327664 0.07631833 0.6949676 0.83048314 0.52780145 -2.4666996 1.2633086 -3.5349329 3.5206497 1.1727592 -0.22284955 -0.254705 2.2874346 10.556962 3.6917758 -2.9131544
*dt_4 2.4999158 -1.8090533 6.2209587 -5.844695 1.57338 1.211799 0.53401864 -2.7263732 3.878503 2.843013 2.5345702 7.7366753 4.0293193 -1.9599138 -6.0232506 9.638961 1.0546361 2.399097 0.771805 5.076403 -5.918397 -0.9060341 0.0074398103 -6.7634583 -1.548006 2.209358 6.071176 -2.118907 -1.1423172 3.9676204 -2.8867562 3.594318 -1.6402345 4.688909 0.15160218 1.320115 -4.639301 0.01161769 0.72807664 1.6853813 -0.9990091 -2.713658 -2.1588907 6.3446503 1.5442616 -2.1719382 1.8263955 -2.9457943 -2.5135434 -5.2330384 6.381929 -5.5192337 -2.2632265 5.126521 -1.744783 1.0523492 -0.9694072 0.14622712 0.11364391 -1.2368177 -0.27694923 5.137129 -0.1160428 2.221514 -1.7094021 -3.4973066 -0.091931686 2.2100048 10.619112 -3.69215 3.3294408 -0.31426075 -5.1126976 1.0516036 -0.9974987 8.762552 -6.5914965 -4.0801783 4.8360076 0.8904656 -0.55344075 -1.4461708 -1.7749417 3.0961993 6.7133875 -0.05649622 0.26914686 -0.84503967 1.8253495 0.96572334 0.117014065 -3.2994795 6.1105237 1.2878126 -0.4294877 -1.5674905 1.8868252 10.903276 2.8229752 -3.1038728
